
\data\
ngram 1=2634
ngram 2=6620

\1-grams:
-3.926497	"@@"	-0.07414193
-3.926497	"@@@	-0.08582394
-3.926497	"etree	-0.08536059
-3.926497	"fort	-0.08592685
-3.926497	"frac_between_@@_and_@@"	-0.08033499
-3.926497	"green	-0.08592685
-3.625467	"green-chinese-word-n"	-0.06673157
-3.926497	"history	-0.07292445
-3.926497	"lift"	-0.08401921
-3.926497	"must-use"	-0.08592685
-3.926497	"no	-0.08592685
-3.926497	"non-pribumi"	-0.08530907
-3.926497	"rb"	-0.08033499
-3.926497	"rb-"	-0.08592685
-3.926497	"rule-based	-0.08592685
-3.926497	"sausage	-0.08592685
-3.926497	"save"	-0.05644839
-3.926497	"simple	-0.08592685
-3.926497	"state"	-0.08324346
-3.926497	"typical"	-0.08582394
-3.926497	"virtual	-0.08592685
-3.926497	"virtual"	-0.08582394
-3.926497	##	-0.08587539
-2.972254	###	-0.4892226
-3.926497	#@	-0.07414193
-3.926497	#@,	-0.05644839
-3.926497	#chinese	-0.08577248
-3.926497	#english	-0.08587539
-3.926497	'people's	-0.08587539
-3.926497	($us	-0.08592685
-3.926497	('kkn'	-0.08173972
-3.926497	(*)	-0.05644839
-3.926497	(@:@@pm)	-0.06785927
-3.926497	(@@	-0.08561806
-3.324437	(@@@@	-0.4832206
-3.926497	(@@@@),	-0.05644839
-3.926497	(@@@@-@@).	-0.08592685
-3.625467	(@@@@-@@@@)	-0.1670896
-3.625467	(@@@@-@@@@).	-0.03702559
-3.625467	(a	-0.08582393
-3.926497	(actually,	-0.08401921
-3.926497	(aka	-0.08592685
-3.926497	(also	-0.08592685
-3.324437	(and	-0.08007436
-3.926497	(at	-0.08556658
-3.926497	(bahasa	-0.08592685
-3.926497	(bank	-0.08592685
-3.926497	(before	-0.08572102
-3.926497	(bj)	-0.08561806
-3.926497	(bps)	-0.07414193
-3.926497	(bulog	-0.08592685
-3.324437	(but	-0.08194745
-3.926497	(by	-0.08577248
-3.926497	(c_@@	-0.08592685
-3.926497	(c_@@@@@)	-0.08587539
-3.625467	(called	-0.1741961
-3.926497	(celebes),	-0.08592685
-3.926497	(cultuurstelsel),	-0.08582394
-3.926497	(currently	-0.05644839
-3.926497	(derivationforestem)	-0.06785927
-3.926497	(distinctions	-0.08376078
-3.926497	(dpd)/provinces	-0.08582394
-3.926497	(dpr)/people	-0.08582394
-3.926497	(dpr,	-0.08592685
-3.926497	(especially	-0.08525755
-3.926497	(even	-0.08592685
-3.926497	(except	-0.08033499
-3.449376	(for	-0.08412255
-3.625467	(formerly	-0.08551508
-3.926497	(franz	-0.08484516
-3.449376	(from	-0.08561807
-3.926497	(gam,	-0.05644839
-3.926497	(gdp)	-0.08484516
-3.926497	(i	-0.08582394
-3.926497	(i've	-0.08592685
-3.926497	(if	-0.0854636
-3.926497	(imo):	-0.06785927
-3.926497	(important!)	-0.07855958
-3.625467	(indonesian:	-0.08587538
-3.926497	(instead	-0.07292445
-3.926497	(iptn)	-0.08592685
-3.926497	(irian	-0.08587539
-3.926497	(islamic	-0.08592685
-3.449376	(jawa	-0.08536059
-3.926497	(july	-0.08592685
-3.324437	(kalimantan	-0.08520603
-3.926497	(kepulauan	-0.08592685
-3.926497	(krakatoa),	-0.08499985
-3.926497	(like	-0.07876883
-3.926497	(locally	-0.08572102
-3.926497	(majelis	-0.08587539
-3.926497	(maluku	-0.08582394
-3.926497	(mine,minc),(mine,maxc),(maxe,maxc),(maxe,minc)	-0.08587539
-3.926497	(mpr)	-0.08592685
-3.926497	(must	-0.08236258
-3.926497	(napoleon's	-0.08520602
-3.926497	(new	-0.08592685
-3.926497	(nonconstituentleafrules);	-0.08324346
-3.449376	(not	-0.08484517
-3.926497	(note:	-0.08561806
-3.926497	(now	-0.08561806
-3.926497	(nu).	-0.08582394
-3.625467	(nusa	-0.1740932
-3.625467	(of	-0.08494829
-3.926497	(old)	-0.08582394
-3.625467	(on	-0.05633826
-3.926497	(one	-0.07292445
-3.926497	(or	-0.08453561
-3.926497	(pre-ghkm)	-0.08494829
-3.926497	(probably	-0.08561806
-3.926497	(ranked	-0.08572102
-3.926497	(ref	-0.08499985
-3.625467	(shared	-0.1716677
-3.926497	(shouldn't	-0.08236258
-3.926497	(since	-0.08376078
-3.625467	(south	-0.1612452
-3.227527	(sulawesi	-0.0851545
-3.926497	(sulawesi),	-0.07414193
-3.449376	(sumatera	-0.08536059
-3.926497	(tagged)	-0.08566955
-3.926497	(that	-0.08587539
-3.926497	(that's	-0.08566955
-3.449376	(the	-0.08463883
-3.926497	(they	-0.08484516
-3.625467	(this	-0.1700604
-3.926497	(though	-0.08577248
-3.926497	(to	-0.08592685
-3.926497	(transmigrasi)	-0.07488133
-3.926497	(untaet).	-0.05644839
-3.926497	(us	-0.08592685
-3.926497	(usable	-0.08520602
-3.926497	(voc),	-0.07855958
-3.324437	(we	-0.08443239
-3.926497	(we've	-0.084742
-3.926497	(what	-0.08587539
-3.926497	(when	-0.08494829
-3.227527	(which	-0.06999919
-3.926497	(within	-0.05644839
-3.926497	(wrt	-0.06785927
-3.926497	(you	-0.08561806
-2.435135	*	-0.08662318
-3.926497	*[b-@).	-0.08484516
-3.926497	*np*(cd(@),nn(billion))	-0.08443239
-3.625467	+	-0.08582393
-3.926497	,	-0.08582394
-2.584074	-	-0.02859583
-3.926497	--	-0.08592685
-2.847316	->	-0.2567563
-3.081399	...	-0.08339872
-3.926497	.@	-0.08582394
-3.926497	/	-0.08587539
-3.227527	:)	-0.2602313
-1.388678	</s>
-3.926497	<=	-0.08592685
-99	<s>	-0.2882202
-3.926477	<unk>
-3.324437	=	-0.05622812
-3.926497	=@	-0.08577248
-3.625467	>@	-0.08572101
-3.148345	@	-0.08251816
-3.227527	@%	-0.1054932
-3.926497	@+@	-0.08484516
-3.926497	@+@+@	-0.08484516
-3.625467	@+@+@+@+@+@	-0.1731659
-3.926497	@,	-0.08592685
-3.625467	@,@@@	-0.08293276
-3.926497	@,cd(@),@,cd(billion),@	-0.08536059
-3.926497	@-length	-0.08592685
-2.495133	@.	-0.06155983
-3.926497	@.)	-0.08484516
-3.625467	@.@%	-0.07287143
-3.926497	@.@@	-0.08592685
-3.926497	@/@	-0.08360565
-3.081399	@@	-0.1337156
-3.926497	@@%	-0.07292445
-3.625467	@@,	-0.1735267
-3.324437	@@,@@@	-0.07297746
-3.926497	@@.@	-0.08566955
-3.926497	@@.@%	-0.08592685
-3.926497	@@.@@	-0.08484516
-3.023407	@@@	-0.2197465
-3.926497	@@@,	-0.07414193
-3.449376	@@@,@@@	-0.570767
-2.421347	@@@@	-0.05860452
-3.926497	@@@@)	-0.07414193
-3.625467	@@@@),	-0.08572101
-2.750406	@@@@,	-0.2413395
-3.926497	@@@@-year-old	-0.08556658
-2.847316	@@@@.	-0.102474
-3.926497	@@@@;	-0.08587539
-3.449376	@@@@s	-0.1308783
-3.625467	@@@@s,	-0.08339871
-3.227527	@@th	-0.1536967
-3.926497	@@th-century	-0.08582394
-3.926497	@th	-0.07488133
-3.926497	[@]).	-0.05644839
-3.926497	[@],	-0.05644839
-3.324437	[@].	-0.0281847
-3.926497	[n-@,n].	-0.06785927
-1.771161	a	-0.08968484
-3.926497	a(b,rb-x(x,y),c)	-0.08592685
-3.926497	a(b,x,y,c)	-0.08033499
-3.926497	a[@-@),b[@-@)	-0.0854636
-3.926497	ab	-0.08592685
-3.926497	abangan,	-0.08556658
-3.926497	abbreviation)	-0.08499985
-3.625467	abdulrahman	-0.1740932
-3.926497	abdurrahman	-0.08577248
-3.625467	able	-0.07482855
-3.926497	abolished,	-0.07414193
-2.926497	about	-0.06383397
-3.926497	above.	-0.06785927
-3.926497	abrahamic	-0.08592685
-3.926497	abuses	-0.08303636
-3.926497	academia	-0.06785927
-3.926497	accepted	-0.08303636
-3.926497	accepts	-0.08592685
-3.926497	according	-0.07488133
-3.926497	accountability	-0.08592685
-3.148345	aceh	-0.05241047
-3.926497	aceh*,	-0.08582394
-3.926497	aceh,	-0.08577248
-3.926497	aceh.	-0.06785927
-3.926497	acehnese	-0.08499985
-3.926497	acknowledged	-0.05644839
-3.449376	acquisition	-0.0682881
-3.449376	across	-0.1127396
-3.926497	activity	-0.08173972
-3.227527	actual	-0.0842775
-3.449376	actually	-0.08556659
-3.926497	ad	-0.07488133
-3.625467	ad-hoc	-0.08561806
-3.926497	ad.	-0.06785927
-3.926497	add	-0.05644839
-3.926497	added	-0.08303636
-3.926497	adding	-0.08479359
-3.625467	addition	-0.163202
-3.926497	additional	-0.08561806
-3.926497	adjacent	-0.08443239
-3.926497	administered	-0.08572102
-3.625467	administration	-0.07876883
-3.625467	administrative	-0.08587538
-3.926497	adopted	-0.05644839
-3.926497	advantage	-0.08033499
-3.926497	advantage:	-0.08541209
-3.926497	affairs	-0.06785927
-3.926497	affecting	-0.08592685
-2.780369	after	-0.1409624
-3.926497	aftermath	-0.07292445
-2.847316	against	-0.1593255
-3.926497	ages	-0.05644839
-3.926497	aging	-0.08582394
-3.625467	ago	-0.06780563
-3.625467	ago,	-0.1738873
-3.625467	agreed	-0.163202
-3.926497	agreement	-0.06785927
-3.926497	agreement,	-0.08587539
-3.926497	agricultural	-0.08592685
-3.926497	agung	-0.08592685
-3.926497	aiming	-0.07488133
-3.625467	aircraft	-0.08587538
-3.926497	alarmed	-0.08572102
-3.625467	algorithm	-0.08329521
-3.926497	algorithm,	-0.08376078
-3.926497	align	-0.08577248
-3.449376	aligned	-0.07361302
-3.148345	alignment	-0.07149087
-3.324437	alignments	-0.09621486
-2.926497	all	-0.0847257
-3.926497	all)	-0.08484516
-3.926497	all),	-0.08577248
-3.449376	alleged	-0.139982
-3.926497	allegedly	-0.08592685
-3.926497	alleviate	-0.08577248
-2.885104	allow	-0.0474924
-3.625467	allowed	-0.07735445
-3.625467	allowing	-0.08577248
-3.625467	allows	-0.08561806
-3.926497	almost	-0.08592685
-3.926497	alone	-0.08484516
-3.926497	alone,	-0.08587539
-3.926497	along	-0.08334697
-3.081399	already	-0.08546361
-3.926497	already):	-0.06785927
-2.546286	also	-0.1102293
-3.926497	also,	-0.08551509
-3.926497	also:	-0.08587539
-3.926497	altemp	-0.08572102
-3.449376	alternative	-0.0849483
-3.926497	alternatives	-0.06785927
-3.081399	although	-0.07575552
-3.081399	always	-0.07735446
-3.926497	ambiguity	-0.07292445
-3.926497	ambiguously	-0.08592685
-3.926497	ambon,	-0.08556658
-3.926497	amid	-0.08587539
-3.926497	among	-0.05644839
-3.926497	amplified	-0.08303636
-2.435135	an	-0.09139641
-1.570471	and	-0.07437403
-3.926497	and,	-0.08334697
-3.926497	and/or	-0.08587539
-3.926497	anglo-dutch	-0.08587539
-3.926497	angry	-0.08587539
-3.926497	animist	-0.06785927
-3.926497	annexation	-0.07292445
-3.926497	annotated/aligned	-0.08566955
-3.926497	announced	-0.08556658
-3.926497	announcement	-0.07292445
-3.625467	another	-0.1739903
-3.926497	anti-communist	-0.08592685
-2.926497	any	-0.08585741
-3.926497	anynonterminal[@-b)	-0.08577248
-3.625467	anything	-0.08324345
-3.926497	anything;	-0.08033499
-3.926497	anyway	-0.07876883
-3.926497	anyway).	-0.06785927
-3.926497	api	-0.08556658
-3.926497	applied	-0.08577248
-3.227527	apply	-0.09977554
-3.926497	applying	-0.07855958
-3.926497	appointed	-0.08246631
-3.926497	appoints	-0.07855958
-3.625467	approach	-0.07845492
-3.449376	appropriate	-0.0854121
-3.449376	approximately	-0.1424602
-3.625467	approximation	-0.07260628
-3.926497	approximation;	-0.08484516
-3.926497	arabic	-0.08173972
-3.926497	arabs	-0.08582394
-3.625467	arbitrary	-0.08453561
-3.926497	archeological	-0.08592685
-3.926497	archipelagic	-0.08577248
-3.324437	archipelago	-0.08358341
-3.625467	archipelago,	-0.05611791
-3.926497	archipelago.	-0.06785927
-2.263739	are	-0.05856379
-3.926497	are,	-0.08566955
-3.926497	are:	-0.08592685
-3.148345	area	-0.1084739
-3.148345	areas	-0.04928724
-3.926497	armed	-0.08587539
-3.926497	army	-0.08582394
-3.625467	army,	-0.08401921
-3.926497	army.	-0.06785927
-3.449376	around	-0.05589747
-3.449376	arrival	-0.5579704
-3.926497	arrived	-0.07876883
-3.625467	art	-0.08587538
-3.449376	article:	-0.08556659
-3.926497	articles:	-0.08572102
-2.093988	as	-0.1771409
-3.926497	as-is	-0.06785927
-3.926497	asean+@	-0.07414193
-3.324437	asia	-0.05440648
-3.926497	asia.	-0.06785927
-3.227527	asian	-0.1069241
-3.926497	ask	-0.08422585
-3.926497	aspects	-0.07292445
-3.926497	assembly',	-0.08587539
-3.926497	assembly)	-0.07414193
-3.926497	assessing	-0.0854636
-3.926497	assigning	-0.07855958
-3.926497	associate	-0.0854636
-3.926497	association	-0.07292445
-3.926497	assumed	-0.08033499
-3.926497	assumed,	-0.08572102
-2.647743	at	-0.1851497
-3.625467	attempt	-0.08438075
-3.926497	attempted	-0.07488133
-3.926497	attempting	-0.07488133
-3.926497	attribute	-0.08324346
-3.625467	attributes	-0.1715642
-3.926497	audience	-0.06785927
-3.625467	august	-0.08422584
-3.926497	australasia,	-0.08246631
-3.926497	australia,	-0.08484516
-3.926497	australia.	-0.06785927
-3.926497	australian,	-0.08577248
-3.926497	automatically	-0.08592685
-3.926497	autonomous	-0.08577248
-3.926497	autonomy	-0.08412254
-3.625467	available	-0.07127808
-3.926497	average	-0.08592685
-3.926497	awarded	-0.07488133
-3.926497	aware	-0.07292445
-3.926497	away	-0.08587539
-3.625467	awful	-0.077774
-3.926497	awkwardly	-0.08592685
-3.625467	b	-0.06511549
-3.926497	bacharuddin	-0.08592685
-3.148345	back	-0.2857248
-3.926497	backed	-0.08303636
-3.926497	backlash	-0.08536059
-3.926497	bad	-0.08443239
-3.926497	bad:	-0.08592685
-3.625467	bahasa	-0.1718746
-3.926497	bali	-0.08592685
-3.449376	bali,	-0.07398333
-3.926497	bali.	-0.06785927
-3.625467	balinese	-0.08582393
-3.449376	bambang	-0.142666
-3.926497	bandung,	-0.08592685
-3.926497	bangka-belitung,	-0.08592685
-3.625467	bank	-0.0704259
-3.926497	banten,	-0.08592685
-3.148345	barat),	-0.2616646
-3.926497	baru	-0.08592685
-2.926497	based	-0.1859443
-3.926497	baseline	-0.07488133
-3.926497	baseline,	-0.08376078
-3.926497	basically	-0.08438076
-3.926497	basis	-0.08551509
-3.926497	batak	-0.06785927
-3.926497	batavian	-0.08572102
-3.926497	batik,	-0.08592685
-3.926497	bbn	-0.08592685
-3.926497	bc	-0.08303636
-2.081399	be	-0.09745657
-3.926497	be.	-0.06785927
-3.926497	be:	-0.06785927
-3.081399	became	-0.2265528
-3.324437	because	-0.06743003
-3.081399	become	-0.07173477
-3.926497	becomes	-0.08592685
-3.227527	been	-0.0855151
-3.625467	before	-0.05479351
-3.926497	before)	-0.06785927
-3.926497	began	-0.07855958
-3.081399	being	-0.2022738
-3.449376	beliefs	-0.05782267
-3.926497	belonging	-0.07488133
-3.926497	below	-0.08484516
-3.625467	bencoolen	-0.1741961
-3.926497	bengkulu,	-0.08592685
-3.926497	best	-0.07488133
-3.926497	best,	-0.08592685
-3.625467	better	-0.07798363
-2.780369	between	-0.05510989
-3.926497	bicameral	-0.08592685
-3.926497	bicontinental	-0.08592685
-3.625467	billion	-0.07871652
-3.926497	billion")),x@)	-0.08033499
-3.926497	billion)	-0.06785927
-3.926497	billion,	-0.08551509
-3.625467	binarizer	-0.07482855
-3.926497	bitter	-0.08592685
-3.324437	bj	-0.4939573
-3.926497	bloc	-0.06785927
-3.625467	bloody	-0.08577248
-3.926497	blue	-0.08536059
-3.926497	bob	-0.08592685
-3.625467	body	-0.08153189
-3.926497	bogor	-0.08592685
-3.926497	bonjol	-0.06785927
-3.926497	book	-0.06785927
-3.926497	boost	-0.08536059
-3.926497	boosting	-0.05644839
-3.926497	bordered	-0.08303636
-3.926497	borders	-0.08572102
-3.926497	born	-0.07876883
-3.926497	borne	-0.08592685
-3.625467	borneo	-0.08577248
-3.625467	borneo,	-0.05363133
-3.926497	botanical	-0.08592685
-3.227527	both	-0.0894334
-3.926497	both)	-0.06785927
-3.926497	boundaries	-0.08525755
-3.625467	boundary	-0.08412254
-3.926497	break	-0.08334697
-3.926497	breakdown	-0.08173972
-3.926497	brief	-0.08587539
-3.449376	british	-0.08561807
-3.625467	british,	-0.05639333
-3.926497	broader	-0.08582394
-3.926497	brought	-0.08592685
-3.926497	brunei),	-0.08479359
-3.926497	buddhism	-0.06785927
-3.625467	buddhism,	-0.07366592
-3.625467	buddhist	-0.06769834
-3.926497	budget	-0.08592685
-3.926497	build	-0.08541209
-3.926497	building	-0.07855958
-3.625467	buildings	-0.06495355
-3.449376	built	-0.08530908
-3.926497	bureau	-0.08592685
-3.926497	burned	-0.08577248
-3.926497	bush,	-0.05644839
-3.926497	business	-0.08592685
-3.926497	business,	-0.08592685
-2.584074	but	-0.05278268
-3.625467	but,	-0.08355392
-2.170622	by	-0.2724215
-3.926497	c	-0.07414193
-3.625467	c+e	-0.08541209
-3.926497	c->e	-0.08572102
-3.148345	c-e	-0.1110974
-3.926497	c-entity	-0.07488133
-3.449376	c@	-0.08572102
-3.926497	c@"	-0.08587539
-3.081399	c_@	-0.524725
-3.324437	c_@@	-0.1273826
-3.926497	c_@@@@	-0.08561806
-3.081399	c_@@@@@	-0.4402441
-3.926497	c_@@@@@)	-0.08592685
-3.926497	california	-0.07414193
-3.625467	call	-0.1447691
-3.324437	called	-0.09798186
-3.625467	came	-0.07803602
-3.926497	campaign	-0.07876883
-2.750406	can	-0.4788478
-3.926497	can't	-0.08582394
-3.926497	candidate	-0.08515449
-3.926497	candidates,	-0.08303636
-3.926497	canonical	-0.08582394
-3.324437	capital	-0.1093491
-3.926497	capitalize	-0.0854636
-3.625467	captured	-0.08438075
-3.926497	cardinals	-0.08592685
-3.926497	care	-0.0854636
-3.926497	careful,	-0.08525755
-3.926497	case	-0.07292445
-3.926497	case)	-0.08587539
-3.926497	cases,	-0.08572102
-3.926497	cases?).	-0.08401921
-3.926497	catholic,	-0.07414193
-3.926497	caused	-0.08303636
-3.625467	cd(@)	-0.1736813
-3.926497	cd(@),cd(billion)	-0.08551509
-3.625467	cd(billion)	-0.1736813
-3.926497	cd(billion))	-0.08536059
-3.926497	celebes	-0.06785927
-3.926497	celebes,	-0.05644839
-3.625467	census,	-0.08427748
-2.972254	central	-0.1198857
-3.324437	century	-0.06710781
-3.625467	century,	-0.0562281
-3.324437	certain	-0.08499986
-3.926497	chalking	-0.08566955
-3.926497	chamber	-0.07876883
-3.926497	character-based	-0.08592685
-3.926497	characterized	-0.08582394
-3.926497	charismatic),	-0.08572102
-3.449376	chart	-0.07530329
-3.926497	chart,	-0.07855958
-3.926497	chartered	-0.08592685
-3.926497	check	-0.08525755
-3.926497	checking	-0.08033499
-3.926497	chief	-0.07292445
-3.926497	child	-0.08499985
-3.926497	children,	-0.08592685
-3.926497	china	-0.08587539
-3.926497	china,	-0.08592685
-2.449376	chinese	-0.08301695
-3.926497	chinese-entity/english-sentence	-0.08592685
-3.926497	chinese-owned	-0.08587539
-3.926497	chinese-rb-translations	-0.08592685
-3.926497	chinese-syntactic	-0.08582394
-3.081399	choose	-0.07100482
-3.926497	chooses,	-0.08561806
-3.926497	choosing	-0.0854636
-3.926497	chose	-0.08582394
-3.625467	christian	-0.08432912
-3.926497	christianity	-0.07414193
-3.926497	churches	-0.07414193
-3.926497	cia	-0.08592685
-3.625467	cities	-0.07047921
-3.926497	cities,	-0.08499985
-3.625467	citizens	-0.15618
-3.926497	citizens,	-0.08556658
-3.625467	city	-0.1612452
-3.926497	city,	-0.08401921
-3.926497	civilians	-0.06785927
-3.926497	claims	-0.07876883
-3.227527	class	-0.04569012
-3.926497	class-based	-0.08592685
-3.926497	classification	-0.08592685
-3.926497	classifier	-0.08412254
-3.926497	classifier/recognizer	-0.07414193
-3.926497	classify	-0.08246631
-3.926497	clearly	-0.08592685
-3.926497	climate	-0.06785927
-3.625467	close	-0.07451178
-3.926497	close,	-0.08566955
-3.926497	closely	-0.08587539
-3.926497	cloth.	-0.06785927
-3.926497	clustering	-0.07292445
-3.926497	co-operated	-0.08334697
-3.449376	code	-0.05606283
-3.926497	coffee,	-0.08582394
-3.926497	collaborate	-0.08334697
-3.926497	collaborated	-0.08334697
-3.926497	collapse	-0.07292445
-3.926497	colleagues	-0.08592685
-3.926497	collecting	-0.05644839
-3.926497	collins	-0.08556658
-3.926497	collins-)standard	-0.08520602
-3.926497	collusion,	-0.07414193
-3.625467	colonial	-0.08520602
-3.625467	colonies	-0.05424048
-3.926497	colonized	-0.08303636
-3.926497	colony	-0.07292445
-3.926497	colony,	-0.07414193
-3.926497	colony.	-0.06785927
-3.926497	combination	-0.07292445
-3.926497	combine	-0.08592685
-3.926497	come	-0.0854636
-3.926497	coming	-0.06785927
-3.926497	commander	-0.08592685
-3.926497	commander-in-chief	-0.07292445
-3.926497	commission	-0.08582394
-3.926497	committee	-0.07488133
-3.227527	common	-0.08530908
-3.926497	commonly	-0.08577248
-3.926497	communal	-0.08582394
-3.625467	communist	-0.08587538
-3.926497	communities	-0.06785927
-3.227527	community	-0.09653613
-3.926497	community,	-0.08592685
-3.926497	company	-0.08592685
-3.625467	compete	-0.08587538
-3.625467	complete	-0.08303635
-3.926497	completely	-0.08592685
-3.625467	complex	-0.06748369
-3.625467	complexity	-0.07408906
-3.926497	complicated	-0.08484516
-3.926497	component	-0.08592685
-3.625467	comprising	-0.1447691
-3.926497	conceived	-0.0854636
-3.926497	concentrated	-0.08334697
-3.926497	condemnation	-0.08033499
-3.926497	condition	-0.08319169
-3.926497	conditioned	-0.08319169
-3.926497	conference	-0.06785927
-3.926497	confidence"	-0.08525755
-3.926497	confirm	-0.08401921
-3.449376	conflict	-0.08303636
-3.926497	conflicting	-0.08592685
-3.625467	conflicts	-0.08427748
-3.926497	conflicts,	-0.08572102
-3.926497	confrontation	-0.08536059
-3.926497	confusingly	-0.08572102
-3.926497	congress	-0.08592685
-3.324437	consecutive	-0.08561807
-3.926497	consider	-0.05644839
-3.625467	considered	-0.08587538
-3.926497	considers	-0.07855958
-3.625467	consisting	-0.1612452
-3.926497	consists	-0.07292445
-3.148345	constituent	-0.07154404
-3.926497	constituent).	-0.08484516
-3.449376	constituent,	-0.1408613
-3.926497	constituent-forcing	-0.08587539
-3.926497	constituent?	-0.08582394
-3.148345	constituents	-0.05661353
-3.926497	constituents):	-0.06785927
-3.625467	constituents,	-0.08360564
-3.926497	constitute	-0.08572102
-3.926497	constituting	-0.07855958
-3.926497	constitutional	-0.08592685
-3.926497	constrain	-0.05644839
-3.926497	constrains	-0.05644839
-3.625467	consultative	-0.08587538
-3.926497	contain	-0.08592685
-3.449376	context	-0.07472301
-3.926497	context)	-0.06785927
-3.926497	context,	-0.08556658
-3.926497	context.	-0.06785927
-3.926497	context/domain	-0.06785927
-3.926497	contexts	-0.08246631
-3.926497	control	-0.06785927
-3.926497	convention	-0.07292445
-3.926497	cooperation	-0.07414193
-3.926497	copper	-0.07414193
-3.625467	corpora	-0.08225883
-3.227527	corpus	-0.08655947
-3.926497	corpus)	-0.07488133
-3.926497	corpus),	-0.07414193
-3.227527	corpus,	-0.1014398
-3.926497	corpus.	-0.06785927
-3.926497	correct	-0.08582394
-3.926497	correspond	-0.07488133
-3.926497	corresponding	-0.07488133
-3.449376	corruption	-0.1308783
-3.926497	corruption,	-0.08592685
-3.081399	cost	-0.03082088
-3.926497	cost).	-0.06785927
-3.926497	cost,	-0.07414193
-3.926497	cost?	-0.06785927
-3.926497	costing	-0.08592685
-3.625467	costs	-0.08028287
-2.584074	could	-0.14455
-3.926497	could,	-0.08566955
-3.324437	council	-0.08839858
-3.926497	council,	-0.08587539
-3.926497	counter	-0.05644839
-3.023407	country	-0.06175642
-3.625467	country's	-0.08546359
-3.926497	country,	-0.08246631
-3.926497	country.	-0.06785927
-3.227527	counts	-0.09669867
-3.926497	coup	-0.08587539
-3.926497	course	-0.05644839
-3.449376	course,	-0.0851545
-3.926497	court	-0.08592685
-3.926497	cover	-0.08499985
-3.926497	cracking	-0.08577248
-3.625467	create	-0.08427748
-3.926497	created	-0.08592685
-3.926497	creating	-0.05644839
-3.926497	creation	-0.07292445
-3.926497	creditors	-0.08572102
-3.926497	crisis	-0.08324346
-3.926497	crisis,	-0.08582394
-3.926497	criticized	-0.08525755
-3.926497	crown.	-0.06785927
-3.449376	crude	-0.1425117
-3.926497	cspan	-0.08592685
-3.625467	cspan=(@,@)	-0.1741961
-3.926497	cspans.	-0.06785927
-3.926497	cstring	-0.07488133
-3.449376	cultivation	-0.1415841
-3.926497	cultural	-0.08582394
-3.926497	culture	-0.07414193
-3.926497	cultures	-0.06785927
-3.625467	current	-0.08469041
-3.926497	current).	-0.08319169
-3.625467	currently	-0.08474199
-3.926497	cut	-0.08582394
-3.926497	cutting	-0.08582394
-3.625467	daerah	-0.08438075
-3.926497	daerah)	-0.08246631
-3.926497	dances,	-0.08033499
-3.926497	data	-0.07488133
-3.926497	data;	-0.08577248
-3.926497	date	-0.07292445
-3.926497	dates	-0.08592685
-3.926497	daughter	-0.07292445
-3.926497	daughters	-0.08324346
-3.625467	dayak	-0.07387754
-3.625467	de	-0.1741961
-3.926497	dead	-0.08587539
-3.926497	dealing	-0.08334697
-3.926497	deaths	-0.08592685
-3.926497	dec	-0.08432913
-3.324437	december	-0.4926684
-3.926497	decide	-0.08319169
-3.926497	decided	-0.07488133
-3.926497	decision),	-0.08577248
-3.926497	decisions	-0.08572102
-3.625467	declare	-0.08525755
-3.324437	declared	-0.09759595
-3.926497	declined	-0.08592685
-2.972254	decoder	-0.1971547
-3.926497	decoder,	-0.08592685
-3.926497	decoder/sblm-transform	-0.08587539
-3.926497	decoder/translation	-0.08525755
-3.926497	decoder/whoever	-0.08484516
-3.324437	decoding	-0.07871427
-3.926497	decoding).	-0.08592685
-3.324437	decoding,	-0.1148435
-3.926497	decreased	-0.08582394
-3.926497	decreasing	-0.08587539
-3.926497	deep	-0.08587539
-3.926497	default	-0.08582394
-3.926497	default,	-0.08443239
-3.926497	defeat	-0.07292445
-3.926497	defer	-0.08561806
-3.926497	deficit	-0.07488133
-3.926497	define	-0.08566955
-3.926497	definitely	-0.08582394
-3.926497	degree	-0.08541209
-3.926497	democracy	-0.08360565
-3.926497	democratic	-0.08572102
-3.625467	demographics	-0.05424048
-3.926497	demonstrations	-0.07414193
-3.449376	densely	-0.1426146
-3.926497	dependencies	-0.08360565
-3.449376	depending	-0.5682377
-3.926497	deputy	-0.08592685
-3.926497	derivation	-0.08577248
-3.926497	described	-0.08592685
-3.926497	described,	-0.08551509
-3.926497	designer	-0.07414193
-3.926497	desirability	-0.08592685
-3.449376	despite	-0.1421512
-3.926497	destroyed	-0.084742
-3.926497	determine	-0.08587539
-3.926497	deterministic	-0.08592685
-3.625467	deterministic,	-0.08546359
-3.926497	devastated	-0.08561806
-3.926497	develop	-0.08587539
-3.926497	development.	-0.06785927
-3.926497	developments	-0.06785927
-3.324437	dewan	-0.4941117
-3.926497	dictator	-0.08566955
-3.926497	died	-0.08577248
-3.926497	differ	-0.08592685
-3.926497	differences	-0.08525755
-2.847316	different	-0.08391587
-3.449376	difficult	-0.07440615
-3.926497	difficulties	-0.06785927
-3.926497	diponegoro	-0.08412254
-3.926497	direct	-0.08587539
-3.926497	directly-elected	-0.08033499
-3.926497	dirgantara	-0.08592685
-3.926497	disadvantage:	-0.08561806
-3.926497	disarmed	-0.08303636
-3.926497	discontent	-0.08592685
-3.625467	discovered	-0.1741961
-3.926497	discoverer	-0.06785927
-3.926497	discussed	-0.08246631
-3.926497	displaying	-0.08551509
-3.926497	dissolved	-0.07876883
-3.926497	distance	-0.08592685
-3.926497	distinct	-0.08577248
-3.926497	distinction	-0.08324346
-3.926497	distinctions	-0.08324346
-3.625467	diverse	-0.08546359
-3.926497	divide	-0.05644839
-3.625467	divided	-0.1737843
-3.926497	divides	-0.08592685
-3.926497	divisions	-0.06785927
-3.081399	do	-0.08282916
-3.926497	do)	-0.06785927
-3.926497	does	-0.08319169
-3.926497	does,	-0.08484516
-3.625467	doesn't	-0.08587538
-3.324437	domestic	-0.08556659
-3.625467	dominant	-0.08572101
-3.926497	dominate	-0.05644839
-3.926497	dominating	-0.05644839
-3.081399	don't	-0.08199936
-3.926497	done	-0.08582394
-3.324437	down	-0.08121999
-3.926497	downfall	-0.07292445
-3.926497	dpd	-0.08246631
-3.625467	dr	-0.1740932
-3.926497	drawing	-0.07488133
-3.449376	due	-0.5599273
-3.926497	duma	-0.08582394
-3.926497	dur)	-0.08246631
-3.148345	during	-0.2745843
-2.750406	dutch	-0.1230924
-3.926497	dwellings	-0.08499985
-3.926497	dwipa	-0.08556658
-3.926497	e	-0.08592685
-3.926497	e)	-0.07414193
-3.926497	e-entity	-0.06785927
-3.926497	e-subtrees	-0.08324346
-3.023407	e.g	-0.9361235
-3.926497	e.g.:	-0.06785927
-3.148345	each	-0.08339871
-3.926497	earlier)	-0.08484516
-3.625467	earliest	-0.08577248
-3.625467	early	-0.1740417
-3.926497	earth's	-0.08587539
-3.926497	earth,	-0.08561806
-3.449376	earthquake	-0.05545624
-3.926497	earthquakes	-0.07414193
-3.926497	easiest	-0.08577248
-2.464099	east	-0.3424475
-3.926497	eastern	-0.08520602
-3.926497	easy	-0.07488133
-3.926497	ecological	-0.08587539
-3.324437	economic	-0.08577249
-3.227527	economy	-0.09864449
-3.926497	edges	-0.07292445
-3.926497	edit	-0.08592685
-3.926497	education	-0.07414193
-3.926497	effect	-0.08319169
-3.926497	effect.	-0.06785927
-3.926497	effectively,	-0.08324346
-3.926497	effort	-0.07488133
-3.625467	elected	-0.07997005
-3.227527	election	-0.08500405
-3.926497	election,	-0.08530907
-3.625467	elections	-0.0786119
-3.926497	elites	-0.08246631
-3.926497	emerging	-0.08592685
-3.926497	empty	-0.08587539
-3.926497	encouraged	-0.08587539
-2.750406	english	-0.09138424
-3.926497	english)	-0.06785927
-3.926497	english,	-0.08376078
-3.926497	english-character-edit-distance	-0.08592685
-3.926497	english-standard	-0.08592685
-3.926497	english-word,	-0.07414193
-3.926497	english?	-0.06785927
-3.926497	enriched	-0.08592685
-3.926497	enrico	-0.08592685
-3.926497	ensure	-0.08324346
-3.926497	entered	-0.08246631
-3.926497	enterprise	-0.08592685
-3.926497	entirely	-0.08422585
-2.972254	entities	-0.1069682
-3.926497	entities).	-0.06785927
-3.625467	entities,	-0.08510295
-2.722377	entity	-0.2403345
-3.926497	entity,	-0.08566955
-3.926497	entity-etrees	-0.08376078
-3.926497	entity-recognition	-0.08587539
-3.926497	entity-region	-0.08577248
-3.926497	entity-sequence?	-0.06785927
-3.926497	entity-translations	-0.08592685
-3.926497	entity-type	-0.08592685
-3.926497	entries	-0.08360565
-3.926497	equator,	-0.08587539
-3.926497	equipment	-0.06785927
-3.926497	equivalent	-0.08582394
-3.926497	er,	-0.05644839
-3.926497	era	-0.06785927
-3.625467	erectus	-0.08469041
-3.926497	erroneous	-0.08592685
-3.926497	errors	-0.07414193
-3.449376	espan	-0.06726895
-3.926497	espan,	-0.08592685
-3.926497	especially	-0.08412254
-3.926497	essentially,	-0.05644839
-3.926497	establish	-0.07855958
-3.926497	established	-0.08319169
-3.926497	esteemed	-0.08592685
-3.449376	estimate	-0.05363135
-3.625467	estimated	-0.07297745
-3.926497	estimates	-0.08360565
-3.926497	estring	-0.08499985
-3.926497	estrings	-0.08592685
-3.926497	ethical	-0.08592685
-2.885104	ethnic	-0.09807461
-3.926497	ethnicity	-0.07414193
-3.081399	etree	-0.07745939
-3.926497	etree,	-0.08592685
-3.625467	etree/cstring	-0.1740417
-3.449376	etrees	-0.07234098
-3.926497	etrees,	-0.08577248
-3.926497	etrees/alignments	-0.08592685
-3.926497	eurasian	-0.08572102
-3.926497	eurasian,	-0.07414193
-3.926497	eurasians	-0.08587539
-3.926497	europe	-0.08443239
-3.926497	europeans	-0.08592685
-3.926497	europeans,	-0.08592685
-3.926497	evaluates	-0.05644839
-3.449376	even	-0.07955263
-3.625467	evenly	-0.0671078
-3.449376	events	-0.06753738
-3.926497	events)	-0.06785927
-3.926497	eventual	-0.08592685
-3.625467	eventually	-0.05639333
-3.227527	every	-0.08365738
-3.926497	everything	-0.08510295
-3.926497	exacerbated	-0.08541209
-3.625467	exact	-0.08582393
-3.625467	exactly	-0.05578719
-3.625467	example	-0.07271236
-3.324437	example,	-0.08469042
-3.926497	example.	-0.06785927
-3.926497	example:	-0.06785927
-3.926497	examples	-0.07292445
-3.625467	except	-0.069091
-3.926497	exchanged	-0.08033499
-3.926497	exist	-0.08319169
-3.449376	existing	-0.08546361
-3.625467	expanded	-0.08484516
-3.926497	expect	-0.08484516
-3.926497	expecting	-0.07855958
-3.926497	experienced	-0.08303636
-3.625467	explicit	-0.08541209
-3.926497	explicitly	-0.08587539
-3.625467	exporter	-0.1612452
-3.926497	expose	-0.08577248
-3.926497	expressed	-0.08592685
-3.926497	expressions	-0.0854636
-3.926497	extensive	-0.08582394
-3.926497	external	-0.08582394
-3.625467	extracting	-0.0560077
-3.926497	extreme,	-0.08536059
-3.926497	facilitated	-0.08303636
-3.926497	factbook	-0.08592685
-3.625467	facto	-0.08541209
-3.625467	fair	-0.163202
-3.926497	faiths	-0.07292445
-3.926497	falls	-0.08592685
-3.926497	false)	-0.08592685
-3.926497	faltering	-0.08572102
-3.926497	familiar	-0.08334697
-3.926497	families	-0.08587539
-3.926497	family	-0.08587539
-3.324437	famous	-0.07965703
-3.625467	far	-0.08241445
-3.926497	fatalities	-0.08582394
-3.926497	fauna	-0.08592685
-3.926497	fears	-0.08587539
-3.926497	feature-based	-0.08592685
-3.926497	features,	-0.07414193
-3.625467	federation	-0.07281841
-3.449376	few	-0.0847936
-3.926497	fields	-0.07414193
-3.926497	fifth	-0.08577248
-3.926497	fighting	-0.08536059
-3.926497	figure	-0.0854636
-3.926497	files	-0.08572102
-3.926497	finally	-0.08592685
-3.625467	financial	-0.08582393
-3.324437	find	-0.0851545
-3.926497	fine	-0.07488133
-3.926497	finer	-0.08520602
-3.023407	first	-0.1016219
-3.926497	five-prong	-0.08592685
-3.625467	five-year	-0.08587538
-3.926497	fleet	-0.07414193
-3.926497	flexible	-0.08587539
-3.926497	flora	-0.07414193
-3.625467	flores	-0.1719264
-3.625467	floresiensis	-0.06748369
-3.926497	follow	-0.07855958
-3.081399	following	-0.4216345
-1.88907	for	-0.1495744
-3.926497	for)	-0.08484516
-3.449376	force	-0.07435332
-3.449376	forced	-0.1315651
-3.625467	forces	-0.07350714
-3.449376	forcing	-0.07709203
-2.972254	foreign	-0.1029783
-3.926497	forests	-0.08246631
-3.625467	form	-0.1612452
-3.926497	formations	-0.07876883
-3.926497	formed	-0.08319169
-3.449376	former	-0.08241446
-3.926497	formerly	-0.08587539
-3.926497	forms	-0.07876883
-3.625467	found	-0.07756427
-3.926497	founding	-0.08577248
-3.926497	four	-0.08592685
-3.926497	fourth	-0.084742
-3.926497	fractionally	-0.08592685
-3.926497	fragment	-0.05644839
-3.926497	fragmented,	-0.08561806
-3.926497	framework	-0.07292445
-3.926497	franca	-0.08033499
-3.625467	free	-0.07456459
-3.926497	free,	-0.08592685
-3.926497	freed	-0.0854636
-3.625467	freedom	-0.07287143
-3.926497	freely	-0.08334697
-3.926497	frequency	-0.07414193
-3.926497	frequent	-0.08592685
-3.926497	frequently	-0.08592685
-3.926497	friends	-0.07414193
-2.370194	from	-0.3055287
-3.926497	fruit	-0.07876883
-3.926497	frustration	-0.08566955
-3.926497	fu	-0.08592685
-3.324437	fuel	-0.1276401
-3.926497	full	-0.08592685
-3.926497	functions,	-0.08561806
-3.926497	fund)	-0.07414193
-3.926497	fundamentalism	-0.07414193
-3.926497	funds,	-0.05644839
-3.625467	further	-0.08438075
-3.926497	future,	-0.08173972
-3.625467	fuzzy	-0.08587538
-3.625467	gam	-0.08137596
-3.926497	garden	-0.08360565
-3.625467	gas,	-0.08566954
-3.926497	geese.	-0.06785927
-3.449376	general	-0.06726895
-3.926497	generalize	-0.08443239
-3.449376	generate	-0.08556659
-3.926497	generated	-0.08556658
-3.926497	generic	-0.08592685
-3.926497	geography	-0.07292445
-3.926497	gerakan	-0.08566955
-3.926497	german	-0.08587539
-3.926497	germane	-0.07488133
-2.812553	get	-0.1411702
-3.926497	gets	-0.08582394
-3.926497	getting	-0.08556658
-3.324437	ghkm	-0.06191956
-3.625467	give	-0.07803602
-3.023407	given	-0.05943273
-3.625467	giving	-0.05589746
-3.625467	giza	-0.1740932
-3.926497	glib:	-0.08536059
-3.926497	global	-0.08592685
-3.625467	going	-0.07456459
-3.926497	gold	-0.06785927
-3.926497	gold-standard	-0.08515449
-3.449376	good	-0.06818093
-3.926497	gorontalo,	-0.08541209
-3.926497	governance	-0.07414193
-3.926497	governed	-0.08303636
-2.647743	government	-0.1586518
-3.449376	governor	-0.06705408
-3.625467	gradually	-0.08582393
-3.926497	grammar	-0.08592685
-3.926497	grammar's	-0.08592685
-3.926497	graph").	-0.08592685
-3.926497	greatly	-0.07876883
-3.926497	greedily	-0.08592685
-3.926497	greek:	-0.08592685
-3.625467	green	-0.1735783
-3.926497	greenruletemplates	-0.08033499
-3.926497	grip	-0.08319169
-3.926497	gross	-0.08577248
-3.926497	group	-0.08324346
-3.148345	groups	-0.08162154
-3.625467	groups.	-0.15618
-3.926497	growing	-0.08515449
-3.926497	growth	-0.06785927
-3.926497	guerrillas	-0.07414193
-3.227527	guinea	-0.06860945
-3.926497	guinea)	-0.07414193
-3.926497	guinea,	-0.084484
-3.926497	gus	-0.08592685
-3.926497	gutierrez,	-0.07855958
-3.926497	guys	-0.08566955
-3.081399	habibie	-0.09547859
-3.926497	habibie's	-0.08592685
-2.885104	had	-0.1617953
-3.926497	half	-0.07292445
-3.926497	hamengkubuwono	-0.08592685
-3.926497	hand	-0.07414193
-3.926497	handling	-0.07488133
-3.926497	happen	-0.08033499
-3.926497	hard	-0.08033499
-3.926497	hard-to-reach	-0.08582394
-3.926497	hardships,	-0.05644839
-3.926497	harmony	-0.08173972
-2.584074	has	-0.05064005
-3.625467	hatta	-0.08225883
-2.382429	have	-0.3506551
-3.926497	having	-0.05644839
-3.227527	he	-0.1151527
-2.926497	head	-0.1956562
-3.926497	head-propagation	-0.08587539
-3.926497	head/tag,	-0.07414193
-3.926497	heading	-0.08566955
-3.926497	health	-0.08577248
-3.926497	heard	-0.08033499
-3.926497	heavily	-0.08592685
-3.926497	heavy	-0.08582394
-3.625467	held	-0.07577748
-3.926497	helped	-0.08592685
-3.926497	helpful	-0.07876883
-3.926497	here?	-0.08453561
-3.625467	heuristic	-0.08577248
-3.926497	hide	-0.08324346
-3.926497	high	-0.0854636
-3.926497	high-precision/confidence	-0.08463882
-3.625467	highest	-0.06775199
-3.926497	highlight	-0.08484516
-3.926497	highly	-0.08592685
-3.926497	himself	-0.07414193
-3.926497	hindering	-0.08551509
-3.023407	hindu	-0.0939611
-3.926497	hindu,	-0.08422585
-3.926497	hindu-influenced	-0.08587539
-3.449376	hinduism	-0.1273746
-3.023407	his	-0.08520602
-3.926497	historical	-0.08592685
-3.926497	history	-0.06785927
-3.926497	hit	-0.08303636
-3.926497	hold	-0.07855958
-3.449376	home	-0.5599273
-3.926497	homeless)	-0.06785927
-3.625467	hominid,	-0.1740417
-3.227527	homo	-0.1548821
-3.625467	hook	-0.1737328
-3.926497	hopefully	-0.08572102
-3.926497	horrific	-0.08587539
-3.926497	houses,	-0.08587539
-3.227527	how	-0.1076114
-3.148345	however,	-0.08179165
-3.324437	human	-0.4941117
-3.926497	hundred	-0.08587539
-3.227527	hundreds	-0.3149323
-3.926497	hyphen;	-0.08592685
-3.926497	hyphens)	-0.08324346
-3.324437	i	-0.1271766
-3.625467	i'd	-0.08577248
-3.324437	i've	-0.08412255
-3.926497	i.e	-0.06785927
-3.926497	id	-0.08582394
-3.926497	idea	-0.06785927
-3.926497	identical	-0.08592685
-3.926497	identification	-0.07414193
-3.926497	identification/segmentation	-0.07292445
-3.324437	identified	-0.123347
-3.324437	identify	-0.1174858
-2.780369	if	-0.1258079
-3.926497	ignores	-0.05644839
-3.625467	ii,	-0.08329521
-3.926497	ikat	-0.07414193
-3.926497	illiteracy,	-0.08561806
-3.926497	imam	-0.08592685
-3.926497	impact	-0.07292445
-3.926497	imperial	-0.08572102
-3.625467	implementing	-0.08386417
-3.449376	important	-0.1370729
-3.926497	important,	-0.05644839
-3.625467	importer	-0.1612452
-3.926497	imposing	-0.08556658
-3.926497	imprisoned	-0.08303636
-1.783482	in	-0.22823
-3.449376	include	-0.08582395
-3.926497	included	-0.08592685
-3.449376	including	-0.08572102
-3.926497	income	-0.08525755
-3.926497	incorrect	-0.08587539
-3.926497	incorrectly	-0.08551509
-3.926497	increase	-0.08572102
-3.625467	increased	-0.05633826
-3.926497	increasing	-0.08592685
-3.926497	indeed	-0.08587539
-2.847316	independence	-0.1441143
-3.926497	independence,	-0.08592685
-3.227527	independent	-0.07010591
-3.926497	independent:	-0.06785927
-3.625467	india	-0.08587538
-3.926497	indian	-0.08592685
-3.926497	indic	-0.08561806
-3.926497	indicate	-0.08536059
-3.926497	indicating	-0.08592685
-3.227527	indies	-0.1358927
-3.926497	indirect	-0.08587539
-3.926497	indisputable	-0.08324346
-3.926497	indo)	-0.08484516
-2.254399	indonesia	-0.2180651
-2.812553	indonesia's	-0.108454
-3.926497	indonesia),	-0.08173972
-3.926497	indonesia).	-0.08484516
-3.324437	indonesia,	-0.1275371
-3.625467	indonesia.	-0.15618
-2.395018	indonesian	-0.1682443
-3.625467	indonesian)	-0.06978565
-3.081399	indonesians	-0.07464238
-3.926497	indonesians,	-0.08541209
-3.926497	indus	-0.08577248
-3.926497	industry	-0.08592685
-3.926497	infinite)	-0.08587539
-3.227527	influence	-0.08617114
-3.625467	influenced	-0.1713571
-3.449376	influences	-0.1295545
-3.625467	influential	-0.07871652
-3.625467	info	-0.08551508
-3.449376	information	-0.08173972
-3.926497	infrequent	-0.08520602
-3.625467	inhabited	-0.1713571
-3.926497	inhabited,	-0.08360565
-3.926497	initial	-0.0854636
-3.926497	initially	-0.08484516
-3.926497	initilaized	-0.08334697
-3.926497	input	-0.08572102
-3.926497	insert	-0.08592685
-3.449376	inside	-0.1423572
-3.926497	inside-costs	-0.07292445
-3.926497	inspiration	-0.06785927
-3.625467	instability	-0.07223479
-3.926497	instance	-0.08246631
-3.625467	instead	-0.06527737
-3.625467	instead,	-0.05617301
-3.926497	instituted	-0.07855958
-3.926497	instrument	-0.05644839
-3.625467	integrate	-0.08551508
-3.926497	integrated	-0.08577248
-3.926497	integrating	-0.08577248
-3.926497	integration	-0.07292445
-3.926497	interact	-0.07876883
-3.926497	interesting	-0.08463882
-3.926497	interior	-0.08566955
-3.926497	intermarriage	-0.08484516
-3.324437	internal	-0.08566955
-3.449376	international	-0.08582395
-3.926497	internationally,	-0.08438076
-2.926497	into	-0.1768114
-3.926497	introduce	-0.08541209
-3.625467	introduced	-0.05268824
-3.926497	invasion,	-0.08561806
-3.625467	investment	-0.1670896
-3.926497	investment,	-0.08499985
-3.926497	invited	-0.08556658
-3.926497	involve	-0.0854636
-3.926497	involving	-0.08587539
-3.926497	ir	-0.06785927
-3.449376	irian	-0.08577249
-3.926497	irrigation	-0.07876883
-2.012683	is	-0.1790068
-3.625467	is,	-0.08556657
-3.148345	islam	-0.0526327
-3.926497	islam,	-0.08499985
-3.449376	islamic	-0.08582395
-3.023407	island	-0.4986744
-3.625467	island,	-0.07356007
-2.750406	islands	-0.05173781
-3.926497	islands)	-0.08173972
-3.625467	islands,	-0.07260628
-3.449376	isn't	-0.07567216
-3.926497	isolated	-0.08566955
-3.926497	issue	-0.08033499
-3.926497	issues	-0.08592685
-2.346713	it	-0.150959
-3.148345	it's	-0.0750396
-3.926497	it:	-0.06785927
-3.324437	items	-0.1243335
-3.926497	items,	-0.07414193
-2.750406	its	-0.08360564
-3.148345	jakarta	-0.1114698
-3.926497	jakarta*,	-0.08592685
-3.926497	jakarta,	-0.08587539
-3.926497	jambi,	-0.08541209
-3.227527	japan	-0.07819317
-3.926497	japan,	-0.05644839
-3.324437	japanese	-0.08484517
-2.696048	java	-0.2282288
-3.926497	java"	-0.08592685
-3.227527	java,	-0.116397
-3.926497	java.	-0.06785927
-3.324437	javanese	-0.4824812
-3.926497	javanese,	-0.08592685
-3.926497	jawa	-0.08592685
-3.625467	jaya	-0.08561806
-3.926497	jaya)	-0.08484516
-3.926497	jaya).	-0.06785927
-3.926497	jointly,	-0.08484516
-3.926497	jonathangraehl	-0.08484516
-3.926497	jones	-0.08494829
-3.926497	jonmay	-0.06785927
-3.926497	july	-0.08520602
-2.625467	just	-0.101141
-3.926497	justified,	-0.0854636
-3.926497	jusuf	-0.08592685
-3.227527	kalimantan	-0.3580114
-3.926497	kalimantan),	-0.08556658
-3.625467	kalimantan,	-0.08546359
-3.324437	keep	-0.04799796
-3.625467	keeping	-0.05628318
-3.625467	kh	-0.1741961
-3.449376	killed	-0.1230895
-3.926497	kind	-0.07292445
-3.449376	kingdom	-0.1223352
-3.449376	kingdoms	-0.06769836
-3.625467	know	-0.08458722
-3.227527	known	-0.3244742
-3.926497	known,	-0.07414193
-3.926497	krakatau	-0.08592685
-3.625467	kulit	-0.08241445
-3.926497	label	-0.08510295
-3.926497	labels	-0.08592685
-3.926497	laborers	-0.08499985
-3.926497	lack	-0.07292445
-3.926497	laksono)	-0.08443239
-3.926497	lampung,	-0.08587539
-3.023407	language	-0.04833466
-3.926497	language,	-0.08422585
-3.926497	languages	-0.08592685
-3.926497	languages/ethnic	-0.08566955
-3.449376	large	-0.08582395
-3.625467	large,	-0.08556657
-3.926497	largely	-0.08587539
-3.926497	larger	-0.08582394
-3.449376	largest	-0.07866423
-3.926497	last	-0.08592685
-3.926497	lasted	-0.08412254
-3.926497	late	-0.08587539
-3.227527	later	-0.06462951
-3.926497	latter's	-0.08592685
-3.148345	lattice	-0.2378529
-3.926497	lattice:	-0.08592685
-3.926497	law)	-0.07876883
-3.449376	lca	-0.06028544
-3.926497	lca,	-0.08556658
-3.625467	lead	-0.163202
-3.148345	leader	-0.2639936
-3.926497	leading	-0.07488133
-3.148345	learn	-0.08153189
-3.926497	learned	-0.08303636
-3.023407	least	-0.08184359
-3.926497	leave	-0.05644839
-3.926497	leaves	-0.07414193
-3.926497	leaving	-0.0854636
-3.449376	led	-0.1287051
-3.625467	left	-0.05479351
-3.926497	leftward	-0.08541209
-3.926497	legacy,	-0.08592685
-3.926497	legal	-0.08587539
-3.625467	legislative	-0.08582393
-3.926497	legislature.	-0.06785927
-3.449376	less	-0.08556659
-3.227527	let	-0.08794354
-3.926497	let's	-0.08453561
-3.926497	lethality	-0.07876883
-3.926497	level,	-0.08484516
-3.227527	lexical	-0.3101438
-3.625467	lhs	-0.08293276
-3.926497	li	-0.08592685
-3.926497	liberal	-0.08587539
-3.926497	library	-0.07292445
-3.926497	lieutenant	-0.08582394
-3.926497	life	-0.06785927
-3.926497	lifestyles	-0.07414193
-3.148345	like	-0.07176861
-3.625467	likely	-0.08587538
-3.926497	likely)	-0.06785927
-3.926497	limited	-0.08561806
-3.625467	line	-0.0810119
-3.926497	lingua	-0.08592685
-3.625467	linguistic	-0.07393043
-3.926497	linguistically	-0.08592685
-3.926497	linked	-0.07488133
-3.324437	list	-0.4812637
-3.625467	lists	-0.1612452
-3.625467	literal	-0.08365736
-3.926497	lives	-0.06785927
-3.926497	lives),	-0.08582394
-3.625467	living	-0.06673157
-3.148345	lm	-0.1118725
-3.926497	lm-competitive	-0.08334697
-3.926497	lobbying,	-0.08572102
-3.449376	local	-0.08530908
-3.625467	located	-0.07803602
-3.625467	location	-0.08308813
-3.926497	lombok,	-0.07414193
-3.926497	long-running	-0.08582394
-3.449376	longer	-0.1391528
-3.926497	look	-0.08499985
-3.625467	looking	-0.07934374
-3.926497	loss	-0.07292445
-3.926497	lost	-0.05644839
-3.926497	low,	-0.08592685
-3.926497	m	-0.08443239
-3.625467	made	-0.08298455
-3.625467	madurese	-0.08510295
-3.926497	madurese,	-0.07414193
-3.227527	main	-0.3101438
-3.449376	mainly	-0.08582395
-3.926497	maintain	-0.07855958
-3.926497	majelis	-0.08587539
-3.023407	major	-0.08427749
-3.926497	makassar,	-0.08556658
-3.148345	make	-0.07397129
-3.926497	makes	-0.08587539
-3.625467	making	-0.1718746
-3.926497	malacca.	-0.06785927
-3.926497	malay	-0.08587539
-3.926497	malay),	-0.08592685
-3.926497	malay,	-0.08556658
-3.227527	malaysia	-0.08550461
-3.926497	malaysia,	-0.07414193
-3.926497	maluku	-0.08592685
-3.625467	maluku,	-0.08577248
-3.926497	man	-0.08484516
-3.926497	mandated	-0.07855958
-3.926497	mandatory.	-0.06785927
-3.926497	manually	-0.08592685
-2.926497	many	-0.09531562
-3.926497	many->one	-0.08592685
-3.625467	map	-0.1612452
-3.926497	mapping	-0.08412254
-3.625467	march	-0.1735267
-3.926497	mark	-0.08541209
-3.625467	marked	-0.08189552
-3.926497	markedly	-0.08525755
-3.926497	marlborough".	-0.06785927
-3.926497	marshall	-0.08582394
-3.926497	martial	-0.08587539
-3.926497	massacred	-0.08572102
-3.625467	massive	-0.08561806
-3.926497	mataram,	-0.08551509
-3.926497	matches	-0.08443239
-3.926497	matches,	-0.08376078
-3.926497	matching	-0.08556658
-3.926497	matching.	-0.06785927
-3.926497	matter	-0.08033499
-3.625467	matters	-0.0634392
-3.926497	maximum	-0.08592685
-2.885104	may	-0.2254272
-3.625467	maybe	-0.08365736
-3.926497	mayor),	-0.07414193
-3.926497	meaning),	-0.0854636
-3.926497	meaningful	-0.08577248
-3.324437	means	-0.08007436
-3.926497	means,	-0.08592685
-3.926497	meant	-0.08324346
-3.926497	medan,	-0.08592685
-3.926497	media,	-0.07414193
-3.324437	megawati	-0.4941117
-3.926497	melanesia	-0.06785927
-3.324437	member	-0.4812637
-3.081399	members	-0.632152
-3.625467	memorize	-0.05512499
-3.926497	mention	-0.07292445
-3.926497	mentioned,	-0.07855958
-3.926497	merdeka	-0.08592685
-3.449376	method	-0.08474201
-3.926497	methods	-0.07414193
-3.926497	methods),	-0.07414193
-3.926497	middle	-0.08592685
-3.926497	middlemen	-0.07414193
-2.972254	might	-0.2141735
-3.926497	migrants	-0.07414193
-3.926497	migration	-0.08592685
-3.023407	military	-0.09311328
-3.625467	militia	-0.06780563
-3.926497	militia.	-0.06785927
-3.148345	million	-0.08843157
-3.926497	mind	-0.08401921
-3.449376	minister	-0.07281843
-3.926497	ministers,	-0.08572102
-3.926497	minority	-0.08592685
-3.926497	ml	-0.08592685
-3.449376	model	-0.07939598
-3.625467	model)	-0.08474199
-3.926497	model,	-0.08592685
-3.926497	models	-0.07414193
-3.926497	modern	-0.08592685
-3.926497	modification	-0.08566955
-3.926497	modified	-0.08592685
-3.625467	modify	-0.1447691
-3.625467	modifying	-0.1447691
-3.926497	modtm	-0.08566955
-3.926497	modtm+modsblm	-0.08484516
-3.926497	modtm+modsblm:	-0.08587539
-3.926497	modtm:	-0.08587539
-3.926497	mohammad	-0.08587539
-3.926497	moluccas,	-0.07414193
-3.926497	monday,	-0.08432913
-3.926497	money	-0.08592685
-3.449376	monolingual	-0.08329523
-2.625467	more	-0.2319425
-3.926497	morning	-0.07292445
-2.546286	most	-0.1810499
-3.449376	mostly	-0.08572102
-3.926497	movement	-0.07414193
-3.926497	movement)	-0.08499985
-3.625467	mpr	-0.08556657
-3.449376	mrs	-0.5529052
-3.227527	much	-0.08355473
-3.926497	multiparty,	-0.08592685
-3.324437	multiple	-0.08474201
-3.926497	multitude	-0.07292445
-3.625467	muslim	-0.08572101
-3.926497	muslim,	-0.08536059
-3.625467	muslim-majority	-0.1740932
-3.625467	muslims	-0.08582393
-3.449376	must	-0.07929152
-3.926497	my	-0.08592685
-3.926497	mystic	-0.08592685
-3.926497	mythological	-0.08582394
-3.926497	mythology	-0.06785927
-3.926497	n	-0.08520602
-3.926497	nadathul	-0.08592685
-3.926497	name,	-0.08587539
-3.625467	named	-0.1734752
-3.926497	named-entity	-0.08592685
-3.227527	names	-0.1112937
-3.625467	names,	-0.07382464
-3.926497	napoleonic	-0.08592685
-3.324437	nation	-0.08839858
-2.972254	national	-0.08376079
-3.926497	nationalists	-0.08577248
-3.625467	nations	-0.1612452
-3.625467	nations,	-0.1624626
-3.926497	nationwide	-0.08592685
-3.324437	native	-0.3906438
-3.926497	natives	-0.07292445
-3.449376	natural	-0.142666
-3.227527	ne	-0.3090099
-3.926497	ne-tagger	-0.08556658
-3.926497	ne-tagger.	-0.06785927
-3.926497	ne-translation	-0.07876883
-3.926497	near-matches	-0.07488133
-3.926497	nearly	-0.08572102
-3.926497	necessarily	-0.08541209
-3.926497	necessary	-0.08551509
-2.972254	need	-0.1780098
-3.926497	needed	-0.07488133
-3.926497	neighbouring	-0.08592685
-3.926497	nepotism	-0.08592685
-3.926497	nes	-0.07876883
-3.926497	nesos	-0.08577248
-3.625467	net	-0.1741961
-3.227527	netherlands	-0.06050368
-3.625467	netherlands'	-0.08582393
-3.926497	netherlands,	-0.08592685
-3.926497	neutrally	-0.08334697
-2.564769	new	-0.1770988
-3.449376	newly	-0.142666
-3.926497	nias	-0.08587539
-3.926497	nice	-0.07488133
-3.926497	nnp	-0.08443239
-2.885104	no	-0.2078835
-3.926497	non-aligned	-0.08592685
-3.926497	non-consecutive-constituent	-0.08582394
-3.926497	non-constituent	-0.08592685
-3.926497	non-head	-0.08592685
-3.926497	non-orthodox,	-0.08592685
-3.625467	non-overlapping	-0.08551508
-3.926497	non-sibling	-0.08566955
-3.926497	nonconstituent	-0.08499985
-3.926497	nonconstituentleafrules	-0.07414193
-3.926497	nonterm	-0.08443239
-3.926497	nonterm)	-0.08033499
-3.449376	nonterminal	-0.07477579
-3.926497	nonterminal);	-0.07488133
-3.926497	nonterminal-splitting	-0.07488133
-3.926497	nonterminal/head/etc	-0.07488133
-3.926497	nonterminal/rule"	-0.08412254
-3.926497	nonterminals	-0.08592685
-3.926497	nonterminals,	-0.08561806
-3.625467	normal	-0.084484
-3.449376	normally	-0.08075169
-3.449376	north	-0.08510296
-3.926497	northern	-0.08582394
-2.479339	not	-0.08164829
-3.625467	not,	-0.08303635
-3.625467	note	-0.08272551
-3.926497	note:	-0.08525755
-3.926497	notice	-0.05644839
-3.227527	now	-0.1093513
-3.449376	now,	-0.08324346
-3.926497	now-vanished	-0.08592685
-3.926497	np(*cd*(@),*nn*(billion),nn(dogs),	-0.07414193
-3.926497	np_geese(cd(@),cd(billion),nns(geese))	-0.08484516
-3.926497	np_geese(rb_num_billion(cd(@),cd(billion),nns(geese)),	-0.08551509
-3.926497	npb	-0.08566955
-3.926497	npb(nnp(hillary),nnp(clinton))	-0.08551509
-3.926497	nps	-0.08334697
-3.926497	nth	-0.08443239
-3.926497	num_@@	-0.08033499
-3.324437	number	-0.4812637
-3.926497	number-writing	-0.08173972
-3.926497	numbers	-0.07414193
-3.449376	numbers/names	-0.06533132
-3.926497	numbers/names,	-0.07414193
-3.926497	numerals	-0.08443239
-3.926497	nurtanio	-0.08587539
-3.625467	nusa	-0.1740932
-3.926497	nxm?	-0.08566955
-3.324437	o	-0.05324326
-3.926497	observers	-0.07414193
-3.625467	occupation	-0.08293276
-3.625467	occupation,	-0.08566954
-3.926497	occupation:	-0.08458722
-3.449376	occupied	-0.08251817
-3.926497	occupiers	-0.06785927
-3.926497	occur)	-0.06785927
-3.926497	occurred	-0.07876883
-3.926497	occurs	-0.08334697
-3.926497	october)	-0.06785927
-1.528557	of	-0.1836714
-3.449376	off	-0.08313993
-3.926497	offered	-0.08592685
-3.926497	office	-0.07876883
-3.926497	officers	-0.08499985
-3.449376	official	-0.08505141
-3.449376	officially	-0.05633827
-3.926497	officials	-0.06785927
-3.449376	often	-0.08546361
-3.449376	oil	-0.05545624
-3.449376	oil,	-0.08334698
-3.324437	old	-0.08453562
-3.926497	old_tree.	-0.06785927
-3.926497	older	-0.08592685
-2.194103	on	-0.2670644
-3.926497	once	-0.08582394
-2.926497	one	-0.1885704
-3.926497	one).	-0.08246631
-3.926497	one-day	-0.08572102
-3.926497	one-time	-0.08592685
-3.926497	one-word	-0.08587539
-3.449376	ones	-0.1320399
-2.750406	only	-0.09482986
-3.926497	opec,	-0.08530907
-3.926497	open-class	-0.08572102
-3.926497	opera	-0.08592685
-3.926497	opportunity	-0.07488133
-3.926497	optimized	-0.08592685
-3.926497	option.	-0.06785927
-2.449376	or	-0.04264468
-3.926497	or,	-0.08582394
-3.926497	orde	-0.08592685
-3.227527	order	-0.2859042
-3.926497	order)	-0.08587539
-3.926497	ordered	-0.08592685
-3.926497	ordinals	-0.08592685
-3.926497	ordinary	-0.08577248
-3.926497	organization	-0.07292445
-3.926497	organization,	-0.08592685
-3.926497	organizational	-0.08572102
-3.625467	original	-0.08587538
-3.926497	originally	-0.07855958
-3.926497	originating	-0.08412254
-3.926497	origins;	-0.08592685
-3.081399	other	-0.06527738
-3.625467	others	-0.0797092
-3.926497	otherwise	-0.08592685
-3.926497	otherwise,	-0.08033499
-3.148345	our	-0.08319169
-3.926497	ousting	-0.05644839
-2.926497	out	-0.1951296
-3.926497	output	-0.06785927
-3.926497	output,	-0.08376078
-3.926497	outright	-0.08587539
-3.449376	outside	-0.0855151
-3.148345	over	-0.2822271
-3.926497	overall.	-0.06785927
-3.926497	overlapping	-0.08592685
-3.926497	overtones,	-0.08592685
-3.926497	overwhelming	-0.08592685
-3.926497	overwhelmingly	-0.08592685
-3.625467	owing	-0.163202
-3.449376	own	-0.08577249
-3.926497	p(e|c)	-0.08572102
-3.926497	pachung,	-0.08592685
-3.926497	pacific	-0.07414193
-3.926497	pacific,	-0.08592685
-3.926497	padri	-0.08556658
-3.926497	pairs	-0.08319169
-3.926497	pairs,	-0.08577248
-3.926497	palembang,	-0.07414193
-3.926497	palm	-0.08582394
-3.023407	papua	-0.2079015
-3.926497	papua*,	-0.08592685
-3.926497	papuan,	-0.08334697
-3.227527	parallel	-0.0855151
-3.449376	parent	-0.1202813
-3.926497	parents/siblings,	-0.08525755
-3.926497	paris	-0.08592685
-3.081399	parliament	-0.1074237
-3.926497	parliament,	-0.08334697
-3.449376	parse	-0.0847936
-3.926497	parse/translation	-0.06785927
-3.926497	parsed	-0.08582394
-3.926497	parsed-to-english	-0.08443239
-3.926497	parser	-0.08484516
-3.449376	parses	-0.07281843
-3.227527	parsing	-0.06907785
-3.926497	parsing,	-0.08561806
-3.625467	part	-0.1612452
-3.926497	part,	-0.08438076
-3.926497	partial	-0.08582394
-3.449376	particular	-0.08412255
-3.926497	particular,	-0.07855958
-3.449376	particularly	-0.08489674
-3.926497	parties	-0.08324346
-3.449376	partly	-0.08225884
-3.926497	partners	-0.08360565
-3.081399	parts	-0.6343852
-3.926497	party	-0.06785927
-3.926497	passed	-0.08541209
-3.926497	passing	-0.05644839
-3.926497	patching	-0.0854636
-3.926497	path	-0.08412254
-3.926497	pdi-p,	-0.05644839
-3.324437	peace	-0.08546361
-3.926497	peasants	-0.07414193
-3.926497	pencak	-0.08592685
-3.926497	peng.	-0.06785927
-3.926497	penntreebank?-(or	-0.08592685
-2.812553	people	-0.2576877
-3.625467	people's	-0.08556657
-3.926497	people,	-0.07414193
-3.926497	peoples,	-0.08572102
-3.324437	per-sentence	-0.08510296
-3.926497	percents	-0.08577248
-3.926497	perception	-0.08324346
-3.324437	perhaps	-0.08199936
-3.926497	perhaps:	-0.06785927
-3.625467	period	-0.1612452
-3.926497	permitted	-0.07488133
-3.625467	permusyawaratan	-0.08577248
-3.926497	perplexity	-0.08319169
-3.926497	perspective	-0.08484516
-3.324437	perwakilan	-0.1740417
-3.926497	philosophy	-0.08587539
-3.926497	phrase	-0.08572102
-3.926497	pinyin-izer)	-0.08438076
-3.625467	place	-0.08541209
-3.926497	placed	-0.08525755
-3.926497	places	-0.08561806
-3.625467	plagued	-0.1713571
-3.449376	plan	-0.137125
-3.926497	plan"	-0.08592685
-3.926497	plantations	-0.07414193
-3.926497	plates,	-0.08577248
-3.926497	pleasing	-0.08556658
-3.926497	policies	-0.07414193
-3.926497	policy,	-0.08499985
-3.926497	policy-making	-0.07414193
-3.081399	political	-0.09722796
-3.449376	politics	-0.1123535
-3.926497	politics,	-0.08551509
-3.926497	poorer	-0.08592685
-3.324437	popular	-0.1276401
-3.449376	populated	-0.08474201
-3.926497	populated.	-0.06785927
-2.926497	population	-0.07558736
-3.926497	population,	-0.08173972
-3.227527	populous	-0.1067654
-3.449376	portuguese	-0.08530908
-3.926497	portuguese,	-0.07414193
-3.926497	position	-0.08561806
-3.926497	position-dependent	-0.08592685
-3.926497	positions	-0.07292445
-3.926497	poso	-0.08592685
-3.926497	possibilities	-0.08484516
-3.926497	possibility	-0.08324346
-3.449376	possible	-0.1131253
-3.926497	possible)	-0.06785927
-3.926497	possible,	-0.08246631
-3.926497	potential	-0.08592685
-3.926497	potentially	-0.08551509
-3.926497	poverty,	-0.08592685
-3.625467	power	-0.07408906
-3.324437	powerful	-0.0702126
-3.926497	powers	-0.06785927
-3.625467	practice	-0.05628319
-3.926497	practiced	-0.07876883
-3.926497	prambanan,	-0.08173972
-3.926497	pre-existing	-0.08582394
-3.926497	pre-sblm	-0.08577248
-3.926497	precondition.	-0.06785927
-3.926497	preconditions	-0.06785927
-3.926497	predicate	-0.08592685
-3.926497	predominantly	-0.08587539
-3.625467	prefer	-0.04455987
-3.926497	prefix	-0.08033499
-3.926497	pres_bush	-0.08561806
-3.926497	pres_bush,	-0.07414193
-3.926497	present-day	-0.08572102
-3.926497	preserve	-0.08592685
-3.625467	presidency	-0.08345045
-2.584074	president	-0.1888986
-3.926497	president).	-0.05644839
-3.926497	president,	-0.08592685
-3.926497	president.	-0.06785927
-3.926497	presidente	-0.08592685
-3.625467	presidential	-0.08561806
-3.926497	presidents:	-0.08592685
-3.926497	press	-0.06785927
-3.926497	pressure,	-0.08592685
-3.926497	pretext	-0.07292445
-3.625467	pretty	-0.08572101
-3.926497	previous	-0.08572102
-3.926497	previously	-0.08592685
-3.625467	pribumi	-0.08587538
-3.926497	pribumis	-0.06785927
-3.926497	pribumis,	-0.07414193
-3.449376	prices	-0.06743003
-3.625467	prime	-0.1741447
-3.926497	prince	-0.08592685
-3.625467	principal	-0.08582393
-3.926497	principled,	-0.08592685
-3.926497	prison	-0.08587539
-3.926497	private	-0.08592685
-3.926497	privileges:	-0.05644839
-3.625467	pro-indonesia	-0.08582393
-3.324437	prob	-0.0842775
-3.625467	prob=.@	-0.15618
-3.625467	probability	-0.069091
-3.148345	probably	-0.0734542
-3.926497	problem	-0.07488133
-3.324437	problems	-0.06371002
-3.926497	problems:	-0.06785927
-3.625467	probs	-0.08443238
-3.926497	proceed,	-0.05644839
-3.625467	process	-0.0717567
-3.324437	produce	-0.07882947
-3.926497	produced	-0.08592685
-3.625467	produces	-0.08577248
-3.926497	producing	-0.08520602
-3.926497	product	-0.08592685
-3.926497	production	-0.08484516
-3.926497	products	-0.08582394
-3.926497	profit	-0.08033499
-3.926497	program	-0.08484516
-3.926497	programs	-0.08587539
-3.926497	progressive	-0.07414193
-3.926497	promised	-0.07855958
-3.926497	propagate	-0.08566955
-3.625467	proposals	-0.08572101
-3.148345	propose	-0.07292444
-3.926497	propose,	-0.08173972
-3.023407	proposed	-0.05107469
-3.926497	proposed).	-0.08577248
-3.926497	proposed,	-0.08551509
-3.926497	proposes	-0.07855958
-3.625467	proposing	-0.08489673
-3.926497	protestant	-0.08334697
-3.449376	provide	-0.05842597
-3.926497	provided	-0.08303636
-3.926497	providing	-0.05644839
-3.625467	province	-0.05424048
-3.227527	provinces	-0.102617
-3.625467	provinces,	-0.06072179
-3.926497	pt	-0.08592685
-3.926497	public	-0.08587539
-3.926497	punan,	-0.08572102
-3.926497	punished	-0.08033499
-3.926497	purpose:	-0.07488133
-3.926497	purposes,	-0.07414193
-3.926497	pushed	-0.08582394
-3.926497	qualified	-0.08587539
-3.926497	quality,	-0.08592685
-3.926497	quite	-0.08536059
-3.926497	quote	-0.08556658
-3.926497	radu	-0.08592685
-3.926497	raffles	-0.08360565
-3.449376	rakyat	-0.08432914
-3.926497	rakyat/people's	-0.08587539
-3.926497	ran	-0.08033499
-3.324437	rare	-0.0854121
-3.926497	rare,	-0.07414193
-3.926497	rare_chinese_name,	-0.08443239
-3.926497	rarer	-0.08587539
-3.926497	rares,	-0.08582394
-3.926497	rb	-0.08577248
-3.926497	rb-entities	-0.08572102
-3.926497	rb-entity-treebanking-standard	-0.08592685
-3.625467	rb-etree	-0.08438075
-3.926497	rb-etrees).	-0.06785927
-3.926497	rb-nonterm,	-0.08499985
-3.227527	rb-nonterminal	-0.06705408
-3.625467	rb-nonterminal,	-0.07814078
-3.926497	rb-nonterminal/heads	-0.08556658
-3.324437	rb-nonterminals	-0.06678535
-3.926497	rb-num(*cd*(@),*nn*(billion)),	-0.08499985
-3.926497	rb-num(*np*(cd(@),nn(billion)))	-0.08443239
-3.926497	rb-num(cd(@))	-0.08536059
-3.625467	rb-num(cd(@),cd(billion))	-0.1736813
-3.926497	rb-num(det(a)	-0.08592685
-3.324437	rb-program	-0.08499986
-3.926497	rb-program)	-0.08510295
-3.926497	rb-program).	-0.06785927
-2.972254	rb-programs	-0.07633983
-3.926497	rb-programs)	-0.06785927
-3.926497	rb-programs).	-0.06785927
-3.926497	rb-progs	-0.08561806
-3.625467	rb-restructured	-0.08582393
-3.926497	rb-rooted-edge	-0.08334697
-3.324437	rb-subtree	-0.05506978
-3.926497	rb-subtree->sblm-list	-0.08592685
-3.926497	rb-subtrees	-0.07414193
-3.926497	rb-syntax-rules	-0.08319169
-3.926497	rb-syntax-translation	-0.06785927
-3.926497	rb-system	-0.07488133
-3.926497	rb-systems	-0.08551509
-3.926497	rb-translation	-0.07292445
-3.449376	rb-translations	-0.06170203
-3.926497	rb-translator	-0.07488133
-3.926497	rb-xxx's	-0.08582394
-3.926497	rb-xxx(old_tree)	-0.08033499
-3.625467	rb-xxx,	-0.08546359
-3.625467	rb_prob	-0.08572101
-3.148345	rb_prob=.@	-0.8819639
-3.926497	rb_prob=.@@	-0.06785927
-3.324437	rbt	-0.08484517
-3.926497	rbt-etree	-0.08463882
-3.926497	rbt-methods	-0.0854636
-3.926497	rbt-produced	-0.08592685
-3.926497	rbt-rules	-0.08443239
-3.926497	rbt;	-0.08582394
-3.926497	read	-0.07488133
-3.324437	real	-0.1267642
-3.926497	reality	-0.07292445
-3.926497	really	-0.05644839
-3.926497	really-open	-0.08572102
-3.926497	reasonable)	-0.08561806
-3.926497	rebelled	-0.07876883
-3.926497	rebellions	-0.08536059
-3.625467	rebels	-0.1733206
-3.926497	rebuilding	-0.08525755
-3.926497	received	-0.08582394
-3.926497	recently	-0.08561806
-3.625467	recognize	-0.07408906
-3.449376	recognized	-0.07350715
-3.926497	recognizer	-0.08484516
-3.926497	recognizing	-0.08592685
-3.926497	recorded:	-0.084742
-3.926497	recourse	-0.07488133
-3.926497	recovery	-0.08412254
-3.926497	recurring	-0.08592685
-3.625467	reduce	-0.05639333
-3.926497	reduction	-0.07292445
-3.449376	reference	-0.07382466
-3.449376	referendum	-0.05782267
-3.926497	reform	-0.07414193
-3.926497	refused	-0.07488133
-3.926497	regencies	-0.07414193
-3.625467	regime	-0.0717567
-3.148345	region	-0.1171821
-3.625467	region,	-0.0786119
-3.227527	regional	-0.08536059
-3.926497	regionally	-0.08592685
-3.449376	regions	-0.06967887
-3.926497	regrets	-0.08566955
-3.926497	rejected	-0.08484516
-3.625467	related	-0.163202
-3.449376	relations	-0.137802
-3.926497	relative	-0.07488133
-3.926497	relatively	-0.08582394
-3.926497	release	-0.08412254
-3.926497	relied	-0.08319169
-3.449376	religion	-0.1171821
-3.625467	religion,	-0.08329521
-3.926497	religions.	-0.06785927
-3.081399	religious	-0.07356009
-3.926497	relinquished	-0.08520602
-3.926497	rely	-0.08319169
-3.625467	remain	-0.07835023
-3.926497	remainder	-0.08582394
-3.926497	remaining	-0.0854636
-3.926497	remains	-0.07855958
-3.926497	remedy	-0.08577248
-3.926497	remember	-0.08587539
-3.625467	remove	-0.05578719
-3.926497	rendered	-0.07876883
-3.926497	rendering	-0.08510295
-3.926497	renderings	-0.07488133
-3.926497	reoccupy	-0.08556658
-3.926497	repeatedly	-0.08592685
-3.926497	replaced	-0.08303636
-3.926497	replacing	-0.08572102
-3.926497	representation.	-0.06785927
-3.449376	representative	-0.1425631
-3.926497	representatives	-0.08577248
-3.926497	representing	-0.08587539
-3.227527	republic	-0.1393204
-3.926497	republik	-0.08592685
-3.449376	require	-0.1127947
-3.926497	required	-0.07488133
-3.926497	requirement	-0.08324346
-3.926497	rescorer	-0.06785927
-3.625467	research	-0.0555114
-3.625467	resentment	-0.08267368
-3.926497	resign	-0.07414193
-3.926497	resign.	-0.06785927
-3.926497	resignation	-0.07414193
-3.926497	resources	-0.08582394
-3.926497	response	-0.07488133
-3.449376	responsible	-0.5653809
-3.926497	rest	-0.07292445
-3.926497	restarted	-0.07414193
-3.926497	restored	-0.08561806
-3.625467	restrict	-0.0560077
-3.449376	restructure	-0.08370908
-3.926497	restructuredenglish	-0.08484516
-3.324437	restructuring	-0.07393044
-3.449376	result	-0.5579704
-3.625467	result,	-0.08520602
-3.926497	resulted	-0.07876883
-3.926497	resulting	-0.08592685
-3.926497	retrain	-0.08401921
-3.926497	revised	-0.05644839
-3.449376	revolution	-0.1110826
-3.926497	rhs	-0.07292445
-3.926497	riau	-0.08520602
-3.926497	riau),	-0.08592685
-3.926497	riau,	-0.08541209
-3.926497	rice,	-0.08592685
-3.926497	rich	-0.08592685
-3.324437	right	-0.06115774
-3.324437	rights	-0.07861192
-3.449376	riot	-0.05782267
-3.926497	rioters	-0.06785927
-3.926497	riots	-0.07876883
-3.926497	riots,	-0.08484516
-3.926497	rise,	-0.08572102
-3.926497	robust	-0.08577248
-3.926497	role	-0.05644839
-3.926497	role(normal	-0.08582394
-3.926497	roles	-0.08525755
-3.926497	root	-0.08592685
-3.926497	root-rb-nonterms	-0.08592685
-3.625467	roots	-0.1670896
-3.625467	roughly	-0.08582393
-3.926497	route	-0.07488133
-3.926497	rubber	-0.06785927
-2.780369	rule	-0.2417612
-3.625467	rule,	-0.07366592
-3.324437	rule-based	-0.3895099
-3.926497	rule-cost	-0.08525755
-3.926497	rule.	-0.06785927
-3.926497	rule:	-0.06785927
-3.926497	ruled	-0.08246631
-2.780369	rules	-0.1213887
-3.926497	rules")	-0.06785927
-3.625467	rules,	-0.08479358
-3.926497	rules:	-0.06785927
-3.324437	run	-0.3851008
-3.926497	s(np(x@,x@,cd(@)),vp(cd(billion),x@))	-0.08510295
-3.926497	s(x@,cd(@),cd(billion),x@)	-0.08510295
-3.926497	s(x@,rb-num(cd(@),cd(billion)),x@).	-0.06785927
-3.926497	s(x@,x@,rb-num("@	-0.08592685
-3.023407	same	-0.07887343
-3.926497	sangeang	-0.08592685
-3.926497	sapiens	-0.0854636
-3.926497	satellite	-0.08592685
-3.926497	saturday,	-0.08541209
-3.926497	sausage:	-0.08592685
-3.625467	saw	-0.08350219
-3.926497	say	-0.08587539
-3.926497	say,	-0.08592685
-2.449376	sblm	-0.09594831
-3.926497	sblm)	-0.07488133
-3.625467	sblm,	-0.08288095
-3.449376	sblm-etree	-0.08556659
-3.926497	sblm-non-constituent	-0.08515449
-3.926497	sblm-restructuring	-0.08582394
-3.926497	sblm-subtrees	-0.08033499
-3.926497	sbmt	-0.06785927
-3.926497	scale	-0.08541209
-3.625467	scandal	-0.08587538
-3.926497	scattered	-0.08582394
-3.926497	scholars,	-0.07414193
-3.926497	schools	-0.07414193
-3.926497	schools,	-0.08592685
-3.926497	scientific	-0.08592685
-3.324437	score	-0.02812594
-3.449376	scored	-0.08262186
-3.449376	scores	-0.08469042
-3.926497	scoring	-0.06785927
-3.926497	secession	-0.07414193
-3.625467	second	-0.08587538
-3.926497	second-class	-0.08592685
-3.926497	second-largest	-0.08587539
-3.926497	securing	-0.05644839
-3.324437	see	-0.08282916
-3.449376	seen	-0.07572483
-3.926497	segmentation	-0.07292445
-3.926497	seismic	-0.07414193
-3.449376	selatan),	-0.08386418
-3.926497	semantic	-0.08592685
-3.625467	semantics	-0.06624738
-3.926497	semantics,	-0.08484516
-3.926497	semarang.	-0.06785927
-3.926497	sent	-0.07855958
-3.625467	sentence	-0.07871652
-3.625467	sentence(s)-specific	-0.08572101
-3.926497	sentence)	-0.08360565
-3.449376	sentence,	-0.1287051
-3.625467	sentence-specific	-0.08505139
-3.926497	sentence-specific,	-0.08536059
-3.926497	sentences	-0.08334697
-3.449376	separate	-0.08582395
-3.926497	separately)	-0.08484516
-3.926497	separatism	-0.08587539
-3.926497	sequence,	-0.08520602
-3.926497	sequences	-0.07292445
-3.926497	series.	-0.06785927
-3.926497	serious	-0.08592685
-3.926497	set	-0.07292445
-2.972254	several	-0.08277734
-3.926497	several)	-0.08592685
-3.926497	severe	-0.08582394
-3.926497	shadow	-0.08592685
-3.926497	sharia	-0.08592685
-3.926497	sharpened,	-0.08592685
-3.926497	shopkeepers	-0.07414193
-3.625467	shops,	-0.07408906
-2.696048	should	-0.4286687
-3.926497	show	-0.05644839
-3.926497	shows,	-0.08592685
-3.926497	sibling	-0.08587539
-3.926497	side	-0.07292445
-3.926497	significant	-0.08592685
-3.926497	significantly	-0.08566955
-3.926497	silat	-0.08173972
-3.449376	similar	-0.1315123
-3.625467	simple	-0.08556657
-3.926497	simplify	-0.05644839
-2.972254	since	-0.06965356
-3.926497	singapore,	-0.08572102
-3.227527	single	-0.08530908
-3.926497	sites	-0.08592685
-3.926497	siva	-0.08592685
-3.926497	size	-0.07292445
-3.926497	skintones	-0.06785927
-3.926497	slaps	-0.08566955
-3.926497	slow	-0.07876883
-3.926497	small	-0.08587539
-3.926497	small-time	-0.08592685
-3.926497	smaller	-0.08572102
-2.972254	so	-0.06881747
-3.926497	so,	-0.08577248
-3.926497	soap	-0.08592685
-3.926497	socialist	-0.08592685
-3.926497	solitary	-0.08587539
-3.926497	solve	-0.08484516
-2.584074	some	-0.1207385
-3.926497	something	-0.08324346
-3.449376	sometimes	-0.08339873
-3.449376	somewhat	-0.07361302
-3.926497	songket	-0.08592685
-3.625467	soon	-0.08489673
-3.926497	sort	-0.08520602
-3.081399	south	-0.2693279
-3.926497	southeast	-0.08592685
-3.449376	span	-0.07398333
-3.926497	span).	-0.08401921
-3.625467	span,	-0.07393043
-3.926497	span/prob	-0.08592685
-3.926497	spanish	-0.07414193
-3.324437	spans	-0.05229933
-3.926497	sparked	-0.08303636
-3.625467	sparseness	-0.07393043
-3.926497	sparseness;	-0.08484516
-3.926497	speak	-0.08499985
-3.926497	speaker:	-0.08592685
-3.926497	spec	-0.08033499
-3.148345	special	-0.1424087
-3.625467	species	-0.1612452
-3.449376	specific	-0.08458723
-3.324437	specifically	-0.09792675
-3.926497	specified	-0.0854636
-3.625467	specify	-0.04850291
-3.926497	specter	-0.07292445
-3.926497	speech	-0.08577248
-3.926497	sphere	-0.08360565
-3.926497	spice	-0.08592685
-3.449376	spices	-0.05523545
-3.926497	splice	-0.08566955
-3.625467	spliced	-0.07845492
-3.324437	splicing	-0.06989244
-3.926497	splicing,	-0.05644839
-3.625467	split	-0.1447691
-3.625467	spoken	-0.07577748
-3.926497	sri	-0.08587539
-3.926497	stabilized	-0.08582394
-3.625467	staff	-0.06072179
-3.926497	stages	-0.08577248
-3.926497	stamford	-0.08592685
-3.625467	standard	-0.08028287
-3.926497	stars.	-0.06785927
-3.625467	started	-0.08147992
-3.324437	state	-0.1161138
-3.926497	state)	-0.07414193
-3.625467	state,	-0.07408906
-3.926497	stated	-0.07488133
-3.324437	states	-0.09737527
-3.625467	states,	-0.08494829
-3.926497	static-rules	-0.08592685
-3.227527	statistics	-0.06213698
-3.625467	status	-0.07366592
-3.926497	status.	-0.06785927
-3.926497	step	-0.08577248
-3.926497	still	-0.08587539
-3.926497	storefront	-0.08592685
-3.926497	strained	-0.08582394
-3.926497	string	-0.08592685
-3.926497	string).	-0.08577248
-3.625467	strings	-0.08313991
-3.926497	strings,	-0.08592685
-3.926497	stroke	-0.08592685
-3.926497	strong	-0.08582394
-3.625467	struck	-0.08179165
-3.625467	structure	-0.163202
-3.926497	struggle	-0.08033499
-3.926497	struggle,	-0.07414193
-3.926497	stuff	-0.08525755
-3.926497	sub-districts.	-0.06785927
-3.926497	sub-regions	-0.08334697
-3.625467	subdivided	-0.1737843
-3.926497	subdivisions	-0.07292445
-3.926497	subdivisions,	-0.08551509
-3.926497	subsets)	-0.08536059
-3.926497	subsidies	-0.07488133
-3.926497	subsidies,	-0.08592685
-3.926497	subsidized	-0.08577248
-3.926497	subsidy	-0.07292445
-3.926497	substantial	-0.08577248
-3.926497	substantial,	-0.08525755
-3.449376	substitute	-0.137125
-3.625467	substitution	-0.08308813
-3.926497	substring	-0.07876883
-3.926497	substructure	-0.08592685
-3.625467	subtree	-0.08236258
-3.926497	subtrees	-0.08499985
-3.926497	subtrees,	-0.08536059
-3.148345	such	-0.1015808
-3.926497	suffered	-0.08592685
-3.926497	suffers	-0.08541209
-3.625467	sufficient	-0.06748369
-3.926497	suggest	-0.08494829
-3.148345	suharto	-0.07740691
-3.449376	suharto's	-0.08572102
-3.926497	suharto,	-0.08355393
-3.148345	sukarno	-0.08394015
-3.926497	sukarno's	-0.08499985
-3.324437	sukarno,	-0.04325646
-3.324437	sukarnoputri	-0.1199027
-3.926497	sukarnos	-0.08592685
-3.023407	sulawesi	-0.2086731
-3.926497	sulawesi,	-0.084742
-3.625467	sultan	-0.08587538
-3.926497	sultanate	-0.08582394
-3.926497	sumatera)	-0.08360565
-3.023407	sumatra	-0.2384555
-3.926497	sumatra)	-0.08412254
-3.449376	sumatra,	-0.05617303
-3.926497	summit	-0.06785927
-3.926497	sundanese,	-0.08443239
-3.926497	superior	-0.05644839
-3.926497	superset).	-0.08525755
-3.926497	supervision	-0.08303636
-3.625467	supplied	-0.08298455
-3.926497	supplies	-0.07292445
-3.926497	supply	-0.08572102
-3.926497	support	-0.06785927
-3.926497	supporters	-0.06785927
-3.926497	supporting	-0.08582394
-3.926497	suppressing	-0.08577248
-3.926497	surabaya,	-0.08592685
-3.449376	sure	-0.1103626
-3.926497	surrogate	-0.08582394
-3.926497	surrounding	-0.08587539
-3.926497	survey	-0.08360565
-3.926497	survivors	-0.08592685
-3.449376	susilo	-0.5708699
-3.625467	suspect	-0.06780563
-3.926497	symbol	-0.08592685
-3.926497	syncretism	-0.07414193
-3.449376	syntactic	-0.08572102
-3.926497	syntactically	-0.06785927
-3.625467	syntax	-0.08587538
-3.926497	syntaxbasedlanguagemodel?	-0.08572102
-3.926497	syntaxtranslationframework	-0.06785927
-3.926497	syntaxtranslationframework)	-0.07292445
-3.227527	system	-0.05990326
-3.625467	system,	-0.1624626
-3.926497	systems.	-0.06785927
-3.926497	tagger),	-0.05644839
-3.926497	tagging/treeing	-0.07292445
-3.926497	tags	-0.07488133
-3.926497	tags?	-0.08360565
-3.324437	take	-0.04693
-3.926497	takes	-0.08319169
-3.625467	talking	-0.1737843
-3.926497	talks	-0.08525755
-3.926497	target	-0.07292445
-3.926497	targeting	-0.05644839
-3.926497	tasks.	-0.06785927
-3.926497	taught	-0.07876883
-3.926497	taxonomy	-0.08412254
-3.926497	tea,	-0.08592685
-3.926497	technology	-0.06785927
-3.926497	tectonic	-0.08592685
-3.926497	tell	-0.08577248
-3.926497	template-based	-0.08587539
-3.926497	temple	-0.08587539
-3.449376	tengah),	-0.08407089
-3.926497	tengah,	-0.07414193
-3.324437	tenggara	-0.1273311
-3.926497	tenggara),	-0.08582394
-3.926497	tension	-0.06785927
-3.625467	tensions	-0.07609333
-3.926497	tensions,	-0.08582394
-3.926497	term,	-0.07414193
-3.926497	term.	-0.06785927
-3.926497	terms,	-0.07414193
-3.926497	territories	-0.0841742
-3.926497	territory's	-0.08587539
-3.926497	terrorist	-0.08587539
-3.926497	test:	-0.08561806
-3.926497	text	-0.08484516
-2.750406	than	-0.1261501
-2.202221	that	-0.09617226
-3.926497	that's	-0.08494829
-3.926497	that,	-0.08561806
-3.926497	that:	-0.06785927
-1.182204	the	-0.1759605
-3.926497	theatre	-0.08592685
-3.023407	their	-0.08438076
-2.926497	them	-0.07863965
-3.926497	them)	-0.06785927
-3.625467	themselves	-0.07519782
-2.926497	then	-0.06562858
-3.625467	then,	-0.05457238
-3.926497	then.	-0.06785927
-2.847316	there	-0.3792748
-3.926497	there's	-0.08587539
-3.926497	thereby	-0.07855958
-3.023407	these	-0.07955262
-3.324437	they	-0.08474201
-3.449376	think	-0.0694652
-3.926497	thinks	-0.08360565
-3.926497	third-class	-0.08587539
-2.584074	this	-0.1857453
-3.926497	thomas	-0.08592685
-3.926497	thoroughly	-0.08587539
-3.148345	those	-0.1095949
-3.227527	though	-0.08059548
-3.625467	thought	-0.07191613
-3.926497	thousands	-0.07292445
-3.926497	threatened	-0.07488133
-3.926497	three	-0.0841742
-3.926497	threshold,	-0.08484516
-3.926497	thriving	-0.07876883
-3.625467	through	-0.08572101
-3.625467	thus	-0.08168776
-3.926497	ties	-0.08525755
-3.926497	tilings	-0.07414193
-3.926497	tilt	-0.08592685
-3.926497	time	-0.06785927
-3.926497	times	-0.08592685
-2.926497	timor	-0.08461431
-3.926497	timor).	-0.08582394
-3.625467	timor,	-0.1624626
-3.625467	timorese	-0.08556657
-3.449376	timur),	-0.08489674
-3.926497	tin,	-0.08592685
-2.926497	tm	-0.08321957
-3.926497	tm/sblm	-0.08525755
-1.598117	to	-0.1867773
-3.926497	to;	-0.08401921
-3.926497	together	-0.08494829
-3.926497	together)	-0.08484516
-3.926497	together;	-0.08525755
-3.926497	token	-0.08324346
-3.926497	tokens	-0.08587539
-3.926497	tongue,	-0.08484516
-3.227527	too	-0.0854121
-3.926497	too,	-0.08246631
-3.625467	total	-0.08572101
-3.926497	towards	-0.08510295
-3.625467	trade	-0.07287143
-3.926497	trade.	-0.06785927
-3.449376	trading	-0.07572483
-3.926497	traditional	-0.08577248
-3.926497	traditions,	-0.08582394
-3.449376	train	-0.05174311
-2.780369	training	-0.1520098
-3.449376	training,	-0.05622812
-3.926497	training-tree-modifying	-0.08587539
-3.926497	training/smoothing,	-0.08484516
-3.926497	transformation,	-0.08376078
-3.926497	transitional	-0.08587539
-3.625467	translate	-0.08556657
-3.926497	translate.	-0.06785927
-3.926497	translated	-0.08303636
-3.926497	translating	-0.07855958
-2.511523	translation	-0.06783238
-3.926497	translation",	-0.08443239
-3.926497	translation),	-0.08334697
-2.647743	translations	-0.04215966
-3.625467	translations,	-0.08401921
-3.926497	translations.	-0.06785927
-3.926497	translations;	-0.08566955
-3.926497	translator	-0.08536059
-3.926497	translators	-0.08572102
-3.926497	translators)	-0.06785927
-3.926497	transliterated	-0.08551509
-3.926497	transmigration	-0.08592685
-3.449376	treated	-0.1392566
-3.625467	treaty	-0.1612452
-3.324437	tree	-0.06737634
-3.926497	tree-crawling	-0.08582394
-3.926497	tree.	-0.06785927
-3.449376	treebank	-0.08561807
-3.926497	treebank-like	-0.08582394
-3.324437	trees	-0.07829789
-3.926497	trigger	-0.05644839
-3.926497	trivial:	-0.08494829
-3.926497	troops	-0.08360565
-3.926497	tropical	-0.08592685
-3.449376	try	-0.1281202
-3.926497	trying	-0.07488133
-3.449376	tsunami	-0.05738338
-3.926497	tsunamis	-0.06785927
-3.926497	tuanku	-0.08592685
-3.625467	turn	-0.1737843
-3.324437	two	-0.08536059
-3.148345	type	-0.8870291
-3.926497	type)	-0.06785927
-3.926497	typical	-0.08561806
-3.926497	u.s	-0.06785927
-3.926497	ugly	-0.08592685
-3.926497	ulama	-0.08592685
-3.625467	un	-0.08572101
-3.926497	un,	-0.08401921
-3.926497	unable	-0.07488133
-3.926497	unaligned).	-0.06785927
-3.926497	unambiguously	-0.08520602
-3.926497	uncommon	-0.07488133
-2.780369	under	-0.2412573
-3.926497	undercount	-0.08541209
-3.926497	undergoing	-0.08592685
-3.926497	undo	-0.05644839
-3.926497	uneven,	-0.08577248
-3.926497	unflattening	-0.05644839
-3.449376	unfortunately,	-0.05551142
-3.926497	unilaterally	-0.08319169
-3.625467	unique	-0.08582393
-3.625467	unitary	-0.08566954
-3.227527	united	-0.1068712
-3.926497	units	-0.08443239
-3.926497	universally	-0.08592685
-3.449376	unknown	-0.08556659
-3.926497	unknown.	-0.06785927
-3.625467	unless	-0.08313991
-3.081399	until	-0.1013288
-2.885104	up	-0.1513992
-3.926497	upgrade	-0.07488133
-3.324437	us	-0.1160081
-3.926497	us$	-0.08566955
-3.926497	usa	-0.07414193
-2.926497	use	-0.1414329
-2.885104	used	-0.1923587
-3.926497	used).	-0.06785927
-3.926497	used.	-0.06785927
-3.926497	useful	-0.07488133
-3.926497	useful)	-0.06785927
-2.972254	using	-0.1635665
-3.926497	usual.	-0.06785927
-3.449376	utara),	-0.1422027
-3.926497	variations	-0.07876883
-3.926497	variations,	-0.08499985
-3.449376	various	-0.08577249
-3.926497	vassals,	-0.08556658
-3.926497	verb	-0.08592685
-3.926497	versatile	-0.08520602
-3.625467	very	-0.08587538
-3.449376	vice	-0.5698911
-3.926497	villagers	-0.08572102
-3.926497	violation	-0.08566955
-3.449376	violence	-0.07808842
-3.926497	vital	-0.08577248
-3.926497	viterbi	-0.08587539
-3.625467	voc	-0.08303635
-3.625467	volcanic	-0.08515448
-3.926497	volcanoes	-0.08592685
-3.926497	vote	-0.08033499
-3.449376	voted	-0.07965703
-3.926497	vs	-0.0854636
-3.926497	vulnerable	-0.07488133
-3.324437	wahid	-0.07218171
-3.926497	wallace	-0.08587539
-2.885104	want	-0.6364
-3.926497	wanting	-0.07488133
-3.926497	wants	-0.07488133
-3.023407	war	-0.1035123
-3.926497	war,	-0.05644839
-3.926497	wars	-0.08582394
-2.263739	was	-0.09598754
-3.324437	way	-0.1031857
-3.625467	wayang	-0.1741961
-3.926497	ways	-0.07292445
-2.293028	we	-0.2123029
-3.625467	we'd	-0.08225883
-3.324437	we'll	-0.1220977
-3.148345	we're	-0.1129553
-3.926497	we've	-0.08494829
-3.926497	weakening	-0.08577248
-3.926497	wealthier	-0.08520602
-3.926497	wealthy	-0.08541209
-3.926497	weighted	-0.08587539
-3.081399	well	-0.2220915
-3.926497	well,	-0.08577248
-3.926497	well-known	-0.08360565
-2.647743	were	-0.1124124
-2.885104	west	-0.1001854
-3.449376	western	-0.08396754
-2.847316	what	-0.07419658
-3.926497	whatever	-0.06785927
-3.148345	when	-0.06921309
-3.926497	when,	-0.08525755
-3.081399	where	-0.05174311
-3.926497	wherever	-0.08376078
-3.625467	whether	-0.163202
-2.647743	which	-0.0705858
-3.023407	while	-0.2139107
-3.227527	who	-0.1145813
-3.324437	whole	-0.08422586
-3.449376	whose	-0.08561807
-3.625467	why	-0.08257
-3.926497	widely	-0.08577248
-3.625467	widespread	-0.1741447
-2.847316	will	-0.1611822
-3.926497	willing	-0.07488133
-3.926497	winner	-0.07292445
-2.218927	with	-0.2643857
-3.926497	with,	-0.08510295
-3.926497	withdrawn	-0.08412254
-3.926497	within	-0.0854636
-3.449376	without	-0.08499986
-3.926497	won	-0.08303636
-3.449376	won't	-0.08199936
-3.324437	word	-0.1133567
-3.449376	word-class	-0.06769836
-3.926497	word-classes	-0.0841742
-3.926497	word-for-word	-0.08463882
-3.148345	words	-0.05864513
-3.926497	words).	-0.08587539
-3.324437	words,	-0.0765667
-3.926497	words/phrases	-0.08324346
-3.324437	work	-0.06882355
-3.926497	worked	-0.07488133
-3.926497	working	-0.07876883
-3.926497	works	-0.08033499
-3.081399	world	-0.1031008
-3.625467	world's	-0.08577248
-3.926497	world.	-0.06785927
-3.926497	world:	-0.08033499
-2.584074	would	-0.2365627
-3.625467	wouldn't	-0.08179165
-3.926497	wrath	-0.07292445
-3.926497	write	-0.08525755
-3.926497	writing;	-0.08587539
-3.926497	written	-0.07876883
-3.926497	wrote	-0.08592685
-3.926497	wrt	-0.08592685
-3.926497	x)	-0.08173972
-3.926497	x@	-0.08556658
-3.926497	x@"	-0.08536059
-3.926497	xr	-0.08525755
-3.926497	xrs	-0.08525755
-3.926497	year	-0.07292445
-3.926497	year,	-0.08577248
-3.926497	year.	-0.06785927
-3.227527	years	-0.1418735
-3.926497	years,	-0.08587539
-3.926497	yet,	-0.07876883
-3.926497	yet-to-be-aligned	-0.08592685
-3.926497	yield	-0.06785927
-3.625467	yogyakarta	-0.08355392
-3.926497	yogyakarta*.	-0.06785927
-3.926497	york	-0.08592685
-2.847316	you	-0.123035
-3.449376	you'd	-0.5692201
-3.926497	you'll	-0.08551509
-3.926497	your	-0.08592685
-3.625467	yudhoyono	-0.06764469
-3.926497	yudhoyono,	-0.05644839

\2-grams:
-0.7456757	"@@" and
-0.7456757	"@@@ c@
-0.7456757	"etree ->
-0.7456757	"fort marlborough".
-0.7456757	"frac_between_@@_and_@@" for
-0.7456757	"green rules")
-1.046706	"green-chinese-word-n" and
-1.046706	"green-chinese-word-n" in
-0.7456757	"history of
-0.7456757	"lift" it
-0.7456757	"must-use" rule.
-0.7456757	"no confidence"
-0.7456757	"non-pribumi" people
-0.7456757	"rb" for
-0.7456757	"rb-" prefix
-0.7456757	"rule-based translation",
-0.7456757	"sausage graph").
-0.7456757	"save" the
-0.7456757	"simple plan"
-0.7456757	"state" that
-0.7456757	"typical" treebank
-0.7456757	"virtual nonterminal/rule"
-0.7456757	"virtual" nonterminal
-0.7456757	## rb_prob
-1.133941	### cspan=(@,@)
-0.2345145	### rb_prob=.@
-1.699918	### rb_prob=.@@
-0.7456757	#@ and
-0.7456757	#@, the
-0.7456757	#chinese words,
-0.7456757	#english lhs
-0.7456757	'people's consultative
-0.7456757	($us @.@@
-0.7456757	('kkn' is
-0.7456757	(*) the
-0.7456757	(@:@@pm) </s>
-0.7456757	(@@ members
-0.1677419	(@@@@ to
-0.7456757	(@@@@), the
-0.7456757	(@@@@-@@). bogor
-0.4807281	(@@@@-@@@@) in
-1.046706	(@@@@-@@@@). </s>
-1.046706	(@@@@-@@@@). the
-1.046706	(a potential
-1.046706	(a sentence
-0.7456757	(actually, it
-0.7456757	(aka gus
-0.7456757	(also confusingly
-1.347736	(and b
-1.347736	(and is
-1.347736	(and modifying
-1.347736	(and not
-0.7456757	(at least
-0.7456757	(bahasa daerah)
-0.7456757	(bank bali
-0.7456757	(before he
-0.7456757	(bj) habibie
-0.7456757	(bps) and
-0.7456757	(bulog fund)
-1.347736	(but not
-1.347736	(but organizational
-1.347736	(but probably
-1.347736	(but we
-0.7456757	(by splicing
-0.7456757	(c_@@ c_@@@@@)
-0.7456757	(c_@@@@@) we'd
-0.4807281	(called bahasa
-0.7456757	(celebes), lombok,
-0.7456757	(cultuurstelsel), large
-0.7456757	(currently the
-0.7456757	(derivationforestem) </s>
-0.7456757	(distinctions we
-0.7456757	(dpd)/provinces representative
-0.7456757	(dpr)/people representative
-0.7456757	(dpr, deputy
-0.7456757	(especially if
-0.7456757	(even infinite)
-0.7456757	(except for
-1.222797	(for chinese
-1.222797	(for constituents):
-1.222797	(for now
-1.046706	(formerly called
-1.046706	(formerly known
-0.7456757	(franz would
-1.222797	(from greek:
-1.222797	(from parallel
-1.222797	(from rb-program)
-0.7456757	(gam, the
-0.7456757	(gdp) this
-0.7456757	(i think
-0.7456757	(i've adopted
-0.7456757	(if all
-0.7456757	(imo): </s>
-0.7456757	(important!) a
-1.046706	(indonesian: kalimantan),
-1.046706	(indonesian: republik
-0.7456757	(instead of
-0.7456757	(iptn) (now
-0.7456757	(irian jaya
-0.7456757	(islamic law)
-1.222797	(jawa barat),
-1.222797	(jawa tengah),
-1.222797	(jawa timur),
-0.7456757	(july @,
-1.347736	(kalimantan barat),
-1.347736	(kalimantan selatan),
-1.347736	(kalimantan tengah),
-1.347736	(kalimantan timur),
-0.7456757	(kepulauan riau),
-0.7456757	(krakatoa), which
-0.7456757	(like in
-0.7456757	(locally known
-0.7456757	(majelis permusyawaratan
-0.7456757	(maluku utara),
-0.7456757	(mine,minc),(mine,maxc),(maxe,maxc),(maxe,minc) keeping
-0.7456757	(mpr) rejected
-0.7456757	(must be
-0.7456757	(napoleon's dutch
-0.7456757	(new order)
-0.7456757	(nonconstituentleafrules); that
-1.222797	(not assessing
-1.222797	(not just
-1.222797	(not likely)
-0.7456757	(note: don't
-0.7456757	(now become
-0.7456757	(nu). unfortunately,
-0.4807281	(nusa tenggara
-1.046706	(of course
-1.046706	(of which
-0.7456757	(old) parent
-1.046706	(on c+e
-1.046706	(on the
-0.7456757	(one of
-0.7456757	(or not
-0.7456757	(pre-ghkm) more
-0.7456757	(probably always
-0.7456757	(ranked @@th
-0.7456757	(ref translations
-0.4807281	(shared with
-0.7456757	(shouldn't be
-0.7456757	(since we
-0.4807281	(south of
-1.444646	(sulawesi barat),
-1.444646	(sulawesi selatan),
-1.444646	(sulawesi tengah),
-1.444646	(sulawesi tenggara),
-1.444646	(sulawesi utara),
-0.7456757	(sulawesi), and
-1.222797	(sumatera barat),
-1.222797	(sumatera selatan),
-1.222797	(sumatera utara),
-0.7456757	(tagged) words
-0.7456757	(that allows
-0.7456757	(that's probably
-1.222797	(the most
-1.222797	(the npb
-1.222797	(the span/prob
-0.7456757	(they would
-0.4807281	(this is
-0.7456757	(though i
-0.7456757	(to test:
-0.7456757	(transmigrasi) to
-0.7456757	(untaet). the
-0.7456757	(us library
-0.7456757	(usable only
-0.7456757	(voc), a
-1.347736	(we don't
-1.347736	(we may
-1.347736	(we might
-1.347736	(we must
-0.7456757	(we've also
-0.7456757	(what matters
-0.7456757	(when more
-1.444646	(which already
-1.444646	(which could
-1.444646	(which i've
-1.444646	(which of
-1.444646	(which would
-0.7456757	(within the
-0.7456757	(wrt </s>
-0.7456757	(you don't
-2.237037	* (but
-1.67106	* ...
-2.237037	* @,cd(@),@,cd(billion),@
-2.237037	* also
-2.237037	* and
-2.237037	* cardinals
-1.67106	* cd(@)
-2.237037	* cd(@),cd(billion)
-1.67106	* cd(billion)
-2.237037	* dates
-2.237037	* hopefully
-2.237037	* identification/segmentation
-2.237037	* money
-2.237037	* native
-2.237037	* note
-2.237037	* npb(nnp(hillary),nnp(clinton))
-2.237037	* ordinals
-2.237037	* percents
-2.237037	* rb-num(cd(@))
-1.67106	* rb-num(cd(@),cd(billion))
-2.237037	* rb-num(det(a)
-2.237037	* robust
-2.237037	* times
-2.237037	* transliterated
-2.237037	* we
-2.237037	* we're
-2.237037	* with
-0.7456757	*[b-@). this
-0.7456757	*np*(cd(@),nn(billion)) or
-1.046706	+ probs
-1.046706	+ rb-nonterminal/heads
-0.7456757	, officially
-2.088098	- (mine,minc),(mine,maxc),(maxe,maxc),(maxe,minc)
-2.088098	- @@
-2.088098	- an
-2.088098	- and
-2.088098	- approximately
-2.088098	- for
-2.088098	- head
-2.088098	- how
-2.088098	- however,
-2.088098	- maybe
-2.088098	- more
-2.088098	- perhaps:
-2.088098	- sequences
-2.088098	- so
-2.088098	- specter
-2.088098	- suffers
-2.088098	- the
-2.088098	- this
-2.088098	- using
-2.088098	- well,
-2.088098	- what
-2.088098	- you
-0.7456757	-- jonathangraehl
-0.6448631	-> c_@
-0.7378572	-> c_@@
-1.824857	-> c_@@@@
-1.824857	-> c_@@@@@
-1.824857	-> sblm-etree
-1.824857	-> the
-1.824857	-> x@
-1.590774	... (i've
-1.590774	... @@.@
-1.590774	... additional
-1.590774	... but
-1.590774	... notice
-1.590774	... what
-1.590774	... you
-0.7456757	.@ (the
-0.7456757	/ named
-0.357646	:) </s>
-1.444646	:) the
-1.444646	:) this
-0.7456757	<= #chinese
-3.283495	<s> "non-pribumi"
-3.283495	<s> (*)
-3.283495	<s> (also
-3.283495	<s> (the
-1.060698	<s> *
-3.283495	<s> *np*(cd(@),nn(billion))
-3.283495	<s> ,
-3.283495	<s> --
-3.283495	<s> ...
-1.139879	<s> @.
-2.103501	<s> a
-3.283495	<s> a(b,rb-x(x,y),c)
-3.283495	<s> administrative
-2.196495	<s> after
-3.283495	<s> also
-2.196495	<s> although
-3.283495	<s> and
-3.283495	<s> another
-3.283495	<s> army
-3.283495	<s> art
-2.717517	<s> as
-3.283495	<s> awkwardly
-2.717517	<s> based
-3.283495	<s> before
-2.717517	<s> but
-2.717517	<s> but,
-3.283495	<s> careful,
-3.283495	<s> chinese
-3.283495	<s> chinese-owned
-3.283495	<s> dead
-3.283495	<s> democracy
-3.283495	<s> demographics
-2.717517	<s> despite
-3.283495	<s> dr
-2.717517	<s> during
-3.283495	<s> dutch
-3.283495	<s> east
-3.283495	<s> essentially,
-2.717517	<s> ethnic
-3.283495	<s> eventually
-3.283495	<s> flora
-2.103501	<s> following
-2.114499	<s> for
-3.283495	<s> forcing
-3.283495	<s> gam
-3.283495	<s> government
-2.717517	<s> he
-3.283495	<s> his
-2.196495	<s> however,
-2.717517	<s> hundreds
-2.717517	<s> i
-3.283495	<s> i'd
-3.283495	<s> i've
-2.717517	<s> if
-3.283495	<s> impact
-1.333699	<s> in
-1.537819	<s> indonesia
-2.018272	<s> indonesia's
-3.283495	<s> indonesians
-3.283495	<s> instead
-3.283495	<s> internationally,
-3.283495	<s> irrigation
-3.283495	<s> islam
-1.458638	<s> it
-2.717517	<s> it's
-3.283495	<s> its
-3.283495	<s> just
-3.283495	<s> leaving
-3.283495	<s> let
-3.283495	<s> let's
-3.283495	<s> like
-2.103501	<s> main
-3.283495	<s> major
-3.283495	<s> many
-3.283495	<s> map
-2.196495	<s> megawati
-2.196495	<s> more
-3.283495	<s> most
-3.283495	<s> normally
-3.283495	<s> note:
-3.283495	<s> now,
-2.103501	<s> o
-2.717517	<s> of
-2.196495	<s> on
-3.283495	<s> or,
-3.283495	<s> other
-3.283495	<s> papua
-3.283495	<s> parsing
-3.283495	<s> partly
-3.283495	<s> pencak
-3.283495	<s> perhaps
-2.717517	<s> president
-3.283495	<s> presidente
-3.283495	<s> purpose:
-3.283495	<s> rb-num(*np*(cd(@),nn(billion)))
-3.283495	<s> rb-programs
-3.283495	<s> regional
-2.196495	<s> rule
-3.283495	<s> s(np(x@,x@,cd(@)),vp(cd(billion),x@))
-3.283495	<s> s(x@,cd(@),cd(billion),x@)
-3.283495	<s> sangeang
-2.196495	<s> see
-3.283495	<s> several
-2.717517	<s> since
-3.283495	<s> so
-3.283495	<s> so,
-3.283495	<s> some
-3.283495	<s> something
-2.717517	<s> such
-2.717517	<s> suharto
-3.283495	<s> suharto's
-3.283495	<s> sukarno
-2.717517	<s> sukarno,
-3.283495	<s> susilo
-3.283495	<s> that
-3.283495	<s> that's
-0.8657212	<s> the
-3.283495	<s> then
-1.818091	<s> there
-3.283495	<s> they
-1.583577	<s> this
-2.717517	<s> though
-2.196495	<s> to
-2.103501	<s> under
-2.717517	<s> unfortunately,
-3.283495	<s> wayang
-2.196495	<s> we
-2.717517	<s> when
-3.283495	<s> why
-2.717517	<s> with
-3.283495	<s> yet,
-1.347736	= .@
-1.347736	= india
-1.347736	= islands)
-1.347736	= the
-0.7456757	=@ prob
-1.046706	>@ (even
-1.046706	>@ prob
-1.523827	@ alignments
-1.523827	@ billion
-1.523827	@ could
-1.523827	@ major
-1.523827	@ or
-1.523827	@ ways
-1.444646	@% buddhist
-1.444646	@% christian
-1.444646	@% hindu
-0.8786681	@% of
-0.7456757	@+@ -
-0.7456757	@+@+@ -
-0.4807281	@+@+@+@+@+@ -
-0.7456757	@, monday,
-1.046706	@,@@@ are
-1.046706	@,@@@ people
-0.7456757	@,cd(@),@,cd(billion),@ ->
-0.7456757	@-length cspans.
-2.177039	@. </s>
-2.177039	@. aceh
-2.177039	@. actually
-2.177039	@. choose
-2.177039	@. decide
-2.177039	@. figure
-2.177039	@. find
-2.177039	@. for
-1.611062	@. identify
-2.177039	@. if
-2.177039	@. java
-2.177039	@. lattice
-2.177039	@. lattice:
-1.611062	@. make
-2.177039	@. maybe
-2.177039	@. modtm+modsblm:
-2.177039	@. modtm:
-2.177039	@. of
-2.177039	@. otherwise,
-2.177039	@. padri
-2.177039	@. preserve
-2.177039	@. require
-1.611062	@. restructure
-2.177039	@. sausage:
-0.7456757	@.) -
-1.046706	@.@% last
-1.046706	@.@% of
-0.7456757	@.@@ billion)
-0.7456757	@/@ are
-1.024796	@@ august
-1.590774	@@ dec
-1.024796	@@ december
-1.590774	@@ provinces,
-1.590774	@@ volcanoes
-0.7456757	@@% of
-0.4807281	@@, @@@@,
-1.347736	@@,@@@ and
-1.347736	@@,@@@ islands
-1.347736	@@,@@@ islands,
-1.347736	@@,@@@ years
-0.7456757	@@.@ million
-0.7456757	@@.@% before)
-0.7456757	@@.@@ -
-1.648766	@@@ bc
-1.648766	@@@ c@
-1.648766	@@@ different
-0.4797696	@@@ million
-0.7456757	@@@, and
-0.1357972	@@@,@@@ years
-2.250826	@@@@ </s>
-2.250826	@@@@ [@].
-2.250826	@@@@ after
-1.070832	@@@@ and
-2.250826	@@@@ as
-2.250826	@@@@ bencoolen
-2.250826	@@@@ by
-2.250826	@@@@ census,
-2.250826	@@@@ devastated
-2.250826	@@@@ election
-2.250826	@@@@ election,
-2.250826	@@@@ following
-2.250826	@@@@ for
-2.250826	@@@@ highlight
-2.250826	@@@@ national
-2.250826	@@@@ october)
-2.250826	@@@@ on
-2.250826	@@@@ that
-1.684848	@@@@ the
-1.08183	@@@@ to
-2.250826	@@@@ towards
-2.250826	@@@@ tsunami
-2.250826	@@@@ until
-2.250826	@@@@ when,
-0.7456757	@@@@) and
-1.046706	@@@@), abdurrahman
-1.046706	@@@@), megawati
-1.921767	@@@@, a
-1.355789	@@@@, and
-1.921767	@@@@, it
-1.355789	@@@@, president
-1.921767	@@@@, sukarno
-0.4563632	@@@@, the
-1.921767	@@@@, while
-1.921767	@@@@, with
-0.7456757	@@@@-year-old hindu
-0.7378572	@@@@. </s>
-1.824857	@@@@. although
-1.824857	@@@@. from
-1.824857	@@@@. he
-1.824857	@@@@. in
-1.824857	@@@@. indonesia
-1.824857	@@@@. kh
-1.824857	@@@@. mrs
-1.824857	@@@@. since
-1.824857	@@@@. the
-0.7456757	@@@@; yogyakarta
-1.222797	@@@@s and
-0.6568194	@@@@s saw
-1.046706	@@@@s, indonesia
-1.046706	@@@@s, partly
-1.444646	@@th -
-0.8786681	@@th century
-0.8786681	@@th century,
-0.7456757	@@th-century cultivation
-0.7456757	@th to
-0.7456757	[@]). the
-0.7456757	[@], the
-1.347736	[@]. </s>
-1.347736	[@]. in
-1.347736	[@]. indonesia's
-1.347736	[@]. the
-0.7456757	[n-@,n]. </s>
-2.901012	a "must-use"
-2.901012	a "sausage
-2.901012	a "typical"
-2.335034	a >@
-2.901012	a and
-2.901012	a backlash
-2.901012	a baseline
-2.901012	a baseline,
-2.901012	a bicameral
-2.901012	a bicontinental
-2.901012	a bloody
-2.901012	a break
-2.901012	a brief
-2.901012	a c-entity
-2.901012	a can
-2.901012	a certain
-2.901012	a character-based
-2.901012	a chartered
-2.901012	a child
-2.901012	a chinese
-2.901012	a class
-2.901012	a close,
-2.901012	a committee
-2.901012	a conflicting
-2.335034	a constituent
-2.335034	a constituent,
-2.901012	a corruption
-2.901012	a council
-2.901012	a country
-2.901012	a decision),
-2.901012	a derivation
-1.721018	a different
-2.901012	a distinction
-2.901012	a diverse
-2.901012	a faltering
-2.901012	a famous
-2.901012	a federation
-2.901012	a few
-2.901012	a five-prong
-2.901012	a five-year
-2.901012	a form
-2.901012	a former
-2.901012	a founding
-2.901012	a full
-2.901012	a general
-2.901012	a generic
-2.901012	a given
-2.901012	a good
-2.901012	a governor
-1.814012	a head
-2.901012	a head/tag,
-2.901012	a high-precision/confidence
-2.335034	a large
-2.901012	a larger
-2.901012	a lingua
-2.901012	a list
-2.901012	a loss
-2.901012	a major
-2.901012	a massive
-2.901012	a mayor),
-2.335034	a member
-2.335034	a military
-2.335034	a more
-2.901012	a multiparty,
-2.901012	a multitude
-2.901012	a nation
-2.901012	a ne-translation
-2.335034	a net
-2.901012	a new
-2.335034	a newly
-2.901012	a non-orthodox,
-2.901012	a normal
-2.901012	a note
-2.901012	a occupied
-2.901012	a particularly
-2.901012	a path
-2.335034	a peace
-2.901012	a per-sentence
-2.901012	a perception
-2.901012	a period
-2.901012	a political
-2.901012	a powerful
-2.901012	a pre-sblm
-2.901012	a presidential
-2.901012	a principled,
-2.901012	a public
-2.901012	a rb-rooted-edge
-2.901012	a recognizer
-2.901012	a referendum
-2.335034	a republic
-2.901012	a result
-2.901012	a result,
-2.335034	a rule
-2.901012	a second
-2.901012	a segmentation
-2.901012	a sentence-specific
-2.901012	a separate
-2.901012	a set
-2.901012	a severe
-2.901012	a significant
-2.901012	a simple
-1.732016	a single
-2.901012	a solitary
-2.901012	a special
-2.901012	a state
-2.901012	a stroke
-2.901012	a substantial
-2.901012	a sultanate
-2.901012	a superset).
-2.901012	a survey
-2.901012	a syntaxbasedlanguagemodel?
-2.901012	a template-based
-2.335034	a translation
-2.901012	a tropical
-2.901012	a unique
-2.335034	a unitary
-2.901012	a united
-2.901012	a viterbi
-2.901012	a weakening
-2.901012	a whole
-0.7456757	a(b,rb-x(x,y),c) becomes
-0.7456757	a(b,x,y,c) for
-0.7456757	a[@-@),b[@-@) into
-0.7456757	ab together
-0.7456757	abangan, while
-0.7456757	abbreviation) which
-0.4807281	abdulrahman wahid
-0.7456757	abdurrahman wahid
-1.046706	able to
-1.046706	able to;
-0.7456757	abolished, and
-1.745676	about @%
-1.745676	about @,@@@
-1.745676	about another
-1.745676	about entities
-1.745676	about for
-1.745676	about half
-1.745676	about not
-1.745676	about rb-nonterminals
-1.179698	about the
-0.7456757	above. </s>
-0.7456757	abrahamic faiths
-0.7456757	abuses by
-0.7456757	academia </s>
-0.7456757	accepted by
-0.7456757	accepts forests
-0.7456757	according to
-0.7456757	accountability speech
-1.523827	aceh </s>
-1.523827	aceh and
-1.523827	aceh merdeka
-1.523827	aceh movement)
-1.523827	aceh war
-1.523827	aceh was
-0.7456757	aceh*, bali,
-0.7456757	aceh, peace
-0.7456757	aceh. </s>
-0.7456757	acehnese government
-0.7456757	acknowledged the
-1.222797	acquisition algorithm,
-1.222797	acquisition and
-1.222797	acquisition for
-1.222797	across many
-0.6568194	across the
-0.7456757	activity is
-1.444646	actual nth
-1.444646	actual rbt-etree
-1.444646	actual sentence
-1.444646	actual specific
-1.444646	actual translation
-1.222797	actually extracting
-1.222797	actually let
-1.222797	actually occur)
-0.7456757	ad to
-1.046706	ad-hoc rbt
-1.046706	ad-hoc unknown
-0.7456757	ad. </s>
-0.7456757	add the
-0.7456757	added by
-0.7456757	adding new
-0.4807281	addition to
-0.7456757	additional cost
-0.7456757	adjacent chinese
-0.7456757	administered much
-1.046706	administration by
-1.046706	administration is
-1.046706	administrative divisions
-1.046706	administrative systems.
-0.7456757	adopted the
-0.7456757	advantage for
-0.7456757	advantage: no
-0.7456757	affairs </s>
-0.7456757	affecting integration
-1.891804	after @@@@
-1.891804	after @@@@,
-1.325826	after a
-1.891804	after hyphens)
-1.891804	after independence
-1.891804	after independence,
-1.891804	after its
-0.7118099	after the
-1.891804	after voc
-1.891804	after years
-0.7456757	aftermath of
-1.824857	against ...
-1.824857	against a
-1.824857	against alleged
-1.824857	against an
-1.258879	against dutch
-1.824857	against east
-1.824857	against neighbouring
-0.6448631	against the
-0.7456757	ages the
-0.7456757	aging oil
-1.046706	ago (us
-1.046706	ago </s>
-0.4807281	ago, while
-0.4807281	agreed to
-0.7456757	agreement </s>
-0.7456757	agreement, gam
-0.7456757	agricultural products
-0.7456757	agung laksono)
-0.7456757	aiming to
-1.046706	aircraft designer
-1.046706	aircraft industry
-0.7456757	alarmed both
-1.046706	algorithm during
-1.046706	algorithm was
-0.7456757	algorithm, we
-0.7456757	align identified
-1.222797	aligned entity
-1.222797	aligned first
-1.222797	aligned to
-1.523827	alignment (on
-1.523827	alignment between
-1.523827	alignment errors
-1.523827	alignment of
-1.523827	alignment using
-1.523827	alignment with,
-1.347736	alignments -
-0.7817581	alignments </s>
-1.347736	alignments and
-1.745676	all (at
-1.179698	all but
-1.745676	all chinese
-1.745676	all entities
-1.745676	all parties
-1.745676	all rule
-1.179698	all the
-1.745676	all you
-0.7456757	all) could
-0.7456757	all), they
-0.6568194	alleged communist
-1.222797	alleged that
-0.7456757	allegedly suppressing
-0.7456757	alleviate economic
-1.787068	allow @-length
-1.787068	allow different
-1.787068	allow for
-1.787068	allow lhs
-1.787068	allow multiple
-1.787068	allow new
-1.787068	allow non-consecutive-constituent
-1.787068	allow nonconstituentleafrules
-1.787068	allow normal
-1.787068	allow sukarno
-1.787068	allow the
-1.046706	allowed by
-1.046706	allowed for
-1.046706	allowing monolingual
-1.046706	allowing overlapping
-1.046706	allows rb-translations
-1.046706	allows us
-0.7456757	almost @@%
-0.7456757	alone has
-0.7456757	alone, allowing
-0.7456757	along with
-1.590774	already constituent?
-1.590774	already discussed
-1.590774	already do)
-1.590774	already learned
-1.590774	already mentioned,
-1.590774	already produces
-1.590774	already provide
-0.7456757	already): </s>
-2.125887	also (important!)
-2.125887	also allows
-0.9458931	also be
-2.125887	also choose
-2.125887	also chose
-2.125887	also clearly
-2.125887	also give
-2.125887	also greenruletemplates
-2.125887	also had
-2.125887	also influential
-2.125887	also known
-2.125887	also means,
-2.125887	also need
-2.125887	also on
-2.125887	also propose
-2.125887	also quite
-2.125887	also sblm
-2.125887	also to
-2.125887	also voted
-2.125887	also well-known
-2.125887	also wrote
-0.7456757	also, since
-0.7456757	also: map
-0.7456757	altemp system
-1.222797	alternative english
-1.222797	alternative etrees/alignments
-1.222797	alternative multiple
-0.7456757	alternatives </s>
-1.590774	although even
-1.590774	although indonesia's
-1.590774	although islam
-1.590774	although it
-1.590774	although only
-1.024796	although the
-1.590774	always a
-1.590774	always considered
-1.590774	always false)
-1.590774	always get
-1.590774	always must
-1.590774	always place
-1.590774	always thought
-0.7456757	ambiguity of
-0.7456757	ambiguously translated
-0.7456757	ambon, sulawesi
-0.7456757	amid massive
-0.7456757	among the
-0.7456757	amplified by
-2.237037	an "rb-"
-2.237037	an =@
