
\data\
ngram 1=2640
ngram 2=6642
ngram 3=303

\1-grams:
-3.93049	"@@"	-0.07508878
-3.93049	"@@@	-0.08666239
-3.93049	"etree	-0.08620328
-3.93049	"fort	-0.08676435
-3.93049	"frac_between_@@_and_@@"	-0.08122402
-3.93049	"green	-0.08676435
-3.629461	"green-chinese-word-n"	-0.06774873
-3.93049	"history	-0.07351507
-3.93049	"lift"	-0.08487422
-3.93049	"must-use"	-0.08676435
-3.93049	"no	-0.08676435
-3.93049	"non-pribumi"	-0.08615223
-3.93049	"rb"	-0.08122402
-3.93049	"rb-"	-0.08676435
-3.93049	"rule-based	-0.08676435
-3.93049	"sausage	-0.08676435
-3.93049	"save"	-0.05718327
-3.93049	"simple	-0.08676435
-3.93049	"state"	-0.0841056
-3.93049	"typical"	-0.08666239
-3.93049	"virtual	-0.08676435
-3.93049	"virtual"	-0.08666239
-3.93049	##	-0.08671337
-2.976248	###	-0.3648022
-3.93049	#@	-0.07508878
-3.93049	#@,	-0.05718327
-3.93049	#chinese	-0.08661141
-3.93049	#english	-0.08671337
-3.93049	'people's	-0.08671337
-3.93049	($us	-0.08676435
-3.93049	('kkn'	-0.08261574
-3.93049	(*)	-0.05718327
-3.93049	(@:@@pm)	-0.06854681
-3.93049	(@@	-0.0864584
-3.328431	(@@@@	-0.4659305
-3.93049	(@@@@),	-0.05718327
-3.93049	(@@@@-@@).	-0.08676435
-3.629461	(@@@@-@@@@)	-0.1705759
-3.629461	(@@@@-@@@@).	-0.03759527
-3.629461	(a	-0.0866624
-3.93049	(actually,	-0.08487422
-3.93049	(aka	-0.08676435
-3.93049	(also	-0.08676435
-3.328431	(and	-0.0809658
-3.93049	(at	-0.08640739
-3.93049	(bahasa	-0.08676435
-3.93049	(bank	-0.08676435
-3.93049	(before	-0.08656041
-3.93049	(bj)	-0.0864584
-3.93049	(bps)	-0.07508878
-3.93049	(bulog	-0.08676435
-3.328431	(but	-0.08282155
-3.93049	(by	-0.08661141
-3.93049	(c_@@	-0.08676435
-3.93049	(c_@@@@@)	-0.08671337
-3.629461	(called	-0.1776168
-3.93049	(celebes),	-0.08676435
-3.93049	(cultuurstelsel),	-0.08666239
-3.93049	(currently	-0.05718327
-3.93049	(derivationforestem)	-0.06854681
-3.93049	(distinctions	-0.08461817
-3.93049	(dpd)/provinces	-0.08666239
-3.93049	(dpr)/people	-0.08666239
-3.93049	(dpr,	-0.08676435
-3.93049	(especially	-0.08610119
-3.93049	(even	-0.08676435
-3.93049	(except	-0.08122402
-3.453369	(for	-0.08497659
-3.629461	(formerly	-0.08635638
-3.93049	(franz	-0.08569258
-3.453369	(from	-0.08645839
-3.93049	(gam,	-0.05718327
-3.93049	(gdp)	-0.08569258
-3.93049	(i	-0.08666239
-3.93049	(i've	-0.08676435
-3.93049	(if	-0.08630534
-3.93049	(imo):	-0.06854681
-3.93049	(important!)	-0.07946511
-3.629461	(indonesian:	-0.08671338
-3.93049	(instead	-0.07351507
-3.93049	(iptn)	-0.08676435
-3.93049	(irian	-0.08671337
-3.93049	(islamic	-0.08676435
-3.453369	(jawa	-0.08620327
-3.93049	(july	-0.08676435
-3.328431	(kalimantan	-0.08605013
-3.93049	(kepulauan	-0.08676435
-3.93049	(krakatoa),	-0.08584586
-3.93049	(like	-0.07967241
-3.93049	(locally	-0.08656041
-3.93049	(majelis	-0.08671337
-3.93049	(maluku	-0.08666239
-3.93049	(mine,minc),(mine,maxc),(maxe,maxc),(maxe,minc)	-0.08671337
-3.93049	(mpr)	-0.08676435
-3.93049	(must	-0.08323286
-3.93049	(napoleon's	-0.08605013
-3.93049	(new	-0.08676435
-3.93049	(nonconstituentleafrules);	-0.0841056
-3.453369	(not	-0.08569258
-3.93049	(note:	-0.0864584
-3.93049	(now	-0.0864584
-3.93049	(nu).	-0.08666239
-3.629461	(nusa	-0.1775149
-3.629461	(of	-0.08579478
-3.93049	(old)	-0.08666239
-3.629461	(on	-0.05707412
-3.93049	(one	-0.07351507
-3.93049	(or	-0.08538588
-3.93049	(pre-ghkm)	-0.08579477
-3.93049	(probably	-0.0864584
-3.93049	(ranked	-0.08656041
-3.93049	(ref	-0.08584586
-3.629461	(shared	-0.1751116
-3.93049	(shouldn't	-0.08323286
-3.93049	(since	-0.08461817
-3.629461	(south	-0.1644185
-3.231521	(sulawesi	-0.08599907
-3.93049	(sulawesi),	-0.07508878
-3.453369	(sumatera	-0.08620327
-3.93049	(tagged)	-0.08650941
-3.93049	(that	-0.08671337
-3.93049	(that's	-0.08650941
-3.453369	(the	-0.08548813
-3.93049	(they	-0.08569258
-3.629461	(this	-0.1735192
-3.93049	(though	-0.08661141
-3.93049	(to	-0.08676435
-3.93049	(transmigrasi)	-0.07555979
-3.93049	(untaet).	-0.05718327
-3.93049	(us	-0.08676435
-3.93049	(usable	-0.08605013
-3.93049	(voc),	-0.07946511
-3.328431	(we	-0.08528359
-3.93049	(we've	-0.08559037
-3.93049	(what	-0.08671337
-3.93049	(when	-0.08579477
-3.231521	(which	-0.07061501
-3.93049	(within	-0.05718327
-3.93049	(wrt	-0.06854681
-3.93049	(you	-0.0864584
-2.439129	*	-0.08822184
-3.93049	*[b-@).	-0.08569258
-3.93049	*np*(cd(@),nn(billion))	-0.08528359
-3.629461	+	-0.0866624
-3.93049	,	-0.08666239
-2.588068	-	-0.02958719
-3.93049	--	-0.08676435
-2.851309	->	-0.2613243
-3.085392	...	-0.08425943
-3.93049	.@	-0.08666239
-3.93049	/	-0.08671337
-3.231521	:)	-0.2804882
-1.385183	</s>
-3.93049	<=	-0.08676435
-99	<s>	-0.298385
-3.930587	<unk>
-3.328431	=	-0.05696494
-3.93049	=@	-0.08661141
-3.629461	>@	-0.08656041
-3.152339	@	-0.08338698
-3.231521	@%	-0.1069975
-3.93049	@+@	-0.08569258
-3.93049	@+@+@	-0.08569258
-3.629461	@+@+@+@+@+@	-0.176596
-3.93049	@,	-0.08676435
-3.629461	@,@@@	-0.08379778
-3.93049	@,cd(@),@,cd(billion),@	-0.08620328
-3.93049	@-length	-0.08676435
-2.499127	@.	-0.06256227
-3.93049	@.)	-0.08569258
-3.629461	@.@%	-0.07346252
-3.93049	@.@@	-0.08676435
-3.93049	@/@	-0.08446446
-3.085392	@@	-0.1359012
-3.93049	@@%	-0.07351507
-3.629461	@@,	-0.1769536
-3.328431	@@,@@@	-0.07393528
-3.93049	@@.@	-0.08650941
-3.93049	@@.@%	-0.08676435
-3.93049	@@.@@	-0.08569258
-3.0274	@@@	-0.2364506
-3.93049	@@@,	-0.07508878
-3.453369	@@@,@@@	-0.634348
-2.425341	@@@@	-0.06179561
-3.93049	@@@@)	-0.07508878
-3.629461	@@@@),	-0.08656041
-2.754399	@@@@,	-0.1899238
-3.93049	@@@@-year-old	-0.08640739
-2.851309	@@@@.	-0.1086008
-3.93049	@@@@;	-0.08671337
-3.453369	@@@@s	-0.1334258
-3.629461	@@@@s,	-0.08395173
-3.231521	@@th	-0.1565226
-3.93049	@@th-century	-0.08666239
-3.93049	@th	-0.07555979
-3.93049	[@]).	-0.05718327
-3.93049	[@],	-0.05718327
-3.328431	[@].	-0.02883066
-3.93049	[n-@,n].	-0.06854681
-1.775154	a	-0.09209536
-3.93049	a(b,rb-x(x,y),c)	-0.08676435
-3.93049	a(b,x,y,c)	-0.08122402
-3.93049	a[@-@),b[@-@)	-0.08630534
-3.93049	ab	-0.08676435
-3.93049	abangan,	-0.08640739
-3.93049	abbreviation)	-0.08584586
-3.629461	abdulrahman	-0.1775149
-3.93049	abdurrahman	-0.08661141
-3.629461	able	-0.07550749
-3.93049	abolished,	-0.07508878
-2.93049	about	-0.06508555
-3.93049	above.	-0.06854681
-3.93049	abrahamic	-0.08676435
-3.93049	abuses	-0.08390041
-3.93049	academia	-0.06854681
-3.152339	acceptance	-0.2722208
-3.93049	accepted	-0.08390041
-3.93049	accepts	-0.08676435
-3.93049	according	-0.07555979
-3.93049	accountability	-0.08676435
-3.152339	aceh	-0.05323658
-3.93049	aceh*,	-0.08666239
-3.93049	aceh,	-0.08661141
-3.93049	aceh.	-0.06854681
-3.93049	acehnese	-0.08584586
-3.93049	acknowledged	-0.05718327
-3.453369	acquisition	-0.06929037
-3.453369	across	-0.115079
-3.93049	activity	-0.08261574
-3.231521	actual	-0.08513013
-3.453369	actually	-0.08640738
-3.93049	ad	-0.07555979
-3.629461	ad-hoc	-0.08645841
-3.93049	ad.	-0.06854681
-3.93049	add	-0.05718327
-3.93049	added	-0.08390041
-3.93049	adding	-0.08564148
-3.629461	addition	-0.1664632
-3.93049	additional	-0.0864584
-3.93049	adjacent	-0.08528359
-3.93049	administered	-0.08656041
-3.629461	administration	-0.07967242
-3.629461	administrative	-0.08671338
-3.93049	adopted	-0.05718327
-3.93049	advantage	-0.08122402
-3.93049	advantage:	-0.08625431
-3.93049	affairs	-0.06854681
-3.93049	affecting	-0.08676435
-2.784363	after	-0.1393514
-3.93049	aftermath	-0.07351507
-2.851309	against	-0.1575244
-3.93049	ages	-0.05718327
-3.93049	aging	-0.08666239
-3.629461	ago	-0.06849366
-3.629461	ago,	-0.1773108
-3.629461	agreed	-0.1664632
-3.93049	agreement	-0.06854681
-3.93049	agreement,	-0.08671337
-3.93049	agricultural	-0.08676435
-3.93049	agung	-0.08676435
-3.93049	aiming	-0.07555979
-3.629461	aircraft	-0.08671338
-3.93049	alarmed	-0.08656041
-3.629461	algorithm	-0.08415689
-3.93049	algorithm,	-0.08461817
-3.93049	align	-0.08661141
-3.453369	aligned	-0.07430263
-3.152339	alignment	-0.07209381
-3.328431	alignments	-0.09818242
-2.93049	all	-0.08641298
-3.93049	all)	-0.08569258
-3.93049	all),	-0.08661141
-3.453369	alleged	-0.1424448
-3.93049	allegedly	-0.08676435
-3.93049	alleviate	-0.08661141
-2.889098	allow	-0.04830798
-3.629461	allowed	-0.07827122
-3.629461	allowing	-0.08661141
-3.629461	allows	-0.08645841
-3.93049	almost	-0.08676435
-3.93049	alone	-0.08569258
-3.93049	alone,	-0.08671337
-3.93049	along	-0.08420817
-3.085392	already	-0.08630534
-3.93049	already):	-0.06854681
-2.550279	also	-0.1096802
-3.93049	also,	-0.08635637
-3.93049	also:	-0.08671337
-3.93049	altemp	-0.08656041
-3.453369	alternative	-0.08579476
-3.93049	alternatives	-0.06854681
-3.085392	although	-0.0771617
-3.085392	always	-0.0782712
-3.93049	ambiguity	-0.07351507
-3.93049	ambiguously	-0.08676435
-3.93049	ambon,	-0.08640739
-3.93049	amid	-0.08671337
-3.93049	among	-0.05718327
-3.93049	amplified	-0.08390041
-2.439129	an	-0.09255747
-1.574465	and	-0.07415051
-3.93049	and,	-0.08420817
-3.93049	and/or	-0.08671337
-3.93049	anglo-dutch	-0.08671337
-3.93049	angry	-0.08671337
-3.93049	animist	-0.06854681
-3.93049	annexation	-0.07351507
-3.93049	annotated/aligned	-0.08650941
-3.93049	announced	-0.08640739
-3.93049	announcement	-0.07351507
-3.629461	another	-0.1774129
-3.93049	anti-communist	-0.08676435
-2.93049	any	-0.08691344
-3.93049	anynonterminal[@-b)	-0.08661141
-3.629461	anything	-0.08410561
-3.93049	anything;	-0.08122402
-3.93049	anyway	-0.07967241
-3.93049	anyway).	-0.06854681
-3.93049	api	-0.08640739
-3.93049	applied	-0.08661141
-3.231521	apply	-0.101436
-3.93049	applying	-0.07946511
-3.93049	appointed	-0.08333562
-3.93049	appoints	-0.07946511
-3.629461	approach	-0.07936143
-3.453369	appropriate	-0.08625431
-3.453369	approximately	-0.1449002
-3.629461	approximation	-0.07319964
-3.93049	approximation;	-0.08569258
-3.93049	arabic	-0.08261574
-3.93049	arabs	-0.08666239
-3.629461	arbitrary	-0.08538589
-3.93049	archeological	-0.08676435
-3.93049	archipelagic	-0.08661141
-3.328431	archipelago	-0.08521579
-3.629461	archipelago,	-0.05685575
-3.93049	archipelago.	-0.06854681
-2.267733	are	-0.06005034
-3.93049	are,	-0.08650941
-3.93049	are:	-0.08676435
-3.152339	area	-0.1108516
-3.152339	areas	-0.0500865
-3.93049	armed	-0.08661141
-3.93049	army	-0.08666239
-3.629461	army,	-0.08487423
-3.93049	army.	-0.06854681
-3.453369	around	-0.05663725
-3.453369	arrival	-0.6213027
-3.93049	arrived	-0.07967241
-3.629461	art	-0.08671338
-3.453369	article:	-0.08640738
-3.93049	articles:	-0.08656041
-2.097982	as	-0.1831497
-3.93049	as-is	-0.06854681
-3.93049	asean+@	-0.07508878
-3.328431	asia	-0.05521441
-3.93049	asia.	-0.06854681
-3.231521	asian	-0.1087832
-3.93049	ask	-0.08507895
-3.93049	aspects	-0.07351507
-3.93049	assembly',	-0.08671337
-3.93049	assembly)	-0.07508878
-3.93049	assessing	-0.08630534
-3.93049	assigning	-0.07946511
-3.93049	associate	-0.08630534
-3.93049	association	-0.07351507
-3.93049	assumed	-0.08122402
-3.93049	assumed,	-0.08656041
-2.651737	at	-0.1952047
-3.629461	attempt	-0.08523245
-3.93049	attempted	-0.07555979
-3.93049	attempting	-0.07555979
-3.93049	attribute	-0.0841056
-3.629461	attributes	-0.1750091
-3.93049	audience	-0.06854681
-3.629461	august	-0.08507896
-3.93049	australasia,	-0.08333562
-3.93049	australia,	-0.08569258
-3.93049	australia.	-0.06854681
-3.93049	australian,	-0.08661141
-3.93049	automatically	-0.08676435
-3.93049	autonomous	-0.08661141
-3.93049	autonomy	-0.0849766
-3.629461	available	-0.07198837
-3.93049	average	-0.08676435
-3.93049	awarded	-0.07555979
-3.93049	aware	-0.07351507
-3.93049	away	-0.08671337
-3.629461	awful	-0.07868686
-3.93049	awkwardly	-0.08676435
-3.629461	b	-0.0658273
-3.93049	bacharuddin	-0.08676435
-3.152339	back	-0.3038655
-3.93049	backed	-0.08390041
-3.93049	backlash	-0.08620328
-3.93049	bad	-0.08528359
-3.93049	bad:	-0.08676435
-3.629461	bahasa	-0.1750091
-3.93049	bali	-0.08676435
-3.453369	bali,	-0.07493166
-3.93049	bali.	-0.06854681
-3.629461	balinese	-0.0866624
-3.453369	bambang	-0.1451041
-3.93049	bandung,	-0.08676435
-3.93049	bangka-belitung,	-0.08676435
-3.629461	bank	-0.07072081
-3.93049	banten,	-0.08676435
-3.152339	barat),	-0.2771738
-3.93049	baru	-0.08676435
-2.93049	based	-0.1985905
-3.93049	baseline	-0.07555979
-3.93049	baseline,	-0.08461817
-3.93049	basically	-0.08523244
-3.93049	basis	-0.08635637
-3.93049	batak	-0.06854681
-3.93049	batavian	-0.08656041
-3.93049	batik,	-0.08676435
-3.93049	bbn	-0.08676435
-3.93049	bc	-0.08390041
-2.085392	be	-0.09053232
-3.93049	be.	-0.06854681
-3.93049	be:	-0.06854681
-3.085392	became	-0.2409393
-3.328431	because	-0.06806813
-3.085392	become	-0.07317731
-3.93049	becomes	-0.08676435
-3.231521	been	-0.08635637
-3.629461	before	-0.05554318
-3.93049	before)	-0.06854681
-3.93049	began	-0.07946511
-3.085392	being	-0.2146953
-3.453369	beliefs	-0.05859967
-3.93049	belonging	-0.07555979
-3.93049	below	-0.08569258
-3.629461	bencoolen	-0.1776168
-3.93049	bengkulu,	-0.08676435
-3.93049	best	-0.07555979
-3.93049	best,	-0.08676435
-3.629461	better	-0.07889453
-2.784363	between	-0.05627
-3.93049	bicameral	-0.08676435
-3.93049	bicontinental	-0.08676435
-3.629461	billion	-0.07962061
-3.93049	billion")),x@)	-0.08122402
-3.93049	billion)	-0.06854681
-3.93049	billion,	-0.08635637
-3.629461	binarizer	-0.07550749
-3.93049	bitter	-0.08676435
-3.328431	bj	-0.4768291
-3.93049	bloc	-0.06854681
-3.629461	bloody	-0.08661141
-3.93049	blue	-0.08620328
-3.93049	bob	-0.08676435
-3.629461	body	-0.08240985
-3.93049	bogor	-0.08676435
-3.93049	bonjol	-0.06854681
-3.93049	book	-0.06854681
-3.93049	boost	-0.08620328
-3.93049	boosting	-0.05718327
-3.93049	bordered	-0.08390041
-3.93049	borders	-0.08656041
-3.93049	born	-0.07967241
-3.93049	borne	-0.08676435
-3.629461	borneo	-0.08661141
-3.629461	borneo,	-0.05439143
-3.93049	botanical	-0.08676435
-3.231521	both	-0.09107844
-3.93049	both)	-0.06854681
-3.93049	boundaries	-0.08610119
-3.629461	boundary	-0.08497661
-3.93049	break	-0.08420817
-3.93049	breakdown	-0.08261574
-3.93049	brief	-0.08671337
-3.453369	british	-0.08645839
-3.629461	british,	-0.0571287
-3.93049	broader	-0.08666239
-3.93049	brought	-0.08676435
-3.93049	brunei),	-0.08564148
-3.93049	buddhism	-0.06854681
-3.629461	buddhism,	-0.07461727
-3.629461	buddhist	-0.06838731
-3.93049	budget	-0.08676435
-3.93049	build	-0.08625431
-3.93049	building	-0.07946511
-3.629461	buildings	-0.0656668
-3.453369	built	-0.08615223
-3.93049	bureau	-0.08676435
-3.93049	burned	-0.08661141
-3.93049	bush,	-0.05718327
-3.93049	business	-0.08676435
-3.93049	business,	-0.08676435
-2.588068	but	-0.05408102
-3.629461	but,	-0.08441322
-2.174616	by	-0.2732311
-3.93049	c	-0.07508878
-3.629461	c+e	-0.08625432
-3.93049	c->e	-0.08656041
-3.152339	c-e	-0.112703
-3.93049	c-entity	-0.07555979
-3.453369	c@	-0.0865604
-3.93049	c@"	-0.08671337
-3.085392	c_@	-0.5370022
-3.328431	c_@@	-0.129383
-3.93049	c_@@@@	-0.0864584
-3.085392	c_@@@@@	-0.4814835
-3.93049	c_@@@@@)	-0.08676435
-3.93049	california	-0.07508878
-3.629461	call	-0.1480867
-3.328431	called	-0.09987879
-3.629461	came	-0.07894643
-3.93049	campaign	-0.07967241
-2.754399	can	-0.4797315
-3.93049	can't	-0.08666239
-3.93049	candidate	-0.08599907
-3.93049	candidates,	-0.08390041
-3.93049	canonical	-0.08666239
-3.328431	capital	-0.111199
-3.93049	capitalize	-0.08630534
-3.629461	captured	-0.08523245
-3.93049	cardinals	-0.08676435
-3.93049	care	-0.08630534
-3.93049	careful,	-0.08610119
-3.93049	case	-0.07351507
-3.93049	case)	-0.08671337
-3.93049	cases,	-0.08656041
-3.93049	cases?).	-0.08487422
-3.93049	catholic,	-0.07508878
-3.93049	caused	-0.08390041
-3.629461	cd(@)	-0.1771067
-3.93049	cd(@),cd(billion)	-0.08635637
-3.629461	cd(billion)	-0.1771067
-3.93049	cd(billion))	-0.08620328
-3.93049	celebes	-0.06854681
-3.93049	celebes,	-0.05718327
-3.629461	census,	-0.08513013
-2.976248	central	-0.1217699
-3.328431	century	-0.06780197
-3.629461	century,	-0.05696495
-3.328431	certain	-0.08584586
-3.93049	chalking	-0.08650941
-3.93049	chamber	-0.07967241
-3.93049	character-based	-0.08676435
-3.93049	characterized	-0.08666239
-3.93049	charismatic),	-0.08656041
-3.453369	chart	-0.07623923
-3.93049	chart,	-0.07946511
-3.93049	chartered	-0.08676435
-3.93049	check	-0.08610119
-3.93049	checking	-0.08122402
-3.93049	chief	-0.07351507
-3.93049	child	-0.08584586
-3.93049	children,	-0.08676435
-3.93049	china	-0.08671337
-3.93049	china,	-0.08676435
-2.453369	chinese	-0.08420427
-3.93049	chinese-entity/english-sentence	-0.08676435
-3.93049	chinese-owned	-0.08671337
-3.93049	chinese-rb-translations	-0.08676435
-3.93049	chinese-syntactic	-0.08666239
-3.085392	choose	-0.072454
-3.93049	chooses,	-0.0864584
-3.93049	choosing	-0.08630534
-3.93049	chose	-0.08666239
-3.629461	christian	-0.0851813
-3.93049	christianity	-0.07508878
-3.93049	churches	-0.07508878
-3.93049	cia	-0.08676435
-3.629461	cities	-0.0710909
-3.93049	cities,	-0.08584586
-3.629461	citizens	-0.1594503
-3.93049	citizens,	-0.08640739
-3.629461	city	-0.1644185
-3.93049	city,	-0.08487422
-3.93049	civilians	-0.06854681
-3.93049	claims	-0.07967241
-3.231521	class	-0.04652214
-3.93049	class-based	-0.08676435
-3.93049	classification	-0.08676435
-3.93049	classifier	-0.0849766
-3.93049	classifier/recognizer	-0.07508878
-3.93049	classify	-0.08333562
-3.93049	clearly	-0.08676435
-3.93049	climate	-0.06854681
-3.629461	close	-0.07519351
-3.93049	close,	-0.08650941
-3.93049	closely	-0.08671337
-3.93049	cloth.	-0.06854681
-3.93049	clustering	-0.07351507
-3.93049	co-operated	-0.08420817
-3.453369	code	-0.05658261
-3.93049	coffee,	-0.08666239
-3.93049	collaborate	-0.08420817
-3.93049	collaborated	-0.08420817
-3.93049	collapse	-0.07351507
-3.93049	colleagues	-0.08676435
-3.93049	collecting	-0.05718327
-3.93049	collins	-0.08640739
-3.93049	collins-)standard	-0.08605013
-3.93049	collusion,	-0.07508878
-3.629461	colonial	-0.08605014
-3.629461	colonies	-0.05466593
-3.93049	colonized	-0.08390041
-3.93049	colony	-0.07351507
-3.93049	colony,	-0.07508878
-3.93049	colony.	-0.06854681
-3.93049	combination	-0.07351507
-3.93049	combine	-0.08676435
-3.93049	come	-0.08630534
-3.93049	coming	-0.06854681
-3.93049	commander	-0.08676435
-3.93049	commander-in-chief	-0.07351507
-3.93049	commission	-0.08666239
-3.93049	committee	-0.07555979
-3.231521	common	-0.08615223
-3.93049	commonly	-0.08661141
-3.93049	communal	-0.08666239
-3.629461	communist	-0.08671338
-3.93049	communities	-0.06854681
-3.231521	community	-0.09817199
-3.93049	community,	-0.08676435
-3.93049	company	-0.08676435
-3.629461	compete	-0.08671338
-3.629461	complete	-0.08390041
-3.93049	completely	-0.08676435
-3.629461	complex	-0.06822776
-3.629461	complexity	-0.07503643
-3.93049	complicated	-0.08569258
-3.93049	component	-0.08676435
-3.629461	comprising	-0.1480867
-3.93049	conceived	-0.08630534
-3.93049	concentrated	-0.08420817
-3.93049	condemnation	-0.08122402
-3.93049	condition	-0.08405431
-3.93049	conditioned	-0.08405431
-3.93049	conference	-0.06854681
-3.93049	confidence"	-0.08610119
-3.93049	confirm	-0.08487422
-3.453369	conflict	-0.0839004
-3.93049	conflicting	-0.08676435
-3.629461	conflicts	-0.08513013
-3.93049	conflicts,	-0.08656041
-3.93049	confrontation	-0.08620328
-3.93049	confusingly	-0.08656041
-3.93049	congress	-0.08676435
-3.328431	consecutive	-0.0864584
-3.93049	consider	-0.05718327
-3.629461	considered	-0.08671338
-3.93049	considers	-0.07946511
-3.629461	consisting	-0.1644185
-3.93049	consists	-0.07351507
-3.152339	constituent	-0.0725154
-3.93049	constituent).	-0.08569258
-3.453369	constituent,	-0.143316
-3.93049	constituent-forcing	-0.08671337
-3.93049	constituent?	-0.08666239
-3.152339	constituents	-0.05745599
-3.93049	constituents):	-0.06854681
-3.629461	constituents,	-0.08446447
-3.93049	constitute	-0.08656041
-3.93049	constituting	-0.07946511
-3.93049	constitutional	-0.08676435
-3.93049	constrain	-0.05718327
-3.93049	constrains	-0.05718327
-3.629461	consultative	-0.08671338
-3.93049	contain	-0.08676435
-3.453369	context	-0.07540284
-3.93049	context)	-0.06854681
-3.93049	context,	-0.08640739
-3.93049	context.	-0.06854681
-3.93049	context/domain	-0.06854681
-3.93049	contexts	-0.08333562
-3.93049	control	-0.06854681
-3.93049	convention	-0.07351507
-3.629461	conversely	-0.1774129
-3.93049	cooperation	-0.07508878
-3.93049	copper	-0.07508878
-3.629461	corpora	-0.08313007
-3.231521	corpus	-0.08828518
-3.93049	corpus)	-0.07555979
-3.93049	corpus),	-0.07508878
-3.231521	corpus,	-0.1033508
-3.93049	corpus.	-0.06854681
-3.93049	correct	-0.08666239
-3.93049	correspond	-0.07555979
-3.93049	corresponding	-0.07555979
-3.453369	corruption	-0.1334258
-3.93049	corruption,	-0.08676435
-3.085392	cost	-0.03138601
-3.93049	cost).	-0.06854681
-3.93049	cost,	-0.07508878
-3.93049	cost?	-0.06854681
-3.93049	costing	-0.08676435
-3.629461	costs	-0.08117239
-2.588068	could	-0.1544488
-3.93049	could,	-0.08650941
-3.328431	council	-0.09004694
-3.93049	council,	-0.08671337
-3.93049	counter	-0.05718327
-3.0274	country	-0.0628214
-3.629461	country's	-0.08630535
-3.93049	country,	-0.08333562
-3.93049	country.	-0.06854681
-3.231521	counts	-0.09838677
-3.93049	coup	-0.08671337
-3.93049	course	-0.05718327
-3.453369	course,	-0.08599906
-3.93049	court	-0.08676435
-3.93049	cover	-0.08584586
-3.93049	cracking	-0.08661141
-3.629461	create	-0.08513013
-3.93049	created	-0.08676435
-3.93049	creating	-0.05718327
-3.93049	creation	-0.07351507
-3.93049	creditors	-0.08656041
-3.93049	crisis	-0.0841056
-3.93049	crisis,	-0.08666239
-3.93049	criticized	-0.08610119
-3.93049	crown.	-0.06854681
-3.453369	crude	-0.1449512
-3.93049	cspan	-0.08676435
-3.629461	cspan=(@,@)	-0.1776168
-3.93049	cspans.	-0.06854681
-3.93049	cstring	-0.07555979
-3.453369	cultivation	-0.1440321
-3.93049	cultural	-0.08666239
-3.93049	culture	-0.07508878
-3.93049	cultures	-0.06854681
-3.629461	current	-0.08553927
-3.93049	current).	-0.08405431
-3.629461	currently	-0.08559038
-3.93049	cut	-0.08666239
-3.93049	cutting	-0.08666239
-3.629461	daerah	-0.08523245
-3.93049	daerah)	-0.08333562
-3.93049	dances,	-0.08122402
-3.93049	data	-0.07555979
-3.93049	data;	-0.08661141
-3.93049	date	-0.07351507
-3.93049	dates	-0.08676435
-3.93049	daughter	-0.07351507
-3.93049	daughters	-0.0841056
-3.629461	dayak	-0.0748269
-3.629461	de	-0.1776168
-3.93049	dead	-0.08671337
-3.93049	dealing	-0.08420817
-3.93049	deaths	-0.08676435
-3.93049	dec	-0.08518129
-3.328431	december	-0.475552
-3.93049	decide	-0.08405431
-3.93049	decided	-0.07555979
-3.93049	decision),	-0.08661141
-3.93049	decisions	-0.08656041
-3.629461	declare	-0.0861012
-3.328431	declared	-0.09949631
-3.93049	declined	-0.08676435
-2.976248	decoder	-0.1936212
-3.93049	decoder,	-0.08676435
-3.93049	decoder/sblm-transform	-0.08671337
-3.93049	decoder/translation	-0.08610119
-3.93049	decoder/whoever	-0.08569258
-3.328431	decoding	-0.08044452
-3.93049	decoding).	-0.08676435
-3.328431	decoding,	-0.1169604
-3.93049	decreased	-0.08666239
-3.93049	decreasing	-0.08671337
-3.93049	deep	-0.08671337
-3.93049	default	-0.08666239
-3.93049	default,	-0.08528359
-3.93049	defeat	-0.07351507
-3.93049	defer	-0.0864584
-3.93049	deficit	-0.07555979
-3.93049	define	-0.08650941
-3.93049	definitely	-0.08666239
-3.93049	degree	-0.08625431
-3.93049	democracy	-0.08446446
-3.93049	democratic	-0.08656041
-3.629461	demographics	-0.05466593
-3.93049	demonstrations	-0.07508878
-3.453369	densely	-0.1450531
-3.93049	dependencies	-0.08446446
-3.453369	depending	-0.631842
-3.93049	deputy	-0.08676435
-3.93049	derivation	-0.08661141
-3.93049	described	-0.08676435
-3.93049	described,	-0.08635637
-3.93049	designer	-0.07508878
-3.93049	desirability	-0.08676435
-3.453369	despite	-0.144594
-3.93049	destroyed	-0.08559037
-3.93049	determine	-0.08671337
-3.93049	deterministic	-0.08676435
-3.629461	deterministic,	-0.08630535
-3.93049	devastated	-0.0864584
-3.93049	develop	-0.08671337
-3.93049	development.	-0.06854681
-3.93049	developments	-0.06854681
-3.328431	dewan	-0.4769821
-3.93049	dictator	-0.08650941
-3.93049	died	-0.08661141
-3.93049	differ	-0.08676435
-3.93049	differences	-0.08610119
-2.851309	different	-0.08477182
-3.453369	difficult	-0.07508878
-3.93049	difficulties	-0.06854681
-3.93049	diponegoro	-0.0849766
-3.93049	direct	-0.08671337
-3.93049	directly-elected	-0.08122402
-3.93049	dirgantara	-0.08676435
-3.93049	disadvantage:	-0.0864584
-3.93049	disarmed	-0.08390041
-3.93049	discontent	-0.08676435
-3.629461	discovered	-0.1776168
-3.93049	discoverer	-0.06854681
-3.93049	discussed	-0.08333562
-3.93049	displaying	-0.08635637
-3.93049	dissolved	-0.07967241
-3.93049	distance	-0.08676435
-3.93049	distinct	-0.08661141
-3.93049	distinction	-0.0841056
-3.93049	distinctions	-0.0841056
-3.629461	diverse	-0.08630535
-3.93049	divide	-0.05718327
-3.629461	divided	-0.1772088
-3.93049	divides	-0.08676435
-3.93049	divisions	-0.06854681
-3.085392	do	-0.08369511
-3.93049	do)	-0.06854681
-3.93049	does	-0.08405431
-3.93049	does,	-0.08569258
-3.629461	doesn't	-0.08671338
-3.328431	domestic	-0.08640739
-3.629461	dominant	-0.08656041
-3.93049	dominate	-0.05718327
-3.93049	dominating	-0.05718327
-3.085392	don't	-0.08287297
-3.93049	done	-0.08666239
-3.328431	down	-0.08210081
-3.93049	downfall	-0.07351507
-3.93049	dpd	-0.08333562
-3.629461	dr	-0.1775149
-3.93049	drawing	-0.07555979
-3.453369	due	-0.6233475
-3.93049	duma	-0.08666239
-3.93049	dur)	-0.08333562
-3.152339	during	-0.2927166
-2.754399	dutch	-0.1282882
-3.93049	dwellings	-0.08584586
-3.93049	dwipa	-0.08640739
-3.93049	e	-0.08676435
-3.93049	e)	-0.07508878
-3.93049	e-entity	-0.06854681
-3.93049	e-subtrees	-0.0841056
-3.0274	e.g	-0.935974
-3.93049	e.g.:	-0.06854681
-3.152339	each	-0.08425942
-3.93049	earlier)	-0.08569258
-3.629461	earliest	-0.08661141
-3.629461	early	-0.1774639
-3.93049	earth's	-0.08671337
-3.93049	earth,	-0.0864584
-3.453369	earthquake	-0.05625463
-3.93049	earthquakes	-0.07508878
-3.93049	easiest	-0.08661141
-2.468093	east	-0.3479323
-3.93049	eastern	-0.08605013
-3.93049	easy	-0.07555979
-3.93049	ecological	-0.08671337
-3.328431	economic	-0.08661141
-3.231521	economy	-0.1002082
-3.93049	edges	-0.07351507
-3.93049	edit	-0.08676435
-3.93049	education	-0.07508878
-3.93049	effect	-0.08405431
-3.93049	effect.	-0.06854681
-3.93049	effectively,	-0.0841056
-3.93049	effort	-0.07555979
-3.629461	elected	-0.08086248
-3.231521	election	-0.08674396
-3.93049	election,	-0.08615223
-3.629461	elections	-0.07951695
-3.93049	elites	-0.08333562
-3.93049	emerging	-0.08676435
-3.93049	empty	-0.08671337
-3.93049	encouraged	-0.08671337
-2.754399	english	-0.09255817
-3.93049	english)	-0.06854681
-3.93049	english,	-0.08461817
-3.93049	english-character-edit-distance	-0.08676435
-3.93049	english-standard	-0.08676435
-3.93049	english-word,	-0.07508878
-3.93049	english?	-0.06854681
-3.93049	enriched	-0.08676435
-3.93049	enrico	-0.08676435
-3.93049	ensure	-0.0841056
-3.93049	entered	-0.08333562
-3.93049	enterprise	-0.08676435
-3.93049	entirely	-0.08507895
-2.976248	entities	-0.1094702
-3.93049	entities).	-0.06854681
-3.629461	entities,	-0.08594801
-2.726371	entity	-0.1960949
-3.93049	entity,	-0.08650941
-3.93049	entity-etrees	-0.08461817
-3.93049	entity-recognition	-0.08671337
-3.93049	entity-region	-0.08661141
-3.93049	entity-sequence?	-0.06854681
-3.93049	entity-translations	-0.08676435
-3.93049	entity-type	-0.08676435
-3.93049	entries	-0.08446446
-3.93049	equator,	-0.08671337
-3.93049	equipment	-0.06854681
-3.93049	equivalent	-0.08666239
-3.93049	er,	-0.05718327
-3.93049	era	-0.06854681
-3.629461	erectus	-0.08553927
-3.93049	erroneous	-0.08676435
-3.93049	errors	-0.07508878
-3.453369	espan	-0.06796168
-3.93049	espan,	-0.08676435
-3.93049	especially	-0.0849766
-3.93049	essentially,	-0.05718327
-3.93049	establish	-0.07946511
-3.93049	established	-0.08405431
-3.93049	esteemed	-0.08676435
-3.453369	estimate	-0.05406177
-3.629461	estimated	-0.0736727
-3.93049	estimates	-0.08446446
-3.93049	estring	-0.08584586
-3.93049	estrings	-0.08676435
-3.93049	ethical	-0.08676435
-2.889098	ethnic	-0.09933171
-3.93049	ethnicity	-0.07508878
-3.085392	etree	-0.07837515
-3.93049	etree,	-0.08676435
-3.629461	etree/cstring	-0.1774639
-3.453369	etrees	-0.07293659
-3.93049	etrees,	-0.08661141
-3.93049	etrees/alignments	-0.08676435
-3.328431	eucalyptus	-0.4767781
-3.93049	eurasian	-0.08656041
-3.93049	eurasian,	-0.07508878
-3.93049	eurasians	-0.08671337
-3.93049	europe	-0.08528359
-3.93049	europeans	-0.08676435
-3.93049	europeans,	-0.08676435
-3.93049	evaluates	-0.05718327
-3.453369	even	-0.0804489
-3.629461	evenly	-0.06780198
-3.453369	events	-0.06822775
-3.93049	events)	-0.06854681
-3.93049	eventual	-0.08676435
-3.629461	eventually	-0.0571287
-3.231521	every	-0.08451571
-3.93049	everything	-0.08594801
-3.93049	exacerbated	-0.08625431
-3.629461	exact	-0.0866624
-3.629461	exactly	-0.05652798
-3.629461	example	-0.07309444
-3.328431	example,	-0.08553926
-3.93049	example.	-0.06854681
-3.93049	example:	-0.06854681
-3.93049	examples	-0.07351507
-3.629461	except	-0.06982072
-3.93049	exchanged	-0.08122402
-3.93049	exist	-0.08405431
-3.453369	existing	-0.08630534
-3.629461	expanded	-0.08543702
-3.93049	expect	-0.08569258
-3.93049	expecting	-0.07946511
-3.93049	experienced	-0.08390041
-3.629461	explicit	-0.08625432
-3.93049	explicitly	-0.08671337
-3.629461	exporter	-0.1644185
-3.93049	expose	-0.08661141
-3.93049	expressed	-0.08676435
-3.93049	expressions	-0.08630534
-3.93049	extensive	-0.08666239
-3.93049	external	-0.08666239
-3.629461	extracting	-0.05674652
-3.93049	extreme,	-0.08620328
-3.93049	facilitated	-0.08390041
-3.93049	factbook	-0.08676435
-3.629461	facto	-0.08625432
-3.629461	fair	-0.1664632
-3.93049	faiths	-0.07351507
-3.93049	falls	-0.08676435
-3.93049	false)	-0.08676435
-3.93049	faltering	-0.08656041
-3.93049	familiar	-0.08420817
-3.93049	families	-0.08671337
-3.93049	family	-0.08671337
-3.328431	famous	-0.08055233
-3.629461	far	-0.08328425
-3.93049	fatalities	-0.08666239
-3.93049	fauna	-0.08676435
-3.93049	fears	-0.08671337
-3.93049	feature-based	-0.08676435
-3.93049	features,	-0.07508878
-3.629461	federation	-0.07340995
-3.453369	few	-0.08564147
-3.93049	fields	-0.07508878
-3.93049	fifth	-0.08661141
-3.93049	fighting	-0.08620328
-3.93049	figure	-0.08630534
-3.93049	files	-0.08656041
-3.93049	finally	-0.08676435
-3.629461	financial	-0.0866624
-3.328431	find	-0.08599907
-3.93049	fine	-0.07555979
-3.93049	finer	-0.08605013
-3.0274	first	-0.1030542
-3.93049	five-prong	-0.08676435
-3.629461	five-year	-0.08671338
-3.93049	fleet	-0.07508878
-3.93049	flexible	-0.08671337
-3.93049	flora	-0.07508878
-3.629461	flores	-0.1753679
-3.629461	floresiensis	-0.06817456
-3.93049	follow	-0.07946511
-3.085392	following	-0.4629862
-1.893064	for	-0.1527957
-3.93049	for)	-0.08569258
-3.453369	force	-0.07503641
-3.453369	forced	-0.1338446
-3.328431	forces	-0.05554317
-3.453369	forcing	-0.07801122
-2.889098	foreign	-0.1160804
-3.93049	forests	-0.08333562
-3.629461	form	-0.1644185
-3.93049	formations	-0.07967241
-3.93049	formed	-0.08405431
-3.453369	former	-0.08328424
-3.93049	formerly	-0.08671337
-3.93049	forms	-0.07967241
-3.629461	found	-0.07847909
-3.93049	founding	-0.08661141
-3.93049	four	-0.08676435
-3.93049	fourth	-0.08559037
-3.93049	fractionally	-0.08676435
-3.93049	fragment	-0.05718327
-3.93049	fragmented,	-0.0864584
-3.93049	framework	-0.07351507
-3.93049	franca	-0.08122402
-3.328431	freaky	-0.4769821
-3.629461	free	-0.07524585
-3.93049	free,	-0.08676435
-3.93049	freed	-0.08630534
-3.629461	freedom	-0.07346252
-3.93049	freely	-0.08420817
-3.93049	frequency	-0.07508878
-3.93049	frequent	-0.08676435
-3.93049	frequently	-0.08676435
-3.93049	friends	-0.07508878
-2.374188	from	-0.3147163
-3.93049	fruit	-0.07967241
-3.93049	frustration	-0.08650941
-3.93049	fu	-0.08676435
-3.328431	fuel	-0.1296381
-3.93049	full	-0.08676435
-3.93049	functions,	-0.0864584
-3.93049	fund)	-0.07508878
-3.93049	fundamentalism	-0.07508878
-3.93049	funds,	-0.05718327
-3.629461	further	-0.08523245
-3.93049	future,	-0.08261574
-3.629461	fuzzy	-0.08671338
-3.629461	gam	-0.08225536
-3.93049	garden	-0.08446446
-3.629461	gas,	-0.08650941
-3.93049	geese.	-0.06854681
-3.453369	general	-0.06796168
-3.93049	generalize	-0.08528359
-3.453369	generate	-0.08640738
-3.93049	generated	-0.08640739
-3.93049	generic	-0.08676435
-3.93049	geography	-0.07351507
-3.93049	gerakan	-0.08650941
-3.93049	german	-0.08671337
-3.93049	germane	-0.07555979
-2.816547	get	-0.1517928
-3.93049	gets	-0.08666239
-3.93049	getting	-0.08640739
-3.328431	ghkm	-0.06271368
-3.629461	give	-0.07894643
-3.0274	given	-0.06047988
-3.629461	giving	-0.05663726
-3.629461	giza	-0.1775149
-3.93049	glib:	-0.08620328
-3.93049	global	-0.08676435
-3.629461	going	-0.07524585
-3.93049	gold	-0.06854681
-3.93049	gold-standard	-0.08599907
-3.453369	good	-0.06918422
-3.93049	gorontalo,	-0.08625431
-3.93049	governance	-0.07508878
-3.93049	governed	-0.08390041
-2.651737	government	-0.1679975
-3.453369	governor	-0.06769545
-3.629461	gradually	-0.0866624
-3.93049	grammar	-0.08676435
-3.93049	grammar's	-0.08676435
-3.93049	graph").	-0.08676435
-3.93049	greatly	-0.07967241
-3.93049	greedily	-0.08676435
-3.93049	greek:	-0.08676435
-3.629461	green	-0.1770046
-3.93049	greenruletemplates	-0.08122402
-3.93049	grip	-0.08405431
-3.93049	gross	-0.08661141
-3.93049	group	-0.0841056
-3.152339	groups	-0.08317881
-3.629461	groups.	-0.1594503
-3.93049	growing	-0.08599907
-3.93049	growth	-0.06854681
-3.93049	guerrillas	-0.07508878
-3.231521	guinea	-0.06960866
-3.93049	guinea)	-0.07508878
-3.93049	guinea,	-0.08533474
-3.93049	gus	-0.08676435
-3.93049	gutierrez,	-0.07946511
-3.93049	guys	-0.08650941
-3.085392	habibie	-0.09681638
-3.93049	habibie's	-0.08676435
-2.889098	had	-0.1689176
-3.93049	half	-0.07351507
-3.93049	hamengkubuwono	-0.08676435
-3.93049	hand	-0.07508878
-3.93049	handling	-0.07555979
-3.93049	happen	-0.08122402
-3.93049	hard	-0.08122402
-3.93049	hard-to-reach	-0.08666239
-3.93049	hardships,	-0.05718327
-3.93049	harmony	-0.08261574
-2.588068	has	-0.05168815
-3.629461	hatta	-0.08313007
-2.386423	have	-0.3501186
-3.93049	having	-0.05718327
-3.231521	he	-0.116935
-2.93049	head	-0.2091999
-3.93049	head-propagation	-0.08671337
-3.93049	head/tag,	-0.07508878
-3.93049	heading	-0.08650941
-3.93049	health	-0.08661141
-3.93049	heard	-0.08122402
-3.93049	heavily	-0.08676435
-3.93049	heavy	-0.08666239
-3.629461	held	-0.076709
-3.93049	helped	-0.08676435
-3.93049	helpful	-0.07967241
-3.93049	here?	-0.08538588
-3.629461	heuristic	-0.08661141
-3.93049	hide	-0.0841056
-3.93049	high	-0.08630534
-3.93049	high-precision/confidence	-0.08548814
-3.629461	highest	-0.06844049
-3.93049	highlight	-0.08569258
-3.93049	highly	-0.08676435
-3.93049	himself	-0.07508878
-3.93049	hindering	-0.08635637
-3.0274	hindu	-0.0954649
-3.93049	hindu,	-0.08507895
-3.93049	hindu-influenced	-0.08671337
-3.453369	hinduism	-0.1299552
-3.0274	his	-0.08605012
-3.93049	historical	-0.08676435
-3.93049	history	-0.06854681
-3.93049	hit	-0.08390041
-3.93049	hold	-0.07946511
-3.453369	home	-0.6233475
-3.93049	homeless)	-0.06854681
-3.629461	hominid,	-0.1774639
-3.231521	homo	-0.1576972
-3.629461	hook	-0.1771578
-3.93049	hopefully	-0.08656041
-3.93049	horrific	-0.08671337
-3.93049	houses,	-0.08671337
-3.231521	how	-0.1092023
-3.152339	however,	-0.08266719
-3.328431	human	-0.4769821
-3.93049	hundred	-0.08671337
-3.231521	hundreds	-0.348635
-3.93049	hyphen;	-0.08676435
-3.93049	hyphens)	-0.0841056
-3.328431	i	-0.1291788
-3.629461	i'd	-0.08661141
-3.328431	i've	-0.0849766
-3.93049	i.e	-0.06854681
-3.93049	id	-0.08666239
-3.93049	idea	-0.06854681
-3.93049	identical	-0.08676435
-3.93049	identification	-0.07508878
-3.93049	identification/segmentation	-0.07351507
-3.328431	identified	-0.1253845
-3.328431	identify	-0.1195779
-2.784363	if	-0.1343305
-3.93049	ignores	-0.05718327
-3.629461	ii,	-0.08415689
-3.93049	ikat	-0.07508878
-3.93049	illiteracy,	-0.0864584
-3.93049	imam	-0.08676435
-3.93049	impact	-0.07351507
-3.93049	imperial	-0.08656041
-3.629461	implementing	-0.08472061
-3.453369	important	-0.1395625
-3.93049	important,	-0.05718327
-3.629461	importer	-0.1644185
-3.93049	imposing	-0.08640739
-3.93049	imprisoned	-0.08390041
-1.787476	in	-0.2348509
-3.453369	include	-0.08666238
-3.93049	included	-0.08676435
-3.453369	including	-0.0865604
-3.93049	income	-0.08610119
-3.93049	incorrect	-0.08671337
-3.93049	incorrectly	-0.08635637
-3.93049	increase	-0.08656041
-3.629461	increased	-0.05707412
-3.93049	increasing	-0.08676435
-3.93049	indeed	-0.08671337
-2.851309	independence	-0.1519091
-3.93049	independence,	-0.08676435
-3.231521	independent	-0.07040334
-3.93049	independent:	-0.06854681
-3.629461	india	-0.08671338
-3.93049	indian	-0.08676435
-3.93049	indic	-0.0864584
-3.93049	indicate	-0.08620328
-3.93049	indicating	-0.08676435
-3.231521	indies	-0.1385658
-3.93049	indirect	-0.08671337
-3.93049	indisputable	-0.0841056
-3.93049	indo)	-0.08569258
-2.206215	indonesia	-0.3243799
-2.816547	indonesia's	-0.110003
-3.93049	indonesia),	-0.08261574
-3.93049	indonesia).	-0.08569258
-3.328431	indonesia,	-0.1295361
-3.629461	indonesia.	-0.1594503
-2.399012	indonesian	-0.1692327
-3.629461	indonesian)	-0.07077371
-3.085392	indonesians	-0.0757271
-3.93049	indonesians,	-0.08625431
-3.93049	indus	-0.08661141
-3.93049	industry	-0.08676435
-3.93049	infinite)	-0.08671337
-3.231521	influence	-0.08784539
-3.629461	influenced	-0.1748039
-3.453369	influences	-0.1317465
-3.629461	influential	-0.07962061
-3.629461	info	-0.08635638
-3.453369	information	-0.08261573
-3.93049	infrequent	-0.08605013
-3.629461	inhabited	-0.1748039
-3.93049	inhabited,	-0.08446446
-3.93049	initial	-0.08630534
-3.93049	initially	-0.08569258
-3.93049	initilaized	-0.08420817
-3.93049	input	-0.08656041
-3.93049	insert	-0.08676435
-3.453369	inside	-0.1447981
-3.93049	inside-costs	-0.07351507
-3.93049	inspiration	-0.06854681
-3.629461	instability	-0.07319964
-3.93049	instance	-0.08333562
-3.629461	instead	-0.06593427
-3.629461	instead,	-0.05691035
-3.93049	instituted	-0.07946511
-3.93049	instrument	-0.05718327
-3.629461	integrate	-0.08635638
-3.93049	integrated	-0.08661141
-3.93049	integrating	-0.08661141
-3.93049	integration	-0.07351507
-3.93049	interact	-0.07967241
-3.93049	interesting	-0.08548814
-3.93049	interior	-0.08650941
-3.93049	intermarriage	-0.08569258
-3.328431	internal	-0.08650941
-3.453369	international	-0.08666238
-3.93049	internationally,	-0.08523244
-2.93049	into	-0.1737818
-3.93049	introduce	-0.08625431
-3.629461	introduced	-0.05345681
-3.93049	invasion,	-0.0864584
-3.629461	investment	-0.1705759
-3.93049	investment,	-0.08584586
-3.93049	invited	-0.08640739
-3.93049	involve	-0.08630534
-3.93049	involving	-0.08671337
-3.93049	ir	-0.06854681
-3.453369	irian	-0.0866114
-3.93049	irrigation	-0.07967241
-2.016677	is	-0.1813065
-3.629461	is,	-0.08640739
-3.152339	islam	-0.05345678
-3.93049	islam,	-0.08584586
-3.453369	islamic	-0.08666238
-3.0274	island	-0.3501552
-3.629461	island,	-0.07451242
-2.754399	islands	-0.05295861
-3.93049	islands)	-0.08261574
-3.629461	islands,	-0.07319964
-3.453369	isn't	-0.07660464
-3.93049	isolated	-0.08650941
-3.93049	issue	-0.08122402
-3.93049	issues	-0.08676435
-2.350707	it	-0.1588206
-3.152339	it's	-0.07597802
-3.93049	it:	-0.06854681
-3.328431	items	-0.1263619
-3.93049	items,	-0.07508878
-2.629461	its	-0.1383514
-3.152339	jakarta	-0.1138753
-3.93049	jakarta*,	-0.08676435
-3.93049	jakarta,	-0.08671337
-3.93049	jambi,	-0.08625431
-3.231521	japan	-0.0791021
-3.93049	japan,	-0.05718327
-3.328431	japanese	-0.08569258
-2.700042	java	-0.2452117
-3.93049	java"	-0.08676435
-3.231521	java,	-0.1181678
-3.93049	java.	-0.06854681
-3.328431	javanese	-0.4654595
-3.93049	javanese,	-0.08676435
-3.93049	jawa	-0.08676435
-3.629461	jaya	-0.08645841
-3.93049	jaya)	-0.08569258
-3.93049	jaya).	-0.06854681
-3.93049	jointly,	-0.08569258
-3.93049	jonathangraehl	-0.08569258
-3.93049	jones	-0.08579477
-3.93049	jonmay	-0.06854681
-3.93049	july	-0.08605013
-2.629461	just	-0.1058856
-3.93049	justified,	-0.08630534
-3.93049	jusuf	-0.08676435
-3.231521	kalimantan	-0.3476572
-3.93049	kalimantan),	-0.08640739
-3.629461	kalimantan,	-0.08630535
-3.328431	keep	-0.04880894
-3.629461	keeping	-0.05701954
-3.629461	kh	-0.1776168
-3.453369	killed	-0.1253909
-3.93049	kind	-0.07351507
-3.453369	kingdom	-0.1245899
-3.453369	kingdoms	-0.0683873
-3.629461	know	-0.08543702
-3.231521	known	-0.3584556
-3.93049	known,	-0.07508878
-3.93049	krakatau	-0.08676435
-3.629461	kulit	-0.08328425
-3.93049	label	-0.08594801
-3.93049	labels	-0.08676435
-3.93049	laborers	-0.08584586
-3.93049	lack	-0.07351507
-3.93049	laksono)	-0.08528359
-3.93049	lampung,	-0.08671337
-3.0274	language	-0.04914256
-3.93049	language,	-0.08507895
-3.93049	languages	-0.08676435
-3.93049	languages/ethnic	-0.08650941
-3.453369	large	-0.08666238
-3.629461	large,	-0.08640739
-3.93049	largely	-0.08671337
-3.93049	larger	-0.08666239
-3.453369	largest	-0.07956877
-3.93049	last	-0.08676435
-3.93049	lasted	-0.0849766
-3.93049	late	-0.08671337
-3.231521	later	-0.06534561
-3.93049	latter's	-0.08676435
-3.152339	lattice	-0.2532626
-3.93049	lattice:	-0.08676435
-3.93049	law)	-0.07967241
-3.453369	lca	-0.06071567
-3.93049	lca,	-0.08640739
-3.629461	lead	-0.1664632
-3.152339	leader	-0.2888822
-3.93049	leading	-0.07555979
-3.152339	learn	-0.08240983
-3.93049	learned	-0.08390041
-3.0274	least	-0.08271864
-3.93049	leave	-0.05718327
-3.93049	leaves	-0.07508878
-3.93049	leaving	-0.08630534
-3.453369	led	-0.1310098
-3.629461	left	-0.05554318
-3.93049	leftward	-0.08625431
-3.93049	legacy,	-0.08676435
-3.93049	legal	-0.08671337
-3.629461	legislative	-0.0866624
-3.93049	legislature.	-0.06854681
-3.453369	less	-0.08640738
-3.231521	let	-0.0896019
-3.93049	let's	-0.08538588
-3.93049	lethality	-0.07967241
-3.93049	level,	-0.08569258
-3.231521	lexical	-0.33066
-3.629461	lhs	-0.08379778
-3.93049	li	-0.08676435
-3.93049	liberal	-0.08671337
-3.93049	library	-0.07351507
-3.93049	lieutenant	-0.08666239
-3.93049	life	-0.06854681
-3.93049	lifestyles	-0.07508878
-3.152339	like	-0.07307978
-3.629461	likely	-0.08671338
-3.93049	likely)	-0.06854681
-3.93049	limited	-0.0864584
-3.629461	line	-0.08189467
-3.93049	lingua	-0.08676435
-3.629461	linguistic	-0.07487929
-3.93049	linguistically	-0.08676435
-3.93049	linked	-0.07555979
-3.328431	list	-0.4638857
-3.629461	lists	-0.1644185
-3.629461	literal	-0.08451571
-3.93049	lives	-0.06854681
-3.93049	lives),	-0.08666239
-3.629461	living	-0.06774873
-3.152339	lm	-0.113471
-3.93049	lm-competitive	-0.08420817
-3.93049	lobbying,	-0.08656041
-3.453369	local	-0.08615223
-3.629461	located	-0.07894643
-3.629461	location	-0.08395173
-3.93049	lombok,	-0.07508878
-3.93049	long-running	-0.08666239
-3.453369	longer	-0.1416232
-3.93049	look	-0.08584586
-3.629461	looking	-0.08024199
-3.93049	loss	-0.07351507
-3.93049	lost	-0.05718327
-3.93049	low,	-0.08676435
-3.93049	m	-0.08528359
-3.629461	made	-0.0838491
-3.629461	madurese	-0.08594801
-3.93049	madurese,	-0.07508878
-3.231521	main	-0.33066
-3.453369	mainly	-0.08666238
-3.93049	maintain	-0.07946511
-3.93049	majelis	-0.08671337
-3.0274	major	-0.08502777
-3.93049	makassar,	-0.08640739
-3.152339	make	-0.07554291
-3.93049	makes	-0.08671337
-3.629461	making	-0.1750091
-3.93049	malacca.	-0.06854681
-3.93049	malay	-0.08671337
-3.93049	malay),	-0.08676435
-3.93049	malay,	-0.08640739
-3.231521	malaysia	-0.08723995
-3.93049	malaysia,	-0.07508878
-3.93049	maluku	-0.08676435
-3.629461	maluku,	-0.08661141
-3.93049	man	-0.08569258
-3.93049	mandated	-0.07946511
-3.93049	mandatory.	-0.06854681
-3.93049	manually	-0.08676435
-2.93049	many	-0.09665327
-3.93049	many->one	-0.08676435
-3.629461	map	-0.1644185
-3.93049	mapping	-0.0849766
-3.629461	march	-0.1769536
-3.93049	mark	-0.08625431
-3.629461	marked	-0.08277011
-3.93049	markedly	-0.08610119
-3.93049	marlborough".	-0.06854681
-3.93049	marshall	-0.08666239
-3.93049	martial	-0.08671337
-3.93049	massacred	-0.08656041
-3.629461	massive	-0.08645841
-3.93049	mataram,	-0.08635637
-3.93049	matches	-0.08528359
-3.93049	matches,	-0.08461817
-3.93049	matching	-0.08640739
-3.93049	matching.	-0.06854681
-3.93049	matter	-0.08122402
-3.629461	matters	-0.06416591
-3.93049	maximum	-0.08676435
-2.889098	may	-0.2352894
-3.629461	maybe	-0.08451571
-3.93049	mayor),	-0.07508878
-3.93049	meaning),	-0.08630534
-3.93049	meaningful	-0.08661141
-3.328431	means	-0.08065574
-3.93049	means,	-0.08676435
-3.93049	meant	-0.0841056
-3.93049	medan,	-0.08676435
-3.93049	media,	-0.07508878
-3.328431	megawati	-0.4769821
-3.93049	melanesia	-0.06854681
-3.328431	member	-0.4638857
-3.085392	members	-0.4223244
-3.629461	memorize	-0.0558717
-3.93049	mention	-0.07351507
-3.93049	mentioned,	-0.07946511
-3.93049	merdeka	-0.08676435
-3.453369	method	-0.08559036
-3.93049	methods	-0.07508878
-3.93049	methods),	-0.07508878
-3.93049	middle	-0.08676435
-3.93049	middlemen	-0.07508878
-2.976248	might	-0.2244719
-3.93049	migrants	-0.07508878
-3.93049	migration	-0.08676435
-2.93049	military	-0.2000715
-3.629461	militia	-0.06849366
-3.93049	militia.	-0.06854681
-3.152339	million	-0.08992738
-3.93049	mind	-0.08487422
-3.453369	minister	-0.07340994
-3.93049	ministers,	-0.08656041
-3.93049	minority	-0.08676435
-3.93049	ml	-0.08676435
-3.453369	model	-0.08029372
-3.629461	model)	-0.08559038
-3.93049	model,	-0.08676435
-3.93049	models	-0.07508878
-3.93049	modern	-0.08676435
-3.93049	modification	-0.08650941
-3.93049	modified	-0.08676435
-3.629461	modify	-0.1480867
-3.629461	modifying	-0.1480867
-3.93049	modtm	-0.08650941
-3.93049	modtm+modsblm	-0.08569258
-3.93049	modtm+modsblm:	-0.08671337
-3.93049	modtm:	-0.08671337
-3.93049	mohammad	-0.08671337
-3.93049	moluccas,	-0.07508878
-3.93049	monday,	-0.08518129
-3.93049	money	-0.08676435
-3.453369	monolingual	-0.08415688
-2.629461	more	-0.198161
-3.93049	morning	-0.07351507
-2.550279	most	-0.1922688
-3.453369	mostly	-0.0865604
-3.93049	movement	-0.07508878
-3.93049	movement)	-0.08584586
-3.629461	mpr	-0.08640739
-3.453369	mrs	-0.6163344
-3.231521	much	-0.08492047
-3.93049	multiparty,	-0.08676435
-3.328431	multiple	-0.08559037
-3.93049	multitude	-0.07351507
-3.629461	muslim	-0.08656041
-3.93049	muslim,	-0.08620328
-3.629461	muslim-majority	-0.1775149
-3.629461	muslims	-0.0866624
-3.453369	must	-0.08019023
-3.93049	my	-0.08676435
-3.93049	mystic	-0.08676435
-3.93049	mythological	-0.08666239
-3.93049	mythology	-0.06854681
-3.93049	n	-0.08605013
-3.93049	nadathul	-0.08676435
-3.93049	name,	-0.08671337
-3.629461	named	-0.1769025
-3.93049	named-entity	-0.08676435
-3.231521	names	-0.1131118
-3.629461	names,	-0.0747745
-3.93049	napoleonic	-0.08676435
-3.328431	nation	-0.09004694
-2.976248	national	-0.08461817
-3.93049	nationalists	-0.08661141
-3.629461	nations	-0.1644185
-3.629461	nations,	-0.1659922
-3.93049	nationwide	-0.08676435
-3.328431	native	-0.4214369
-3.93049	natives	-0.07351507
-3.453369	natural	-0.1451041
-3.231521	ne	-0.3295365
-3.93049	ne-tagger	-0.08640739
-3.93049	ne-tagger.	-0.06854681
-3.93049	ne-translation	-0.07967241
-3.93049	near-matches	-0.07555979
-3.93049	nearly	-0.08656041
-3.93049	necessarily	-0.08625431
-3.93049	necessary	-0.08635637
-2.976248	need	-0.1923285
-3.93049	needed	-0.07555979
-3.93049	neighbouring	-0.08676435
-3.93049	nepotism	-0.08676435
-3.93049	nes	-0.07967241
-3.93049	nesos	-0.08661141
-3.629461	net	-0.1776168
-3.231521	netherlands	-0.06125658
-3.629461	netherlands'	-0.0866624
-3.93049	netherlands,	-0.08676435
-3.93049	neutrally	-0.08420817
-2.568763	new	-0.1813969
-3.453369	newly	-0.1451041
-3.93049	nias	-0.08671337
-3.93049	nice	-0.07555979
-3.93049	nnp	-0.08528359
-2.889098	no	-0.2168005
-3.93049	non-aligned	-0.08676435
-3.93049	non-consecutive-constituent	-0.08666239
-3.93049	non-constituent	-0.08676435
-3.93049	non-head	-0.08676435
-3.93049	non-orthodox,	-0.08676435
-3.629461	non-overlapping	-0.08635638
-3.93049	non-sibling	-0.08650941
-3.93049	nonconstituent	-0.08584586
-3.93049	nonconstituentleafrules	-0.07508878
-3.93049	nonterm	-0.08528359
-3.93049	nonterm)	-0.08122402
-3.453369	nonterminal	-0.07545516
-3.93049	nonterminal);	-0.07555979
-3.93049	nonterminal-splitting	-0.07555979
-3.93049	nonterminal/head/etc	-0.07555979
-3.93049	nonterminal/rule"	-0.0849766
-3.93049	nonterminals	-0.08676435
-3.93049	nonterminals,	-0.0864584
-3.629461	normal	-0.08533475
-3.453369	normally	-0.08163684
-3.453369	north	-0.085948
-3.93049	northern	-0.08666239
-2.483333	not	-0.08517648
-3.629461	not,	-0.08390041
-3.629461	note	-0.08359244
-3.93049	note:	-0.08610119
-3.93049	notice	-0.05718327
-3.231521	now	-0.1111875
-3.453369	now,	-0.0841056
-3.93049	now-vanished	-0.08676435
-3.93049	np(*cd*(@),*nn*(billion),nn(dogs),	-0.07508878
-3.93049	np_geese(cd(@),cd(billion),nns(geese))	-0.08569258
-3.93049	np_geese(rb_num_billion(cd(@),cd(billion),nns(geese)),	-0.08635637
-3.93049	npb	-0.08650941
-3.93049	npb(nnp(hillary),nnp(clinton))	-0.08635637
-3.93049	nps	-0.08420817
-3.93049	nth	-0.08528359
-3.93049	num_@@	-0.08122402
-3.328431	number	-0.4638857
-3.93049	number-writing	-0.08261574
-3.93049	numbers	-0.07508878
-3.453369	numbers/names	-0.06636187
-3.93049	numbers/names,	-0.07508878
-3.93049	numerals	-0.08528359
-3.93049	nurtanio	-0.08671337
-3.629461	nusa	-0.1775149
-3.93049	nxm?	-0.08650941
-3.328431	o	-0.05400682
-3.93049	observers	-0.07508878
-3.629461	occupation	-0.08379778
-3.629461	occupation,	-0.08650941
-3.93049	occupation:	-0.08543701
-3.453369	occupied	-0.08338699
-3.93049	occupiers	-0.06854681
-3.93049	occur)	-0.06854681
-3.93049	occurred	-0.07967241
-3.93049	occurs	-0.08420817
-3.93049	october)	-0.06854681
-1.520557	of	-0.1889402
-3.453369	off	-0.08400301
-3.93049	offered	-0.08676435
-3.93049	office	-0.07967241
-3.93049	officers	-0.08584586
-3.453369	official	-0.08589692
-3.453369	officially	-0.05707411
-3.93049	officials	-0.06854681
-3.453369	often	-0.08630534
-3.453369	oil	-0.05625463
-3.453369	oil,	-0.0839004
-3.328431	old	-0.08538588
-3.93049	old_tree.	-0.06854681
-3.93049	older	-0.08676435
-2.198097	on	-0.2683591
-3.93049	once	-0.08666239
-2.93049	one	-0.1854371
-3.93049	one).	-0.08333562
-3.93049	one-day	-0.08656041
-3.93049	one-time	-0.08676435
-3.93049	one-word	-0.08671337
-3.453369	ones	-0.1345765
-2.754399	only	-0.09637733
-3.93049	opec,	-0.08615223
-3.93049	open-class	-0.08656041
-3.93049	opera	-0.08676435
-3.93049	opportunity	-0.07555979
-3.93049	optimized	-0.08676435
-3.93049	option.	-0.06854681
-2.453369	or	-0.04368462
-3.93049	or,	-0.08666239
-3.93049	orde	-0.08676435
-3.231521	order	-0.3060014
-3.93049	order)	-0.08671337
-3.93049	ordered	-0.08676435
-3.93049	ordinals	-0.08676435
-3.93049	ordinary	-0.08661141
-3.93049	organization	-0.07351507
-3.93049	organization,	-0.08676435
-3.93049	organizational	-0.08656041
-3.629461	original	-0.08671338
-3.93049	originally	-0.07946511
-3.93049	originating	-0.0849766
-3.93049	origins;	-0.08676435
-3.085392	other	-0.06598774
-3.629461	others	-0.08060405
-3.93049	otherwise	-0.08676435
-3.93049	otherwise,	-0.08122402
-3.152339	our	-0.0840543
-3.93049	ousting	-0.05718327
-2.93049	out	-0.1924601
-3.93049	output	-0.06854681
-3.93049	output,	-0.08461817
-3.93049	outright	-0.08671337
-3.453369	outside	-0.08635636
-3.152339	over	-0.2749963
-3.93049	overall.	-0.06854681
-3.93049	overlapping	-0.08676435
-3.93049	overtones,	-0.08676435
-3.93049	overwhelming	-0.08676435
-3.93049	overwhelmingly	-0.08676435
-3.629461	owing	-0.1664632
-3.453369	own	-0.0866114
-3.93049	p(e|c)	-0.08656041
-3.93049	pachung,	-0.08676435
-3.93049	pacific	-0.07508878
-3.93049	pacific,	-0.08676435
-3.93049	padri	-0.08640739
-3.93049	pairs	-0.08405431
-3.93049	pairs,	-0.08661141
-3.93049	palembang,	-0.07508878
-3.93049	palm	-0.08666239
-3.0274	papua	-0.2198201
-3.93049	papua*,	-0.08676435
-3.93049	papuan,	-0.08420817
-3.231521	parallel	-0.08635637
-3.453369	parent	-0.1226076
-3.93049	parents/siblings,	-0.08610119
-3.93049	paris	-0.08676435
-3.085392	parliament	-0.1089133
-3.93049	parliament,	-0.08420817
-3.453369	parse	-0.08543701
-3.93049	parse/translation	-0.06854681
-3.93049	parsed	-0.08666239
-3.93049	parsed-to-english	-0.08528359
-3.93049	parser	-0.08569258
-3.453369	parses	-0.07340994
-3.231521	parsing	-0.07056558
-3.93049	parsing,	-0.0864584
-3.629461	part	-0.1644185
-3.93049	part,	-0.08523244
-3.93049	partial	-0.08666239
-3.453369	particular	-0.08497659
-3.93049	particular,	-0.07946511
-3.453369	particularly	-0.08574367
-3.93049	parties	-0.0841056
-3.453369	partly	-0.08313005
-3.93049	partners	-0.08446446
-3.085392	parts	-0.4245383
-3.93049	party	-0.06854681
-3.93049	passed	-0.08625431
-3.93049	passing	-0.05718327
-3.93049	patching	-0.08630534
-3.93049	path	-0.0849766
-3.93049	pdi-p,	-0.05718327
-3.328431	peace	-0.08630534
-3.93049	peasants	-0.07508878
-3.93049	pencak	-0.08676435
-3.93049	peng.	-0.06854681
-3.93049	penntreebank?-(or	-0.08676435
-2.816547	people	-0.2619954
-3.629461	people's	-0.08640739
-3.93049	people,	-0.07508878
-3.93049	peoples,	-0.08656041
-3.328431	per-sentence	-0.08594801
-3.93049	percents	-0.08661141
-3.93049	perception	-0.0841056
-3.328431	perhaps	-0.08287298
-3.93049	perhaps:	-0.06854681
-3.629461	period	-0.1644185
-3.93049	permitted	-0.07555979
-3.629461	permusyawaratan	-0.08661141
-3.93049	perplexity	-0.08405431
-3.93049	perspective	-0.08569258
-3.328431	perwakilan	-0.1774639
-3.93049	philosophy	-0.08671337
-3.93049	phrase	-0.08656041
-3.93049	pinyin-izer)	-0.08523244
-3.629461	place	-0.08625432
-3.93049	placed	-0.08610119
-3.93049	places	-0.0864584
-3.629461	plagued	-0.1748039
-3.453369	plan	-0.1396141
-3.93049	plan"	-0.08676435
-3.93049	plantations	-0.07508878
-3.93049	plates,	-0.08661141
-3.93049	pleasing	-0.08640739
-3.93049	policies	-0.07508878
-3.93049	policy,	-0.08584586
-3.93049	policy-making	-0.07508878
-3.085392	political	-0.09881242
-3.453369	politics	-0.1147511
-3.93049	politics,	-0.08635637
-3.93049	poorer	-0.08676435
-3.328431	popular	-0.1296381
-3.453369	populated	-0.08559036
-3.93049	populated.	-0.06854681
-2.93049	population	-0.07673336
-3.93049	population,	-0.08261574
-3.231521	populous	-0.1086259
-3.453369	portuguese	-0.08615223
-3.93049	portuguese,	-0.07508878
-3.93049	position	-0.0864584
-3.93049	position-dependent	-0.08676435
-3.93049	positions	-0.07351507
-3.93049	poso	-0.08676435
-3.93049	possibilities	-0.08569258
-3.93049	possibility	-0.0841056
-3.453369	possible	-0.1152429
-3.93049	possible)	-0.06854681
-3.93049	possible,	-0.08333562
-3.93049	potential	-0.08676435
-3.93049	potentially	-0.08635637
-3.93049	poverty,	-0.08676435
-3.629461	power	-0.07503643
-3.328431	powerful	-0.07082658
-3.93049	powers	-0.06854681
-3.629461	practice	-0.05680113
-3.93049	practiced	-0.07967241
-3.93049	prambanan,	-0.08261574
-3.93049	pre-existing	-0.08666239
-3.93049	pre-sblm	-0.08661141
-3.93049	precondition.	-0.06854681
-3.93049	preconditions	-0.06854681
-3.93049	predicate	-0.08676435
-3.93049	predominantly	-0.08671337
-3.629461	prefer	-0.04512183
-3.93049	prefix	-0.08122402
-3.93049	pres_bush	-0.0864584
-3.93049	pres_bush,	-0.07508878
-3.152339	presence	-0.5257573
-3.93049	present-day	-0.08656041
-3.93049	preserve	-0.08676435
-3.629461	presidency	-0.08431071
-2.588068	president	-0.2015733
-3.93049	president).	-0.05718327
-3.93049	president,	-0.08676435
-3.93049	president.	-0.06854681
-3.93049	presidente	-0.08676435
-3.629461	presidential	-0.08645841
-3.93049	presidents:	-0.08676435
-3.93049	press	-0.06854681
-3.93049	pressure,	-0.08676435
-3.93049	pretext	-0.07351507
-3.629461	pretty	-0.08656041
-3.93049	previous	-0.08656041
-3.93049	previously	-0.08676435
-3.629461	pribumi	-0.08671338
-3.93049	pribumis	-0.06854681
-3.93049	pribumis,	-0.07508878
-3.453369	prices	-0.06817454
-3.629461	prime	-0.1775658
-3.93049	prince	-0.08676435
-3.629461	principal	-0.0866624
-3.93049	principled,	-0.08676435
-3.93049	prison	-0.08671337
-3.93049	private	-0.08676435
-3.93049	privileges:	-0.05718327
-3.629461	pro-indonesia	-0.0866624
-3.328431	prob	-0.08513013
-3.629461	prob=.@	-0.1594503
-3.629461	probability	-0.06982072
-3.152339	probably	-0.07440753
-3.93049	problem	-0.07555979
-3.328431	problems	-0.06438063
-3.93049	problems:	-0.06854681
-3.629461	probs	-0.0852836
-3.93049	proceed,	-0.05718327
-3.629461	process	-0.07235737
-3.328431	produce	-0.08055873
-3.93049	produced	-0.08676435
-3.629461	produces	-0.08661141
-3.93049	producing	-0.08605013
-3.93049	product	-0.08676435
-3.93049	production	-0.08569258
-3.93049	products	-0.08666239
-3.93049	profit	-0.08122402
-3.93049	program	-0.08569258
-3.93049	programs	-0.08671337
-3.93049	progressive	-0.07508878
-3.93049	promised	-0.07946511
-3.93049	propagate	-0.08650941
-3.629461	proposals	-0.08656041
-3.152339	propose	-0.07362014
-3.93049	propose,	-0.08261574
-3.0274	proposed	-0.05185778
-3.93049	proposed).	-0.08661141
-3.93049	proposed,	-0.08635637
-3.93049	proposes	-0.07946511
-3.629461	proposing	-0.08574369
-3.93049	protestant	-0.08420817
-3.453369	provide	-0.05919753
-3.93049	provided	-0.08390041
-3.93049	providing	-0.05718327
-3.629461	province	-0.05466593
-3.231521	provinces	-0.1041462
-3.629461	provinces,	-0.06141873
-3.93049	pt	-0.08676435
-3.93049	public	-0.08671337
-3.93049	punan,	-0.08656041
-3.93049	punished	-0.08122402
-3.93049	purpose:	-0.07555979
-3.93049	purposes,	-0.07508878
-3.93049	pushed	-0.08666239
-3.93049	qualified	-0.08671337
-3.93049	quality,	-0.08676435
-3.93049	quite	-0.08620328
-3.93049	quote	-0.08640739
-3.93049	radu	-0.08676435
-3.93049	raffles	-0.08446446
-3.453369	rakyat	-0.08518128
-3.93049	rakyat/people's	-0.08671337
-3.93049	ran	-0.08122402
-3.328431	rare	-0.08625431
-3.93049	rare,	-0.07508878
-3.93049	rare_chinese_name,	-0.08528359
-3.93049	rarer	-0.08671337
-3.93049	rares,	-0.08666239
-3.93049	rb	-0.08661141
-3.93049	rb-entities	-0.08656041
-3.93049	rb-entity-treebanking-standard	-0.08676435
-3.629461	rb-etree	-0.08523245
-3.93049	rb-etrees).	-0.06854681
-3.93049	rb-nonterm,	-0.08584586
-3.231521	rb-nonterminal	-0.06806813
-3.629461	rb-nonterminal,	-0.07905022
-3.93049	rb-nonterminal/heads	-0.08640739
-3.328431	rb-nonterminals	-0.06748237
-3.93049	rb-num(*cd*(@),*nn*(billion)),	-0.08584586
-3.93049	rb-num(*np*(cd(@),nn(billion)))	-0.08528359
-3.93049	rb-num(cd(@))	-0.08620328
-3.629461	rb-num(cd(@),cd(billion))	-0.1771067
-3.93049	rb-num(det(a)	-0.08676435
-3.328431	rb-program	-0.08584586
-3.93049	rb-program)	-0.08594801
-3.93049	rb-program).	-0.06854681
-2.976248	rb-programs	-0.07765482
-3.93049	rb-programs)	-0.06854681
-3.93049	rb-programs).	-0.06854681
-3.93049	rb-progs	-0.0864584
-3.629461	rb-restructured	-0.0866624
-3.93049	rb-rooted-edge	-0.08420817
-3.328431	rb-subtree	-0.05592641
-3.93049	rb-subtree->sblm-list	-0.08676435
-3.93049	rb-subtrees	-0.07508878
-3.93049	rb-syntax-rules	-0.08405431
-3.93049	rb-syntax-translation	-0.06854681
-3.93049	rb-system	-0.07555979
-3.93049	rb-systems	-0.08635637
-3.93049	rb-translation	-0.07351507
-3.453369	rb-translations	-0.06249811
-3.93049	rb-translator	-0.07555979
-3.93049	rb-xxx's	-0.08666239
-3.93049	rb-xxx(old_tree)	-0.08122402
-3.629461	rb-xxx,	-0.08630535
-3.629461	rb_prob	-0.08656041
-3.152339	rb_prob=.@	-0.520789
-3.93049	rb_prob=.@@	-0.06854681
-3.328431	rbt	-0.08569258
-3.93049	rbt-etree	-0.08548814
-3.93049	rbt-methods	-0.08630534
-3.93049	rbt-produced	-0.08676435
-3.93049	rbt-rules	-0.08528359
-3.93049	rbt;	-0.08666239
-3.93049	read	-0.07555979
-3.328431	real	-0.1287702
-3.93049	reality	-0.07351507
-3.231521	really	-0.3361788
-3.93049	really-open	-0.08656041
-3.93049	reasonable)	-0.0864584
-3.93049	rebelled	-0.07967241
-3.93049	rebellions	-0.08620328
-3.629461	rebels	-0.1767493
-3.93049	rebuilding	-0.08610119
-3.93049	received	-0.08666239
-3.93049	recently	-0.0864584
-3.629461	recognize	-0.07503643
-3.453369	recognized	-0.07445998
-3.93049	recognizer	-0.08569258
-3.93049	recognizing	-0.08676435
-3.93049	recorded:	-0.08559037
-3.93049	recourse	-0.07555979
-3.93049	recovery	-0.0849766
-3.93049	recurring	-0.08676435
-3.629461	reduce	-0.0571287
-3.93049	reduction	-0.07351507
-3.453369	reference	-0.07451241
-3.453369	referendum	-0.05859967
-3.93049	reform	-0.07508878
-3.93049	refused	-0.07555979
-3.93049	regencies	-0.07508878
-3.629461	regime	-0.07235737
-3.152339	region	-0.1195361
-3.629461	region,	-0.07951695
-3.231521	regional	-0.08620328
-3.93049	regionally	-0.08676435
-3.453369	regions	-0.07029746
-3.93049	regrets	-0.08650941
-3.152339	reiterated	-0.2907386
-3.93049	rejected	-0.08569258
-3.629461	related	-0.1664632
-3.453369	relations	-0.1402849
-3.93049	relative	-0.07555979
-3.93049	relatively	-0.08666239
-3.93049	release	-0.0849766
-3.93049	relied	-0.08405431
-3.453369	religion	-0.1195361
-3.629461	religion,	-0.08415689
-3.93049	religions.	-0.06854681
-3.085392	religious	-0.07451241
-3.93049	relinquished	-0.08579477
-3.93049	rely	-0.08405431
-3.629461	remain	-0.07925772
-3.93049	remainder	-0.08666239
-3.93049	remaining	-0.08630534
-3.93049	remains	-0.07946511
-3.93049	remedy	-0.08661141
-3.93049	remember	-0.08671337
-3.629461	remove	-0.05652798
-3.93049	rendered	-0.07967241
-3.93049	rendering	-0.08594801
-3.93049	renderings	-0.07555979
-3.93049	reoccupy	-0.08640739
-3.93049	repeatedly	-0.08676435
-3.93049	replaced	-0.08390041
-3.93049	replacing	-0.08656041
-3.93049	representation.	-0.06854681
-3.453369	representative	-0.1450022
-3.93049	representatives	-0.08661141
-3.93049	representing	-0.08671337
-3.231521	republic	-0.1419105
-3.93049	republik	-0.08676435
-3.453369	require	-0.1151336
-3.93049	required	-0.07555979
-3.93049	requirement	-0.0841056
-3.93049	rescorer	-0.06854681
-3.629461	research	-0.05630932
-3.629461	resentment	-0.0835411
-3.93049	resign	-0.07508878
-3.93049	resign.	-0.06854681
-3.93049	resignation	-0.07508878
-3.93049	resources	-0.08666239
-3.93049	response	-0.07555979
-3.453369	responsible	-0.6290117
-3.93049	rest	-0.07351507
-3.93049	restarted	-0.07508878
-3.93049	restored	-0.0864584
-3.629461	restrict	-0.05674652
-3.453369	restructure	-0.08436196
-3.93049	restructuredenglish	-0.08569258
-3.328431	restructuring	-0.07461727
-3.453369	result	-0.6213027
-3.629461	result,	-0.08605014
-3.93049	resulted	-0.07967241
-3.93049	resulting	-0.08676435
-3.93049	retrain	-0.08487422
-3.93049	revised	-0.05718327
-3.453369	revolution	-0.1131077
-3.93049	rhs	-0.07351507
-3.93049	riau	-0.08605013
-3.93049	riau),	-0.08676435
-3.93049	riau,	-0.08625431
-3.93049	rice,	-0.08676435
-3.93049	rich	-0.08676435
-3.328431	right	-0.0615808
-3.328431	rights	-0.07951695
-3.453369	riot	-0.05859967
-3.93049	rioters	-0.06854681
-3.93049	riots	-0.07967241
-3.93049	riots,	-0.08569258
-3.93049	rise,	-0.08656041
-3.93049	robust	-0.08661141
-3.93049	role	-0.05718327
-3.93049	role(normal	-0.08666239
-3.93049	roles	-0.08610119
-3.93049	root	-0.08676435
-3.93049	root-rb-nonterms	-0.08676435
-3.629461	roots	-0.1705759
-3.629461	roughly	-0.0866624
-3.93049	route	-0.07555979
-3.93049	rubber	-0.06854681
-2.784363	rule	-0.2588986
-3.629461	rule,	-0.07461727
-3.328431	rule-based	-0.4203134
-3.93049	rule-cost	-0.08610119
-3.93049	rule.	-0.06854681
-3.93049	rule:	-0.06854681
-3.93049	ruled	-0.08333562
-2.784363	rules	-0.1276612
-3.93049	rules")	-0.06854681
-3.629461	rules,	-0.08564149
-3.93049	rules:	-0.06854681
-3.328431	run	-0.4159449
-3.93049	s(np(x@,x@,cd(@)),vp(cd(billion),x@))	-0.08594801
-3.93049	s(x@,cd(@),cd(billion),x@)	-0.08594801
-3.93049	s(x@,rb-num(cd(@),cd(billion)),x@).	-0.06854681
-3.93049	s(x@,x@,rb-num("@	-0.08676435
-3.0274	same	-0.07977601
-3.93049	sangeang	-0.08676435
-3.93049	sapiens	-0.08630534
-3.93049	satellite	-0.08676435
-3.93049	saturday,	-0.08625431
-3.93049	sausage:	-0.08676435
-3.629461	saw	-0.08405432
-3.93049	say	-0.08671337
-3.93049	say,	-0.08676435
-2.453369	sblm	-0.09941948
-3.93049	sblm)	-0.07555979
-3.629461	sblm,	-0.08374646
-3.453369	sblm-etree	-0.08640738
-3.93049	sblm-non-constituent	-0.08599907
-3.93049	sblm-restructuring	-0.08666239
-3.93049	sblm-subtrees	-0.08122402
-3.93049	sbmt	-0.06854681
-3.93049	scale	-0.08625431
-3.629461	scandal	-0.08671338
-3.93049	scattered	-0.08666239
-3.93049	scholars,	-0.07508878
-3.93049	schools	-0.07508878
-3.93049	schools,	-0.08676435
-3.93049	scientific	-0.08676435
-3.328431	score	-0.02877241
-3.453369	scored	-0.08348972
-3.453369	scores	-0.08553925
-3.93049	scoring	-0.06854681
-3.93049	secession	-0.07508878
-3.629461	second	-0.08671338
-3.93049	second-class	-0.08676435
-3.93049	second-largest	-0.08671337
-3.93049	securing	-0.05718327
-3.328431	see	-0.08369512
-3.453369	seen	-0.07665682
-3.93049	segmentation	-0.07351507
-3.93049	seismic	-0.07508878
-3.453369	selatan),	-0.0847206
-3.93049	semantic	-0.08676435
-3.629461	semantics	-0.06694917
-3.93049	semantics,	-0.08569258
-3.93049	semarang.	-0.06854681
-3.93049	sent	-0.07946511
-3.629461	sentence	-0.07962061
-3.629461	sentence(s)-specific	-0.08656041
-3.93049	sentence)	-0.08446446
-3.453369	sentence,	-0.1312731
-3.629461	sentence-specific	-0.08589694
-3.93049	sentence-specific,	-0.08620328
-3.93049	sentences	-0.08420817
-3.453369	separate	-0.08666238
-3.93049	separately)	-0.08569258
-3.93049	separatism	-0.08671337
-3.93049	sequence,	-0.08605013
-3.93049	sequences	-0.07351507
-3.93049	series.	-0.06854681
-3.93049	serious	-0.08676435
-3.93049	set	-0.07351507
-2.976248	several	-0.08364378
-3.93049	several)	-0.08676435
-3.93049	severe	-0.08666239
-3.93049	shadow	-0.08676435
-3.93049	sharia	-0.08676435
-3.93049	sharpened,	-0.08676435
-3.93049	shopkeepers	-0.07508878
-3.629461	shops,	-0.07503643
-2.700042	should	-0.4301039
-3.93049	show	-0.05718327
-3.93049	shows,	-0.08676435
-3.93049	sibling	-0.08671337
-3.93049	side	-0.07351507
-3.93049	significant	-0.08676435
-3.93049	significantly	-0.08650941
-3.93049	silat	-0.08261574
-3.453369	similar	-0.1337923
-3.629461	simple	-0.08640739
-3.93049	simplify	-0.05718327
-2.976248	since	-0.07058851
-3.93049	singapore,	-0.08656041
-3.231521	single	-0.08615223
-3.93049	sites	-0.08676435
-3.93049	siva	-0.08676435
-3.93049	size	-0.07351507
-3.93049	skintones	-0.06854681
-3.93049	slaps	-0.08650941
-3.93049	slow	-0.07967241
-3.93049	small	-0.08671337
-3.93049	small-time	-0.08676435
-3.93049	smaller	-0.08656041
-2.976248	so	-0.0700912
-3.93049	so,	-0.08661141
-3.93049	soap	-0.08676435
-3.93049	socialist	-0.08676435
-3.93049	solitary	-0.08671337
-3.93049	solve	-0.08569258
-2.588068	some	-0.1198941
-3.93049	something	-0.0841056
-3.453369	sometimes	-0.08425943
-3.453369	somewhat	-0.07456484
-3.93049	songket	-0.08676435
-3.629461	soon	-0.08574369
-3.93049	sort	-0.08605013
-3.085392	south	-0.2639519
-3.93049	southeast	-0.08676435
-3.453369	span	-0.07493166
-3.93049	span).	-0.08487422
-3.629461	span,	-0.07487929
-3.93049	span/prob	-0.08676435
-3.93049	spanish	-0.07508878
-3.328431	spans	-0.05274073
-3.93049	sparked	-0.08390041
-3.629461	sparseness	-0.07487929
-3.93049	sparseness;	-0.08569258
-3.93049	speak	-0.08584586
-3.93049	speaker:	-0.08676435
-3.93049	spec	-0.08122402
-3.152339	special	-0.1448491
-3.629461	species	-0.1644185
-3.453369	specific	-0.08543701
-3.328431	specifically	-0.09982417
-3.93049	specified	-0.08630534
-3.629461	specify	-0.04930932
-3.93049	specter	-0.07351507
-3.93049	speech	-0.08661141
-3.93049	sphere	-0.08446446
-3.93049	spice	-0.08676435
-3.453369	spices	-0.05603584
-3.93049	splice	-0.08650941
-3.629461	spliced	-0.07936143
-3.328431	splicing	-0.07061501
-3.93049	splicing,	-0.05718327
-3.629461	split	-0.1480867
-3.629461	spoken	-0.076709
-3.93049	sri	-0.08671337
-3.93049	stabilized	-0.08666239
-3.629461	staff	-0.06141873
-3.93049	stages	-0.08661141
-3.93049	stamford	-0.08676435
-3.629461	standard	-0.08117239
-3.93049	stars.	-0.06854681
-3.629461	started	-0.08235836
-3.328431	state	-0.1182188
-3.93049	state)	-0.07508878
-3.629461	state,	-0.07503643
-3.93049	stated	-0.07555979
-3.328431	states	-0.09933229
-3.629461	states,	-0.08579478
-3.93049	static-rules	-0.08676435
-3.231521	statistics	-0.06255202
-3.629461	status	-0.07461727
-3.93049	status.	-0.06854681
-3.93049	step	-0.08661141
-3.93049	still	-0.08671337
-3.93049	storefront	-0.08676435
-3.93049	strained	-0.08666239
-3.93049	string	-0.08676435
-3.93049	string).	-0.08661141
-3.629461	strings	-0.08400302
-3.93049	strings,	-0.08676435
-3.93049	stroke	-0.08676435
-3.93049	strong	-0.08666239
-3.629461	struck	-0.08266721
-3.629461	structure	-0.1664632
-3.93049	struggle	-0.08122402
-3.93049	struggle,	-0.07508878
-3.93049	stuff	-0.08610119
-3.93049	sub-districts.	-0.06854681
-3.93049	sub-regions	-0.08420817
-3.629461	subdivided	-0.1772088
-3.93049	subdivisions	-0.07351507
-3.93049	subdivisions,	-0.08635637
-3.93049	subsets)	-0.08620328
-3.93049	subsidies	-0.07555979
-3.93049	subsidies,	-0.08676435
-3.93049	subsidized	-0.08661141
-3.93049	subsidy	-0.07351507
-3.93049	substantial	-0.08661141
-3.93049	substantial,	-0.08610119
-3.453369	substitute	-0.1396141
-3.629461	substitution	-0.08395173
-3.93049	substring	-0.07967241
-3.93049	substructure	-0.08676435
-3.629461	subtree	-0.08323286
-3.93049	subtrees	-0.08584586
-3.93049	subtrees,	-0.08620328
-3.152339	such	-0.103275
-3.93049	suffered	-0.08676435
-3.93049	suffers	-0.08625431
-3.629461	sufficient	-0.06822776
-3.93049	suggest	-0.08579477
-3.152339	suharto	-0.07832317
-3.453369	suharto's	-0.0865604
-3.93049	suharto,	-0.0841056
-3.152339	sukarno	-0.08553094
-3.93049	sukarno's	-0.08584586
-3.328431	sukarno,	-0.04411079
-3.328431	sukarnoputri	-0.1219722
-3.93049	sukarnos	-0.08676435
-3.0274	sulawesi	-0.2254801
-3.93049	sulawesi,	-0.08559037
-3.629461	sultan	-0.08671338
-3.93049	sultanate	-0.08666239
-3.93049	sumatera)	-0.08446446
-3.0274	sumatra	-0.2519782
-3.93049	sumatra)	-0.0849766
-3.453369	sumatra,	-0.05691034
-3.93049	summit	-0.06854681
-3.93049	sundanese,	-0.08528359
-3.93049	superior	-0.05718327
-3.93049	superset).	-0.08610119
-3.93049	supervision	-0.08390041
-3.629461	supplied	-0.0838491
-3.93049	supplies	-0.07351507
-3.93049	supply	-0.08656041
-3.93049	support	-0.06854681
-3.93049	supporters	-0.06854681
-3.93049	supporting	-0.08666239
-3.93049	suppressing	-0.08661141
-3.93049	surabaya,	-0.08676435
-3.453369	sure	-0.1127233
-3.93049	surrogate	-0.08666239
-3.93049	surrounding	-0.08671337
-3.93049	survey	-0.08446446
-3.93049	survivors	-0.08676435
-3.453369	susilo	-0.63445
-3.629461	suspect	-0.06849366
-3.93049	symbol	-0.08676435
-3.93049	syncretism	-0.07508878
-3.453369	syntactic	-0.0865604
-3.93049	syntactically	-0.06854681
-3.629461	syntax	-0.08671338
-3.93049	syntaxbasedlanguagemodel?	-0.08656041
-3.93049	syntaxtranslationframework	-0.06854681
-3.93049	syntaxtranslationframework)	-0.07351507
-3.231521	system	-0.06071568
-3.629461	system,	-0.1659922
-3.93049	systems.	-0.06854681
-3.93049	tagger),	-0.05718327
-3.93049	tagging/treeing	-0.07351507
-3.93049	tags	-0.07555979
-3.93049	tags?	-0.08446446
-3.328431	take	-0.0477507
-3.93049	takes	-0.08405431
-3.629461	talking	-0.1772088
-3.93049	talks	-0.08610119
-3.93049	target	-0.07351507
-3.93049	targeting	-0.05718327
-3.93049	tasks.	-0.06854681
-3.93049	taught	-0.07967241
-3.93049	taxonomy	-0.0849766
-3.93049	tea,	-0.08676435
-3.93049	technology	-0.06854681
-3.93049	tectonic	-0.08676435
-3.93049	tell	-0.08661141
-3.93049	template-based	-0.08671337
-3.93049	temple	-0.08671337
-3.453369	tengah),	-0.08492541
-3.93049	tengah,	-0.07508878
-3.328431	tenggara	-0.129332
-3.93049	tenggara),	-0.08666239
-3.93049	tension	-0.06854681
-3.629461	tensions	-0.0770219
-3.93049	tensions,	-0.08666239
-3.93049	term,	-0.07508878
-3.93049	term.	-0.06854681
-3.93049	terms,	-0.07508878
-3.93049	territories	-0.08502778
-3.93049	territory's	-0.08671337
-3.93049	terrorist	-0.08671337
-3.93049	test:	-0.0864584
-3.93049	text	-0.08569258
-2.754399	than	-0.1318432
-2.206215	that	-0.1031146
-3.93049	that's	-0.08579477
-3.93049	that,	-0.0864584
-3.93049	that:	-0.06854681
-1.180754	the	-0.1787315
-3.93049	theatre	-0.08676435
-3.0274	their	-0.08523243
-2.93049	them	-0.07986634
-3.93049	them)	-0.06854681
-3.629461	themselves	-0.07613479
-2.93049	then	-0.06686386
-3.629461	then,	-0.05532404
-3.93049	then.	-0.06854681
-2.851309	there	-0.4101733
-3.93049	there's	-0.08671337
-3.93049	thereby	-0.07946511
-3.0274	these	-0.0804489
-3.328431	they	-0.08559037
-3.453369	think	-0.07008563
-3.93049	thinks	-0.08446446
-3.93049	third-class	-0.08671337
-2.588068	this	-0.1959482
-3.93049	thomas	-0.08676435
-3.93049	thoroughly	-0.08671337
-3.152339	those	-0.1112144
-3.231521	though	-0.08148208
-3.629461	thought	-0.07251542
-3.93049	thousands	-0.07351507
-3.93049	threatened	-0.07555979
-3.93049	three	-0.08502778
-3.93049	threshold,	-0.08569258
-3.93049	thriving	-0.07967241
-3.629461	through	-0.08656041
-3.629461	thus	-0.08256428
-3.93049	ties	-0.08610119
-3.93049	tilings	-0.07508878
-3.93049	tilt	-0.08676435
-3.93049	time	-0.06854681
-3.93049	times	-0.08676435
-2.93049	timor	-0.08635779
-3.93049	timor).	-0.08666239
-3.629461	timor,	-0.1659922
-3.629461	timorese	-0.08640739
-3.453369	timur),	-0.08574367
-3.93049	tin,	-0.08676435
-2.93049	tm	-0.08497582
-3.93049	tm/sblm	-0.08610119
-1.592034	to	-0.2024533
-3.93049	to;	-0.08487422
-3.93049	together	-0.08579477
-3.93049	together)	-0.08569258
-3.93049	together;	-0.08610119
-3.93049	token	-0.0841056
-3.93049	tokens	-0.08671337
-3.93049	tongue,	-0.08569258
-3.231521	too	-0.08625431
-3.93049	too,	-0.08333562
-3.629461	total	-0.08656041
-3.93049	towards	-0.08594801
-3.629461	trade	-0.07346252
-3.93049	trade.	-0.06854681
-3.453369	trading	-0.07665682
-3.93049	traditional	-0.08661141
-3.93049	traditions,	-0.08666239
-3.453369	train	-0.05252016
-2.784363	training	-0.1507976
-3.453369	training,	-0.05696493
-3.93049	training-tree-modifying	-0.08671337
-3.93049	training/smoothing,	-0.08569258
-3.93049	transformation,	-0.08461817
-3.93049	transitional	-0.08671337
-3.629461	translate	-0.08640739
-3.93049	translate.	-0.06854681
-3.93049	translated	-0.08390041
-3.93049	translating	-0.07946511
-2.515517	translation	-0.06743933
-3.93049	translation",	-0.08528359
-3.93049	translation),	-0.08420817
-2.651737	translations	-0.04341124
-3.629461	translations,	-0.08487423
-3.93049	translations.	-0.06854681
-3.93049	translations;	-0.08650941
-3.93049	translator	-0.08620328
-3.93049	translators	-0.08656041
-3.93049	translators)	-0.06854681
-3.93049	transliterated	-0.08625431
-3.93049	transmigration	-0.08676435
-3.453369	treated	-0.141726
-3.629461	treaty	-0.1644185
-3.328431	tree	-0.06806813
-3.93049	tree-crawling	-0.08666239
-3.93049	tree.	-0.06854681
-3.453369	treebank	-0.08645839
-3.93049	treebank-like	-0.08666239
-3.0274	trees	-0.06735926
-3.93049	trigger	-0.05718327
-3.93049	trivial:	-0.08579477
-3.93049	troops	-0.08446446
-3.93049	tropical	-0.08676435
-3.453369	try	-0.1304301
-3.93049	trying	-0.07555979
-3.453369	tsunami	-0.05816434
-3.93049	tsunamis	-0.06854681
-3.93049	tuanku	-0.08676435
-3.629461	turn	-0.1772088
-3.328431	two	-0.08620328
-3.152339	type	-0.5257573
-3.93049	type)	-0.06854681
-3.93049	typical	-0.0864584
-3.93049	u.s	-0.06854681
-3.93049	ugly	-0.08676435
-3.93049	ulama	-0.08676435
-3.629461	un	-0.08656041
-3.93049	un,	-0.08487422
-3.93049	unable	-0.07555979
-3.93049	unaligned).	-0.06854681
-3.93049	unambiguously	-0.08605013
-3.93049	uncommon	-0.07555979
-2.784363	under	-0.1873912
-3.93049	undercount	-0.08625431
-3.93049	undergoing	-0.08676435
-3.93049	undo	-0.05718327
-3.93049	uneven,	-0.08661141
-3.93049	unflattening	-0.05718327
-3.453369	unfortunately,	-0.05625463
-3.93049	unilaterally	-0.08405431
-3.629461	unique	-0.0866624
-3.629461	unitary	-0.08650941
-3.231521	united	-0.1087308
-3.93049	units	-0.08528359
-3.93049	universally	-0.08676435
-3.453369	unknown	-0.08640738
-3.93049	unknown.	-0.06854681
-3.629461	unless	-0.08400302
-3.085392	until	-0.1031077
-2.889098	up	-0.1601708
-3.93049	upgrade	-0.07555979
-3.328431	us	-0.1178522
-3.93049	us$	-0.08650941
-3.93049	usa	-0.07508878
-2.93049	use	-0.1495315
-2.889098	used	-0.1904232
-3.93049	used).	-0.06854681
-3.93049	used.	-0.06854681
-3.93049	useful	-0.07555979
-3.93049	useful)	-0.06854681
-2.976248	using	-0.1726243
-3.93049	usual.	-0.06854681
-3.453369	utara),	-0.144645
-3.93049	variations	-0.07967241
-3.93049	variations,	-0.08584586
-3.453369	various	-0.0866114
-3.93049	vassals,	-0.08640739
-3.93049	verb	-0.08676435
-3.93049	versatile	-0.08605013
-3.629461	very	-0.08671338
-3.453369	vice	-0.6334803
-3.93049	villagers	-0.08656041
-3.93049	violation	-0.08650941
-3.453369	violence	-0.07899831
-3.93049	vital	-0.08661141
-3.93049	viterbi	-0.08671337
-3.629461	voc	-0.08390041
-3.629461	volcanic	-0.08599908
-3.93049	volcanoes	-0.08676435
-3.93049	vote	-0.08122402
-3.453369	voted	-0.08055232
-3.93049	vs	-0.08630534
-3.93049	vulnerable	-0.07555979
-3.328431	wahid	-0.07288397
-3.93049	wallace	-0.08671337
-2.889098	want	-0.6371028
-3.93049	wanting	-0.07555979
-3.93049	wants	-0.07555979
-3.0274	war	-0.105414
-3.93049	war,	-0.05718327
-3.93049	wars	-0.08666239
-2.267733	was	-0.09883402
-3.328431	way	-0.1047665
-3.629461	wayang	-0.1776168
-3.93049	ways	-0.07351507
-2.297022	we	-0.2212353
-3.629461	we'd	-0.08313007
-3.328431	we'll	-0.1241468
-3.152339	we're	-0.1145439
-3.93049	we've	-0.08579477
-3.93049	weakening	-0.08661141
-3.93049	wealthier	-0.08605013
-3.93049	wealthy	-0.08625431
-3.93049	weighted	-0.08671337
-3.085392	well	-0.2420032
-3.93049	well,	-0.08661141
-3.93049	well-known	-0.08446446
-2.651737	were	-0.1168896
-2.889098	west	-0.1016199
-3.453369	western	-0.08482301
-2.851309	what	-0.07576616
-3.93049	whatever	-0.06854681
-3.152339	when	-0.07054613
-3.93049	when,	-0.08610119
-3.085392	where	-0.05252016
-3.93049	wherever	-0.08461817
-3.629461	whether	-0.1664632
-2.651737	which	-0.07156625
-3.0274	while	-0.2095269
-3.231521	who	-0.1163688
-3.328431	whole	-0.08507895
-3.453369	whose	-0.08645839
-3.629461	why	-0.08343837
-3.93049	widely	-0.08661141
-3.629461	widespread	-0.1775658
-2.851309	will	-0.1686685
-3.93049	willing	-0.07555979
-3.93049	winner	-0.07351507
-2.22292	with	-0.2642057
-3.93049	with,	-0.08594801
-3.93049	withdrawn	-0.0849766
-3.93049	within	-0.08630534
-3.453369	without	-0.08559036
-3.93049	won	-0.08390041
-3.453369	won't	-0.08287297
-3.328431	word	-0.1154877
-3.453369	word-class	-0.0683873
-3.93049	word-classes	-0.08502778
-3.93049	word-for-word	-0.08548814
-3.152339	words	-0.05941473
-3.93049	words).	-0.08671337
-3.328431	words,	-0.07749081
-3.93049	words/phrases	-0.0841056
-3.328431	work	-0.06955563
-3.93049	worked	-0.07555979
-3.93049	working	-0.07967241
-3.93049	works	-0.08122402
-3.085392	world	-0.1052485
-3.629461	world's	-0.08661141
-3.93049	world.	-0.06854681
-3.93049	world:	-0.08122402
-2.588068	would	-0.2375206
-3.629461	wouldn't	-0.08266721
-3.93049	wrath	-0.07351507
-3.93049	write	-0.08610119
-3.93049	writing;	-0.08671337
-3.93049	written	-0.07967241
-3.93049	wrote	-0.08676435
-3.93049	wrt	-0.08676435
-3.93049	x)	-0.08261574
-3.93049	x@	-0.08640739
-3.93049	x@"	-0.08620328
-3.93049	xr	-0.08610119
-3.93049	xrs	-0.08610119
-3.93049	year	-0.07351507
-3.93049	year,	-0.08661141
-3.93049	year.	-0.06854681
-3.231521	years	-0.1444416
-3.93049	years,	-0.08671337
-3.93049	yet,	-0.07967241
-3.93049	yet-to-be-aligned	-0.08676435
-3.93049	yield	-0.06854681
-3.629461	yogyakarta	-0.08441322
-3.93049	yogyakarta*.	-0.06854681
-3.93049	york	-0.08676435
-2.851309	you	-0.1250754
-3.453369	you'd	-0.6328154
-3.93049	you'll	-0.08635637
-3.93049	your	-0.08676435
-3.629461	yudhoyono	-0.06833414
-3.93049	yudhoyono,	-0.05718327

\2-grams:
-0.7418727	"@@" and
-0.7418727	"@@@ c@
-0.7418727	"etree ->
-0.7418727	"fort marlborough".
-0.7418727	"frac_between_@@_and_@@" for
-0.7418727	"green rules")
-1.042903	"green-chinese-word-n" and
-1.042903	"green-chinese-word-n" in
-0.7418727	"history of
-0.7418727	"lift" it
-0.7418727	"must-use" rule.
-0.7418727	"no confidence"
-0.7418727	"non-pribumi" people
-0.7418727	"rb" for
-0.7418727	"rb-" prefix
-0.7418727	"rule-based translation",
-0.7418727	"sausage graph").
-0.7418727	"save" the
-0.7418727	"simple plan"
-0.7418727	"state" that
-0.7418727	"typical" treebank
-0.7418727	"virtual nonterminal/rule"
-0.7418727	"virtual" nonterminal
-0.7418727	## rb_prob
-1.127097	### cspan=(@,@)	0.06490373
-0.3242398	### rb_prob=.@	-0.3060405
-1.696115	### rb_prob=.@@
-0.7418727	#@ and
-0.7418727	#@, the
-0.7418727	#chinese words,
-0.7418727	#english lhs
-0.7418727	'people's consultative
-0.7418727	($us @.@@
-0.7418727	('kkn' is
-0.7418727	(*) the
-0.7418727	(@:@@pm) </s>
-0.7418727	(@@ members
-0.1760589	(@@@@ to	-0.05141447
-0.7418727	(@@@@), the
-0.7418727	(@@@@-@@). bogor
-0.4738844	(@@@@-@@@@) in
-1.042903	(@@@@-@@@@). </s>
-1.042903	(@@@@-@@@@). the
-1.042903	(a potential
-1.042903	(a sentence
-0.7418727	(actually, it
-0.7418727	(aka gus
-0.7418727	(also confusingly
-1.343933	(and b
-1.343933	(and is
-1.343933	(and modifying
-1.343933	(and not
-0.7418727	(at least
-0.7418727	(bahasa daerah)
-0.7418727	(bank bali
-0.7418727	(before he
-0.7418727	(bj) habibie
-0.7418727	(bps) and
-0.7418727	(bulog fund)
-1.343933	(but not
-1.343933	(but organizational
-1.343933	(but probably
-1.343933	(but we
-0.7418727	(by splicing
-0.7418727	(c_@@ c_@@@@@)
-0.7418727	(c_@@@@@) we'd
-0.4738844	(called bahasa	0.06490373
-0.7418727	(celebes), lombok,
-0.7418727	(cultuurstelsel), large
-0.7418727	(currently the
-0.7418727	(derivationforestem) </s>
-0.7418727	(distinctions we
-0.7418727	(dpd)/provinces representative
-0.7418727	(dpr)/people representative
-0.7418727	(dpr, deputy
-0.7418727	(especially if
-0.7418727	(even infinite)
-0.7418727	(except for
-1.218994	(for chinese
-1.218994	(for constituents):
-1.218994	(for now
-1.042903	(formerly called
-1.042903	(formerly known
-0.7418727	(franz would
-1.218994	(from greek:
-1.218994	(from parallel
-1.218994	(from rb-program)
-0.7418727	(gam, the
-0.7418727	(gdp) this
-0.7418727	(i think
-0.7418727	(i've adopted
-0.7418727	(if all
-0.7418727	(imo): </s>
-0.7418727	(important!) a
-1.042903	(indonesian: kalimantan),
-1.042903	(indonesian: republik
-0.7418727	(instead of
-0.7418727	(iptn) (now
-0.7418727	(irian jaya
-0.7418727	(islamic law)
-1.218994	(jawa barat),
-1.218994	(jawa tengah),
-1.218994	(jawa timur),
-0.7418727	(july @,
-1.343933	(kalimantan barat),
-1.343933	(kalimantan selatan),
-1.343933	(kalimantan tengah),
-1.343933	(kalimantan timur),
-0.7418727	(kepulauan riau),
-0.7418727	(krakatoa), which
-0.7418727	(like in
-0.7418727	(locally known
-0.7418727	(majelis permusyawaratan
-0.7418727	(maluku utara),
-0.7418727	(mine,minc),(mine,maxc),(maxe,maxc),(maxe,minc) keeping
-0.7418727	(mpr) rejected
-0.7418727	(must be
-0.7418727	(napoleon's dutch
-0.7418727	(new order)
-0.7418727	(nonconstituentleafrules); that
-1.218994	(not assessing
-1.218994	(not just
-1.218994	(not likely)
-0.7418727	(note: don't
-0.7418727	(now become
-0.7418727	(nu). unfortunately,
-0.4738844	(nusa tenggara
-1.042903	(of course
-1.042903	(of which
-0.7418727	(old) parent
-1.042903	(on c+e
-1.042903	(on the
-0.7418727	(one of
-0.7418727	(or not
-0.7418727	(pre-ghkm) more
-0.7418727	(probably always
-0.7418727	(ranked @@th
-0.7418727	(ref translations
-0.4738844	(shared with
-0.7418727	(shouldn't be
-0.7418727	(since we
-0.4738844	(south of
-1.440843	(sulawesi barat),
-1.440843	(sulawesi selatan),
-1.440843	(sulawesi tengah),
-1.440843	(sulawesi tenggara),
-1.440843	(sulawesi utara),
-0.7418727	(sulawesi), and
-1.218994	(sumatera barat),
-1.218994	(sumatera selatan),
-1.218994	(sumatera utara),
-0.7418727	(tagged) words
-0.7418727	(that allows
-0.7418727	(that's probably
-1.218994	(the most
-1.218994	(the npb
-1.218994	(the span/prob
-0.7418727	(they would
-0.4738844	(this is
-0.7418727	(though i
-0.7418727	(to test:
-0.7418727	(transmigrasi) to
-0.7418727	(untaet). the
-0.7418727	(us library
-0.7418727	(usable only
-0.7418727	(voc), a
-1.343933	(we don't
-1.343933	(we may
-1.343933	(we might
-1.343933	(we must
-0.7418727	(we've also
-0.7418727	(what matters
-0.7418727	(when more
-1.440843	(which already
-1.440843	(which could
-1.440843	(which i've
-1.440843	(which of
-1.440843	(which would
-0.7418727	(within the
-0.7418727	(wrt </s>
-0.7418727	(you don't
-2.233234	* (but
-1.664216	* ...
-2.233234	* @,cd(@),@,cd(billion),@
-2.233234	* also
-2.233234	* and
-2.233234	* cardinals
-1.664216	* cd(@)	0.06490373
-2.233234	* cd(@),cd(billion)
-1.664216	* cd(billion)	0.06490373
-2.233234	* dates
-2.233234	* hopefully
-2.233234	* identification/segmentation
-2.233234	* money
-2.233234	* native
-2.233234	* note
-2.233234	* npb(nnp(hillary),nnp(clinton))
-2.233234	* ordinals
-2.233234	* percents
-2.233234	* rb-num(cd(@))
-1.664216	* rb-num(cd(@),cd(billion))	0.06490373
-2.233234	* rb-num(det(a)
-2.233234	* robust
-2.233234	* times
-2.233234	* transliterated
-2.233234	* we
-2.233234	* we're
-2.233234	* with
-0.7418727	*[b-@). this
-0.7418727	*np*(cd(@),nn(billion)) or
-1.042903	+ probs
-1.042903	+ rb-nonterminal/heads
-0.7418727	, officially
-2.084296	- (mine,minc),(mine,maxc),(maxe,maxc),(maxe,minc)
-2.084296	- @@
-2.084296	- an
-2.084296	- and
-2.084296	- approximately
-2.084296	- for
-2.084296	- head
-2.084296	- how
-2.084296	- however,
-2.084296	- maybe
-2.084296	- more
-2.084296	- perhaps:
-2.084296	- sequences
-2.084296	- so
-2.084296	- specter
-2.084296	- suffers
-2.084296	- the
-2.084296	- this
-2.084296	- using
-2.084296	- well,
-2.084296	- what
-2.084296	- you
-0.7418727	-- jonathangraehl
-0.6531801	-> c_@	0.4250034
-0.7166713	-> c_@@	0.007965028
-1.821054	-> c_@@@@
-1.821054	-> c_@@@@@
-1.821054	-> sblm-etree
-1.821054	-> the
-1.821054	-> x@
-1.586971	... (i've
-1.586971	... @@.@
-1.586971	... additional
-1.586971	... but
-1.586971	... notice
-1.586971	... what
-1.586971	... you
-0.7418727	.@ (the
-0.7418727	/ named
-0.3364601	:) </s>
-1.440843	:) the
-1.440843	:) this
-0.7418727	<= #chinese
-3.28718	<s> "non-pribumi"
-3.28718	<s> (*)
-3.28718	<s> (also
-3.28718	<s> (the
-1.068186	<s> *	0.01203326
-3.28718	<s> *np*(cd(@),nn(billion))
-3.28718	<s> ,
-3.28718	<s> --
-3.28718	<s> ...
-1.147367	<s> @.	0.0091595
-2.119306	<s> a
-3.28718	<s> a(b,rb-x(x,y),c)
-3.28718	<s> administrative
-2.182797	<s> after
-3.28718	<s> also
-2.182797	<s> although
-3.28718	<s> and
-3.28718	<s> another
-3.28718	<s> army
-3.28718	<s> art
-2.718162	<s> as
-3.28718	<s> awkwardly
-2.718162	<s> based	0.0314917
-3.28718	<s> before
-2.718162	<s> but
-2.718162	<s> but,
-3.28718	<s> careful,
-3.28718	<s> chinese
-3.28718	<s> chinese-owned
-3.28718	<s> dead
-3.28718	<s> democracy
-3.28718	<s> demographics
-2.718162	<s> despite
-3.28718	<s> dr
-2.718162	<s> during
-3.28718	<s> dutch
-3.28718	<s> east
-3.28718	<s> essentially,
-2.718162	<s> ethnic
-3.28718	<s> eventually
-3.28718	<s> flora
-2.119306	<s> following	0.1206288
-2.093962	<s> for	-0.03092066
-3.28718	<s> forcing
-3.28718	<s> gam
-3.28718	<s> government
-2.718162	<s> he
-3.28718	<s> his
-2.182797	<s> however,
-2.718162	<s> hundreds	0.2491202
-2.718162	<s> i
-3.28718	<s> i'd
-3.28718	<s> i've
-2.718162	<s> if
-3.28718	<s> impact
-1.341187	<s> in	0.01858872
-1.399179	<s> indonesia	-0.09410888
-1.987438	<s> indonesia's	-0.006318182
-3.28718	<s> indonesians
-3.28718	<s> instead
-3.28718	<s> internationally,
-3.28718	<s> irrigation
-3.28718	<s> islam
-1.466126	<s> it	-0.1118386
-2.718162	<s> it's
-2.182797	<s> its	-0.005679503
-3.28718	<s> just
-3.28718	<s> leaving
-3.28718	<s> let
-3.28718	<s> let's
-3.28718	<s> like
-2.119306	<s> main	0.06263709
-3.28718	<s> major
-3.28718	<s> many
-3.28718	<s> map
-2.182797	<s> megawati	0.1736255
-2.182797	<s> more
-3.28718	<s> most
-3.28718	<s> normally
-3.28718	<s> note:
-3.28718	<s> now,
-2.119306	<s> o
-2.718162	<s> of	-0.1089038
-2.182797	<s> on
-3.28718	<s> or,
-3.28718	<s> other
-3.28718	<s> papua
-3.28718	<s> parsing
-3.28718	<s> partly
-3.28718	<s> pencak
-3.28718	<s> perhaps
-2.718162	<s> president
-3.28718	<s> presidente
-3.28718	<s> purpose:
-3.28718	<s> rb-num(*np*(cd(@),nn(billion)))
-3.28718	<s> rb-programs
-3.28718	<s> regional
-2.182797	<s> rule	0.0260966
-3.28718	<s> s(np(x@,x@,cd(@)),vp(cd(billion),x@))
-3.28718	<s> s(x@,cd(@),cd(billion),x@)
-3.28718	<s> sangeang
-2.182797	<s> see
-3.28718	<s> several
-2.718162	<s> since
-3.28718	<s> so
-3.28718	<s> so,
-3.28718	<s> some
-3.28718	<s> something
-2.718162	<s> such
-2.718162	<s> suharto
-3.28718	<s> suharto's
-3.28718	<s> sukarno
-2.718162	<s> sukarno,
-3.28718	<s> susilo
-3.28718	<s> that
-3.28718	<s> that's
-0.8732092	<s> the	-0.02430864
-3.28718	<s> then
-1.915304	<s> there	0.1385699
-3.28718	<s> they
-1.591065	<s> this	-0.01995072
-2.718162	<s> though
-2.182797	<s> to
-2.119306	<s> under	-0.04780775
-2.718162	<s> unfortunately,
-3.28718	<s> wayang
-2.182797	<s> we
-2.718162	<s> when	-0.06125622
-3.28718	<s> why
-2.718162	<s> with
-3.28718	<s> yet,
-1.343933	= .@
-1.343933	= india
-1.343933	= islands)
-1.343933	= the
-0.7418727	=@ prob
-1.042903	>@ (even
-1.042903	>@ prob
-1.520024	@ alignments
-1.520024	@ billion
-1.520024	@ could
-1.520024	@ major
-1.520024	@ or
-1.520024	@ ways
-1.440843	@% buddhist
-1.440843	@% christian
-1.440843	@% hindu
-0.8718244	@% of
-0.7418727	@+@ -
-0.7418727	@+@+@ -
-0.4738844	@+@+@+@+@+@ -
-0.7418727	@, monday,
-1.042903	@,@@@ are
-1.042903	@,@@@ people
-0.7418727	@,cd(@),@,cd(billion),@ ->
-0.7418727	@-length cspans.
-2.173237	@. </s>
-2.173237	@. aceh
-2.173237	@. actually
-2.173237	@. choose
-2.173237	@. decide
-2.173237	@. figure
-2.173237	@. find
-2.173237	@. for
-1.604218	@. identify
-2.173237	@. if
-2.173237	@. java
-2.173237	@. lattice
-2.173237	@. lattice:
-1.604218	@. make
-2.173237	@. maybe
-2.173237	@. modtm+modsblm:
-2.173237	@. modtm:
-2.173237	@. of
-2.173237	@. otherwise,
-2.173237	@. padri
-2.173237	@. preserve
-2.173237	@. require
-1.604218	@. restructure
-2.173237	@. sausage:
-0.7418727	@.) -
-1.042903	@.@% last
-1.042903	@.@% of
-0.7418727	@.@@ billion)
-0.7418727	@/@ are
-1.017952	@@ august
-1.586971	@@ dec
-1.017952	@@ december	0.3643709
-1.586971	@@ provinces,
-1.586971	@@ volcanoes
-0.7418727	@@% of
-0.4738844	@@, @@@@,
-1.343933	@@,@@@ and
-1.343933	@@,@@@ islands
-1.343933	@@,@@@ islands,
-1.343933	@@,@@@ years
-0.7418727	@@.@ million
-0.7418727	@@.@% before)
-0.7418727	@@.@@ -
-1.644963	@@@ bc
-1.644963	@@@ c@
-1.644963	@@@ different
-0.451745	@@@ million	0.009880286
-0.7418727	@@@, and
-0.1146113	@@@,@@@ years	-0.009218469
-2.247023	@@@@ </s>
-2.247023	@@@@ [@].
-2.247023	@@@@ after
-1.079149	@@@@ and	-0.05146768
-2.247023	@@@@ as
-2.247023	@@@@ bencoolen
-2.247023	@@@@ by
-2.247023	@@@@ census,
-2.247023	@@@@ devastated
-2.247023	@@@@ election
-2.247023	@@@@ election,
-2.247023	@@@@ following
-2.247023	@@@@ for
-2.247023	@@@@ highlight
-2.247023	@@@@ national
-2.247023	@@@@ october)
-2.247023	@@@@ on
-2.247023	@@@@ that
-1.678004	@@@@ the
-1.053805	@@@@ to	-0.15137
-2.247023	@@@@ towards
-2.247023	@@@@ tsunami
-2.247023	@@@@ until
-2.247023	@@@@ when,
-0.7418727	@@@@) and
-1.042903	@@@@), abdurrahman
-1.042903	@@@@), megawati
-1.917964	@@@@, a
-1.348946	@@@@, and
-1.917964	@@@@, it
-1.348946	@@@@, president
-1.917964	@@@@, sukarno
-0.5460885	@@@@, the
-1.917964	@@@@, while
-1.917964	@@@@, with
-0.7418727	@@@@-year-old hindu
-0.7166713	@@@@. </s>
-1.821054	@@@@. although
-1.821054	@@@@. from
-1.821054	@@@@. he
-1.821054	@@@@. in
-1.821054	@@@@. indonesia
-1.821054	@@@@. kh
-1.821054	@@@@. mrs
-1.821054	@@@@. since
-1.821054	@@@@. the
-0.7418727	@@@@; yogyakarta
-1.218994	@@@@s and
-0.6499757	@@@@s saw
-1.042903	@@@@s, indonesia
-1.042903	@@@@s, partly
-1.440843	@@th -
-0.8718244	@@th century
-0.8718244	@@th century,
-0.7418727	@@th-century cultivation
-0.7418727	@th to
-0.7418727	[@]). the
-0.7418727	[@], the
-1.343933	[@]. </s>
-1.343933	[@]. in
-1.343933	[@]. indonesia's
-1.343933	[@]. the
-0.7418727	[n-@,n]. </s>
-2.897209	a "must-use"
-2.897209	a "sausage
-2.897209	a "typical"
-2.328191	a >@
-2.897209	a and
-2.897209	a backlash
-2.897209	a baseline
-2.897209	a baseline,
-2.897209	a bicameral
-2.897209	a bicontinental
-2.897209	a bloody
-2.897209	a break
-2.897209	a brief
-2.897209	a c-entity
-2.897209	a can
-2.897209	a certain
-2.897209	a character-based
-2.897209	a chartered
-2.897209	a child
-2.897209	a chinese
-2.897209	a class
-2.897209	a close,
-2.897209	a committee
-2.897209	a conflicting
-2.328191	a constituent
-2.328191	a constituent,	-0.002741314
-2.897209	a corruption
-2.897209	a council
-2.897209	a country
-2.897209	a decision),
-2.897209	a derivation
-1.729335	a different
-2.897209	a distinction
-2.897209	a diverse
-2.897209	a faltering
-2.897209	a famous
-2.897209	a federation
-2.897209	a few
-2.897209	a five-prong
-2.897209	a five-year
-2.897209	a form
-2.897209	a former
-2.897209	a founding
-2.897209	a full
-2.897209	a general
-2.897209	a generic
-2.897209	a given
-2.897209	a good
-2.897209	a governor
-1.792826	a head	0.07244025
-2.897209	a head/tag,
-2.897209	a high-precision/confidence
-2.328191	a large
-2.897209	a larger
-2.897209	a lingua
-2.897209	a list
-2.897209	a loss
-2.897209	a major
-2.897209	a massive
-2.897209	a mayor),
-2.328191	a member	0.3643709
-2.328191	a military
-2.328191	a more
-2.897209	a multiparty,
-2.897209	a multitude
-2.897209	a nation
-2.897209	a ne-translation
-2.328191	a net	0.06490373
-2.897209	a new
-2.328191	a newly	-0.002741314
-2.897209	a non-orthodox,
-2.897209	a normal
-2.897209	a note
-2.897209	a occupied
-2.897209	a particularly
-2.897209	a path
-2.328191	a peace
-2.897209	a per-sentence
-2.897209	a perception
-2.897209	a period
-2.897209	a political
-2.897209	a powerful
-2.897209	a pre-sblm
-2.897209	a presidential
-2.897209	a principled,
-2.897209	a public
-2.897209	a rb-rooted-edge
-2.897209	a recognizer
-2.897209	a referendum
-2.328191	a republic	-0.05016702
-2.897209	a result
-2.897209	a result,
-2.328191	a rule	-0.09146327
-2.897209	a second
-2.897209	a segmentation
-2.897209	a sentence-specific
-2.897209	a separate
-2.897209	a set
-2.897209	a severe
-2.897209	a significant
-2.897209	a simple
-1.703991	a single
-2.897209	a solitary
-2.897209	a special
-2.897209	a state
-2.897209	a stroke
-2.897209	a substantial
-2.897209	a sultanate
-2.897209	a superset).
-2.897209	a survey
-2.897209	a syntaxbasedlanguagemodel?
-2.897209	a template-based
-2.328191	a translation
-2.897209	a tropical
-2.897209	a unique
-2.328191	a unitary
-2.897209	a united
-2.897209	a viterbi
-2.897209	a weakening
-2.897209	a whole
-0.7418727	a(b,rb-x(x,y),c) becomes
-0.7418727	a(b,x,y,c) for
-0.7418727	a[@-@),b[@-@) into
-0.7418727	ab together
-0.7418727	abangan, while
-0.7418727	abbreviation) which
-0.4738844	abdulrahman wahid
-0.7418727	abdurrahman wahid
-1.042903	able to
-1.042903	able to;
-0.7418727	abolished, and
-1.741873	about @%
-1.741873	about @,@@@
-1.741873	about another
-1.741873	about entities
-1.741873	about for
-1.741873	about half
-1.741873	about not
-1.741873	about rb-nonterminals
-1.172854	about the
-0.7418727	above. </s>
-0.7418727	abrahamic faiths
-0.7418727	abuses by
-0.7418727	academia </s>
-1.520024	acceptance </s>
-0.3268062	acceptance to	-0.343641
-0.7418727	accepted by
-0.7418727	accepts forests
-0.7418727	according to
-0.7418727	accountability speech
-1.520024	aceh </s>
-1.520024	aceh and
-1.520024	aceh merdeka
-1.520024	aceh movement)
-1.520024	aceh war
-1.520024	aceh was
-0.7418727	aceh*, bali,
-0.7418727	aceh, peace
-0.7418727	aceh. </s>
-0.7418727	acehnese government
-0.7418727	acknowledged the
-1.218994	acquisition algorithm,
-1.218994	acquisition and
-1.218994	acquisition for
-1.218994	across many
-0.6499757	across the
-0.7418727	activity is
-1.440843	actual nth
-1.440843	actual rbt-etree
-1.440843	actual sentence
-1.440843	actual specific
-1.440843	actual translation
-1.218994	actually extracting
-1.218994	actually let
-1.218994	actually occur)
-0.7418727	ad to
-1.042903	ad-hoc rbt
-1.042903	ad-hoc unknown
-0.7418727	ad. </s>
-0.7418727	add the
-0.7418727	added by
-0.7418727	adding new
-0.4738844	addition to
-0.7418727	additional cost
-0.7418727	adjacent chinese
-0.7418727	administered much
-1.042903	administration by
-1.042903	administration is
-1.042903	administrative divisions
-1.042903	administrative systems.
-0.7418727	adopted the
-0.7418727	advantage for
-0.7418727	advantage: no
-0.7418727	affairs </s>
-0.7418727	affecting integration
-1.888001	after @@@@
-1.888001	after @@@@,
-1.318982	after a
-1.888001	after hyphens)
-1.888001	after independence
-1.888001	after independence,
-1.888001	after its
-0.7201269	after the
-1.888001	after voc
-1.888001	after years
-0.7418727	aftermath of
-1.821054	against ...
-1.821054	against a
-1.821054	against alleged
-1.821054	against an
-1.252036	against dutch
-1.821054	against east
-1.821054	against neighbouring
-0.6531801	against the	-0.04995356
-0.7418727	ages the
-0.7418727	aging oil
-1.042903	ago (us
-1.042903	ago </s>
-0.4738844	ago, while	0.06329241
-0.4738844	agreed to
-0.7418727	agreement </s>
-0.7418727	agreement, gam
-0.7418727	agricultural products
-0.7418727	agung laksono)
-0.7418727	aiming to
-1.042903	aircraft designer
-1.042903	aircraft industry
-0.7418727	alarmed both
-1.042903	algorithm during
-1.042903	algorithm was
-0.7418727	algorithm, we
-0.7418727	align identified
-1.218994	aligned entity
-1.218994	aligned first
-1.218994	aligned to
-1.520024	alignment (on
-1.520024	alignment between
-1.520024	alignment errors
-1.520024	alignment of
-1.520024	alignment using
-1.520024	alignment with,
-1.343933	alignments -
-0.7749144	alignments </s>
-1.343933	alignments and
-1.741873	all (at
-1.172854	all but
-1.741873	all chinese
-1.741873	all entities
-1.741873	all parties
-1.741873	all rule
-1.172854	all the
-1.741873	all you
-0.7418727	all) could
-0.7418727	all), they
-0.6499757	alleged communist
-1.218994	alleged that
-0.7418727	allegedly suppressing
-0.7418727	alleviate economic
-1.783265	allow @-length
-1.783265	allow different
-1.783265	allow for
-1.783265	allow lhs
-1.783265	allow multiple
-1.783265	allow new
-1.783265	allow non-consecutive-constituent
-1.783265	allow nonconstituentleafrules
-1.783265	allow normal
-1.783265	allow sukarno
-1.783265	allow the
-1.042903	allowed by
-1.042903	allowed for
-1.042903	allowing monolingual
-1.042903	allowing overlapping
-1.042903	allows rb-translations
-1.042903	allows us
-0.7418727	almost @@%
-0.7418727	alone has
-0.7418727	alone, allowing
-0.7418727	along with
-1.586971	already constituent?
-1.586971	already discussed
-1.586971	already do)
-1.586971	already learned
-1.586971	already mentioned,
-1.586971	already produces
-1.586971	already provide
-0.7418727	already): </s>
-2.122084	also (important!)
-2.122084	also allows
-0.9542102	also be
-2.122084	also choose
-2.122084	also chose
-2.122084	also clearly
-2.122084	also give
-2.122084	also greenruletemplates
-2.122084	also had
-2.122084	also influential
-2.122084	also known
-2.122084	also means,
-2.122084	also need
-2.122084	also on
-2.122084	also propose
-2.122084	also quite
-2.122084	also sblm
-2.122084	also to
-2.122084	also voted
-2.122084	also well-known
-2.122084	also wrote
-0.7418727	also, since
-0.7418727	also: map
-0.7418727	altemp system
-1.218994	alternative english
-1.218994	alternative etrees/alignments
-1.218994	alternative multiple
-0.7418727	alternatives </s>
-1.586971	although even
-1.586971	although indonesia's
-1.586971	although islam
-1.586971	although it
-1.586971	although only
-1.017952	although the
-1.586971	always a
-1.586971	always considered
-1.586971	always false)
-1.586971	always get
-1.586971	always must
-1.586971	always place
-1.586971	always thought
-0.7418727	ambiguity of
-0.7418727	ambiguously translated
-0.7418727	ambon, sulawesi
-0.7418727	amid massive
-0.7418727	among the
-0.7418727	amplified by
-2.233234	an "rb-"
-2.233234	an =@
-2.233234	an actual
-2.233234	an alleged
-2.233234	an appropriate
-2.233234	an approximation;
-2.233234	an area
-2.233234	an attempt
-2.233234	an attribute
-2.233234	an e-entity
-2.233234	an effort
-2.233234	an etree
-2.233234	an example.
-2.233234	an existing
-2.233234	an exporter
-2.233234	an important
-2.233234	an incorrect
-1.664216	an independent
-2.233234	an initial
-2.233234	an issue
-2.233234	an opportunity
-2.233234	an option.
-2.233234	an overwhelming
-2.233234	an rb-nonterminal
-2.233234	an rb-restructured
-2.233234	an rb-subtree
-1.664216	an sblm
-2.233234	an sblm-etree
-2.233234	an undercount
-3.097899	and #@,
-3.097899	and (probably
-3.097899	and =
-3.097899	and @%
-3.097899	and @@@,@@@
-2.52888	and @@@@
-3.097899	and @@@@.
-3.097899	and @@@@s
-1.726023	and a
-3.097899	and abuses
-3.097899	and academia
-3.097899	and after
-3.097899	and alignment
-1.993516	and also
-3.097899	and an
-3.097899	and army,
-3.097899	and ask
-3.097899	and australasia,
-3.097899	and australia,
-3.097899	and australia.
-3.097899	and australian,
-3.097899	and b
-3.097899	and bad:
-2.52888	and balinese
-3.097899	and become
-3.097899	and brunei),
-3.097899	and buddhism
-3.097899	and buddhism,
