
\data\
ngram 1=2633
ngram 2=6620
ngram 3=285
ngram 4=105

\1-grams:
-3.926332	"@@"	-0.0741419
-3.926332	"@@@	-0.08582392
-3.926332	"ETREE	-0.08536056
-3.926332	"FORT	-0.08592682
-3.926332	"FRAC_BETWEEN_@@_AND_@@"	-0.08033497
-3.926332	"GREEN	-0.08592682
-3.625384	"GREEN-CHINESE-WORD-N"	-0.06673153
-3.926332	"HISTORY	-0.07292443
-3.926332	"LIFT"	-0.08401919
-3.926332	"MUST-USE"	-0.08592682
-3.926332	"NO	-0.08592682
-3.926332	"NON-PRIBUMI"	-0.08530905
-3.926332	"RB"	-0.08033497
-3.926332	"RB-"	-0.08592682
-3.926332	"RULE-BASED	-0.08592682
-3.926332	"SAUSAGE	-0.08592682
-3.926332	"SAVE"	-0.05644838
-3.926332	"SIMPLE	-0.08592682
-3.926332	"STATE"	-0.08324344
-3.926332	"TYPICAL"	-0.08582392
-3.926332	"VIRTUAL	-0.08592682
-3.926332	"VIRTUAL"	-0.08582392
-3.926332	##	-0.08587538
-2.972236	###	-0.4892226
-3.926332	#@	-0.0741419
-3.926332	#@,	-0.05644838
-3.926332	#CHINESE	-0.08577246
-3.926332	#ENGLISH	-0.08587538
-3.926332	'PEOPLE'S	-0.08587538
-3.926332	($US	-0.08592682
-3.926332	('KKN'	-0.0817397
-3.926332	(*)	-0.05644838
-3.926332	(@:@@PM)	-0.06785925
-3.926332	(@@	-0.08561805
-3.324396	(@@@@	-0.4832206
-3.926332	(@@@@),	-0.05644838
-3.926332	(@@@@-@@).	-0.08592682
-3.625384	(@@@@-@@@@)	-0.1670895
-3.625384	(@@@@-@@@@).	-0.03702556
-3.625384	(A	-0.08582389
-3.926332	(ACTUALLY,	-0.08401919
-3.926332	(AKA	-0.08592682
-3.926332	(ALSO	-0.08592682
-3.324396	(AND	-0.08007429
-3.926332	(AT	-0.08556657
-3.926332	(BAHASA	-0.08592682
-3.926332	(BANK	-0.08592682
-3.926332	(BEFORE	-0.08572099
-3.926332	(BJ)	-0.08561805
-3.926332	(BPS)	-0.0741419
-3.926332	(BULOG	-0.08592682
-3.324396	(BUT	-0.08194737
-3.926332	(BY	-0.08577246
-3.926332	(C_@@	-0.08592682
-3.926332	(C_@@@@@)	-0.08587538
-3.625384	(CALLED	-0.1741961
-3.926332	(CELEBES),	-0.08592682
-3.926332	(CULTUURSTELSEL),	-0.08582392
-3.926332	(CURRENTLY	-0.05644838
-3.926332	(DERIVATIONFORESTEM)	-0.06785925
-3.926332	(DISTINCTIONS	-0.08376076
-3.926332	(DPD)/PROVINCES	-0.08582392
-3.926332	(DPR)/PEOPLE	-0.08582392
-3.926332	(DPR,	-0.08592682
-3.926332	(ESPECIALLY	-0.08525753
-3.926332	(EVEN	-0.08592682
-3.926332	(EXCEPT	-0.08033497
-3.449321	(FOR	-0.08412249
-3.625384	(FORMERLY	-0.08551504
-3.926332	(FRANZ	-0.08484514
-3.449321	(FROM	-0.08561801
-3.926332	(GAM,	-0.05644838
-3.926332	(GDP)	-0.08484514
-3.926332	(I	-0.08582392
-3.926332	(I'VE	-0.08592682
-3.926332	(IF	-0.08546358
-3.926332	(IMO):	-0.06785925
-3.926332	(IMPORTANT!)	-0.07855957
-3.625384	(INDONESIAN:	-0.08587535
-3.926332	(INSTEAD	-0.07292443
-3.926332	(IPTN)	-0.08592682
-3.926332	(IRIAN	-0.08587538
-3.926332	(ISLAMIC	-0.08592682
-3.449321	(JAWA	-0.08536053
-3.926332	(JULY	-0.08592682
-3.324396	(KALIMANTAN	-0.08520595
-3.926332	(KEPULAUAN	-0.08592682
-3.926332	(KRAKATOA),	-0.08499984
-3.926332	(LIKE	-0.07876881
-3.926332	(LOCALLY	-0.08572099
-3.926332	(MAJELIS	-0.08587538
-3.926332	(MALUKU	-0.08582392
-3.926332	(MINE,MINC),(MINE,MAXC),(MAXE,MAXC),(MAXE,MINC)	-0.08587538
-3.926332	(MPR)	-0.08592682
-3.926332	(MUST	-0.08236257
-3.926332	(NAPOLEON'S	-0.085206
-3.926332	(NEW	-0.08592682
-3.926332	(NONCONSTITUENTLEAFRULES);	-0.08324344
-3.449321	(NOT	-0.08484511
-3.926332	(NOTE:	-0.08561805
-3.926332	(NOW	-0.08561805
-3.926332	(NU).	-0.08582392
-3.625384	(NUSA	-0.1740932
-3.625384	(OF	-0.08494825
-3.926332	(OLD)	-0.08582392
-3.625384	(ON	-0.05633822
-3.926332	(ONE	-0.07292443
-3.926332	(OR	-0.0845356
-3.926332	(PRE-GHKM)	-0.08494828
-3.926332	(PROBABLY	-0.08561805
-3.926332	(RANKED	-0.08572099
-3.926332	(REF	-0.08499984
-3.625384	(SHARED	-0.1716677
-3.926332	(SHOULDN'T	-0.08236257
-3.926332	(SINCE	-0.08376076
-3.625384	(SOUTH	-0.1612452
-3.227494	(SULAWESI	-0.0851544
-3.926332	(SULAWESI),	-0.0741419
-3.449321	(SUMATERA	-0.08536053
-3.926332	(TAGGED)	-0.08566952
-3.926332	(THAT	-0.08587538
-3.926332	(THAT'S	-0.08566952
-3.449321	(THE	-0.08463877
-3.926332	(THEY	-0.08484514
-3.625384	(THIS	-0.1700604
-3.926332	(THOUGH	-0.08577246
-3.926332	(TO	-0.08592682
-3.926332	(TRANSMIGRASI)	-0.07488132
-3.926332	(UNTAET).	-0.05644838
-3.926332	(US	-0.08592682
-3.926332	(USABLE	-0.085206
-3.926332	(VOC),	-0.07855957
-3.324396	(WE	-0.08443231
-3.926332	(WE'VE	-0.08474199
-3.926332	(WHAT	-0.08587538
-3.926332	(WHEN	-0.08494828
-3.227494	(WHICH	-0.06999908
-3.926332	(WITHIN	-0.05644838
-3.926332	(WRT	-0.06785925
-3.926332	(YOU	-0.08561805
-2.43513	*	-0.08662263
-3.926332	*[B-@).	-0.08484514
-3.926332	*NP*(CD(@),NN(BILLION))	-0.08443236
-3.625384	+	-0.08582389
-3.926332	,	-0.08582392
-2.584067	-	-0.02859535
-3.926332	--	-0.08592682
-2.847302	->	-0.2567562
-3.081375	...	-0.08339859
-3.926332	.@	-0.08582392
-3.926332	/	-0.08587538
-3.227494	:)	-0.2602313
-1.388677	</s>
-3.926332	<=	-0.08592682
-99	<s>	-0.2882164
-3.324396	=	-0.05622803
-3.926332	=@	-0.08577246
-3.625384	>@	-0.08572097
-3.148318	@	-0.08251804
-3.227494	@%	-0.1054931
-3.926332	@+@	-0.08484514
-3.926332	@+@+@	-0.08484514
-3.625384	@+@+@+@+@+@	-0.1731659
-3.926332	@,	-0.08592682
-3.625384	@,@@@	-0.08293272
-3.926332	@,CD(@),@,CD(BILLION),@	-0.08536056
-3.926332	@-LENGTH	-0.08592682
-2.495127	@.	-0.06155931
-3.926332	@.)	-0.08484514
-3.625384	@.@%	-0.07287139
-3.926332	@.@@	-0.08592682
-3.926332	@/@	-0.08360562
-3.081375	@@	-0.1337155
-3.926332	@@%	-0.07292443
-3.625384	@@,	-0.1735267
-3.324396	@@,@@@	-0.07297738
-3.926332	@@.@	-0.08566952
-3.926332	@@.@%	-0.08592682
-3.926332	@@.@@	-0.08484514
-3.023386	@@@	-0.2197464
-3.926332	@@@,	-0.0741419
-3.449321	@@@,@@@	-0.5707669
-2.421342	@@@@	-0.05860393
-3.926332	@@@@)	-0.0741419
-3.625384	@@@@),	-0.08572097
-2.750395	@@@@,	-0.2413393
-3.926332	@@@@-YEAR-OLD	-0.08556657
-2.847302	@@@@.	-0.1024738
-3.926332	@@@@;	-0.08587538
-3.449321	@@@@S	-0.1308783
-3.625384	@@@@S,	-0.08339867
-3.227494	@@TH	-0.1536967
-3.926332	@@TH-CENTURY	-0.08582392
-3.926332	@TH	-0.07488132
-3.926332	[@]).	-0.05644838
-3.926332	[@],	-0.05644838
-3.324396	[@].	-0.02818462
-3.926332	[N-@,N].	-0.06785925
-1.77116	A	-0.08968231
-3.926332	A(B,RB-X(X,Y),C)	-0.08592682
-3.926332	A(B,X,Y,C)	-0.08033497
-3.926332	A[@-@),B[@-@)	-0.08546358
-3.926332	AB	-0.08592682
-3.926332	ABANGAN,	-0.08556657
-3.926332	ABBREVIATION)	-0.08499984
-3.625384	ABDULRAHMAN	-0.1740932
-3.926332	ABDURRAHMAN	-0.08577246
-3.625384	ABLE	-0.07482851
-3.926332	ABOLISHED,	-0.0741419
-2.92648	ABOUT	-0.06383379
-3.926332	ABOVE.	-0.06785925
-3.926332	ABRAHAMIC	-0.08592682
-3.926332	ABUSES	-0.08303633
-3.926332	ACADEMIA	-0.06785925
-3.926332	ACCEPTED	-0.08303633
-3.926332	ACCEPTS	-0.08592682
-3.926332	ACCORDING	-0.07488132
-3.926332	ACCOUNTABILITY	-0.08592682
-3.148318	ACEH	-0.05241035
-3.926332	ACEH*,	-0.08582392
-3.926332	ACEH,	-0.08577246
-3.926332	ACEH.	-0.06785925
-3.926332	ACEHNESE	-0.08499984
-3.926332	ACKNOWLEDGED	-0.05644838
-3.449321	ACQUISITION	-0.06828804
-3.449321	ACROSS	-0.1127395
-3.926332	ACTIVITY	-0.0817397
-3.227494	ACTUAL	-0.0842774
-3.449321	ACTUALLY	-0.08556653
-3.926332	AD	-0.07488132
-3.625384	AD-HOC	-0.08561802
-3.926332	AD.	-0.06785925
-3.926332	ADD	-0.05644838
-3.926332	ADDED	-0.08303633
-3.926332	ADDING	-0.08479357
-3.625384	ADDITION	-0.163202
-3.926332	ADDITIONAL	-0.08561805
-3.926332	ADJACENT	-0.08443236
-3.926332	ADMINISTERED	-0.08572099
-3.625384	ADMINISTRATION	-0.07876879
-3.625384	ADMINISTRATIVE	-0.08587535
-3.926332	ADOPTED	-0.05644838
-3.926332	ADVANTAGE	-0.08033497
-3.926332	ADVANTAGE:	-0.08541207
-3.926332	AFFAIRS	-0.06785925
-3.926332	AFFECTING	-0.08592682
-2.780357	AFTER	-0.1409622
-3.926332	AFTERMATH	-0.07292443
-2.847302	AGAINST	-0.1593253
-3.926332	AGES	-0.05644838
-3.926332	AGING	-0.08582392
-3.625384	AGO	-0.06780559
-3.625384	AGO,	-0.1738873
-3.625384	AGREED	-0.163202
-3.926332	AGREEMENT	-0.06785925
-3.926332	AGREEMENT,	-0.08587538
-3.926332	AGRICULTURAL	-0.08592682
-3.926332	AGUNG	-0.08592682
-3.926332	AIMING	-0.07488132
-3.625384	AIRCRAFT	-0.08587535
-3.926332	ALARMED	-0.08572099
-3.625384	ALGORITHM	-0.08329517
-3.926332	ALGORITHM,	-0.08376076
-3.926332	ALIGN	-0.08577246
-3.449321	ALIGNED	-0.07361296
-3.148318	ALIGNMENT	-0.07149074
-3.324396	ALIGNMENTS	-0.0962148
-2.92648	ALL	-0.08472553
-3.926332	ALL)	-0.08484514
-3.926332	ALL),	-0.08577246
-3.449321	ALLEGED	-0.139982
-3.926332	ALLEGEDLY	-0.08592682
-3.926332	ALLEVIATE	-0.08577246
-2.885089	ALLOW	-0.04749217
-3.625384	ALLOWED	-0.0773544
-3.625384	ALLOWING	-0.08577243
-3.625384	ALLOWS	-0.08561802
-3.926332	ALMOST	-0.08592682
-3.926332	ALONE	-0.08484514
-3.926332	ALONE,	-0.08587538
-3.926332	ALONG	-0.08334695
-3.081375	ALREADY	-0.08546346
-3.926332	ALREADY):	-0.06785925
-2.546279	ALSO	-0.1102289
-3.926332	ALSO,	-0.08551507
-3.926332	ALSO:	-0.08587538
-3.926332	ALTEMP	-0.08572099
-3.449321	ALTERNATIVE	-0.08494824
-3.926332	ALTERNATIVES	-0.06785925
-3.081375	ALTHOUGH	-0.0757554
-3.081375	ALWAYS	-0.07735432
-3.926332	AMBIGUITY	-0.07292443
-3.926332	AMBIGUOUSLY	-0.08592682
-3.926332	AMBON,	-0.08556657
-3.926332	AMID	-0.08587538
-3.926332	AMONG	-0.05644838
-3.926332	AMPLIFIED	-0.08303633
-2.43513	AN	-0.09139583
-1.57047	AND	-0.07436975
-3.926332	AND,	-0.08334695
-3.926332	AND/OR	-0.08587538
-3.926332	ANGLO-DUTCH	-0.08587538
-3.926332	ANGRY	-0.08587538
-3.926332	ANIMIST	-0.06785925
-3.926332	ANNEXATION	-0.07292443
-3.926332	ANNOTATED/ALIGNED	-0.08566952
-3.926332	ANNOUNCED	-0.08556657
-3.926332	ANNOUNCEMENT	-0.07292443
-3.625384	ANOTHER	-0.1739902
-3.926332	ANTI-COMMUNIST	-0.08592682
-2.92648	ANY	-0.08585723
-3.926332	ANYNONTERMINAL[@-B)	-0.08577246
-3.625384	ANYTHING	-0.08324341
-3.926332	ANYTHING;	-0.08033497
-3.926332	ANYWAY	-0.07876881
-3.926332	ANYWAY).	-0.06785925
-3.926332	API	-0.08556657
-3.926332	APPLIED	-0.08577246
-3.227494	APPLY	-0.09977546
-3.926332	APPLYING	-0.07855957
-3.926332	APPOINTED	-0.08246629
-3.926332	APPOINTS	-0.07855957
-3.625384	APPROACH	-0.07845487
-3.449321	APPROPRIATE	-0.08541204
-3.449321	APPROXIMATELY	-0.1424601
-3.625384	APPROXIMATION	-0.07260624
-3.926332	APPROXIMATION;	-0.08484514
-3.926332	ARABIC	-0.0817397
-3.926332	ARABS	-0.08582392
-3.625384	ARBITRARY	-0.08453557
-3.926332	ARCHEOLOGICAL	-0.08592682
-3.926332	ARCHIPELAGIC	-0.08577246
-3.324396	ARCHIPELAGO	-0.08358335
-3.625384	ARCHIPELAGO,	-0.05611788
-3.926332	ARCHIPELAGO.	-0.06785925
-2.263735	ARE	-0.05856292
-3.926332	ARE,	-0.08566952
-3.926332	ARE:	-0.08592682
-3.148318	AREA	-0.1084738
-3.148318	AREAS	-0.04928711
-3.926332	ARMED	-0.08587538
-3.926332	ARMY	-0.08582392
-3.625384	ARMY,	-0.08401917
-3.926332	ARMY.	-0.06785925
-3.449321	AROUND	-0.05589742
-3.449321	ARRIVAL	-0.5579704
-3.926332	ARRIVED	-0.07876881
-3.625384	ART	-0.08587535
-3.449321	ARTICLE:	-0.08556653
-3.926332	ARTICLES:	-0.08572099
-2.093986	AS	-0.17714
-3.926332	AS-IS	-0.06785925
-3.926332	ASEAN+@	-0.0741419
-3.324396	ASIA	-0.0544064
-3.926332	ASIA.	-0.06785925
-3.227494	ASIAN	-0.1069241
-3.926332	ASK	-0.08422583
-3.926332	ASPECTS	-0.07292443
-3.926332	ASSEMBLY',	-0.08587538
-3.926332	ASSEMBLY)	-0.0741419
-3.926332	ASSESSING	-0.08546358
-3.926332	ASSIGNING	-0.07855957
-3.926332	ASSOCIATE	-0.08546358
-3.926332	ASSOCIATION	-0.07292443
-3.926332	ASSUMED	-0.08033497
-3.926332	ASSUMED,	-0.08572099
-2.647735	AT	-0.1851495
-3.625384	ATTEMPT	-0.08438072
-3.926332	ATTEMPTED	-0.07488132
-3.926332	ATTEMPTING	-0.07488132
-3.926332	ATTRIBUTE	-0.08324344
-3.625384	ATTRIBUTES	-0.1715641
-3.926332	AUDIENCE	-0.06785925
-3.625384	AUGUST	-0.0842258
-3.926332	AUSTRALASIA,	-0.08246629
-3.926332	AUSTRALIA,	-0.08484514
-3.926332	AUSTRALIA.	-0.06785925
-3.926332	AUSTRALIAN,	-0.08577246
-3.926332	AUTOMATICALLY	-0.08592682
-3.926332	AUTONOMOUS	-0.08577246
-3.926332	AUTONOMY	-0.08412252
-3.625384	AVAILABLE	-0.07127804
-3.926332	AVERAGE	-0.08592682
-3.926332	AWARDED	-0.07488132
-3.926332	AWARE	-0.07292443
-3.926332	AWAY	-0.08587538
-3.625384	AWFUL	-0.07777396
-3.926332	AWKWARDLY	-0.08592682
-3.625384	B	-0.06511545
-3.926332	BACHARUDDIN	-0.08592682
-3.148318	BACK	-0.2857248
-3.926332	BACKED	-0.08303633
-3.926332	BACKLASH	-0.08536056
-3.926332	BAD	-0.08443236
-3.926332	BAD:	-0.08592682
-3.625384	BAHASA	-0.1718746
-3.926332	BALI	-0.08592682
-3.449321	BALI,	-0.07398327
-3.926332	BALI.	-0.06785925
-3.625384	BALINESE	-0.08582389
-3.449321	BAMBANG	-0.142666
-3.926332	BANDUNG,	-0.08592682
-3.926332	BANGKA-BELITUNG,	-0.08592682
-3.625384	BANK	-0.07042585
-3.926332	BANTEN,	-0.08592682
-3.148318	BARAT),	-0.2616645
-3.926332	BARU	-0.08592682
-2.92648	BASED	-0.1859442
-3.926332	BASELINE	-0.07488132
-3.926332	BASELINE,	-0.08376076
-3.926332	BASICALLY	-0.08438074
-3.926332	BASIS	-0.08551507
-3.926332	BATAK	-0.06785925
-3.926332	BATAVIAN	-0.08572099
-3.926332	BATIK,	-0.08592682
-3.926332	BBN	-0.08592682
-3.926332	BC	-0.08303633
-2.081396	BE	-0.09745533
-3.926332	BE.	-0.06785925
-3.926332	BE:	-0.06785925
-3.081375	BECAME	-0.2265527
-3.324396	BECAUSE	-0.06742994
-3.081375	BECOME	-0.07173464
-3.926332	BECOMES	-0.08592682
-3.227494	BEEN	-0.085515
-3.625384	BEFORE	-0.05479347
-3.926332	BEFORE)	-0.06785925
-3.926332	BEGAN	-0.07855957
-3.081375	BEING	-0.2022737
-3.449321	BELIEFS	-0.05782261
-3.926332	BELONGING	-0.07488132
-3.926332	BELOW	-0.08484514
-3.625384	BENCOOLEN	-0.1741961
-3.926332	BENGKULU,	-0.08592682
-3.926332	BEST	-0.07488132
-3.926332	BEST,	-0.08592682
-3.625384	BETTER	-0.07798359
-2.780357	BETWEEN	-0.05510962
-3.926332	BICAMERAL	-0.08592682
-3.926332	BICONTINENTAL	-0.08592682
-3.625384	BILLION	-0.07871649
-3.926332	BILLION")),X@)	-0.08033497
-3.926332	BILLION)	-0.06785925
-3.926332	BILLION,	-0.08551507
-3.625384	BINARIZER	-0.07482851
-3.926332	BITTER	-0.08592682
-3.324396	BJ	-0.4939573
-3.926332	BLOC	-0.06785925
-3.625384	BLOODY	-0.08577243
-3.926332	BLUE	-0.08536056
-3.926332	BOB	-0.08592682
-3.625384	BODY	-0.08153185
-3.926332	BOGOR	-0.08592682
-3.926332	BONJOL	-0.06785925
-3.926332	BOOK	-0.06785925
-3.926332	BOOST	-0.08536056
-3.926332	BOOSTING	-0.05644838
-3.926332	BORDERED	-0.08303633
-3.926332	BORDERS	-0.08572099
-3.926332	BORN	-0.07876881
-3.926332	BORNE	-0.08592682
-3.625384	BORNEO	-0.08577243
-3.625384	BORNEO,	-0.05363129
-3.926332	BOTANICAL	-0.08592682
-3.227494	BOTH	-0.08943332
-3.926332	BOTH)	-0.06785925
-3.926332	BOUNDARIES	-0.08525753
-3.625384	BOUNDARY	-0.08412249
-3.926332	BREAK	-0.08334695
-3.926332	BREAKDOWN	-0.0817397
-3.926332	BRIEF	-0.08587538
-3.449321	BRITISH	-0.08561801
-3.625384	BRITISH,	-0.05639329
-3.926332	BROADER	-0.08582392
-3.926332	BROUGHT	-0.08592682
-3.926332	BRUNEI),	-0.08479357
-3.926332	BUDDHISM	-0.06785925
-3.625384	BUDDHISM,	-0.07366588
-3.625384	BUDDHIST	-0.0676983
-3.926332	BUDGET	-0.08592682
-3.926332	BUILD	-0.08541207
-3.926332	BUILDING	-0.07855957
-3.625384	BUILDINGS	-0.06495351
-3.449321	BUILT	-0.08530902
-3.926332	BUREAU	-0.08592682
-3.926332	BURNED	-0.08577246
-3.926332	BUSH,	-0.05644838
-3.926332	BUSINESS	-0.08592682
-3.926332	BUSINESS,	-0.08592682
-2.584067	BUT	-0.05278225
-3.625384	BUT,	-0.08355388
-2.170619	BY	-0.2724208
-3.926332	C	-0.0741419
-3.625384	C+E	-0.08541205
-3.926332	C->E	-0.08572099
-3.148318	C-E	-0.1110973
-3.926332	C-ENTITY	-0.07488132
-3.449321	C@	-0.08572096
-3.926332	C@"	-0.08587538
-3.081375	C_@	-0.524725
-3.324396	C_@@	-0.1273826
-3.926332	C_@@@@	-0.08561805
-3.081375	C_@@@@@	-0.440244
-3.926332	C_@@@@@)	-0.08592682
-3.926332	CALIFORNIA	-0.0741419
-3.625384	CALL	-0.1447691
-3.324396	CALLED	-0.0979818
-3.625384	CAME	-0.07803598
-3.926332	CAMPAIGN	-0.07876881
-2.750395	CAN	-0.4788477
-3.926332	CAN'T	-0.08582392
-3.926332	CANDIDATE	-0.08515447
-3.926332	CANDIDATES,	-0.08303633
-3.926332	CANONICAL	-0.08582392
-3.324396	CAPITAL	-0.109349
-3.926332	CAPITALIZE	-0.08546358
-3.625384	CAPTURED	-0.08438072
-3.926332	CARDINALS	-0.08592682
-3.926332	CARE	-0.08546358
-3.926332	CAREFUL,	-0.08525753
-3.926332	CASE	-0.07292443
-3.926332	CASE)	-0.08587538
-3.926332	CASES,	-0.08572099
-3.926332	CASES?).	-0.08401919
-3.926332	CATHOLIC,	-0.0741419
-3.926332	CAUSED	-0.08303633
-3.625384	CD(@)	-0.1736813
-3.926332	CD(@),CD(BILLION)	-0.08551507
-3.625384	CD(BILLION)	-0.1736813
-3.926332	CD(BILLION))	-0.08536056
-3.926332	CELEBES	-0.06785925
-3.926332	CELEBES,	-0.05644838
-3.625384	CENSUS,	-0.08427744
-2.972236	CENTRAL	-0.1198855
-3.324396	CENTURY	-0.06710772
-3.625384	CENTURY,	-0.05622806
-3.324396	CERTAIN	-0.08499978
-3.926332	CHALKING	-0.08566952
-3.926332	CHAMBER	-0.07876881
-3.926332	CHARACTER-BASED	-0.08592682
-3.926332	CHARACTERIZED	-0.08582392
-3.926332	CHARISMATIC),	-0.08572099
-3.449321	CHART	-0.07530323
-3.926332	CHART,	-0.07855957
-3.926332	CHARTERED	-0.08592682
-3.926332	CHECK	-0.08525753
-3.926332	CHECKING	-0.08033497
-3.926332	CHIEF	-0.07292443
-3.926332	CHILD	-0.08499984
-3.926332	CHILDREN,	-0.08592682
-3.926332	CHINA	-0.08587538
-3.926332	CHINA,	-0.08592682
-2.44937	CHINESE	-0.0830164
-3.926332	CHINESE-ENTITY/ENGLISH-SENTENCE	-0.08592682
-3.926332	CHINESE-OWNED	-0.08587538
-3.926332	CHINESE-RB-TRANSLATIONS	-0.08592682
-3.926332	CHINESE-SYNTACTIC	-0.08582392
-3.081375	CHOOSE	-0.07100469
-3.926332	CHOOSES,	-0.08561805
-3.926332	CHOOSING	-0.08546358
-3.926332	CHOSE	-0.08582392
-3.625384	CHRISTIAN	-0.08432908
-3.926332	CHRISTIANITY	-0.0741419
-3.926332	CHURCHES	-0.0741419
-3.926332	CIA	-0.08592682
-3.625384	CITIES	-0.07047916
-3.926332	CITIES,	-0.08499984
-3.625384	CITIZENS	-0.15618
-3.926332	CITIZENS,	-0.08556657
-3.625384	CITY	-0.1612452
-3.926332	CITY,	-0.08401919
-3.926332	CIVILIANS	-0.06785925
-3.926332	CLAIMS	-0.07876881
-3.227494	CLASS	-0.04569002
-3.926332	CLASS-BASED	-0.08592682
-3.926332	CLASSIFICATION	-0.08592682
-3.926332	CLASSIFIER	-0.08412252
-3.926332	CLASSIFIER/RECOGNIZER	-0.0741419
-3.926332	CLASSIFY	-0.08246629
-3.926332	CLEARLY	-0.08592682
-3.926332	CLIMATE	-0.06785925
-3.625384	CLOSE	-0.07451174
-3.926332	CLOSE,	-0.08566952
-3.926332	CLOSELY	-0.08587538
-3.926332	CLOTH.	-0.06785925
-3.926332	CLUSTERING	-0.07292443
-3.926332	CO-OPERATED	-0.08334695
-3.449321	CODE	-0.05606277
-3.926332	COFFEE,	-0.08582392
-3.926332	COLLABORATE	-0.08334695
-3.926332	COLLABORATED	-0.08334695
-3.926332	COLLAPSE	-0.07292443
-3.926332	COLLEAGUES	-0.08592682
-3.926332	COLLECTING	-0.05644838
-3.926332	COLLINS	-0.08556657
-3.926332	COLLINS-)STANDARD	-0.085206
-3.926332	COLLUSION,	-0.0741419
-3.625384	COLONIAL	-0.08520597
-3.625384	COLONIES	-0.05424044
-3.926332	COLONIZED	-0.08303633
-3.926332	COLONY	-0.07292443
-3.926332	COLONY,	-0.0741419
-3.926332	COLONY.	-0.06785925
-3.926332	COMBINATION	-0.07292443
-3.926332	COMBINE	-0.08592682
-3.926332	COME	-0.08546358
-3.926332	COMING	-0.06785925
-3.926332	COMMANDER	-0.08592682
-3.926332	COMMANDER-IN-CHIEF	-0.07292443
-3.926332	COMMISSION	-0.08582392
-3.926332	COMMITTEE	-0.07488132
-3.227494	COMMON	-0.08530898
-3.926332	COMMONLY	-0.08577246
-3.926332	COMMUNAL	-0.08582392
-3.625384	COMMUNIST	-0.08587535
-3.926332	COMMUNITIES	-0.06785925
-3.227494	COMMUNITY	-0.09653605
-3.926332	COMMUNITY,	-0.08592682
-3.926332	COMPANY	-0.08592682
-3.625384	COMPETE	-0.08587535
-3.625384	COMPLETE	-0.0830363
-3.926332	COMPLETELY	-0.08592682
-3.625384	COMPLEX	-0.06748365
-3.625384	COMPLEXITY	-0.07408901
-3.926332	COMPLICATED	-0.08484514
-3.926332	COMPONENT	-0.08592682
-3.625384	COMPRISING	-0.1447691
-3.926332	CONCEIVED	-0.08546358
-3.926332	CONCENTRATED	-0.08334695
-3.926332	CONDEMNATION	-0.08033497
-3.926332	CONDITION	-0.08319167
-3.926332	CONDITIONED	-0.08319167
-3.926332	CONFERENCE	-0.06785925
-3.926332	CONFIDENCE"	-0.08525753
-3.926332	CONFIRM	-0.08401919
-3.449321	CONFLICT	-0.0830363
-3.926332	CONFLICTING	-0.08592682
-3.625384	CONFLICTS	-0.08427744
-3.926332	CONFLICTS,	-0.08572099
-3.926332	CONFRONTATION	-0.08536056
-3.926332	CONFUSINGLY	-0.08572099
-3.926332	CONGRESS	-0.08592682
-3.324396	CONSECUTIVE	-0.085618
-3.926332	CONSIDER	-0.05644838
-3.625384	CONSIDERED	-0.08587535
-3.926332	CONSIDERS	-0.07855957
-3.625384	CONSISTING	-0.1612452
-3.926332	CONSISTS	-0.07292443
-3.148318	CONSTITUENT	-0.07154392
-3.926332	CONSTITUENT).	-0.08484514
-3.449321	CONSTITUENT,	-0.1408613
-3.926332	CONSTITUENT-FORCING	-0.08587538
-3.926332	CONSTITUENT?	-0.08582392
-3.148318	CONSTITUENTS	-0.05661341
-3.926332	CONSTITUENTS):	-0.06785925
-3.625384	CONSTITUENTS,	-0.0836056
-3.926332	CONSTITUTE	-0.08572099
-3.926332	CONSTITUTING	-0.07855957
-3.926332	CONSTITUTIONAL	-0.08592682
-3.926332	CONSTRAIN	-0.05644838
-3.926332	CONSTRAINS	-0.05644838
-3.625384	CONSULTATIVE	-0.08587535
-3.926332	CONTAIN	-0.08592682
-3.449321	CONTEXT	-0.07472295
-3.926332	CONTEXT)	-0.06785925
-3.926332	CONTEXT,	-0.08556657
-3.926332	CONTEXT.	-0.06785925
-3.926332	CONTEXT/DOMAIN	-0.06785925
-3.926332	CONTEXTS	-0.08246629
-3.926332	CONTROL	-0.06785925
-3.926332	CONVENTION	-0.07292443
-3.926332	COOPERATION	-0.0741419
-3.926332	COPPER	-0.0741419
-3.625384	CORPORA	-0.08225879
-3.227494	CORPUS	-0.08655939
-3.926332	CORPUS)	-0.07488132
-3.926332	CORPUS),	-0.0741419
-3.227494	CORPUS,	-0.1014397
-3.926332	CORPUS.	-0.06785925
-3.926332	CORRECT	-0.08582392
-3.926332	CORRESPOND	-0.07488132
-3.926332	CORRESPONDING	-0.07488132
-3.449321	CORRUPTION	-0.1308783
-3.926332	CORRUPTION,	-0.08592682
-3.081375	COST	-0.03082073
-3.926332	COST).	-0.06785925
-3.926332	COST,	-0.0741419
-3.926332	COST?	-0.06785925
-3.926332	COSTING	-0.08592682
-3.625384	COSTS	-0.08028283
-2.584067	COULD	-0.1445497
-3.926332	COULD,	-0.08566952
-3.324396	COUNCIL	-0.08839852
-3.926332	COUNCIL,	-0.08587538
-3.926332	COUNTER	-0.05644838
-3.023386	COUNTRY	-0.06175625
-3.625384	COUNTRY'S	-0.08546355
-3.926332	COUNTRY,	-0.08246629
-3.926332	COUNTRY.	-0.06785925
-3.227494	COUNTS	-0.09669859
-3.926332	COUP	-0.08587538
-3.926332	COURSE	-0.05644838
-3.449321	COURSE,	-0.08515444
-3.926332	COURT	-0.08592682
-3.926332	COVER	-0.08499984
-3.926332	CRACKING	-0.08577246
-3.625384	CREATE	-0.08427744
-3.926332	CREATED	-0.08592682
-3.926332	CREATING	-0.05644838
-3.926332	CREATION	-0.07292443
-3.926332	CREDITORS	-0.08572099
-3.926332	CRISIS	-0.08324344
-3.926332	CRISIS,	-0.08582392
-3.926332	CRITICIZED	-0.08525753
-3.926332	CROWN.	-0.06785925
-3.449321	CRUDE	-0.1425116
-3.926332	CSPAN	-0.08592682
-3.625384	CSPAN=(@,@)	-0.1741961
-3.926332	CSPANS.	-0.06785925
-3.926332	CSTRING	-0.07488132
-3.449321	CULTIVATION	-0.1415841
-3.926332	CULTURAL	-0.08582392
-3.926332	CULTURE	-0.0741419
-3.926332	CULTURES	-0.06785925
-3.625384	CURRENT	-0.08469037
-3.926332	CURRENT).	-0.08319167
-3.625384	CURRENTLY	-0.08474196
-3.926332	CUT	-0.08582392
-3.926332	CUTTING	-0.08582392
-3.625384	DAERAH	-0.08438072
-3.926332	DAERAH)	-0.08246629
-3.926332	DANCES,	-0.08033497
-3.926332	DATA	-0.07488132
-3.926332	DATA;	-0.08577246
-3.926332	DATE	-0.07292443
-3.926332	DATES	-0.08592682
-3.926332	DAUGHTER	-0.07292443
-3.926332	DAUGHTERS	-0.08324344
-3.625384	DAYAK	-0.0738775
-3.625384	DE	-0.1741961
-3.926332	DEAD	-0.08587538
-3.926332	DEALING	-0.08334695
-3.926332	DEATHS	-0.08592682
-3.926332	DEC	-0.08432911
-3.324396	DECEMBER	-0.4926684
-3.926332	DECIDE	-0.08319167
-3.926332	DECIDED	-0.07488132
-3.926332	DECISION),	-0.08577246
-3.926332	DECISIONS	-0.08572099
-3.625384	DECLARE	-0.0852575
-3.324396	DECLARED	-0.09759589
-3.926332	DECLINED	-0.08592682
-2.972236	DECODER	-0.1971546
-3.926332	DECODER,	-0.08592682
-3.926332	DECODER/SBLM-TRANSFORM	-0.08587538
-3.926332	DECODER/TRANSLATION	-0.08525753
-3.926332	DECODER/WHOEVER	-0.08484514
-3.324396	DECODING	-0.07871421
-3.926332	DECODING).	-0.08592682
-3.324396	DECODING,	-0.1148434
-3.926332	DECREASED	-0.08582392
-3.926332	DECREASING	-0.08587538
-3.926332	DEEP	-0.08587538
-3.926332	DEFAULT	-0.08582392
-3.926332	DEFAULT,	-0.08443236
-3.926332	DEFEAT	-0.07292443
-3.926332	DEFER	-0.08561805
-3.926332	DEFICIT	-0.07488132
-3.926332	DEFINE	-0.08566952
-3.926332	DEFINITELY	-0.08582392
-3.926332	DEGREE	-0.08541207
-3.926332	DEMOCRACY	-0.08360562
-3.926332	DEMOCRATIC	-0.08572099
-3.625384	DEMOGRAPHICS	-0.05424044
-3.926332	DEMONSTRATIONS	-0.0741419
-3.449321	DENSELY	-0.1426145
-3.926332	DEPENDENCIES	-0.08360562
-3.449321	DEPENDING	-0.5682376
-3.926332	DEPUTY	-0.08592682
-3.926332	DERIVATION	-0.08577246
-3.926332	DESCRIBED	-0.08592682
-3.926332	DESCRIBED,	-0.08551507
-3.926332	DESIGNER	-0.0741419
-3.926332	DESIRABILITY	-0.08592682
-3.449321	DESPITE	-0.1421511
-3.926332	DESTROYED	-0.08474199
-3.926332	DETERMINE	-0.08587538
-3.926332	DETERMINISTIC	-0.08592682
-3.625384	DETERMINISTIC,	-0.08546355
-3.926332	DEVASTATED	-0.08561805
-3.926332	DEVELOP	-0.08587538
-3.926332	DEVELOPMENT.	-0.06785925
-3.926332	DEVELOPMENTS	-0.06785925
-3.324396	DEWAN	-0.4941117
-3.926332	DICTATOR	-0.08566952
-3.926332	DIED	-0.08577246
-3.926332	DIFFER	-0.08592682
-3.926332	DIFFERENCES	-0.08525753
-2.847302	DIFFERENT	-0.08391564
-3.449321	DIFFICULT	-0.07440609
-3.926332	DIFFICULTIES	-0.06785925
-3.926332	DIPONEGORO	-0.08412252
-3.926332	DIRECT	-0.08587538
-3.926332	DIRECTLY-ELECTED	-0.08033497
-3.926332	DIRGANTARA	-0.08592682
-3.926332	DISADVANTAGE:	-0.08561805
-3.926332	DISARMED	-0.08303633
-3.926332	DISCONTENT	-0.08592682
-3.625384	DISCOVERED	-0.1741961
-3.926332	DISCOVERER	-0.06785925
-3.926332	DISCUSSED	-0.08246629
-3.926332	DISPLAYING	-0.08551507
-3.926332	DISSOLVED	-0.07876881
-3.926332	DISTANCE	-0.08592682
-3.926332	DISTINCT	-0.08577246
-3.926332	DISTINCTION	-0.08324344
-3.926332	DISTINCTIONS	-0.08324344
-3.625384	DIVERSE	-0.08546355
-3.926332	DIVIDE	-0.05644838
-3.625384	DIVIDED	-0.1737843
-3.926332	DIVIDES	-0.08592682
-3.926332	DIVISIONS	-0.06785925
-3.081375	DO	-0.08282902
-3.926332	DO)	-0.06785925
-3.926332	DOES	-0.08319167
-3.926332	DOES,	-0.08484514
-3.625384	DOESN'T	-0.08587535
-3.324396	DOMESTIC	-0.08556651
-3.625384	DOMINANT	-0.08572097
-3.926332	DOMINATE	-0.05644838
-3.926332	DOMINATING	-0.05644838
-3.081375	DON'T	-0.08199923
-3.926332	DONE	-0.08582392
-3.324396	DOWN	-0.0812199
-3.926332	DOWNFALL	-0.07292443
-3.926332	DPD	-0.08246629
-3.625384	DR	-0.1740932
-3.926332	DRAWING	-0.07488132
-3.449321	DUE	-0.5599273
-3.926332	DUMA	-0.08582392
-3.926332	DUR)	-0.08246629
-3.148318	DURING	-0.2745842
-2.750395	DUTCH	-0.1230921
-3.926332	DWELLINGS	-0.08499984
-3.926332	DWIPA	-0.08556657
-3.926332	E	-0.08592682
-3.926332	E)	-0.0741419
-3.926332	E-ENTITY	-0.06785925
-3.926332	E-SUBTREES	-0.08324344
-3.023386	E.G	-0.9361235
-3.926332	E.G.:	-0.06785925
-3.148318	EACH	-0.0833986
-3.926332	EARLIER)	-0.08484514
-3.625384	EARLIEST	-0.08577243
-3.625384	EARLY	-0.1740417
-3.926332	EARTH'S	-0.08587538
-3.926332	EARTH,	-0.08561805
-3.449321	EARTHQUAKE	-0.05545617
-3.926332	EARTHQUAKES	-0.0741419
-3.926332	EASIEST	-0.08577246
-2.464093	EAST	-0.3424473
-3.926332	EASTERN	-0.085206
-3.926332	EASY	-0.07488132
-3.926332	ECOLOGICAL	-0.08587538
-3.324396	ECONOMIC	-0.08577241
-3.227494	ECONOMY	-0.09864441
-3.926332	EDGES	-0.07292443
-3.926332	EDIT	-0.08592682
-3.926332	EDUCATION	-0.0741419
-3.926332	EFFECT	-0.08319167
-3.926332	EFFECT.	-0.06785925
-3.926332	EFFECTIVELY,	-0.08324344
-3.926332	EFFORT	-0.07488132
-3.625384	ELECTED	-0.07997001
-3.227494	ELECTION	-0.08500396
-3.926332	ELECTION,	-0.08530905
-3.625384	ELECTIONS	-0.07861186
-3.926332	ELITES	-0.08246629
-3.926332	EMERGING	-0.08592682
-3.926332	EMPTY	-0.08587538
-3.926332	ENCOURAGED	-0.08587538
-2.750395	ENGLISH	-0.09138396
-3.926332	ENGLISH)	-0.06785925
-3.926332	ENGLISH,	-0.08376076
-3.926332	ENGLISH-CHARACTER-EDIT-DISTANCE	-0.08592682
-3.926332	ENGLISH-STANDARD	-0.08592682
-3.926332	ENGLISH-WORD,	-0.0741419
-3.926332	ENGLISH?	-0.06785925
-3.926332	ENRICHED	-0.08592682
-3.926332	ENRICO	-0.08592682
-3.926332	ENSURE	-0.08324344
-3.926332	ENTERED	-0.08246629
-3.926332	ENTERPRISE	-0.08592682
-3.926332	ENTIRELY	-0.08422583
-2.972236	ENTITIES	-0.106968
-3.926332	ENTITIES).	-0.06785925
-3.625384	ENTITIES,	-0.0851029
-2.722367	ENTITY	-0.2403343
-3.926332	ENTITY,	-0.08566952
-3.926332	ENTITY-ETREES	-0.08376076
-3.926332	ENTITY-RECOGNITION	-0.08587538
-3.926332	ENTITY-REGION	-0.08577246
-3.926332	ENTITY-SEQUENCE?	-0.06785925
-3.926332	ENTITY-TRANSLATIONS	-0.08592682
-3.926332	ENTITY-TYPE	-0.08592682
-3.926332	ENTRIES	-0.08360562
-3.926332	EQUATOR,	-0.08587538
-3.926332	EQUIPMENT	-0.06785925
-3.926332	EQUIVALENT	-0.08582392
-3.926332	ER,	-0.05644838
-3.926332	ERA	-0.06785925
-3.625384	ERECTUS	-0.08469037
-3.926332	ERRONEOUS	-0.08592682
-3.926332	ERRORS	-0.0741419
-3.449321	ESPAN	-0.06726889
-3.926332	ESPAN,	-0.08592682
-3.926332	ESPECIALLY	-0.08412252
-3.926332	ESSENTIALLY,	-0.05644838
-3.926332	ESTABLISH	-0.07855957
-3.926332	ESTABLISHED	-0.08319167
-3.926332	ESTEEMED	-0.08592682
-3.449321	ESTIMATE	-0.05363129
-3.625384	ESTIMATED	-0.07297741
-3.926332	ESTIMATES	-0.08360562
-3.926332	ESTRING	-0.08499984
-3.926332	ESTRINGS	-0.08592682
-3.926332	ETHICAL	-0.08592682
-2.885089	ETHNIC	-0.09807441
-3.926332	ETHNICITY	-0.0741419
-3.081375	ETREE	-0.07745925
-3.926332	ETREE,	-0.08592682
-3.625384	ETREE/CSTRING	-0.1740417
-3.449321	ETREES	-0.07234092
-3.926332	ETREES,	-0.08577246
-3.926332	ETREES/ALIGNMENTS	-0.08592682
-3.926332	EURASIAN	-0.08572099
-3.926332	EURASIAN,	-0.0741419
-3.926332	EURASIANS	-0.08587538
-3.926332	EUROPE	-0.08443236
-3.926332	EUROPEANS	-0.08592682
-3.926332	EUROPEANS,	-0.08592682
-3.926332	EVALUATES	-0.05644838
-3.449321	EVEN	-0.07955257
-3.625384	EVENLY	-0.06710775
-3.449321	EVENTS	-0.06753732
-3.926332	EVENTS)	-0.06785925
-3.926332	EVENTUAL	-0.08592682
-3.625384	EVENTUALLY	-0.05639329
-3.227494	EVERY	-0.08365727
-3.926332	EVERYTHING	-0.08510293
-3.926332	EXACERBATED	-0.08541207
-3.625384	EXACT	-0.08582389
-3.625384	EXACTLY	-0.05578715
-3.625384	EXAMPLE	-0.07271232
-3.324396	EXAMPLE,	-0.08469035
-3.926332	EXAMPLE.	-0.06785925
-3.926332	EXAMPLE:	-0.06785925
-3.926332	EXAMPLES	-0.07292443
-3.625384	EXCEPT	-0.06909096
-3.926332	EXCHANGED	-0.08033497
-3.926332	EXIST	-0.08319167
-3.449321	EXISTING	-0.08546355
-3.625384	EXPANDED	-0.08484512
-3.926332	EXPECT	-0.08484514
-3.926332	EXPECTING	-0.07855957
-3.926332	EXPERIENCED	-0.08303633
-3.625384	EXPLICIT	-0.08541205
-3.926332	EXPLICITLY	-0.08587538
-3.625384	EXPORTER	-0.1612452
-3.926332	EXPOSE	-0.08577246
-3.926332	EXPRESSED	-0.08592682
-3.926332	EXPRESSIONS	-0.08546358
-3.926332	EXTENSIVE	-0.08582392
-3.926332	EXTERNAL	-0.08582392
-3.625384	EXTRACTING	-0.05600766
-3.926332	EXTREME,	-0.08536056
-3.926332	FACILITATED	-0.08303633
-3.926332	FACTBOOK	-0.08592682
-3.625384	FACTO	-0.08541205
-3.625384	FAIR	-0.163202
-3.926332	FAITHS	-0.07292443
-3.926332	FALLS	-0.08592682
-3.926332	FALSE)	-0.08592682
-3.926332	FALTERING	-0.08572099
-3.926332	FAMILIAR	-0.08334695
-3.926332	FAMILIES	-0.08587538
-3.926332	FAMILY	-0.08587538
-3.324396	FAMOUS	-0.07965694
-3.625384	FAR	-0.0824144
-3.926332	FATALITIES	-0.08582392
-3.926332	FAUNA	-0.08592682
-3.926332	FEARS	-0.08587538
-3.926332	FEATURE-BASED	-0.08592682
-3.926332	FEATURES,	-0.0741419
-3.625384	FEDERATION	-0.07281838
-3.449321	FEW	-0.08479354
-3.926332	FIELDS	-0.0741419
-3.926332	FIFTH	-0.08577246
-3.926332	FIGHTING	-0.08536056
-3.926332	FIGURE	-0.08546358
-3.926332	FILES	-0.08572099
-3.926332	FINALLY	-0.08592682
-3.625384	FINANCIAL	-0.08582389
-3.324396	FIND	-0.08515442
-3.926332	FINE	-0.07488132
-3.926332	FINER	-0.085206
-3.023386	FIRST	-0.1016218
-3.926332	FIVE-PRONG	-0.08592682
-3.625384	FIVE-YEAR	-0.08587535
-3.926332	FLEET	-0.0741419
-3.926332	FLEXIBLE	-0.08587538
-3.926332	FLORA	-0.0741419
-3.625384	FLORES	-0.1719263
-3.625384	FLORESIENSIS	-0.06748365
-3.926332	FOLLOW	-0.07855957
-3.081375	FOLLOWING	-0.4216344
-1.889069	FOR	-0.1495727
-3.926332	FOR)	-0.08484514
-3.449321	FORCE	-0.07435326
-3.449321	FORCED	-0.1315651
-3.625384	FORCES	-0.0735071
-3.449321	FORCING	-0.07709197
-2.972236	FOREIGN	-0.1029782
-3.926332	FORESTS	-0.08246629
-3.625384	FORM	-0.1612452
-3.926332	FORMATIONS	-0.07876881
-3.926332	FORMED	-0.08319167
-3.449321	FORMER	-0.0824144
-3.926332	FORMERLY	-0.08587538
-3.926332	FORMS	-0.07876881
-3.625384	FOUND	-0.07756423
-3.926332	FOUNDING	-0.08577246
-3.926332	FOUR	-0.08592682
-3.926332	FOURTH	-0.08474199
-3.926332	FRACTIONALLY	-0.08592682
-3.926332	FRAGMENT	-0.05644838
-3.926332	FRAGMENTED,	-0.08561805
-3.926332	FRAMEWORK	-0.07292443
-3.926332	FRANCA	-0.08033497
-3.625384	FREE	-0.07456455
-3.926332	FREE,	-0.08592682
-3.926332	FREED	-0.08546358
-3.625384	FREEDOM	-0.07287139
-3.926332	FREELY	-0.08334695
-3.926332	FREQUENCY	-0.0741419
-3.926332	FREQUENT	-0.08592682
-3.926332	FREQUENTLY	-0.08592682
-3.926332	FRIENDS	-0.0741419
-2.37019	FROM	-0.3055283
-3.926332	FRUIT	-0.07876881
-3.926332	FRUSTRATION	-0.08566952
-3.926332	FU	-0.08592682
-3.324396	FUEL	-0.12764
-3.926332	FULL	-0.08592682
-3.926332	FUNCTIONS,	-0.08561805
-3.926332	FUND)	-0.0741419
-3.926332	FUNDAMENTALISM	-0.0741419
-3.926332	FUNDS,	-0.05644838
-3.625384	FURTHER	-0.08438071
-3.926332	FUTURE,	-0.0817397
-3.625384	FUZZY	-0.08587535
-3.625384	GAM	-0.08137592
-3.926332	GARDEN	-0.08360562
-3.625384	GAS,	-0.0856695
-3.926332	GEESE.	-0.06785925
-3.449321	GENERAL	-0.06726889
-3.926332	GENERALIZE	-0.08443236
-3.449321	GENERATE	-0.08556653
-3.926332	GENERATED	-0.08556657
-3.926332	GENERIC	-0.08592682
-3.926332	GEOGRAPHY	-0.07292443
-3.926332	GERAKAN	-0.08566952
-3.926332	GERMAN	-0.08587538
-3.926332	GERMANE	-0.07488132
-2.812541	GET	-0.1411701
-3.926332	GETS	-0.08582392
-3.926332	GETTING	-0.08556657
-3.324396	GHKM	-0.06191948
-3.625384	GIVE	-0.07803598
-3.023386	GIVEN	-0.05943258
-3.625384	GIVING	-0.05589742
-3.625384	GIZA	-0.1740932
-3.926332	GLIB:	-0.08536056
-3.926332	GLOBAL	-0.08592682
-3.625384	GOING	-0.07456455
-3.926332	GOLD	-0.06785925
-3.926332	GOLD-STANDARD	-0.08515447
-3.449321	GOOD	-0.06818087
-3.926332	GORONTALO,	-0.08541207
-3.926332	GOVERNANCE	-0.0741419
-3.926332	GOVERNED	-0.08303633
-2.647735	GOVERNMENT	-0.1586515
-3.449321	GOVERNOR	-0.06705402
-3.625384	GRADUALLY	-0.08582389
-3.926332	GRAMMAR	-0.08592682
-3.926332	GRAMMAR'S	-0.08592682
-3.926332	GRAPH").	-0.08592682
-3.926332	GREATLY	-0.07876881
-3.926332	GREEDILY	-0.08592682
-3.926332	GREEK:	-0.08592682
-3.625384	GREEN	-0.1735782
-3.926332	GREENRULETEMPLATES	-0.08033497
-3.926332	GRIP	-0.08319167
-3.926332	GROSS	-0.08577246
-3.926332	GROUP	-0.08324344
-3.148318	GROUPS	-0.08162144
-3.625384	GROUPS.	-0.15618
-3.926332	GROWING	-0.08515447
-3.926332	GROWTH	-0.06785925
-3.926332	GUERRILLAS	-0.0741419
-3.227494	GUINEA	-0.06860934
-3.926332	GUINEA)	-0.0741419
-3.926332	GUINEA,	-0.08448398
-3.926332	GUS	-0.08592682
-3.926332	GUTIERREZ,	-0.07855957
-3.926332	GUYS	-0.08566952
-3.081375	HABIBIE	-0.09547847
-3.926332	HABIBIE'S	-0.08592682
-2.885089	HAD	-0.1617952
-3.926332	HALF	-0.07292443
-3.926332	HAMENGKUBUWONO	-0.08592682
-3.926332	HAND	-0.0741419
-3.926332	HANDLING	-0.07488132
-3.926332	HAPPEN	-0.08033497
-3.926332	HARD	-0.08033497
-3.926332	HARD-TO-REACH	-0.08582392
-3.926332	HARDSHIPS,	-0.05644838
-3.926332	HARMONY	-0.0817397
-2.584067	HAS	-0.0506396
-3.625384	HATTA	-0.08225879
-2.382424	HAVE	-0.3506547
-3.926332	HAVING	-0.05644838
-3.227494	HE	-0.1151527
-2.92648	HEAD	-0.1956561
-3.926332	HEAD-PROPAGATION	-0.08587538
-3.926332	HEAD/TAG,	-0.0741419
-3.926332	HEADING	-0.08566952
-3.926332	HEALTH	-0.08577246
-3.926332	HEARD	-0.08033497
-3.926332	HEAVILY	-0.08592682
-3.926332	HEAVY	-0.08582392
-3.625384	HELD	-0.07577744
-3.926332	HELPED	-0.08592682
-3.926332	HELPFUL	-0.07876881
-3.926332	HERE?	-0.0845356
-3.625384	HEURISTIC	-0.08577243
-3.926332	HIDE	-0.08324344
-3.926332	HIGH	-0.08546358
-3.926332	HIGH-PRECISION/CONFIDENCE	-0.0846388
-3.625384	HIGHEST	-0.06775194
-3.926332	HIGHLIGHT	-0.08484514
-3.926332	HIGHLY	-0.08592682
-3.926332	HIMSELF	-0.0741419
-3.926332	HINDERING	-0.08551507
-3.023386	HINDU	-0.09396096
-3.926332	HINDU,	-0.08422583
-3.926332	HINDU-INFLUENCED	-0.08587538
-3.449321	HINDUISM	-0.1273746
-3.023386	HIS	-0.08520587
-3.926332	HISTORICAL	-0.08592682
-3.926332	HISTORY	-0.06785925
-3.926332	HIT	-0.08303633
-3.926332	HOLD	-0.07855957
-3.449321	HOME	-0.5599273
-3.926332	HOMELESS)	-0.06785925
-3.625384	HOMINID,	-0.1740417
-3.227494	HOMO	-0.1548821
-3.625384	HOOK	-0.1737328
-3.926332	HOPEFULLY	-0.08572099
-3.926332	HORRIFIC	-0.08587538
-3.926332	HOUSES,	-0.08587538
-3.227494	HOW	-0.1076114
-3.148318	HOWEVER,	-0.08179154
-3.324396	HUMAN	-0.4941117
-3.926332	HUNDRED	-0.08587538
-3.227494	HUNDREDS	-0.3149323
-3.926332	HYPHEN;	-0.08592682
-3.926332	HYPHENS)	-0.08324344
-3.324396	I	-0.1271765
-3.625384	I'D	-0.08577243
-3.324396	I'VE	-0.08412247
-3.926332	I.E	-0.06785925
-3.926332	ID	-0.08582392
-3.926332	IDEA	-0.06785925
-3.926332	IDENTICAL	-0.08592682
-3.926332	IDENTIFICATION	-0.0741419
-3.926332	IDENTIFICATION/SEGMENTATION	-0.07292443
-3.324396	IDENTIFIED	-0.1233469
-3.324396	IDENTIFY	-0.1174858
-2.780357	IF	-0.1258076
-3.926332	IGNORES	-0.05644838
-3.625384	II,	-0.08329517
-3.926332	IKAT	-0.0741419
-3.926332	ILLITERACY,	-0.08561805
-3.926332	IMAM	-0.08592682
-3.926332	IMPACT	-0.07292443
-3.926332	IMPERIAL	-0.08572099
-3.625384	IMPLEMENTING	-0.08386412
-3.449321	IMPORTANT	-0.1370728
-3.926332	IMPORTANT,	-0.05644838
-3.625384	IMPORTER	-0.1612452
-3.926332	IMPOSING	-0.08556657
-3.926332	IMPRISONED	-0.08303633
-1.783481	IN	-0.2282284
-3.449321	INCLUDE	-0.08582389
-3.926332	INCLUDED	-0.08592682
-3.449321	INCLUDING	-0.08572096
-3.926332	INCOME	-0.08525753
-3.926332	INCORRECT	-0.08587538
-3.926332	INCORRECTLY	-0.08551507
-3.926332	INCREASE	-0.08572099
-3.625384	INCREASED	-0.05633822
-3.926332	INCREASING	-0.08592682
-3.926332	INDEED	-0.08587538
-2.847302	INDEPENDENCE	-0.1441141
-3.926332	INDEPENDENCE,	-0.08592682
-3.227494	INDEPENDENT	-0.07010581
-3.926332	INDEPENDENT:	-0.06785925
-3.625384	INDIA	-0.08587535
-3.926332	INDIAN	-0.08592682
-3.926332	INDIC	-0.08561805
-3.926332	INDICATE	-0.08536056
-3.926332	INDICATING	-0.08592682
-3.227494	INDIES	-0.1358926
-3.926332	INDIRECT	-0.08587538
-3.926332	INDISPUTABLE	-0.08324344
-3.926332	INDO)	-0.08484514
-2.254395	INDONESIA	-0.2180646
-2.812541	INDONESIA'S	-0.1084538
-3.926332	INDONESIA),	-0.0817397
-3.926332	INDONESIA).	-0.08484514
-3.324396	INDONESIA,	-0.127537
-3.625384	INDONESIA.	-0.15618
-2.395013	INDONESIAN	-0.1682438
-3.625384	INDONESIAN)	-0.06978562
-3.081375	INDONESIANS	-0.07464226
-3.926332	INDONESIANS,	-0.08541207
-3.926332	INDUS	-0.08577246
-3.926332	INDUSTRY	-0.08592682
-3.926332	INFINITE)	-0.08587538
-3.227494	INFLUENCE	-0.08617105
-3.625384	INFLUENCED	-0.1713571
-3.449321	INFLUENCES	-0.1295544
-3.625384	INFLUENTIAL	-0.07871649
-3.625384	INFO	-0.08551504
-3.449321	INFORMATION	-0.08173966
-3.926332	INFREQUENT	-0.085206
-3.625384	INHABITED	-0.1713571
-3.926332	INHABITED,	-0.08360562
-3.926332	INITIAL	-0.08546358
-3.926332	INITIALLY	-0.08484514
-3.926332	INITILAIZED	-0.08334695
-3.926332	INPUT	-0.08572099
-3.926332	INSERT	-0.08592682
-3.449321	INSIDE	-0.1423572
-3.926332	INSIDE-COSTS	-0.07292443
-3.926332	INSPIRATION	-0.06785925
-3.625384	INSTABILITY	-0.07223475
-3.926332	INSTANCE	-0.08246629
-3.625384	INSTEAD	-0.06527732
-3.625384	INSTEAD,	-0.05617297
-3.926332	INSTITUTED	-0.07855957
-3.926332	INSTRUMENT	-0.05644838
-3.625384	INTEGRATE	-0.08551504
-3.926332	INTEGRATED	-0.08577246
-3.926332	INTEGRATING	-0.08577246
-3.926332	INTEGRATION	-0.07292443
-3.926332	INTERACT	-0.07876881
-3.926332	INTERESTING	-0.0846388
-3.926332	INTERIOR	-0.08566952
-3.926332	INTERMARRIAGE	-0.08484514
-3.324396	INTERNAL	-0.08566947
-3.449321	INTERNATIONAL	-0.08582389
-3.926332	INTERNATIONALLY,	-0.08438074
-2.92648	INTO	-0.1768112
-3.926332	INTRODUCE	-0.08541207
-3.625384	INTRODUCED	-0.0526882
-3.926332	INVASION,	-0.08561805
-3.625384	INVESTMENT	-0.1670895
-3.926332	INVESTMENT,	-0.08499984
-3.926332	INVITED	-0.08556657
-3.926332	INVOLVE	-0.08546358
-3.926332	INVOLVING	-0.08587538
-3.926332	IR	-0.06785925
-3.449321	IRIAN	-0.08577243
-3.926332	IRRIGATION	-0.07876881
-2.012681	IS	-0.1790056
-3.625384	IS,	-0.08556654
-3.148318	ISLAM	-0.05263257
-3.926332	ISLAM,	-0.08499984
-3.449321	ISLAMIC	-0.08582389
-3.023386	ISLAND	-0.4986743
-3.625384	ISLAND,	-0.07356003
-2.750395	ISLANDS	-0.05173752
-3.926332	ISLANDS)	-0.0817397
-3.625384	ISLANDS,	-0.07260624
-3.449321	ISN'T	-0.0756721
-3.926332	ISOLATED	-0.08566952
-3.926332	ISSUE	-0.08033497
-3.926332	ISSUES	-0.08592682
-2.346709	IT	-0.1509585
-3.148318	IT'S	-0.07503948
-3.926332	IT:	-0.06785925
-3.324396	ITEMS	-0.1243334
-3.926332	ITEMS,	-0.0741419
-2.750395	ITS	-0.08360535
-3.148318	JAKARTA	-0.1114697
-3.926332	JAKARTA*,	-0.08592682
-3.926332	JAKARTA,	-0.08587538
-3.926332	JAMBI,	-0.08541207
-3.227494	JAPAN	-0.07819307
-3.926332	JAPAN,	-0.05644838
-3.324396	JAPANESE	-0.08484509
-2.696038	JAVA	-0.2282286
-3.926332	JAVA"	-0.08592682
-3.227494	JAVA,	-0.1163969
-3.926332	JAVA.	-0.06785925
-3.324396	JAVANESE	-0.4824812
-3.926332	JAVANESE,	-0.08592682
-3.926332	JAWA	-0.08592682
-3.625384	JAYA	-0.08561802
-3.926332	JAYA)	-0.08484514
-3.926332	JAYA).	-0.06785925
-3.926332	JOINTLY,	-0.08484514
-3.926332	JONATHANGRAEHL	-0.08484514
-3.926332	JONES	-0.08494828
-3.926332	JONMAY	-0.06785925
-3.926332	JULY	-0.085206
-2.625458	JUST	-0.1011406
-3.926332	JUSTIFIED,	-0.08546358
-3.926332	JUSUF	-0.08592682
-3.227494	KALIMANTAN	-0.3580114
-3.926332	KALIMANTAN),	-0.08556657
-3.625384	KALIMANTAN,	-0.08546355
-3.324396	KEEP	-0.04799788
-3.625384	KEEPING	-0.05628315
-3.625384	KH	-0.1741961
-3.449321	KILLED	-0.1230894
-3.926332	KIND	-0.07292443
-3.449321	KINGDOM	-0.1223352
-3.449321	KINGDOMS	-0.0676983
-3.625384	KNOW	-0.08458717
-3.227494	KNOWN	-0.3244742
-3.926332	KNOWN,	-0.0741419
-3.926332	KRAKATAU	-0.08592682
-3.625384	KULIT	-0.0824144
-3.926332	LABEL	-0.08510293
-3.926332	LABELS	-0.08592682
-3.926332	LABORERS	-0.08499984
-3.926332	LACK	-0.07292443
-3.926332	LAKSONO)	-0.08443236
-3.926332	LAMPUNG,	-0.08587538
-3.023386	LANGUAGE	-0.04833449
-3.926332	LANGUAGE,	-0.08422583
-3.926332	LANGUAGES	-0.08592682
-3.926332	LANGUAGES/ETHNIC	-0.08566952
-3.449321	LARGE	-0.08582389
-3.625384	LARGE,	-0.08556654
-3.926332	LARGELY	-0.08587538
-3.926332	LARGER	-0.08582392
-3.449321	LARGEST	-0.07866417
-3.926332	LAST	-0.08592682
-3.926332	LASTED	-0.08412252
-3.926332	LATE	-0.08587538
-3.227494	LATER	-0.06462941
-3.926332	LATTER'S	-0.08592682
-3.148318	LATTICE	-0.2378528
-3.926332	LATTICE:	-0.08592682
-3.926332	LAW)	-0.07876881
-3.449321	LCA	-0.06028538
-3.926332	LCA,	-0.08556657
-3.625384	LEAD	-0.163202
-3.148318	LEADER	-0.2639936
-3.926332	LEADING	-0.07488132
-3.148318	LEARN	-0.08153177
-3.926332	LEARNED	-0.08303633
-3.023386	LEAST	-0.08184344
-3.926332	LEAVE	-0.05644838
-3.926332	LEAVES	-0.0741419
-3.926332	LEAVING	-0.08546358
-3.449321	LED	-0.1287051
-3.625384	LEFT	-0.05479347
-3.926332	LEFTWARD	-0.08541207
-3.926332	LEGACY,	-0.08592682
-3.926332	LEGAL	-0.08587538
-3.625384	LEGISLATIVE	-0.08582389
-3.926332	LEGISLATURE.	-0.06785925
-3.449321	LESS	-0.08556653
-3.227494	LET	-0.08794346
-3.926332	LET'S	-0.0845356
-3.926332	LETHALITY	-0.07876881
-3.926332	LEVEL,	-0.08484514
-3.227494	LEXICAL	-0.3101437
-3.625384	LHS	-0.08293272
-3.926332	LI	-0.08592682
-3.926332	LIBERAL	-0.08587538
-3.926332	LIBRARY	-0.07292443
-3.926332	LIEUTENANT	-0.08582392
-3.926332	LIFE	-0.06785925
-3.926332	LIFESTYLES	-0.0741419
-3.148318	LIKE	-0.07176851
-3.625384	LIKELY	-0.08587535
-3.926332	LIKELY)	-0.06785925
-3.926332	LIMITED	-0.08561805
-3.625384	LINE	-0.08101186
-3.926332	LINGUA	-0.08592682
-3.625384	LINGUISTIC	-0.07393039
-3.926332	LINGUISTICALLY	-0.08592682
-3.926332	LINKED	-0.07488132
-3.324396	LIST	-0.4812637
-3.625384	LISTS	-0.1612452
-3.625384	LITERAL	-0.08365732
-3.926332	LIVES	-0.06785925
-3.926332	LIVES),	-0.08582392
-3.625384	LIVING	-0.06673153
-3.148318	LM	-0.1118724
-3.926332	LM-COMPETITIVE	-0.08334695
-3.926332	LOBBYING,	-0.08572099
-3.449321	LOCAL	-0.08530902
-3.625384	LOCATED	-0.07803598
-3.625384	LOCATION	-0.08308809
-3.926332	LOMBOK,	-0.0741419
-3.926332	LONG-RUNNING	-0.08582392
-3.449321	LONGER	-0.1391528
-3.926332	LOOK	-0.08499984
-3.625384	LOOKING	-0.0793437
-3.926332	LOSS	-0.07292443
-3.926332	LOST	-0.05644838
-3.926332	LOW,	-0.08592682
-3.926332	M	-0.08443236
-3.625384	MADE	-0.08298451
-3.625384	MADURESE	-0.0851029
-3.926332	MADURESE,	-0.0741419
-3.227494	MAIN	-0.3101437
-3.449321	MAINLY	-0.08582389
-3.926332	MAINTAIN	-0.07855957
-3.926332	MAJELIS	-0.08587538
-3.023386	MAJOR	-0.08427733
-3.926332	MAKASSAR,	-0.08556657
-3.148318	MAKE	-0.07397118
-3.926332	MAKES	-0.08587538
-3.625384	MAKING	-0.1718746
-3.926332	MALACCA.	-0.06785925
-3.926332	MALAY	-0.08587538
-3.926332	MALAY),	-0.08592682
-3.926332	MALAY,	-0.08556657
-3.227494	MALAYSIA	-0.08550453
-3.926332	MALAYSIA,	-0.0741419
-3.926332	MALUKU	-0.08592682
-3.625384	MALUKU,	-0.08577243
-3.926332	MAN	-0.08484514
-3.926332	MANDATED	-0.07855957
-3.926332	MANDATORY.	-0.06785925
-3.926332	MANUALLY	-0.08592682
-2.92648	MANY	-0.09531544
-3.926332	MANY->ONE	-0.08592682
-3.625384	MAP	-0.1612452
-3.926332	MAPPING	-0.08412252
-3.625384	MARCH	-0.1735267
-3.926332	MARK	-0.08541207
-3.625384	MARKED	-0.08189547
-3.926332	MARKEDLY	-0.08525753
-3.926332	MARLBOROUGH".	-0.06785925
-3.926332	MARSHALL	-0.08582392
-3.926332	MARTIAL	-0.08587538
-3.926332	MASSACRED	-0.08572099
-3.625384	MASSIVE	-0.08561802
-3.926332	MATARAM,	-0.08551507
-3.926332	MATCHES	-0.08443236
-3.926332	MATCHES,	-0.08376076
-3.926332	MATCHING	-0.08556657
-3.926332	MATCHING.	-0.06785925
-3.926332	MATTER	-0.08033497
-3.625384	MATTERS	-0.06343916
-3.926332	MAXIMUM	-0.08592682
-2.885089	MAY	-0.2254271
-3.625384	MAYBE	-0.08365732
-3.926332	MAYOR),	-0.0741419
-3.926332	MEANING),	-0.08546358
-3.926332	MEANINGFUL	-0.08577246
-3.324396	MEANS	-0.08007429
-3.926332	MEANS,	-0.08592682
-3.926332	MEANT	-0.08324344
-3.926332	MEDAN,	-0.08592682
-3.926332	MEDIA,	-0.0741419
-3.324396	MEGAWATI	-0.4941117
-3.926332	MELANESIA	-0.06785925
-3.324396	MEMBER	-0.4812637
-3.081375	MEMBERS	-0.632152
-3.625384	MEMORIZE	-0.05512495
-3.926332	MENTION	-0.07292443
-3.926332	MENTIONED,	-0.07855957
-3.926332	MERDEKA	-0.08592682
-3.449321	METHOD	-0.08474195
-3.926332	METHODS	-0.0741419
-3.926332	METHODS),	-0.0741419
-3.926332	MIDDLE	-0.08592682
-3.926332	MIDDLEMEN	-0.0741419
-2.972236	MIGHT	-0.2141734
-3.926332	MIGRANTS	-0.0741419
-3.926332	MIGRATION	-0.08592682
-3.023386	MILITARY	-0.09311314
-3.625384	MILITIA	-0.06780559
-3.926332	MILITIA.	-0.06785925
-3.148318	MILLION	-0.08843146
-3.926332	MIND	-0.08401919
-3.449321	MINISTER	-0.07281837
-3.926332	MINISTERS,	-0.08572099
-3.926332	MINORITY	-0.08592682
-3.926332	ML	-0.08592682
-3.449321	MODEL	-0.07939592
-3.625384	MODEL)	-0.08474196
-3.926332	MODEL,	-0.08592682
-3.926332	MODELS	-0.0741419
-3.926332	MODERN	-0.08592682
-3.926332	MODIFICATION	-0.08566952
-3.926332	MODIFIED	-0.08592682
-3.625384	MODIFY	-0.1447691
-3.625384	MODIFYING	-0.1447691
-3.926332	MODTM	-0.08566952
-3.926332	MODTM+MODSBLM	-0.08484514
-3.926332	MODTM+MODSBLM:	-0.08587538
-3.926332	MODTM:	-0.08587538
-3.926332	MOHAMMAD	-0.08587538
-3.926332	MOLUCCAS,	-0.0741419
-3.926332	MONDAY,	-0.08432911
-3.926332	MONEY	-0.08592682
-3.449321	MONOLINGUAL	-0.08329517
-2.625458	MORE	-0.2319422
-3.926332	MORNING	-0.07292443
-2.546279	MOST	-0.1810497
-3.449321	MOSTLY	-0.08572096
-3.926332	MOVEMENT	-0.0741419
-3.926332	MOVEMENT)	-0.08499984
-3.625384	MPR	-0.08556654
-3.449321	MRS	-0.5529052
-3.227494	MUCH	-0.08355464
-3.926332	MULTIPARTY,	-0.08592682
-3.324396	MULTIPLE	-0.08474194
-3.926332	MULTITUDE	-0.07292443
-3.625384	MUSLIM	-0.08572097
-3.926332	MUSLIM,	-0.08536056
-3.625384	MUSLIM-MAJORITY	-0.1740932
-3.625384	MUSLIMS	-0.08582389
-3.449321	MUST	-0.07929146
-3.926332	MY	-0.08592682
-3.926332	MYSTIC	-0.08592682
-3.926332	MYTHOLOGICAL	-0.08582392
-3.926332	MYTHOLOGY	-0.06785925
-3.926332	N	-0.085206
-3.926332	NADATHUL	-0.08592682
-3.926332	NAME,	-0.08587538
-3.625384	NAMED	-0.1734752
-3.926332	NAMED-ENTITY	-0.08592682
-3.227494	NAMES	-0.1112936
-3.625384	NAMES,	-0.07382461
-3.926332	NAPOLEONIC	-0.08592682
-3.324396	NATION	-0.08839852
-2.972236	NATIONAL	-0.08376061
-3.926332	NATIONALISTS	-0.08577246
-3.625384	NATIONS	-0.1612452
-3.625384	NATIONS,	-0.1624626
-3.926332	NATIONWIDE	-0.08592682
-3.324396	NATIVE	-0.3906437
-3.926332	NATIVES	-0.07292443
-3.449321	NATURAL	-0.142666
-3.227494	NE	-0.3090098
-3.926332	NE-TAGGER	-0.08556657
-3.926332	NE-TAGGER.	-0.06785925
-3.926332	NE-TRANSLATION	-0.07876881
-3.926332	NEAR-MATCHES	-0.07488132
-3.926332	NEARLY	-0.08572099
-3.926332	NECESSARILY	-0.08541207
-3.926332	NECESSARY	-0.08551507
-2.972236	NEED	-0.1780097
-3.926332	NEEDED	-0.07488132
-3.926332	NEIGHBOURING	-0.08592682
-3.926332	NEPOTISM	-0.08592682
-3.926332	NES	-0.07876881
-3.926332	NESOS	-0.08577246
-3.625384	NET	-0.1741961
-3.227494	NETHERLANDS	-0.06050357
-3.625384	NETHERLANDS'	-0.08582389
-3.926332	NETHERLANDS,	-0.08592682
-3.926332	NEUTRALLY	-0.08334695
-2.564762	NEW	-0.1770985
-3.449321	NEWLY	-0.142666
-3.926332	NIAS	-0.08587538
-3.926332	NICE	-0.07488132
-3.926332	NNP	-0.08443236
-2.885089	NO	-0.2078833
-3.926332	NON-ALIGNED	-0.08592682
-3.926332	NON-CONSECUTIVE-CONSTITUENT	-0.08582392
-3.926332	NON-CONSTITUENT	-0.08592682
-3.926332	NON-HEAD	-0.08592682
-3.926332	NON-ORTHODOX,	-0.08592682
-3.625384	NON-OVERLAPPING	-0.08551504
-3.926332	NON-SIBLING	-0.08566952
-3.926332	NONCONSTITUENT	-0.08499984
-3.926332	NONCONSTITUENTLEAFRULES	-0.0741419
-3.926332	NONTERM	-0.08443236
-3.926332	NONTERM)	-0.08033497
-3.449321	NONTERMINAL	-0.07477573
-3.926332	NONTERMINAL);	-0.07488132
-3.926332	NONTERMINAL-SPLITTING	-0.07488132
-3.926332	NONTERMINAL/HEAD/ETC	-0.07488132
-3.926332	NONTERMINAL/RULE"	-0.08412252
-3.926332	NONTERMINALS	-0.08592682
-3.926332	NONTERMINALS,	-0.08561805
-3.625384	NORMAL	-0.08448396
-3.449321	NORMALLY	-0.08075163
-3.449321	NORTH	-0.0851029
-3.926332	NORTHERN	-0.08582392
-2.479333	NOT	-0.08164777
-3.625384	NOT,	-0.0830363
-3.625384	NOTE	-0.08272547
-3.926332	NOTE:	-0.08525753
-3.926332	NOTICE	-0.05644838
-3.227494	NOW	-0.1093512
-3.449321	NOW,	-0.08324341
-3.926332	NOW-VANISHED	-0.08592682
-3.926332	NP(*CD*(@),*NN*(BILLION),NN(DOGS),	-0.0741419
-3.926332	NP_GEESE(CD(@),CD(BILLION),NNS(GEESE))	-0.08484514
-3.926332	NP_GEESE(RB_NUM_BILLION(CD(@),CD(BILLION),NNS(GEESE)),	-0.08551507
-3.926332	NPB	-0.08566952
-3.926332	NPB(NNP(HILLARY),NNP(CLINTON))	-0.08551507
-3.926332	NPS	-0.08334695
-3.926332	NTH	-0.08443236
-3.926332	NUM_@@	-0.08033497
-3.324396	NUMBER	-0.4812637
-3.926332	NUMBER-WRITING	-0.0817397
-3.926332	NUMBERS	-0.0741419
-3.449321	NUMBERS/NAMES	-0.06533127
-3.926332	NUMBERS/NAMES,	-0.0741419
-3.926332	NUMERALS	-0.08443236
-3.926332	NURTANIO	-0.08587538
-3.625384	NUSA	-0.1740932
-3.926332	NXM?	-0.08566952
-3.324396	O	-0.05324318
-3.926332	OBSERVERS	-0.0741419
-3.625384	OCCUPATION	-0.08293272
-3.625384	OCCUPATION,	-0.0856695
-3.926332	OCCUPATION:	-0.0845872
-3.449321	OCCUPIED	-0.08251812
-3.926332	OCCUPIERS	-0.06785925
-3.926332	OCCUR)	-0.06785925
-3.926332	OCCURRED	-0.07876881
-3.926332	OCCURS	-0.08334695
-3.926332	OCTOBER)	-0.06785925
-1.528556	OF	-0.1836678
-3.449321	OFF	-0.08313987
-3.926332	OFFERED	-0.08592682
-3.926332	OFFICE	-0.07876881
-3.926332	OFFICERS	-0.08499984
-3.449321	OFFICIAL	-0.08505135
-3.449321	OFFICIALLY	-0.05633821
-3.926332	OFFICIALS	-0.06785925
-3.449321	OFTEN	-0.08546355
-3.449321	OIL	-0.05545617
-3.449321	OIL,	-0.08334692
-3.324396	OLD	-0.08453555
-3.926332	OLD_TREE.	-0.06785925
-3.926332	OLDER	-0.08592682
-2.1941	ON	-0.2670637
-3.926332	ONCE	-0.08582392
-2.92648	ONE	-0.1885702
-3.926332	ONE).	-0.08246629
-3.926332	ONE-DAY	-0.08572099
-3.926332	ONE-TIME	-0.08592682
-3.926332	ONE-WORD	-0.08587538
-3.449321	ONES	-0.1320399
-2.750395	ONLY	-0.0948296
-3.926332	OPEC,	-0.08530905
-3.926332	OPEN-CLASS	-0.08572099
-3.926332	OPERA	-0.08592682
-3.926332	OPPORTUNITY	-0.07488132
-3.926332	OPTIMIZED	-0.08592682
-3.926332	OPTION.	-0.06785925
-2.44937	OR	-0.04264408
-3.926332	OR,	-0.08582392
-3.926332	ORDE	-0.08592682
-3.227494	ORDER	-0.2859042
-3.926332	ORDER)	-0.08587538
-3.926332	ORDERED	-0.08592682
-3.926332	ORDINALS	-0.08592682
-3.926332	ORDINARY	-0.08577246
-3.926332	ORGANIZATION	-0.07292443
-3.926332	ORGANIZATION,	-0.08592682
-3.926332	ORGANIZATIONAL	-0.08572099
-3.625384	ORIGINAL	-0.08587535
-3.926332	ORIGINALLY	-0.07855957
-3.926332	ORIGINATING	-0.08412252
-3.926332	ORIGINS;	-0.08592682
-3.081375	OTHER	-0.06527724
-3.625384	OTHERS	-0.07970916
-3.926332	OTHERWISE	-0.08592682
-3.926332	OTHERWISE,	-0.08033497
-3.148318	OUR	-0.08319157
-3.926332	OUSTING	-0.05644838
-2.92648	OUT	-0.1951295
-3.926332	OUTPUT	-0.06785925
-3.926332	OUTPUT,	-0.08376076
-3.926332	OUTRIGHT	-0.08587538
-3.449321	OUTSIDE	-0.08551504
-3.148318	OVER	-0.2822271
-3.926332	OVERALL.	-0.06785925
-3.926332	OVERLAPPING	-0.08592682
-3.926332	OVERTONES,	-0.08592682
-3.926332	OVERWHELMING	-0.08592682
-3.926332	OVERWHELMINGLY	-0.08592682
-3.625384	OWING	-0.163202
-3.449321	OWN	-0.08577243
-3.926332	P(E|C)	-0.08572099
-3.926332	PACHUNG,	-0.08592682
-3.926332	PACIFIC	-0.0741419
-3.926332	PACIFIC,	-0.08592682
-3.926332	PADRI	-0.08556657
-3.926332	PAIRS	-0.08319167
-3.926332	PAIRS,	-0.08577246
-3.926332	PALEMBANG,	-0.0741419
-3.926332	PALM	-0.08582392
-3.023386	PAPUA	-0.2079014
-3.926332	PAPUA*,	-0.08592682
-3.926332	PAPUAN,	-0.08334695
-3.227494	PARALLEL	-0.085515
-3.449321	PARENT	-0.1202813
-3.926332	PARENTS/SIBLINGS,	-0.08525753
-3.926332	PARIS	-0.08592682
-3.081375	PARLIAMENT	-0.1074236
-3.926332	PARLIAMENT,	-0.08334695
-3.449321	PARSE	-0.08479354
-3.926332	PARSE/TRANSLATION	-0.06785925
-3.926332	PARSED	-0.08582392
-3.926332	PARSED-TO-ENGLISH	-0.08443236
-3.926332	PARSER	-0.08484514
-3.449321	PARSES	-0.07281837
-3.227494	PARSING	-0.06907776
-3.926332	PARSING,	-0.08561805
-3.625384	PART	-0.1612452
-3.926332	PART,	-0.08438074
-3.926332	PARTIAL	-0.08582392
-3.449321	PARTICULAR	-0.08412249
-3.926332	PARTICULAR,	-0.07855957
-3.449321	PARTICULARLY	-0.08489668
-3.926332	PARTIES	-0.08324344
-3.449321	PARTLY	-0.08225878
-3.926332	PARTNERS	-0.08360562
-3.081375	PARTS	-0.6343851
-3.926332	PARTY	-0.06785925
-3.926332	PASSED	-0.08541207
-3.926332	PASSING	-0.05644838
-3.926332	PATCHING	-0.08546358
-3.926332	PATH	-0.08412252
-3.926332	PDI-P,	-0.05644838
-3.324396	PEACE	-0.08546352
-3.926332	PEASANTS	-0.0741419
-3.926332	PENCAK	-0.08592682
-3.926332	PENG.	-0.06785925
-3.926332	PENNTREEBANK?-(OR	-0.08592682
-2.812541	PEOPLE	-0.2576876
-3.625384	PEOPLE'S	-0.08556654
-3.926332	PEOPLE,	-0.0741419
-3.926332	PEOPLES,	-0.08572099
-3.324396	PER-SENTENCE	-0.08510288
-3.926332	PERCENTS	-0.08577246
-3.926332	PERCEPTION	-0.08324344
-3.324396	PERHAPS	-0.08199929
-3.926332	PERHAPS:	-0.06785925
-3.625384	PERIOD	-0.1612452
-3.926332	PERMITTED	-0.07488132
-3.625384	PERMUSYAWARATAN	-0.08577243
-3.926332	PERPLEXITY	-0.08319167
-3.926332	PERSPECTIVE	-0.08484514
-3.324396	PERWAKILAN	-0.1740417
-3.926332	PHILOSOPHY	-0.08587538
-3.926332	PHRASE	-0.08572099
-3.926332	PINYIN-IZER)	-0.08438074
-3.625384	PLACE	-0.08541205
-3.926332	PLACED	-0.08525753
-3.926332	PLACES	-0.08561805
-3.625384	PLAGUED	-0.1713571
-3.449321	PLAN	-0.1371249
-3.926332	PLAN"	-0.08592682
-3.926332	PLANTATIONS	-0.0741419
-3.926332	PLATES,	-0.08577246
-3.926332	PLEASING	-0.08556657
-3.926332	POLICIES	-0.0741419
-3.926332	POLICY,	-0.08499984
-3.926332	POLICY-MAKING	-0.0741419
-3.081375	POLITICAL	-0.09722784
-3.449321	POLITICS	-0.1123535
-3.926332	POLITICS,	-0.08551507
-3.926332	POORER	-0.08592682
-3.324396	POPULAR	-0.12764
-3.449321	POPULATED	-0.08474195
-3.926332	POPULATED.	-0.06785925
-2.92648	POPULATION	-0.07558718
-3.926332	POPULATION,	-0.0817397
-3.227494	POPULOUS	-0.1067653
-3.449321	PORTUGUESE	-0.08530902
-3.926332	PORTUGUESE,	-0.0741419
-3.926332	POSITION	-0.08561805
-3.926332	POSITION-DEPENDENT	-0.08592682
-3.926332	POSITIONS	-0.07292443
-3.926332	POSO	-0.08592682
-3.926332	POSSIBILITIES	-0.08484514
-3.926332	POSSIBILITY	-0.08324344
-3.449321	POSSIBLE	-0.1131253
-3.926332	POSSIBLE)	-0.06785925
-3.926332	POSSIBLE,	-0.08246629
-3.926332	POTENTIAL	-0.08592682
-3.926332	POTENTIALLY	-0.08551507
-3.926332	POVERTY,	-0.08592682
-3.625384	POWER	-0.07408901
-3.324396	POWERFUL	-0.07021252
-3.926332	POWERS	-0.06785925
-3.625384	PRACTICE	-0.05628315
-3.926332	PRACTICED	-0.07876881
-3.926332	PRAMBANAN,	-0.0817397
-3.926332	PRE-EXISTING	-0.08582392
-3.926332	PRE-SBLM	-0.08577246
-3.926332	PRECONDITION.	-0.06785925
-3.926332	PRECONDITIONS	-0.06785925
-3.926332	PREDICATE	-0.08592682
-3.926332	PREDOMINANTLY	-0.08587538
-3.625384	PREFER	-0.04455983
-3.926332	PREFIX	-0.08033497
-3.926332	PRES_BUSH	-0.08561805
-3.926332	PRES_BUSH,	-0.0741419
-3.926332	PRESENT-DAY	-0.08572099
-3.926332	PRESERVE	-0.08592682
-3.625384	PRESIDENCY	-0.08345041
-2.584067	PRESIDENT	-0.1888983
-3.926332	PRESIDENT).	-0.05644838
-3.926332	PRESIDENT,	-0.08592682
-3.926332	PRESIDENT.	-0.06785925
-3.926332	PRESIDENTE	-0.08592682
-3.625384	PRESIDENTIAL	-0.08561802
-3.926332	PRESIDENTS:	-0.08592682
-3.926332	PRESS	-0.06785925
-3.926332	PRESSURE,	-0.08592682
-3.926332	PRETEXT	-0.07292443
-3.625384	PRETTY	-0.08572097
-3.926332	PREVIOUS	-0.08572099
-3.926332	PREVIOUSLY	-0.08592682
-3.625384	PRIBUMI	-0.08587535
-3.926332	PRIBUMIS	-0.06785925
-3.926332	PRIBUMIS,	-0.0741419
-3.449321	PRICES	-0.06742997
-3.625384	PRIME	-0.1741446
-3.926332	PRINCE	-0.08592682
-3.625384	PRINCIPAL	-0.08582389
-3.926332	PRINCIPLED,	-0.08592682
-3.926332	PRISON	-0.08587538
-3.926332	PRIVATE	-0.08592682
-3.926332	PRIVILEGES:	-0.05644838
-3.625384	PRO-INDONESIA	-0.08582389
-3.324396	PROB	-0.08427742
-3.625384	PROB=.@	-0.15618
-3.625384	PROBABILITY	-0.06909096
-3.148318	PROBABLY	-0.07345407
-3.926332	PROBLEM	-0.07488132
-3.324396	PROBLEMS	-0.06370994
-3.926332	PROBLEMS:	-0.06785925
-3.625384	PROBS	-0.08443233
-3.926332	PROCEED,	-0.05644838
-3.625384	PROCESS	-0.07175666
-3.324396	PRODUCE	-0.07882941
-3.926332	PRODUCED	-0.08592682
-3.625384	PRODUCES	-0.08577243
-3.926332	PRODUCING	-0.085206
-3.926332	PRODUCT	-0.08592682
-3.926332	PRODUCTION	-0.08484514
-3.926332	PRODUCTS	-0.08582392
-3.926332	PROFIT	-0.08033497
-3.926332	PROGRAM	-0.08484514
-3.926332	PROGRAMS	-0.08587538
-3.926332	PROGRESSIVE	-0.0741419
-3.926332	PROMISED	-0.07855957
-3.926332	PROPAGATE	-0.08566952
-3.625384	PROPOSALS	-0.08572097
-3.148318	PROPOSE	-0.07292432
-3.926332	PROPOSE,	-0.0817397
-3.023386	PROPOSED	-0.05107453
-3.926332	PROPOSED).	-0.08577246
-3.926332	PROPOSED,	-0.08551507
-3.926332	PROPOSES	-0.07855957
-3.625384	PROPOSING	-0.08489668
-3.926332	PROTESTANT	-0.08334695
-3.449321	PROVIDE	-0.05842591
-3.926332	PROVIDED	-0.08303633
-3.926332	PROVIDING	-0.05644838
-3.625384	PROVINCE	-0.05424044
-3.227494	PROVINCES	-0.102617
-3.625384	PROVINCES,	-0.06072175
-3.926332	PT	-0.08592682
-3.926332	PUBLIC	-0.08587538
-3.926332	PUNAN,	-0.08572099
-3.926332	PUNISHED	-0.08033497
-3.926332	PURPOSE:	-0.07488132
-3.926332	PURPOSES,	-0.0741419
-3.926332	PUSHED	-0.08582392
-3.926332	QUALIFIED	-0.08587538
-3.926332	QUALITY,	-0.08592682
-3.926332	QUITE	-0.08536056
-3.926332	QUOTE	-0.08556657
-3.926332	RADU	-0.08592682
-3.926332	RAFFLES	-0.08360562
-3.449321	RAKYAT	-0.08432908
-3.926332	RAKYAT/PEOPLE'S	-0.08587538
-3.926332	RAN	-0.08033497
-3.324396	RARE	-0.08541203
-3.926332	RARE,	-0.0741419
-3.926332	RARE_CHINESE_NAME,	-0.08443236
-3.926332	RARER	-0.08587538
-3.926332	RARES,	-0.08582392
-3.926332	RB	-0.08577246
-3.926332	RB-ENTITIES	-0.08572099
-3.926332	RB-ENTITY-TREEBANKING-STANDARD	-0.08592682
-3.625384	RB-ETREE	-0.08438072
-3.926332	RB-ETREES).	-0.06785925
-3.926332	RB-NONTERM,	-0.08499984
-3.227494	RB-NONTERMINAL	-0.06705398
-3.625384	RB-NONTERMINAL,	-0.07814074
-3.926332	RB-NONTERMINAL/HEADS	-0.08556657
-3.324396	RB-NONTERMINALS	-0.06678527
-3.926332	RB-NUM(*CD*(@),*NN*(BILLION)),	-0.08499984
-3.926332	RB-NUM(*NP*(CD(@),NN(BILLION)))	-0.08443236
-3.926332	RB-NUM(CD(@))	-0.08536056
-3.625384	RB-NUM(CD(@),CD(BILLION))	-0.1736813
-3.926332	RB-NUM(DET(A)	-0.08592682
-3.324396	RB-PROGRAM	-0.08499978
-3.926332	RB-PROGRAM)	-0.08510293
-3.926332	RB-PROGRAM).	-0.06785925
-2.972236	RB-PROGRAMS	-0.07633966
-3.926332	RB-PROGRAMS)	-0.06785925
-3.926332	RB-PROGRAMS).	-0.06785925
-3.926332	RB-PROGS	-0.08561805
-3.625384	RB-RESTRUCTURED	-0.08582389
-3.926332	RB-ROOTED-EDGE	-0.08334695
-3.324396	RB-SUBTREE	-0.0550697
-3.926332	RB-SUBTREE->SBLM-LIST	-0.08592682
-3.926332	RB-SUBTREES	-0.0741419
-3.926332	RB-SYNTAX-RULES	-0.08319167
-3.926332	RB-SYNTAX-TRANSLATION	-0.06785925
-3.926332	RB-SYSTEM	-0.07488132
-3.926332	RB-SYSTEMS	-0.08551507
-3.926332	RB-TRANSLATION	-0.07292443
-3.449321	RB-TRANSLATIONS	-0.06170197
-3.926332	RB-TRANSLATOR	-0.07488132
-3.926332	RB-XXX'S	-0.08582392
-3.926332	RB-XXX(OLD_TREE)	-0.08033497
-3.625384	RB-XXX,	-0.08546355
-3.625384	RB_PROB	-0.08572097
-3.148318	RB_PROB=.@	-0.8819639
-3.926332	RB_PROB=.@@	-0.06785925
-3.324396	RBT	-0.08484509
-3.926332	RBT-ETREE	-0.0846388
-3.926332	RBT-METHODS	-0.08546358
-3.926332	RBT-PRODUCED	-0.08592682
-3.926332	RBT-RULES	-0.08443236
-3.926332	RBT;	-0.08582392
-3.926332	READ	-0.07488132
-3.324396	REAL	-0.1267641
-3.926332	REALITY	-0.07292443
-3.926332	REALLY	-0.05644838
-3.926332	REALLY-OPEN	-0.08572099
-3.926332	REASONABLE)	-0.08561805
-3.926332	REBELLED	-0.07876881
-3.926332	REBELLIONS	-0.08536056
-3.625384	REBELS	-0.1733205
-3.926332	REBUILDING	-0.08525753
-3.926332	RECEIVED	-0.08582392
-3.926332	RECENTLY	-0.08561805
-3.625384	RECOGNIZE	-0.07408901
-3.449321	RECOGNIZED	-0.07350709
-3.926332	RECOGNIZER	-0.08484514
-3.926332	RECOGNIZING	-0.08592682
-3.926332	RECORDED:	-0.08474199
-3.926332	RECOURSE	-0.07488132
-3.926332	RECOVERY	-0.08412252
-3.926332	RECURRING	-0.08592682
-3.625384	REDUCE	-0.05639329
-3.926332	REDUCTION	-0.07292443
-3.449321	REFERENCE	-0.0738246
-3.449321	REFERENDUM	-0.05782261
-3.926332	REFORM	-0.0741419
-3.926332	REFUSED	-0.07488132
-3.926332	REGENCIES	-0.0741419
-3.625384	REGIME	-0.07175666
-3.148318	REGION	-0.117182
-3.625384	REGION,	-0.07861186
-3.227494	REGIONAL	-0.0853605
-3.926332	REGIONALLY	-0.08592682
-3.449321	REGIONS	-0.06967881
-3.926332	REGRETS	-0.08566952
-3.926332	REJECTED	-0.08484514
-3.625384	RELATED	-0.163202
-3.449321	RELATIONS	-0.1378019
-3.926332	RELATIVE	-0.07488132
-3.926332	RELATIVELY	-0.08582392
-3.926332	RELEASE	-0.08412252
-3.926332	RELIED	-0.08319167
-3.449321	RELIGION	-0.1171821
-3.625384	RELIGION,	-0.08329517
-3.926332	RELIGIONS.	-0.06785925
-3.081375	RELIGIOUS	-0.07355995
-3.926332	RELINQUISHED	-0.085206
-3.926332	RELY	-0.08319167
-3.625384	REMAIN	-0.07835019
-3.926332	REMAINDER	-0.08582392
-3.926332	REMAINING	-0.08546358
-3.926332	REMAINS	-0.07855957
-3.926332	REMEDY	-0.08577246
-3.926332	REMEMBER	-0.08587538
-3.625384	REMOVE	-0.05578715
-3.926332	RENDERED	-0.07876881
-3.926332	RENDERING	-0.08510293
-3.926332	RENDERINGS	-0.07488132
-3.926332	REOCCUPY	-0.08556657
-3.926332	REPEATEDLY	-0.08592682
-3.926332	REPLACED	-0.08303633
-3.926332	REPLACING	-0.08572099
-3.926332	REPRESENTATION.	-0.06785925
-3.449321	REPRESENTATIVE	-0.1425631
-3.926332	REPRESENTATIVES	-0.08577246
-3.926332	REPRESENTING	-0.08587538
-3.227494	REPUBLIC	-0.1393203
-3.926332	REPUBLIK	-0.08592682
-3.449321	REQUIRE	-0.1127947
-3.926332	REQUIRED	-0.07488132
-3.926332	REQUIREMENT	-0.08324344
-3.926332	RESCORER	-0.06785925
-3.625384	RESEARCH	-0.05551136
-3.625384	RESENTMENT	-0.08267364
-3.926332	RESIGN	-0.0741419
-3.926332	RESIGN.	-0.06785925
-3.926332	RESIGNATION	-0.0741419
-3.926332	RESOURCES	-0.08582392
-3.926332	RESPONSE	-0.07488132
-3.449321	RESPONSIBLE	-0.5653809
-3.926332	REST	-0.07292443
-3.926332	RESTARTED	-0.0741419
-3.926332	RESTORED	-0.08561805
-3.625384	RESTRICT	-0.05600766
-3.449321	RESTRUCTURE	-0.08370902
-3.926332	RESTRUCTUREDENGLISH	-0.08484514
-3.324396	RESTRUCTURING	-0.07393037
-3.449321	RESULT	-0.5579704
-3.625384	RESULT,	-0.08520597
-3.926332	RESULTED	-0.07876881
-3.926332	RESULTING	-0.08592682
-3.926332	RETRAIN	-0.08401919
-3.926332	REVISED	-0.05644838
-3.449321	REVOLUTION	-0.1110826
-3.926332	RHS	-0.07292443
-3.926332	RIAU	-0.085206
-3.926332	RIAU),	-0.08592682
-3.926332	RIAU,	-0.08541207
-3.926332	RICE,	-0.08592682
-3.926332	RICH	-0.08592682
-3.324396	RIGHT	-0.06115765
-3.324396	RIGHTS	-0.07861184
-3.449321	RIOT	-0.05782261
-3.926332	RIOTERS	-0.06785925
-3.926332	RIOTS	-0.07876881
-3.926332	RIOTS,	-0.08484514
-3.926332	RISE,	-0.08572099
-3.926332	ROBUST	-0.08577246
-3.926332	ROLE	-0.05644838
-3.926332	ROLE(NORMAL	-0.08582392
-3.926332	ROLES	-0.08525753
-3.926332	ROOT	-0.08592682
-3.926332	ROOT-RB-NONTERMS	-0.08592682
-3.625384	ROOTS	-0.1670895
-3.625384	ROUGHLY	-0.08582389
-3.926332	ROUTE	-0.07488132
-3.926332	RUBBER	-0.06785925
-2.780357	RULE	-0.2417611
-3.625384	RULE,	-0.07366588
-3.324396	RULE-BASED	-0.3895098
-3.926332	RULE-COST	-0.08525753
-3.926332	RULE.	-0.06785925
-3.926332	RULE:	-0.06785925
-3.926332	RULED	-0.08246629
-2.780357	RULES	-0.1213885
-3.926332	RULES")	-0.06785925
-3.625384	RULES,	-0.08479354
-3.926332	RULES:	-0.06785925
-3.324396	RUN	-0.3851007
-3.926332	S(NP(X@,X@,CD(@)),VP(CD(BILLION),X@))	-0.08510293
-3.926332	S(X@,CD(@),CD(BILLION),X@)	-0.08510293
-3.926332	S(X@,RB-NUM(CD(@),CD(BILLION)),X@).	-0.06785925
-3.926332	S(X@,X@,RB-NUM("@	-0.08592682
-3.023386	SAME	-0.07887326
-3.926332	SANGEANG	-0.08592682
-3.926332	SAPIENS	-0.08546358
-3.926332	SATELLITE	-0.08592682
-3.926332	SATURDAY,	-0.08541207
-3.926332	SAUSAGE:	-0.08592682
-3.625384	SAW	-0.08350215
-3.926332	SAY	-0.08587538
-3.926332	SAY,	-0.08592682
-2.44937	SBLM	-0.0959478
-3.926332	SBLM)	-0.07488132
-3.625384	SBLM,	-0.08288091
-3.449321	SBLM-ETREE	-0.08556653
-3.926332	SBLM-NON-CONSTITUENT	-0.08515447
-3.926332	SBLM-RESTRUCTURING	-0.08582392
-3.926332	SBLM-SUBTREES	-0.08033497
-3.926332	SBMT	-0.06785925
-3.926332	SCALE	-0.08541207
-3.625384	SCANDAL	-0.08587535
-3.926332	SCATTERED	-0.08582392
-3.926332	SCHOLARS,	-0.0741419
-3.926332	SCHOOLS	-0.0741419
-3.926332	SCHOOLS,	-0.08592682
-3.926332	SCIENTIFIC	-0.08592682
-3.324396	SCORE	-0.02812585
-3.449321	SCORED	-0.0826218
-3.449321	SCORES	-0.08469036
-3.926332	SCORING	-0.06785925
-3.926332	SECESSION	-0.0741419
-3.625384	SECOND	-0.08587535
-3.926332	SECOND-CLASS	-0.08592682
-3.926332	SECOND-LARGEST	-0.08587538
-3.926332	SECURING	-0.05644838
-3.324396	SEE	-0.08282908
-3.449321	SEEN	-0.07572477
-3.926332	SEGMENTATION	-0.07292443
-3.926332	SEISMIC	-0.0741419
-3.449321	SELATAN),	-0.08386412
-3.926332	SEMANTIC	-0.08592682
-3.625384	SEMANTICS	-0.06624734
-3.926332	SEMANTICS,	-0.08484514
-3.926332	SEMARANG.	-0.06785925
-3.926332	SENT	-0.07855957
-3.625384	SENTENCE	-0.07871649
-3.625384	SENTENCE(S)-SPECIFIC	-0.08572097
-3.926332	SENTENCE)	-0.08360562
-3.449321	SENTENCE,	-0.1287051
-3.625384	SENTENCE-SPECIFIC	-0.08505136
-3.926332	SENTENCE-SPECIFIC,	-0.08536056
-3.926332	SENTENCES	-0.08334695
-3.449321	SEPARATE	-0.08582389
-3.926332	SEPARATELY)	-0.08484514
-3.926332	SEPARATISM	-0.08587538
-3.926332	SEQUENCE,	-0.085206
-3.926332	SEQUENCES	-0.07292443
-3.926332	SERIES.	-0.06785925
-3.926332	SERIOUS	-0.08592682
-3.926332	SET	-0.07292443
-2.972236	SEVERAL	-0.08277716
-3.926332	SEVERAL)	-0.08592682
-3.926332	SEVERE	-0.08582392
-3.926332	SHADOW	-0.08592682
-3.926332	SHARIA	-0.08592682
-3.926332	SHARPENED,	-0.08592682
-3.926332	SHOPKEEPERS	-0.0741419
-3.625384	SHOPS,	-0.07408901
-2.696038	SHOULD	-0.4286685
-3.926332	SHOW	-0.05644838
-3.926332	SHOWS,	-0.08592682
-3.926332	SIBLING	-0.08587538
-3.926332	SIDE	-0.07292443
-3.926332	SIGNIFICANT	-0.08592682
-3.926332	SIGNIFICANTLY	-0.08566952
-3.926332	SILAT	-0.0817397
-3.449321	SIMILAR	-0.1315123
-3.625384	SIMPLE	-0.08556654
-3.926332	SIMPLIFY	-0.05644838
-2.972236	SINCE	-0.06965339
-3.926332	SINGAPORE,	-0.08572099
-3.227494	SINGLE	-0.08530898
-3.926332	SITES	-0.08592682
-3.926332	SIVA	-0.08592682
-3.926332	SIZE	-0.07292443
-3.926332	SKINTONES	-0.06785925
-3.926332	SLAPS	-0.08566952
-3.926332	SLOW	-0.07876881
-3.926332	SMALL	-0.08587538
-3.926332	SMALL-TIME	-0.08592682
-3.926332	SMALLER	-0.08572099
-2.972236	SO	-0.0688173
-3.926332	SO,	-0.08577246
-3.926332	SOAP	-0.08592682
-3.926332	SOCIALIST	-0.08592682
-3.926332	SOLITARY	-0.08587538
-3.926332	SOLVE	-0.08484514
-2.584067	SOME	-0.1207382
-3.926332	SOMETHING	-0.08324344
-3.449321	SOMETIMES	-0.08339867
-3.449321	SOMEWHAT	-0.07361296
-3.926332	SONGKET	-0.08592682
-3.625384	SOON	-0.08489668
-3.926332	SORT	-0.085206
-3.081375	SOUTH	-0.2693278
-3.926332	SOUTHEAST	-0.08592682
-3.449321	SPAN	-0.07398327
-3.926332	SPAN).	-0.08401919
-3.625384	SPAN,	-0.07393039
-3.926332	SPAN/PROB	-0.08592682
-3.926332	SPANISH	-0.0741419
-3.324396	SPANS	-0.05229924
-3.926332	SPARKED	-0.08303633
-3.625384	SPARSENESS	-0.07393039
-3.926332	SPARSENESS;	-0.08484514
-3.926332	SPEAK	-0.08499984
-3.926332	SPEAKER:	-0.08592682
-3.926332	SPEC	-0.08033497
-3.148318	SPECIAL	-0.1424086
-3.625384	SPECIES	-0.1612452
-3.449321	SPECIFIC	-0.08458717
-3.324396	SPECIFICALLY	-0.09792669
-3.926332	SPECIFIED	-0.08546358
-3.625384	SPECIFY	-0.04850287
-3.926332	SPECTER	-0.07292443
-3.926332	SPEECH	-0.08577246
-3.926332	SPHERE	-0.08360562
-3.926332	SPICE	-0.08592682
-3.449321	SPICES	-0.05523539
-3.926332	SPLICE	-0.08566952
-3.625384	SPLICED	-0.07845487
-3.324396	SPLICING	-0.06989236
-3.926332	SPLICING,	-0.05644838
-3.625384	SPLIT	-0.1447691
-3.625384	SPOKEN	-0.07577744
-3.926332	SRI	-0.08587538
-3.926332	STABILIZED	-0.08582392
-3.625384	STAFF	-0.06072175
-3.926332	STAGES	-0.08577246
-3.926332	STAMFORD	-0.08592682
-3.625384	STANDARD	-0.08028283
-3.926332	STARS.	-0.06785925
-3.625384	STARTED	-0.08147988
-3.324396	STATE	-0.1161138
-3.926332	STATE)	-0.0741419
-3.625384	STATE,	-0.07408901
-3.926332	STATED	-0.07488132
-3.324396	STATES	-0.0973752
-3.625384	STATES,	-0.08494825
-3.926332	STATIC-RULES	-0.08592682
-3.227494	STATISTICS	-0.06213687
-3.625384	STATUS	-0.07366588
-3.926332	STATUS.	-0.06785925
-3.926332	STEP	-0.08577246
-3.926332	STILL	-0.08587538
-3.926332	STOREFRONT	-0.08592682
-3.926332	STRAINED	-0.08582392
-3.926332	STRING	-0.08592682
-3.926332	STRING).	-0.08577246
-3.625384	STRINGS	-0.08313987
-3.926332	STRINGS,	-0.08592682
-3.926332	STROKE	-0.08592682
-3.926332	STRONG	-0.08582392
-3.625384	STRUCK	-0.08179161
-3.625384	STRUCTURE	-0.163202
-3.926332	STRUGGLE	-0.08033497
-3.926332	STRUGGLE,	-0.0741419
-3.926332	STUFF	-0.08525753
-3.926332	SUB-DISTRICTS.	-0.06785925
-3.926332	SUB-REGIONS	-0.08334695
-3.625384	SUBDIVIDED	-0.1737843
-3.926332	SUBDIVISIONS	-0.07292443
-3.926332	SUBDIVISIONS,	-0.08551507
-3.926332	SUBSETS)	-0.08536056
-3.926332	SUBSIDIES	-0.07488132
-3.926332	SUBSIDIES,	-0.08592682
-3.926332	SUBSIDIZED	-0.08577246
-3.926332	SUBSIDY	-0.07292443
-3.926332	SUBSTANTIAL	-0.08577246
-3.926332	SUBSTANTIAL,	-0.08525753
-3.449321	SUBSTITUTE	-0.1371249
-3.625384	SUBSTITUTION	-0.08308809
-3.926332	SUBSTRING	-0.07876881
-3.926332	SUBSTRUCTURE	-0.08592682
-3.625384	SUBTREE	-0.08236254
-3.926332	SUBTREES	-0.08499984
-3.926332	SUBTREES,	-0.08536056
-3.148318	SUCH	-0.1015807
-3.926332	SUFFERED	-0.08592682
-3.926332	SUFFERS	-0.08541207
-3.625384	SUFFICIENT	-0.06748365
-3.926332	SUGGEST	-0.08494828
-3.148318	SUHARTO	-0.07740679
-3.449321	SUHARTO'S	-0.08572096
-3.926332	SUHARTO,	-0.0835539
-3.148318	SUKARNO	-0.08394004
-3.926332	SUKARNO'S	-0.08499984
-3.324396	SUKARNO,	-0.04325638
-3.324396	SUKARNOPUTRI	-0.1199026
-3.926332	SUKARNOS	-0.08592682
-3.023386	SULAWESI	-0.208673
-3.926332	SULAWESI,	-0.08474199
-3.625384	SULTAN	-0.08587535
-3.926332	SULTANATE	-0.08582392
-3.926332	SUMATERA)	-0.08360562
-3.023386	SUMATRA	-0.2384554
-3.926332	SUMATRA)	-0.08412252
-3.449321	SUMATRA,	-0.05617297
-3.926332	SUMMIT	-0.06785925
-3.926332	SUNDANESE,	-0.08443236
-3.926332	SUPERIOR	-0.05644838
-3.926332	SUPERSET).	-0.08525753
-3.926332	SUPERVISION	-0.08303633
-3.625384	SUPPLIED	-0.08298451
-3.926332	SUPPLIES	-0.07292443
-3.926332	SUPPLY	-0.08572099
-3.926332	SUPPORT	-0.06785925
-3.926332	SUPPORTERS	-0.06785925
-3.926332	SUPPORTING	-0.08582392
-3.926332	SUPPRESSING	-0.08577246
-3.926332	SURABAYA,	-0.08592682
-3.449321	SURE	-0.1103626
-3.926332	SURROGATE	-0.08582392
-3.926332	SURROUNDING	-0.08587538
-3.926332	SURVEY	-0.08360562
-3.926332	SURVIVORS	-0.08592682
-3.449321	SUSILO	-0.5708699
-3.625384	SUSPECT	-0.06780559
-3.926332	SYMBOL	-0.08592682
-3.926332	SYNCRETISM	-0.0741419
-3.449321	SYNTACTIC	-0.08572096
-3.926332	SYNTACTICALLY	-0.06785925
-3.625384	SYNTAX	-0.08587535
-3.926332	SYNTAXBASEDLANGUAGEMODEL?	-0.08572099
-3.926332	SYNTAXTRANSLATIONFRAMEWORK	-0.06785925
-3.926332	SYNTAXTRANSLATIONFRAMEWORK)	-0.07292443
-3.227494	SYSTEM	-0.05990316
-3.625384	SYSTEM,	-0.1624626
-3.926332	SYSTEMS.	-0.06785925
-3.926332	TAGGER),	-0.05644838
-3.926332	TAGGING/TREEING	-0.07292443
-3.926332	TAGS	-0.07488132
-3.926332	TAGS?	-0.08360562
-3.324396	TAKE	-0.04692992
-3.926332	TAKES	-0.08319167
-3.625384	TALKING	-0.1737843
-3.926332	TALKS	-0.08525753
-3.926332	TARGET	-0.07292443
-3.926332	TARGETING	-0.05644838
-3.926332	TASKS.	-0.06785925
-3.926332	TAUGHT	-0.07876881
-3.926332	TAXONOMY	-0.08412252
-3.926332	TEA,	-0.08592682
-3.926332	TECHNOLOGY	-0.06785925
-3.926332	TECTONIC	-0.08592682
-3.926332	TELL	-0.08577246
-3.926332	TEMPLATE-BASED	-0.08587538
-3.926332	TEMPLE	-0.08587538
-3.449321	TENGAH),	-0.08407083
-3.926332	TENGAH,	-0.0741419
-3.324396	TENGGARA	-0.1273311
-3.926332	TENGGARA),	-0.08582392
-3.926332	TENSION	-0.06785925
-3.625384	TENSIONS	-0.07609329
-3.926332	TENSIONS,	-0.08582392
-3.926332	TERM,	-0.0741419
-3.926332	TERM.	-0.06785925
-3.926332	TERMS,	-0.0741419
-3.926332	TERRITORIES	-0.08417418
-3.926332	TERRITORY'S	-0.08587538
-3.926332	TERRORIST	-0.08587538
-3.926332	TEST:	-0.08561805
-3.926332	TEXT	-0.08484514
-2.750395	THAN	-0.1261498
-2.202218	THAT	-0.09617139
-3.926332	THAT'S	-0.08494828
-3.926332	THAT,	-0.08561805
-3.926332	THAT:	-0.06785925
-1.182204	THE	-0.1759526
-3.926332	THEATRE	-0.08592682
-3.023386	THEIR	-0.0843806
-2.92648	THEM	-0.07863946
-3.926332	THEM)	-0.06785925
-3.625384	THEMSELVES	-0.07519779
-2.92648	THEN	-0.06562839
-3.625384	THEN,	-0.05457234
-3.926332	THEN.	-0.06785925
-2.847302	THERE	-0.3792746
-3.926332	THERE'S	-0.08587538
-3.926332	THEREBY	-0.07855957
-3.023386	THESE	-0.07955246
-3.324396	THEY	-0.08474194
-3.449321	THINK	-0.06946514
-3.926332	THINKS	-0.08360562
-3.926332	THIRD-CLASS	-0.08587538
-2.584067	THIS	-0.1857451
-3.926332	THOMAS	-0.08592682
-3.926332	THOROUGHLY	-0.08587538
-3.148318	THOSE	-0.1095948
-3.227494	THOUGH	-0.08059538
-3.625384	THOUGHT	-0.07191608
-3.926332	THOUSANDS	-0.07292443
-3.926332	THREATENED	-0.07488132
-3.926332	THREE	-0.08417418
-3.926332	THRESHOLD,	-0.08484514
-3.926332	THRIVING	-0.07876881
-3.625384	THROUGH	-0.08572097
-3.625384	THUS	-0.08168773
-3.926332	TIES	-0.08525753
-3.926332	TILINGS	-0.0741419
-3.926332	TILT	-0.08592682
-3.926332	TIME	-0.06785925
-3.926332	TIMES	-0.08592682
-2.92648	TIMOR	-0.08461414
-3.926332	TIMOR).	-0.08582392
-3.625384	TIMOR,	-0.1624626
-3.625384	TIMORESE	-0.08556654
-3.449321	TIMUR),	-0.08489668
-3.926332	TIN,	-0.08592682
-2.92648	TM	-0.08321941
-3.926332	TM/SBLM	-0.08525753
-1.598117	TO	-0.1867744
-3.926332	TO;	-0.08401919
-3.926332	TOGETHER	-0.08494828
-3.926332	TOGETHER)	-0.08484514
-3.926332	TOGETHER;	-0.08525753
-3.926332	TOKEN	-0.08324344
-3.926332	TOKENS	-0.08587538
-3.926332	TONGUE,	-0.08484514
-3.227494	TOO	-0.085412
-3.926332	TOO,	-0.08246629
-3.625384	TOTAL	-0.08572097
-3.926332	TOWARDS	-0.08510293
-3.625384	TRADE	-0.07287139
-3.926332	TRADE.	-0.06785925
-3.449321	TRADING	-0.07572477
-3.926332	TRADITIONAL	-0.08577246
-3.926332	TRADITIONS,	-0.08582392
-3.449321	TRAIN	-0.05174305
-2.780357	TRAINING	-0.1520096
-3.449321	TRAINING,	-0.05622806
-3.926332	TRAINING-TREE-MODIFYING	-0.08587538
-3.926332	TRAINING/SMOOTHING,	-0.08484514
-3.926332	TRANSFORMATION,	-0.08376076
-3.926332	TRANSITIONAL	-0.08587538
-3.625384	TRANSLATE	-0.08556654
-3.926332	TRANSLATE.	-0.06785925
-3.926332	TRANSLATED	-0.08303633
-3.926332	TRANSLATING	-0.07855957
-2.511517	TRANSLATION	-0.06783189
-3.926332	TRANSLATION",	-0.08443236
-3.926332	TRANSLATION),	-0.08334695
-2.647735	TRANSLATIONS	-0.04215928
-3.625384	TRANSLATIONS,	-0.08401917
-3.926332	TRANSLATIONS.	-0.06785925
-3.926332	TRANSLATIONS;	-0.08566952
-3.926332	TRANSLATOR	-0.08536056
-3.926332	TRANSLATORS	-0.08572099
-3.926332	TRANSLATORS)	-0.06785925
-3.926332	TRANSLITERATED	-0.08551507
-3.926332	TRANSMIGRATION	-0.08592682
-3.449321	TREATED	-0.1392565
-3.625384	TREATY	-0.1612452
-3.324396	TREE	-0.06737626
-3.926332	TREE-CRAWLING	-0.08582392
-3.926332	TREE.	-0.06785925
-3.449321	TREEBANK	-0.08561801
-3.926332	TREEBANK-LIKE	-0.08582392
-3.324396	TREES	-0.07829782
-3.926332	TRIGGER	-0.05644838
-3.926332	TRIVIAL:	-0.08494828
-3.926332	TROOPS	-0.08360562
-3.926332	TROPICAL	-0.08592682
-3.449321	TRY	-0.1281202
-3.926332	TRYING	-0.07488132
-3.449321	TSUNAMI	-0.05738331
-3.926332	TSUNAMIS	-0.06785925
-3.926332	TUANKU	-0.08592682
-3.625384	TURN	-0.1737843
-3.324396	TWO	-0.08536051
-3.148318	TYPE	-0.8870291
-3.926332	TYPE)	-0.06785925
-3.926332	TYPICAL	-0.08561805
-3.926332	U.S	-0.06785925
-3.926332	UGLY	-0.08592682
-3.926332	ULAMA	-0.08592682
-3.625384	UN	-0.08572097
-3.926332	UN,	-0.08401919
-3.926332	UNABLE	-0.07488132
-3.926332	UNALIGNED).	-0.06785925
-3.926332	UNAMBIGUOUSLY	-0.085206
-3.926332	UNCOMMON	-0.07488132
-2.780357	UNDER	-0.2412571
-3.926332	UNDERCOUNT	-0.08541207
-3.926332	UNDERGOING	-0.08592682
-3.926332	UNDO	-0.05644838
-3.926332	UNEVEN,	-0.08577246
-3.926332	UNFLATTENING	-0.05644838
-3.449321	UNFORTUNATELY,	-0.05551136
-3.926332	UNILATERALLY	-0.08319167
-3.625384	UNIQUE	-0.08582389
-3.625384	UNITARY	-0.0856695
-3.227494	UNITED	-0.1068711
-3.926332	UNITS	-0.08443236
-3.926332	UNIVERSALLY	-0.08592682
-3.449321	UNKNOWN	-0.08556653
-3.926332	UNKNOWN.	-0.06785925
-3.625384	UNLESS	-0.08313987
-3.081375	UNTIL	-0.1013287
-2.885089	UP	-0.1513991
-3.926332	UPGRADE	-0.07488132
-3.324396	US	-0.116008
-3.926332	US$	-0.08566952
-3.926332	USA	-0.0741419
-2.92648	USE	-0.1414327
-2.885089	USED	-0.1923586
-3.926332	USED).	-0.06785925
-3.926332	USED.	-0.06785925
-3.926332	USEFUL	-0.07488132
-3.926332	USEFUL)	-0.06785925
-2.972236	USING	-0.1635663
-3.926332	USUAL.	-0.06785925
-3.449321	UTARA),	-0.1422026
-3.926332	VARIATIONS	-0.07876881
-3.926332	VARIATIONS,	-0.08499984
-3.449321	VARIOUS	-0.08577243
-3.926332	VASSALS,	-0.08556657
-3.926332	VERB	-0.08592682
-3.926332	VERSATILE	-0.085206
-3.625384	VERY	-0.08587535
-3.449321	VICE	-0.5698911
-3.926332	VILLAGERS	-0.08572099
-3.926332	VIOLATION	-0.08566952
-3.449321	VIOLENCE	-0.07808836
-3.926332	VITAL	-0.08577246
-3.926332	VITERBI	-0.08587538
-3.625384	VOC	-0.0830363
-3.625384	VOLCANIC	-0.08515444
-3.926332	VOLCANOES	-0.08592682
-3.926332	VOTE	-0.08033497
-3.449321	VOTED	-0.07965697
-3.926332	VS	-0.08546358
-3.926332	VULNERABLE	-0.07488132
-3.324396	WAHID	-0.07218163
-3.926332	WALLACE	-0.08587538
-2.885089	WANT	-0.6364
-3.926332	WANTING	-0.07488132
-3.926332	WANTS	-0.07488132
-3.023386	WAR	-0.1035121
-3.926332	WAR,	-0.05644838
-3.926332	WARS	-0.08582392
-2.263735	WAS	-0.09598681
-3.324396	WAY	-0.1031856
-3.625384	WAYANG	-0.1741961
-3.926332	WAYS	-0.07292443
-2.293025	WE	-0.2123024
-3.625384	WE'D	-0.08225879
-3.324396	WE'LL	-0.1220976
-3.148318	WE'RE	-0.1129552
-3.926332	WE'VE	-0.08494828
-3.926332	WEAKENING	-0.08577246
-3.926332	WEALTHIER	-0.085206
-3.926332	WEALTHY	-0.08541207
-3.926332	WEIGHTED	-0.08587538
-3.081375	WELL	-0.2220915
-3.926332	WELL,	-0.08577246
-3.926332	WELL-KNOWN	-0.08360562
-2.647735	WERE	-0.1124121
-2.885089	WEST	-0.1001852
-3.449321	WESTERN	-0.08396748
-2.847302	WHAT	-0.07419637
-3.926332	WHATEVER	-0.06785925
-3.148318	WHEN	-0.06921299
-3.926332	WHEN,	-0.08525753
-3.081375	WHERE	-0.05174296
-3.926332	WHEREVER	-0.08376076
-3.625384	WHETHER	-0.163202
-2.647735	WHICH	-0.07058542
-3.023386	WHILE	-0.2139106
-3.227494	WHO	-0.1145812
-3.324396	WHOLE	-0.08422577
-3.449321	WHOSE	-0.08561801
-3.625384	WHY	-0.08256996
-3.926332	WIDELY	-0.08577246
-3.625384	WIDESPREAD	-0.1741446
-2.847302	WILL	-0.161182
-3.926332	WILLING	-0.07488132
-3.926332	WINNER	-0.07292443
-2.218923	WITH	-0.264385
-3.926332	WITH,	-0.08510293
-3.926332	WITHDRAWN	-0.08412252
-3.926332	WITHIN	-0.08546358
-3.449321	WITHOUT	-0.0849998
-3.926332	WON	-0.08303633
-3.449321	WON'T	-0.0819993
-3.324396	WORD	-0.1133567
-3.449321	WORD-CLASS	-0.0676983
-3.926332	WORD-CLASSES	-0.08417418
-3.926332	WORD-FOR-WORD	-0.0846388
-3.148318	WORDS	-0.05864501
-3.926332	WORDS).	-0.08587538
-3.324396	WORDS,	-0.07656661
-3.926332	WORDS/PHRASES	-0.08324344
-3.324396	WORK	-0.06882346
-3.926332	WORKED	-0.07488132
-3.926332	WORKING	-0.07876881
-3.926332	WORKS	-0.08033497
-3.081375	WORLD	-0.1031007
-3.625384	WORLD'S	-0.08577243
-3.926332	WORLD.	-0.06785925
-3.926332	WORLD:	-0.08033497
-2.584067	WOULD	-0.2365624
-3.625384	WOULDN'T	-0.08179161
-3.926332	WRATH	-0.07292443
-3.926332	WRITE	-0.08525753
-3.926332	WRITING;	-0.08587538
-3.926332	WRITTEN	-0.07876881
-3.926332	WROTE	-0.08592682
-3.926332	WRT	-0.08592682
-3.926332	X)	-0.0817397
-3.926332	X@	-0.08556657
-3.926332	X@"	-0.08536056
-3.926332	XR	-0.08525753
-3.926332	XRS	-0.08525753
-3.926332	YEAR	-0.07292443
-3.926332	YEAR,	-0.08577246
-3.926332	YEAR.	-0.06785925
-3.227494	YEARS	-0.1418734
-3.926332	YEARS,	-0.08587538
-3.926332	YET,	-0.07876881
-3.926332	YET-TO-BE-ALIGNED	-0.08592682
-3.926332	YIELD	-0.06785925
-3.625384	YOGYAKARTA	-0.08355388
-3.926332	YOGYAKARTA*.	-0.06785925
-3.926332	YORK	-0.08592682
-2.847302	YOU	-0.1230348
-3.449321	YOU'D	-0.5692201
-3.926332	YOU'LL	-0.08551507
-3.926332	YOUR	-0.08592682
-3.625384	YUDHOYONO	-0.06764465
-3.926332	YUDHOYONO,	-0.05644838

\2-grams:
-0.7456757	"@@" AND
-0.7456757	"@@@ C@
-0.7456757	"ETREE ->
-0.7456757	"FORT MARLBOROUGH".
-0.7456757	"FRAC_BETWEEN_@@_AND_@@" FOR
-0.7456757	"GREEN RULES")
-1.046706	"GREEN-CHINESE-WORD-N" AND
-1.046706	"GREEN-CHINESE-WORD-N" IN
-0.7456757	"HISTORY OF
-0.7456757	"LIFT" IT
-0.7456757	"MUST-USE" RULE.
-0.7456757	"NO CONFIDENCE"
-0.7456757	"NON-PRIBUMI" PEOPLE
-0.7456757	"RB" FOR
-0.7456757	"RB-" PREFIX
-0.7456757	"RULE-BASED TRANSLATION",
-0.7456757	"SAUSAGE GRAPH").
-0.7456757	"SAVE" THE
-0.7456757	"SIMPLE PLAN"
-0.7456757	"STATE" THAT
-0.7456757	"TYPICAL" TREEBANK
-0.7456757	"VIRTUAL NONTERMINAL/RULE"
-0.7456757	"VIRTUAL" NONTERMINAL
-0.7456757	## RB_PROB
-1.133941	### CSPAN=(@,@)	0.06447127
-0.2345145	### RB_PROB=.@	0.05498493
-1.699918	### RB_PROB=.@@
-0.7456757	#@ AND
-0.7456757	#@, THE
-0.7456757	#CHINESE WORDS,
-0.7456757	#ENGLISH LHS
-0.7456757	'PEOPLE'S CONSULTATIVE
-0.7456757	($US @.@@
-0.7456757	('KKN' IS
-0.7456757	(*) THE
-0.7456757	(@:@@PM) </s>
-0.7456757	(@@ MEMBERS
-0.1677419	(@@@@ TO	-0.05010116
-0.7456757	(@@@@), THE
-0.7456757	(@@@@-@@). BOGOR
-0.4807281	(@@@@-@@@@) IN
-1.046706	(@@@@-@@@@). </s>
-1.046706	(@@@@-@@@@). THE
-1.046706	(A POTENTIAL
-1.046706	(A SENTENCE
-0.7456757	(ACTUALLY, IT
-0.7456757	(AKA GUS
-0.7456757	(ALSO CONFUSINGLY
-1.347736	(AND B
-1.347736	(AND IS
-1.347736	(AND MODIFYING
-1.347736	(AND NOT
-0.7456757	(AT LEAST
-0.7456757	(BAHASA DAERAH)
-0.7456757	(BANK BALI
-0.7456757	(BEFORE HE
-0.7456757	(BJ) HABIBIE
-0.7456757	(BPS) AND
-0.7456757	(BULOG FUND)
-1.347736	(BUT NOT
-1.347736	(BUT ORGANIZATIONAL
-1.347736	(BUT PROBABLY
-1.347736	(BUT WE
-0.7456757	(BY SPLICING
-0.7456757	(C_@@ C_@@@@@)
-0.7456757	(C_@@@@@) WE'D
-0.4807281	(CALLED BAHASA	0.06447127
-0.7456757	(CELEBES), LOMBOK,
-0.7456757	(CULTUURSTELSEL), LARGE
-0.7456757	(CURRENTLY THE
-0.7456757	(DERIVATIONFORESTEM) </s>
-0.7456757	(DISTINCTIONS WE
-0.7456757	(DPD)/PROVINCES REPRESENTATIVE
-0.7456757	(DPR)/PEOPLE REPRESENTATIVE
-0.7456757	(DPR, DEPUTY
-0.7456757	(ESPECIALLY IF
-0.7456757	(EVEN INFINITE)
-0.7456757	(EXCEPT FOR
-1.222797	(FOR CHINESE
-1.222797	(FOR CONSTITUENTS):
-1.222797	(FOR NOW
-1.046706	(FORMERLY CALLED
-1.046706	(FORMERLY KNOWN
-0.7456757	(FRANZ WOULD
-1.222797	(FROM GREEK:
-1.222797	(FROM PARALLEL
-1.222797	(FROM RB-PROGRAM)
-0.7456757	(GAM, THE
-0.7456757	(GDP) THIS
-0.7456757	(I THINK
-0.7456757	(I'VE ADOPTED
-0.7456757	(IF ALL
-0.7456757	(IMO): </s>
-0.7456757	(IMPORTANT!) A
-1.046706	(INDONESIAN: KALIMANTAN),
-1.046706	(INDONESIAN: REPUBLIK
-0.7456757	(INSTEAD OF
-0.7456757	(IPTN) (NOW
-0.7456757	(IRIAN JAYA
-0.7456757	(ISLAMIC LAW)
-1.222797	(JAWA BARAT),
-1.222797	(JAWA TENGAH),
-1.222797	(JAWA TIMUR),
-0.7456757	(JULY @,
-1.347736	(KALIMANTAN BARAT),
-1.347736	(KALIMANTAN SELATAN),
-1.347736	(KALIMANTAN TENGAH),
-1.347736	(KALIMANTAN TIMUR),
-0.7456757	(KEPULAUAN RIAU),
-0.7456757	(KRAKATOA), WHICH
-0.7456757	(LIKE IN
-0.7456757	(LOCALLY KNOWN
-0.7456757	(MAJELIS PERMUSYAWARATAN
-0.7456757	(MALUKU UTARA),
-0.7456757	(MINE,MINC),(MINE,MAXC),(MAXE,MAXC),(MAXE,MINC) KEEPING
-0.7456757	(MPR) REJECTED
-0.7456757	(MUST BE
-0.7456757	(NAPOLEON'S DUTCH
-0.7456757	(NEW ORDER)
-0.7456757	(NONCONSTITUENTLEAFRULES); THAT
-1.222797	(NOT ASSESSING
-1.222797	(NOT JUST
-1.222797	(NOT LIKELY)
-0.7456757	(NOTE: DON'T
-0.7456757	(NOW BECOME
-0.7456757	(NU). UNFORTUNATELY,
-0.4807281	(NUSA TENGGARA
-1.046706	(OF COURSE
-1.046706	(OF WHICH
-0.7456757	(OLD) PARENT
-1.046706	(ON C+E
-1.046706	(ON THE
-0.7456757	(ONE OF
-0.7456757	(OR NOT
-0.7456757	(PRE-GHKM) MORE
-0.7456757	(PROBABLY ALWAYS
-0.7456757	(RANKED @@TH
-0.7456757	(REF TRANSLATIONS
-0.4807281	(SHARED WITH
-0.7456757	(SHOULDN'T BE
-0.7456757	(SINCE WE
-0.4807281	(SOUTH OF
-1.444646	(SULAWESI BARAT),
-1.444646	(SULAWESI SELATAN),
-1.444646	(SULAWESI TENGAH),
-1.444646	(SULAWESI TENGGARA),
-1.444646	(SULAWESI UTARA),
-0.7456757	(SULAWESI), AND
-1.222797	(SUMATERA BARAT),
-1.222797	(SUMATERA SELATAN),
-1.222797	(SUMATERA UTARA),
-0.7456757	(TAGGED) WORDS
-0.7456757	(THAT ALLOWS
-0.7456757	(THAT'S PROBABLY
-1.222797	(THE MOST
-1.222797	(THE NPB
-1.222797	(THE SPAN/PROB
-0.7456757	(THEY WOULD
-0.4807281	(THIS IS
-0.7456757	(THOUGH I
-0.7456757	(TO TEST:
-0.7456757	(TRANSMIGRASI) TO
-0.7456757	(UNTAET). THE
-0.7456757	(US LIBRARY
-0.7456757	(USABLE ONLY
-0.7456757	(VOC), A
-1.347736	(WE DON'T
-1.347736	(WE MAY
-1.347736	(WE MIGHT
-1.347736	(WE MUST
-0.7456757	(WE'VE ALSO
-0.7456757	(WHAT MATTERS
-0.7456757	(WHEN MORE
-1.444646	(WHICH ALREADY
-1.444646	(WHICH COULD
-1.444646	(WHICH I'VE
-1.444646	(WHICH OF
-1.444646	(WHICH WOULD
-0.7456757	(WITHIN THE
-0.7456757	(WRT </s>
-0.7456757	(YOU DON'T
-2.237037	* (BUT
-1.67106	* ...
-2.237037	* @,CD(@),@,CD(BILLION),@
-2.237037	* ALSO
-2.237037	* AND
-2.237037	* CARDINALS
-1.67106	* CD(@)	0.06447127
-2.237037	* CD(@),CD(BILLION)
-1.67106	* CD(BILLION)	0.06447127
-2.237037	* DATES
-2.237037	* HOPEFULLY
-2.237037	* IDENTIFICATION/SEGMENTATION
-2.237037	* MONEY
-2.237037	* NATIVE
-2.237037	* NOTE
-2.237037	* NPB(NNP(HILLARY),NNP(CLINTON))
-2.237037	* ORDINALS
-2.237037	* PERCENTS
-2.237037	* RB-NUM(CD(@))
-1.67106	* RB-NUM(CD(@),CD(BILLION))	0.06447127
-2.237037	* RB-NUM(DET(A)
-2.237037	* ROBUST
-2.237037	* TIMES
-2.237037	* TRANSLITERATED
-2.237037	* WE
-2.237037	* WE'RE
-2.237037	* WITH
-0.7456757	*[B-@). THIS
-0.7456757	*NP*(CD(@),NN(BILLION)) OR
-1.046706	+ PROBS
-1.046706	+ RB-NONTERMINAL/HEADS
-0.7456757	, OFFICIALLY
-2.088098	- (MINE,MINC),(MINE,MAXC),(MAXE,MAXC),(MAXE,MINC)
-2.088098	- @@
-2.088098	- AN
-2.088098	- AND
-2.088098	- APPROXIMATELY
-2.088098	- FOR
-2.088098	- HEAD
-2.088098	- HOW
-2.088098	- HOWEVER,
-2.088098	- MAYBE
-2.088098	- MORE
-2.088098	- PERHAPS:
-2.088098	- SEQUENCES
-2.088098	- SO
-2.088098	- SPECTER
-2.088098	- SUFFERS
-2.088098	- THE
-2.088098	- THIS
-2.088098	- USING
-2.088098	- WELL,
-2.088098	- WHAT
-2.088098	- YOU
-0.7456757	-- JONATHANGRAEHL
-0.6448631	-> C_@	0.4157211
-0.7378572	-> C_@@	0.008411758
-1.824857	-> C_@@@@
-1.824857	-> C_@@@@@
-1.824857	-> SBLM-ETREE
-1.824857	-> THE
-1.824857	-> X@
-1.590774	... (I'VE
-1.590774	... @@.@
-1.590774	... ADDITIONAL
-1.590774	... BUT
-1.590774	... NOTICE
-1.590774	... WHAT
-1.590774	... YOU
-0.7456757	.@ (THE
-0.7456757	/ NAMED
-0.357646	:) </s>
-1.444646	:) THE
-1.444646	:) THIS
-0.7456757	<= #CHINESE
-3.283495	<s> "NON-PRIBUMI"
-3.283495	<s> (*)
-3.283495	<s> (ALSO
-3.283495	<s> (THE
-1.060698	<s> *	0.0120455
-3.283495	<s> *NP*(CD(@),NN(BILLION))
-3.283495	<s> ,
-3.283495	<s> --
-3.283495	<s> ...
-1.139879	<s> @.	0.009198938
-2.103501	<s> A
-3.283495	<s> A(B,RB-X(X,Y),C)
-3.283495	<s> ADMINISTRATIVE
-2.196495	<s> AFTER
-3.283495	<s> ALSO
-2.196495	<s> ALTHOUGH
-3.283495	<s> AND
-3.283495	<s> ANOTHER
-3.283495	<s> ARMY
-3.283495	<s> ART
-2.717517	<s> AS
-3.283495	<s> AWKWARDLY
-2.717517	<s> BASED	0.02391179
-3.283495	<s> BEFORE
-2.717517	<s> BUT
-2.717517	<s> BUT,
-3.283495	<s> CAREFUL,
-3.283495	<s> CHINESE
-3.283495	<s> CHINESE-OWNED
-3.283495	<s> DEAD
-3.283495	<s> DEMOCRACY
-3.283495	<s> DEMOGRAPHICS
-2.717517	<s> DESPITE
-3.283495	<s> DR
-2.717517	<s> DURING
-3.283495	<s> DUTCH
-3.283495	<s> EAST
-3.283495	<s> ESSENTIALLY,
-2.717517	<s> ETHNIC
-3.283495	<s> EVENTUALLY
-3.283495	<s> FLORA
-2.103501	<s> FOLLOWING	0.1119028
-2.114499	<s> FOR	-0.0296933
-3.283495	<s> FORCING
-3.283495	<s> GAM
-3.283495	<s> GOVERNMENT
-2.717517	<s> HE
-3.283495	<s> HIS
-2.196495	<s> HOWEVER,
-2.717517	<s> HUNDREDS	0.2181584
-2.717517	<s> I
-3.283495	<s> I'D
-3.283495	<s> I'VE
-2.717517	<s> IF
-3.283495	<s> IMPACT
-1.333699	<s> IN	-0.003880382
-1.537819	<s> INDONESIA	-0.0655601
-2.018272	<s> INDONESIA'S	-0.005981795
-3.283495	<s> INDONESIANS
-3.283495	<s> INSTEAD
-3.283495	<s> INTERNATIONALLY,
-3.283495	<s> IRRIGATION
-3.283495	<s> ISLAM
-1.458638	<s> IT	-0.08375798
-2.717517	<s> IT'S
-3.283495	<s> ITS
-3.283495	<s> JUST
-3.283495	<s> LEAVING
-3.283495	<s> LET
-3.283495	<s> LET'S
-3.283495	<s> LIKE
-2.103501	<s> MAIN	0.1225536
-3.283495	<s> MAJOR
-3.283495	<s> MANY
-3.283495	<s> MAP
-2.196495	<s> MEGAWATI	0.3130283
-2.196495	<s> MORE
-3.283495	<s> MOST
-3.283495	<s> NORMALLY
-3.283495	<s> NOTE:
-3.283495	<s> NOW,
-2.103501	<s> O
-2.717517	<s> OF	-0.1059988
-2.196495	<s> ON
-3.283495	<s> OR,
-3.283495	<s> OTHER
-3.283495	<s> PAPUA
-3.283495	<s> PARSING
-3.283495	<s> PARTLY
-3.283495	<s> PENCAK
-3.283495	<s> PERHAPS
-2.717517	<s> PRESIDENT
-3.283495	<s> PRESIDENTE
-3.283495	<s> PURPOSE:
-3.283495	<s> RB-NUM(*NP*(CD(@),NN(BILLION)))
-3.283495	<s> RB-PROGRAMS
-3.283495	<s> REGIONAL
-2.196495	<s> RULE	0.02109787
-3.283495	<s> S(NP(X@,X@,CD(@)),VP(CD(BILLION),X@))
-3.283495	<s> S(X@,CD(@),CD(BILLION),X@)
-3.283495	<s> SANGEANG
-2.196495	<s> SEE
-3.283495	<s> SEVERAL
-2.717517	<s> SINCE
-3.283495	<s> SO
-3.283495	<s> SO,
-3.283495	<s> SOME
-3.283495	<s> SOMETHING
-2.717517	<s> SUCH
-2.717517	<s> SUHARTO
-3.283495	<s> SUHARTO'S
-3.283495	<s> SUKARNO
-2.717517	<s> SUKARNO,
-3.283495	<s> SUSILO
-3.283495	<s> THAT
-3.283495	<s> THAT'S
-0.8657212	<s> THE	-0.01879802
-3.283495	<s> THEN
-1.818091	<s> THERE	0.1276812
-3.283495	<s> THEY
-1.583577	<s> THIS	0.003305722
-2.717517	<s> THOUGH
-2.196495	<s> TO
-2.103501	<s> UNDER	0.07546431
-2.717517	<s> UNFORTUNATELY,
-3.283495	<s> WAYANG
-2.196495	<s> WE
-2.717517	<s> WHEN	-0.05912396
-3.283495	<s> WHY
-2.717517	<s> WITH
-3.283495	<s> YET,
-1.347736	= .@
-1.347736	= INDIA
-1.347736	= ISLANDS)
-1.347736	= THE
-0.7456757	=@ PROB
-1.046706	>@ (EVEN
-1.046706	>@ PROB
-1.523827	@ ALIGNMENTS
-1.523827	@ BILLION
-1.523827	@ COULD
-1.523827	@ MAJOR
-1.523827	@ OR
-1.523827	@ WAYS
-1.444646	@% BUDDHIST
-1.444646	@% CHRISTIAN
-1.444646	@% HINDU
-0.8786681	@% OF
-0.7456757	@+@ -
-0.7456757	@+@+@ -
-0.4807281	@+@+@+@+@+@ -
-0.7456757	@, MONDAY,
-1.046706	@,@@@ ARE
-1.046706	@,@@@ PEOPLE
-0.7456757	@,CD(@),@,CD(BILLION),@ ->
-0.7456757	@-LENGTH CSPANS.
-2.177039	@. </s>
-2.177039	@. ACEH
-2.177039	@. ACTUALLY
-2.177039	@. CHOOSE
-2.177039	@. DECIDE
-2.177039	@. FIGURE
-2.177039	@. FIND
-2.177039	@. FOR
-1.611062	@. IDENTIFY
-2.177039	@. IF
-2.177039	@. JAVA
-2.177039	@. LATTICE
-2.177039	@. LATTICE:
-1.611062	@. MAKE
-2.177039	@. MAYBE
-2.177039	@. MODTM+MODSBLM:
-2.177039	@. MODTM:
-2.177039	@. OF
-2.177039	@. OTHERWISE,
-2.177039	@. PADRI
-2.177039	@. PRESERVE
-2.177039	@. REQUIRE
-1.611062	@. RESTRUCTURE
-2.177039	@. SAUSAGE:
-0.7456757	@.) -
-1.046706	@.@% LAST
-1.046706	@.@% OF
-0.7456757	@.@@ BILLION)
-0.7456757	@/@ ARE
-1.024796	@@ AUGUST
-1.590774	@@ DEC
-1.024796	@@ DECEMBER	0.3844898
-1.590774	@@ PROVINCES,
-1.590774	@@ VOLCANOES
-0.7456757	@@% OF
-0.4807281	@@, @@@@,
-1.347736	@@,@@@ AND
-1.347736	@@,@@@ ISLANDS
-1.347736	@@,@@@ ISLANDS,
-1.347736	@@,@@@ YEARS
-0.7456757	@@.@ MILLION
-0.7456757	@@.@% BEFORE)
-0.7456757	@@.@@ -
-1.648766	@@@ BC
-1.648766	@@@ C@
-1.648766	@@@ DIFFERENT
-0.4797696	@@@ MILLION	0.01004193
-0.7456757	@@@, AND
-0.1357972	@@@,@@@ YEARS	-0.00845604
-2.250826	@@@@ </s>
-2.250826	@@@@ [@].
-2.250826	@@@@ AFTER
-1.070832	@@@@ AND	-0.05018455
-2.250826	@@@@ AS
-2.250826	@@@@ BENCOOLEN
-2.250826	@@@@ BY
-2.250826	@@@@ CENSUS,
-2.250826	@@@@ DEVASTATED
-2.250826	@@@@ ELECTION
-2.250826	@@@@ ELECTION,
-2.250826	@@@@ FOLLOWING
-2.250826	@@@@ FOR
-2.250826	@@@@ HIGHLIGHT
-2.250826	@@@@ NATIONAL
-2.250826	@@@@ OCTOBER)
-2.250826	@@@@ ON
-2.250826	@@@@ THAT
-1.684848	@@@@ THE
-1.08183	@@@@ TO	-0.09500366
-2.250826	@@@@ TOWARDS
-2.250826	@@@@ TSUNAMI
-2.250826	@@@@ UNTIL
-2.250826	@@@@ WHEN,
-0.7456757	@@@@) AND
-1.046706	@@@@), ABDURRAHMAN
-1.046706	@@@@), MEGAWATI
-1.921767	@@@@, A
-1.355789	@@@@, AND
-1.921767	@@@@, IT
-1.355789	@@@@, PRESIDENT
-1.921767	@@@@, SUKARNO
-0.4563632	@@@@, THE
-1.921767	@@@@, WHILE
-1.921767	@@@@, WITH
-0.7456757	@@@@-YEAR-OLD HINDU
-0.7378572	@@@@. </s>
-1.824857	@@@@. ALTHOUGH
-1.824857	@@@@. FROM
-1.824857	@@@@. HE
-1.824857	@@@@. IN
-1.824857	@@@@. INDONESIA
-1.824857	@@@@. KH
-1.824857	@@@@. MRS
-1.824857	@@@@. SINCE
-1.824857	@@@@. THE
-0.7456757	@@@@; YOGYAKARTA
-1.222797	@@@@S AND
-0.6568194	@@@@S SAW
-1.046706	@@@@S, INDONESIA
-1.046706	@@@@S, PARTLY
-1.444646	@@TH -
-0.8786681	@@TH CENTURY
-0.8786681	@@TH CENTURY,
-0.7456757	@@TH-CENTURY CULTIVATION
-0.7456757	@TH TO
-0.7456757	[@]). THE
-0.7456757	[@], THE
-1.347736	[@]. </s>
-1.347736	[@]. IN
-1.347736	[@]. INDONESIA'S
-1.347736	[@]. THE
-0.7456757	[N-@,N]. </s>
-2.901012	A "MUST-USE"
-2.901012	A "SAUSAGE
-2.901012	A "TYPICAL"
-2.335034	A >@
-2.901012	A AND
-2.901012	A BACKLASH
-2.901012	A BASELINE
-2.901012	A BASELINE,
-2.901012	A BICAMERAL
-2.901012	A BICONTINENTAL
-2.901012	A BLOODY
-2.901012	A BREAK
-2.901012	A BRIEF
-2.901012	A C-ENTITY
-2.901012	A CAN
-2.901012	A CERTAIN
-2.901012	A CHARACTER-BASED
-2.901012	A CHARTERED
-2.901012	A CHILD
-2.901012	A CHINESE
-2.901012	A CLASS
-2.901012	A CLOSE,
-2.901012	A COMMITTEE
-2.901012	A CONFLICTING
-2.335034	A CONSTITUENT
-2.335034	A CONSTITUENT,	-0.001708321
-2.901012	A CORRUPTION
-2.901012	A COUNCIL
-2.901012	A COUNTRY
-2.901012	A DECISION),
-2.901012	A DERIVATION
-1.721018	A DIFFERENT
-2.901012	A DISTINCTION
-2.901012	A DIVERSE
-2.901012	A FALTERING
-2.901012	A FAMOUS
-2.901012	A FEDERATION
-2.901012	A FEW
-2.901012	A FIVE-PRONG
-2.901012	A FIVE-YEAR
-2.901012	A FORM
-2.901012	A FORMER
-2.901012	A FOUNDING
-2.901012	A FULL
-2.901012	A GENERAL
-2.901012	A GENERIC
-2.901012	A GIVEN
-2.901012	A GOOD
-2.901012	A GOVERNOR
-1.814012	A HEAD	0.06368782
-2.901012	A HEAD/TAG,
-2.901012	A HIGH-PRECISION/CONFIDENCE
-2.335034	A LARGE
-2.901012	A LARGER
-2.901012	A LINGUA
-2.901012	A LIST
-2.901012	A LOSS
-2.901012	A MAJOR
-2.901012	A MASSIVE
-2.901012	A MAYOR),
-2.335034	A MEMBER	0.3844898
-2.335034	A MILITARY
-2.335034	A MORE
-2.901012	A MULTIPARTY,
-2.901012	A MULTITUDE
-2.901012	A NATION
-2.901012	A NE-TRANSLATION
-2.335034	A NET	0.06447127
-2.901012	A NEW
-2.335034	A NEWLY	-0.001708321
-2.901012	A NON-ORTHODOX,
-2.901012	A NORMAL
-2.901012	A NOTE
-2.901012	A OCCUPIED
-2.901012	A PARTICULARLY
-2.901012	A PATH
-2.335034	A PEACE
-2.901012	A PER-SENTENCE
-2.901012	A PERCEPTION
-2.901012	A PERIOD
-2.901012	A POLITICAL
-2.901012	A POWERFUL
-2.901012	A PRE-SBLM
-2.901012	A PRESIDENTIAL
-2.901012	A PRINCIPLED,
-2.901012	A PUBLIC
-2.901012	A RB-ROOTED-EDGE
-2.901012	A RECOGNIZER
-2.901012	A REFERENDUM
-2.335034	A REPUBLIC	-0.04823207
-2.901012	A RESULT
-2.901012	A RESULT,
-2.335034	A RULE	-0.08881798
-2.901012	A SECOND
-2.901012	A SEGMENTATION
-2.901012	A SENTENCE-SPECIFIC
-2.901012	A SEPARATE
-2.901012	A SET
-2.901012	A SEVERE
-2.901012	A SIGNIFICANT
-2.901012	A SIMPLE
-1.732016	A SINGLE
-2.901012	A SOLITARY
-2.901012	A SPECIAL
-2.901012	A STATE
-2.901012	A STROKE
-2.901012	A SUBSTANTIAL
-2.901012	A SULTANATE
-2.901012	A SUPERSET).
-2.901012	A SURVEY
-2.901012	A SYNTAXBASEDLANGUAGEMODEL?
-2.901012	A TEMPLATE-BASED
-2.335034	A TRANSLATION
-2.901012	A TROPICAL
-2.901012	A UNIQUE
-2.335034	A UNITARY
-2.901012	A UNITED
-2.901012	A VITERBI
-2.901012	A WEAKENING
-2.901012	A WHOLE
-0.7456757	A(B,RB-X(X,Y),C) BECOMES
-0.7456757	A(B,X,Y,C) FOR
-0.7456757	A[@-@),B[@-@) INTO
-0.7456757	AB TOGETHER
-0.7456757	ABANGAN, WHILE
-0.7456757	ABBREVIATION) WHICH
-0.4807281	ABDULRAHMAN WAHID
-0.7456757	ABDURRAHMAN WAHID
-1.046706	ABLE TO
-1.046706	ABLE TO;
-0.7456757	ABOLISHED, AND
-1.745676	ABOUT @%
-1.745676	ABOUT @,@@@
-1.745676	ABOUT ANOTHER
-1.745676	ABOUT ENTITIES
-1.745676	ABOUT FOR
-1.745676	ABOUT HALF
-1.745676	ABOUT NOT
-1.745676	ABOUT RB-NONTERMINALS
-1.179698	ABOUT THE
-0.7456757	ABOVE. </s>
-0.7456757	ABRAHAMIC FAITHS
-0.7456757	ABUSES BY
-0.7456757	ACADEMIA </s>
-0.7456757	ACCEPTED BY
-0.7456757	ACCEPTS FORESTS
-0.7456757	ACCORDING TO
-0.7456757	ACCOUNTABILITY SPEECH
-1.523827	ACEH </s>
-1.523827	ACEH AND
-1.523827	ACEH MERDEKA
-1.523827	ACEH MOVEMENT)
-1.523827	ACEH WAR
-1.523827	ACEH WAS
-0.7456757	ACEH*, BALI,
-0.7456757	ACEH, PEACE
-0.7456757	ACEH. </s>
-0.7456757	ACEHNESE GOVERNMENT
-0.7456757	ACKNOWLEDGED THE
-1.222797	ACQUISITION ALGORITHM,
-1.222797	ACQUISITION AND
-1.222797	ACQUISITION FOR
-1.222797	ACROSS MANY
-0.6568194	ACROSS THE
-0.7456757	ACTIVITY IS
-1.444646	ACTUAL NTH
-1.444646	ACTUAL RBT-ETREE
-1.444646	ACTUAL SENTENCE
-1.444646	ACTUAL SPECIFIC
-1.444646	ACTUAL TRANSLATION
-1.222797	ACTUALLY EXTRACTING
-1.222797	ACTUALLY LET
-1.222797	ACTUALLY OCCUR)
-0.7456757	AD TO
-1.046706	AD-HOC RBT
-1.046706	AD-HOC UNKNOWN
-0.7456757	AD. </s>
-0.7456757	ADD THE
-0.7456757	ADDED BY
-0.7456757	ADDING NEW
-0.4807281	ADDITION TO
-0.7456757	ADDITIONAL COST
-0.7456757	ADJACENT CHINESE
-0.7456757	ADMINISTERED MUCH
-1.046706	ADMINISTRATION BY
-1.046706	ADMINISTRATION IS
-1.046706	ADMINISTRATIVE DIVISIONS
-1.046706	ADMINISTRATIVE SYSTEMS.
-0.7456757	ADOPTED THE
-0.7456757	ADVANTAGE FOR
-0.7456757	ADVANTAGE: NO
-0.7456757	AFFAIRS </s>
-0.7456757	AFFECTING INTEGRATION
-1.891804	AFTER @@@@
-1.891804	AFTER @@@@,
-1.325826	AFTER A
-1.891804	AFTER HYPHENS)
-1.891804	AFTER INDEPENDENCE
-1.891804	AFTER INDEPENDENCE,
-1.891804	AFTER ITS
-0.7118099	AFTER THE
-1.891804	AFTER VOC
-1.891804	AFTER YEARS
-0.7456757	AFTERMATH OF
-1.824857	AGAINST ...
-1.824857	AGAINST A
-1.824857	AGAINST ALLEGED
-1.824857	AGAINST AN
-1.258879	AGAINST DUTCH
-1.824857	AGAINST EAST
-1.824857	AGAINST NEIGHBOURING
-0.6448631	AGAINST THE	-0.04885512
-0.7456757	AGES THE
-0.7456757	AGING OIL
-1.046706	AGO (US
-1.046706	AGO </s>
-0.4807281	AGO, WHILE	0.0704992
-0.4807281	AGREED TO
-0.7456757	AGREEMENT </s>
-0.7456757	AGREEMENT, GAM
-0.7456757	AGRICULTURAL PRODUCTS
-0.7456757	AGUNG LAKSONO)
-0.7456757	AIMING TO
-1.046706	AIRCRAFT DESIGNER
-1.046706	AIRCRAFT INDUSTRY
-0.7456757	ALARMED BOTH
-1.046706	ALGORITHM DURING
-1.046706	ALGORITHM WAS
-0.7456757	ALGORITHM, WE
-0.7456757	ALIGN IDENTIFIED
-1.222797	ALIGNED ENTITY
-1.222797	ALIGNED FIRST
-1.222797	ALIGNED TO
-1.523827	ALIGNMENT (ON
-1.523827	ALIGNMENT BETWEEN
-1.523827	ALIGNMENT ERRORS
-1.523827	ALIGNMENT OF
-1.523827	ALIGNMENT USING
-1.523827	ALIGNMENT WITH,
-1.347736	ALIGNMENTS -
-0.7817581	ALIGNMENTS </s>
-1.347736	ALIGNMENTS AND
-1.745676	ALL (AT
-1.179698	ALL BUT
-1.745676	ALL CHINESE
-1.745676	ALL ENTITIES
-1.745676	ALL PARTIES
-1.745676	ALL RULE
-1.179698	ALL THE
-1.745676	ALL YOU
-0.7456757	ALL) COULD
-0.7456757	ALL), THEY
-0.6568194	ALLEGED COMMUNIST
-1.222797	ALLEGED THAT
-0.7456757	ALLEGEDLY SUPPRESSING
-0.7456757	ALLEVIATE ECONOMIC
-1.787068	ALLOW @-LENGTH
-1.787068	ALLOW DIFFERENT
-1.787068	ALLOW FOR
-1.787068	ALLOW LHS
-1.787068	ALLOW MULTIPLE
-1.787068	ALLOW NEW
-1.787068	ALLOW NON-CONSECUTIVE-CONSTITUENT
-1.787068	ALLOW NONCONSTITUENTLEAFRULES
-1.787068	ALLOW NORMAL
-1.787068	ALLOW SUKARNO
-1.787068	ALLOW THE
-1.046706	ALLOWED BY
-1.046706	ALLOWED FOR
-1.046706	ALLOWING MONOLINGUAL
-1.046706	ALLOWING OVERLAPPING
-1.046706	ALLOWS RB-TRANSLATIONS
-1.046706	ALLOWS US
-0.7456757	ALMOST @@%
-0.7456757	ALONE HAS
-0.7456757	ALONE, ALLOWING
-0.7456757	ALONG WITH
-1.590774	ALREADY CONSTITUENT?
-1.590774	ALREADY DISCUSSED
-1.590774	ALREADY DO)
-1.590774	ALREADY LEARNED
-1.590774	ALREADY MENTIONED,
-1.590774	ALREADY PRODUCES
-1.590774	ALREADY PROVIDE
-0.7456757	ALREADY): </s>
-2.125887	ALSO (IMPORTANT!)
-2.125887	ALSO ALLOWS
-0.9458931	ALSO BE
-2.125887	ALSO CHOOSE
-2.125887	ALSO CHOSE
-2.125887	ALSO CLEARLY
-2.125887	ALSO GIVE
-2.125887	ALSO GREENRULETEMPLATES
-2.125887	ALSO HAD
-2.125887	ALSO INFLUENTIAL
-2.125887	ALSO KNOWN
-2.125887	ALSO MEANS,
-2.125887	ALSO NEED
-2.125887	ALSO ON
-2.125887	ALSO PROPOSE
-2.125887	ALSO QUITE
-2.125887	ALSO SBLM
-2.125887	ALSO TO
-2.125887	ALSO VOTED
-2.125887	ALSO WELL-KNOWN
-2.125887	ALSO WROTE
-0.7456757	ALSO, SINCE
-0.7456757	ALSO: MAP
-0.7456757	ALTEMP SYSTEM
-1.222797	ALTERNATIVE ENGLISH
-1.222797	ALTERNATIVE ETREES/ALIGNMENTS
-1.222797	ALTERNATIVE MULTIPLE
-0.7456757	ALTERNATIVES </s>
-1.590774	ALTHOUGH EVEN
-1.590774	ALTHOUGH INDONESIA'S
-1.590774	ALTHOUGH ISLAM
-1.590774	ALTHOUGH IT
-1.590774	ALTHOUGH ONLY
-1.024796	ALTHOUGH THE
-1.590774	ALWAYS A
