
\data\
ngram 1=2634

\1-grams:
-3.926497	"@@"
-3.926497	"@@@
-3.926497	"ETREE
-3.926497	"FORT
-3.926497	"FRAC_BETWEEN_@@_AND_@@"
-3.926497	"GREEN
-3.625467	"GREEN-CHINESE-WORD-N"
-3.926497	"HISTORY
-3.926497	"LIFT"
-3.926497	"MUST-USE"
-3.926497	"NO
-3.926497	"NON-PRIBUMI"
-3.926497	"RB"
-3.926497	"RB-"
-3.926497	"RULE-BASED
-3.926497	"SAUSAGE
-3.926497	"SAVE"
-3.926497	"SIMPLE
-3.926497	"STATE"
-3.926497	"TYPICAL"
-3.926497	"VIRTUAL
-3.926497	"VIRTUAL"
-3.926497	##
-2.972254	###
-3.926497	#@
-3.926497	#@,
-3.926497	#CHINESE
-3.926497	#ENGLISH
-3.926497	'PEOPLE'S
-3.926497	($US
-3.926497	('KKN'
-3.926497	(*)
-3.926497	(@:@@PM)
-3.926497	(@@
-3.324437	(@@@@
-3.926497	(@@@@),
-3.926497	(@@@@-@@).
-3.625467	(@@@@-@@@@)
-3.625467	(@@@@-@@@@).
-3.625467	(A
-3.926497	(ACTUALLY,
-3.926497	(AKA
-3.926497	(ALSO
-3.324437	(AND
-3.926497	(AT
-3.926497	(BAHASA
-3.926497	(BANK
-3.926497	(BEFORE
-3.926497	(BJ)
-3.926497	(BPS)
-3.926497	(BULOG
-3.324437	(BUT
-3.926497	(BY
-3.926497	(C_@@
-3.926497	(C_@@@@@)
-3.625467	(CALLED
-3.926497	(CELEBES),
-3.926497	(CULTUURSTELSEL),
-3.926497	(CURRENTLY
-3.926497	(DERIVATIONFORESTEM)
-3.926497	(DISTINCTIONS
-3.926497	(DPD)/PROVINCES
-3.926497	(DPR)/PEOPLE
-3.926497	(DPR,
-3.926497	(ESPECIALLY
-3.926497	(EVEN
-3.926497	(EXCEPT
-3.449376	(FOR
-3.625467	(FORMERLY
-3.926497	(FRANZ
-3.449376	(FROM
-3.926497	(GAM,
-3.926497	(GDP)
-3.926497	(I
-3.926497	(I'VE
-3.926497	(IF
-3.926497	(IMO):
-3.926497	(IMPORTANT!)
-3.625467	(INDONESIAN:
-3.926497	(INSTEAD
-3.926497	(IPTN)
-3.926497	(IRIAN
-3.926497	(ISLAMIC
-3.449376	(JAWA
-3.926497	(JULY
-3.324437	(KALIMANTAN
-3.926497	(KEPULAUAN
-3.926497	(KRAKATOA),
-3.926497	(LIKE
-3.926497	(LOCALLY
-3.926497	(MAJELIS
-3.926497	(MALUKU
-3.926497	(MINE,MINC),(MINE,MAXC),(MAXE,MAXC),(MAXE,MINC)
-3.926497	(MPR)
-3.926497	(MUST
-3.926497	(NAPOLEON'S
-3.926497	(NEW
-3.926497	(NONCONSTITUENTLEAFRULES);
-3.449376	(NOT
-3.926497	(NOTE:
-3.926497	(NOW
-3.926497	(NU).
-3.625467	(NUSA
-3.625467	(OF
-3.926497	(OLD)
-3.625467	(ON
-3.926497	(ONE
-3.926497	(OR
-3.926497	(PRE-GHKM)
-3.926497	(PROBABLY
-3.926497	(RANKED
-3.926497	(REF
-3.625467	(SHARED
-3.926497	(SHOULDN'T
-3.926497	(SINCE
-3.625467	(SOUTH
-3.227527	(SULAWESI
-3.926497	(SULAWESI),
-3.449376	(SUMATERA
-3.926497	(TAGGED)
-3.926497	(THAT
-3.926497	(THAT'S
-3.449376	(THE
-3.926497	(THEY
-3.625467	(THIS
-3.926497	(THOUGH
-3.926497	(TO
-3.926497	(TRANSMIGRASI)
-3.926497	(UNTAET).
-3.926497	(US
-3.926497	(USABLE
-3.926497	(VOC),
-3.324437	(WE
-3.926497	(WE'VE
-3.926497	(WHAT
-3.926497	(WHEN
-3.227527	(WHICH
-3.926497	(WITHIN
-3.926497	(WRT
-3.926497	(YOU
-2.435135	*
-3.926497	*[B-@).
-3.926497	*NP*(CD(@),NN(BILLION))
-3.625467	+
-3.926497	,
-2.584074	-
-3.926497	--
-2.847316	->
-3.081399	...
-3.926497	.@
-3.926497	/
-3.227527	:)
-1.388678	</s>
-3.926497	<=
-99	<s>
-3.926477	<unk>
-3.324437	=
-3.926497	=@
-3.625467	>@
-3.148345	@
-3.227527	@%
-3.926497	@+@
-3.926497	@+@+@
-3.625467	@+@+@+@+@+@
-3.926497	@,
-3.625467	@,@@@
-3.926497	@,CD(@),@,CD(BILLION),@
-3.926497	@-LENGTH
-2.495133	@.
-3.926497	@.)
-3.625467	@.@%
-3.926497	@.@@
-3.926497	@/@
-3.081399	@@
-3.926497	@@%
-3.625467	@@,
-3.324437	@@,@@@
-3.926497	@@.@
-3.926497	@@.@%
-3.926497	@@.@@
-3.023407	@@@
-3.926497	@@@,
-3.449376	@@@,@@@
-2.421347	@@@@
-3.926497	@@@@)
-3.625467	@@@@),
-2.750406	@@@@,
-3.926497	@@@@-YEAR-OLD
-2.847316	@@@@.
-3.926497	@@@@;
-3.449376	@@@@S
-3.625467	@@@@S,
-3.227527	@@TH
-3.926497	@@TH-CENTURY
-3.926497	@TH
-3.926497	[@]).
-3.926497	[@],
-3.324437	[@].
-3.926497	[N-@,N].
-1.771161	A
-3.926497	A(B,RB-X(X,Y),C)
-3.926497	A(B,X,Y,C)
-3.926497	A[@-@),B[@-@)
-3.926497	AB
-3.926497	ABANGAN,
-3.926497	ABBREVIATION)
-3.625467	ABDULRAHMAN
-3.926497	ABDURRAHMAN
-3.625467	ABLE
-3.926497	ABOLISHED,
-2.926497	ABOUT
-3.926497	ABOVE.
-3.926497	ABRAHAMIC
-3.926497	ABUSES
-3.926497	ACADEMIA
-3.926497	ACCEPTED
-3.926497	ACCEPTS
-3.926497	ACCORDING
-3.926497	ACCOUNTABILITY
-3.148345	ACEH
-3.926497	ACEH*,
-3.926497	ACEH,
-3.926497	ACEH.
-3.926497	ACEHNESE
-3.926497	ACKNOWLEDGED
-3.449376	ACQUISITION
-3.449376	ACROSS
-3.926497	ACTIVITY
-3.227527	ACTUAL
-3.449376	ACTUALLY
-3.926497	AD
-3.625467	AD-HOC
-3.926497	AD.
-3.926497	ADD
-3.926497	ADDED
-3.926497	ADDING
-3.625467	ADDITION
-3.926497	ADDITIONAL
-3.926497	ADJACENT
-3.926497	ADMINISTERED
-3.625467	ADMINISTRATION
-3.625467	ADMINISTRATIVE
-3.926497	ADOPTED
-3.926497	ADVANTAGE
-3.926497	ADVANTAGE:
-3.926497	AFFAIRS
-3.926497	AFFECTING
-2.780369	AFTER
-3.926497	AFTERMATH
-2.847316	AGAINST
-3.926497	AGES
-3.926497	AGING
-3.625467	AGO
-3.625467	AGO,
-3.625467	AGREED
-3.926497	AGREEMENT
-3.926497	AGREEMENT,
-3.926497	AGRICULTURAL
-3.926497	AGUNG
-3.926497	AIMING
-3.625467	AIRCRAFT
-3.926497	ALARMED
-3.625467	ALGORITHM
-3.926497	ALGORITHM,
-3.926497	ALIGN
-3.449376	ALIGNED
-3.148345	ALIGNMENT
-3.324437	ALIGNMENTS
-2.926497	ALL
-3.926497	ALL)
-3.926497	ALL),
-3.449376	ALLEGED
-3.926497	ALLEGEDLY
-3.926497	ALLEVIATE
-2.885104	ALLOW
-3.625467	ALLOWED
-3.625467	ALLOWING
-3.625467	ALLOWS
-3.926497	ALMOST
-3.926497	ALONE
-3.926497	ALONE,
-3.926497	ALONG
-3.081399	ALREADY
-3.926497	ALREADY):
-2.546286	ALSO
-3.926497	ALSO,
-3.926497	ALSO:
-3.926497	ALTEMP
-3.449376	ALTERNATIVE
-3.926497	ALTERNATIVES
-3.081399	ALTHOUGH
-3.081399	ALWAYS
-3.926497	AMBIGUITY
-3.926497	AMBIGUOUSLY
-3.926497	AMBON,
-3.926497	AMID
-3.926497	AMONG
-3.926497	AMPLIFIED
-2.435135	AN
-1.570471	AND
-3.926497	AND,
-3.926497	AND/OR
-3.926497	ANGLO-DUTCH
-3.926497	ANGRY
-3.926497	ANIMIST
-3.926497	ANNEXATION
-3.926497	ANNOTATED/ALIGNED
-3.926497	ANNOUNCED
-3.926497	ANNOUNCEMENT
-3.625467	ANOTHER
-3.926497	ANTI-COMMUNIST
-2.926497	ANY
-3.926497	ANYNONTERMINAL[@-B)
-3.625467	ANYTHING
-3.926497	ANYTHING;
-3.926497	ANYWAY
-3.926497	ANYWAY).
-3.926497	API
-3.926497	APPLIED
-3.227527	APPLY
-3.926497	APPLYING
-3.926497	APPOINTED
-3.926497	APPOINTS
-3.625467	APPROACH
-3.449376	APPROPRIATE
-3.449376	APPROXIMATELY
-3.625467	APPROXIMATION
-3.926497	APPROXIMATION;
-3.926497	ARABIC
-3.926497	ARABS
-3.625467	ARBITRARY
-3.926497	ARCHEOLOGICAL
-3.926497	ARCHIPELAGIC
-3.324437	ARCHIPELAGO
-3.625467	ARCHIPELAGO,
-3.926497	ARCHIPELAGO.
-2.263739	ARE
-3.926497	ARE,
-3.926497	ARE:
-3.148345	AREA
-3.148345	AREAS
-3.926497	ARMED
-3.926497	ARMY
-3.625467	ARMY,
-3.926497	ARMY.
-3.449376	AROUND
-3.449376	ARRIVAL
-3.926497	ARRIVED
-3.625467	ART
-3.449376	ARTICLE:
-3.926497	ARTICLES:
-2.093988	AS
-3.926497	AS-IS
-3.926497	ASEAN+@
-3.324437	ASIA
-3.926497	ASIA.
-3.227527	ASIAN
-3.926497	ASK
-3.926497	ASPECTS
-3.926497	ASSEMBLY',
-3.926497	ASSEMBLY)
-3.926497	ASSESSING
-3.926497	ASSIGNING
-3.926497	ASSOCIATE
-3.926497	ASSOCIATION
-3.926497	ASSUMED
-3.926497	ASSUMED,
-2.647743	AT
-3.625467	ATTEMPT
-3.926497	ATTEMPTED
-3.926497	ATTEMPTING
-3.926497	ATTRIBUTE
-3.625467	ATTRIBUTES
-3.926497	AUDIENCE
-3.625467	AUGUST
-3.926497	AUSTRALASIA,
-3.926497	AUSTRALIA,
-3.926497	AUSTRALIA.
-3.926497	AUSTRALIAN,
-3.926497	AUTOMATICALLY
-3.926497	AUTONOMOUS
-3.926497	AUTONOMY
-3.625467	AVAILABLE
-3.926497	AVERAGE
-3.926497	AWARDED
-3.926497	AWARE
-3.926497	AWAY
-3.625467	AWFUL
-3.926497	AWKWARDLY
-3.625467	B
-3.926497	BACHARUDDIN
-3.148345	BACK
-3.926497	BACKED
-3.926497	BACKLASH
-3.926497	BAD
-3.926497	BAD:
-3.625467	BAHASA
-3.926497	BALI
-3.449376	BALI,
-3.926497	BALI.
-3.625467	BALINESE
-3.449376	BAMBANG
-3.926497	BANDUNG,
-3.926497	BANGKA-BELITUNG,
-3.625467	BANK
-3.926497	BANTEN,
-3.148345	BARAT),
-3.926497	BARU
-2.926497	BASED
-3.926497	BASELINE
-3.926497	BASELINE,
-3.926497	BASICALLY
-3.926497	BASIS
-3.926497	BATAK
-3.926497	BATAVIAN
-3.926497	BATIK,
-3.926497	BBN
-3.926497	BC
-2.081399	BE
-3.926497	BE.
-3.926497	BE:
-3.081399	BECAME
-3.324437	BECAUSE
-3.081399	BECOME
-3.926497	BECOMES
-3.227527	BEEN
-3.625467	BEFORE
-3.926497	BEFORE)
-3.926497	BEGAN
-3.081399	BEING
-3.449376	BELIEFS
-3.926497	BELONGING
-3.926497	BELOW
-3.625467	BENCOOLEN
-3.926497	BENGKULU,
-3.926497	BEST
-3.926497	BEST,
-3.625467	BETTER
-2.780369	BETWEEN
-3.926497	BICAMERAL
-3.926497	BICONTINENTAL
-3.625467	BILLION
-3.926497	BILLION")),X@)
-3.926497	BILLION)
-3.926497	BILLION,
-3.625467	BINARIZER
-3.926497	BITTER
-3.324437	BJ
-3.926497	BLOC
-3.625467	BLOODY
-3.926497	BLUE
-3.926497	BOB
-3.625467	BODY
-3.926497	BOGOR
-3.926497	BONJOL
-3.926497	BOOK
-3.926497	BOOST
-3.926497	BOOSTING
-3.926497	BORDERED
-3.926497	BORDERS
-3.926497	BORN
-3.926497	BORNE
-3.625467	BORNEO
-3.625467	BORNEO,
-3.926497	BOTANICAL
-3.227527	BOTH
-3.926497	BOTH)
-3.926497	BOUNDARIES
-3.625467	BOUNDARY
-3.926497	BREAK
-3.926497	BREAKDOWN
-3.926497	BRIEF
-3.449376	BRITISH
-3.625467	BRITISH,
-3.926497	BROADER
-3.926497	BROUGHT
-3.926497	BRUNEI),
-3.926497	BUDDHISM
-3.625467	BUDDHISM,
-3.625467	BUDDHIST
-3.926497	BUDGET
-3.926497	BUILD
-3.926497	BUILDING
-3.625467	BUILDINGS
-3.449376	BUILT
-3.926497	BUREAU
-3.926497	BURNED
-3.926497	BUSH,
-3.926497	BUSINESS
-3.926497	BUSINESS,
-2.584074	BUT
-3.625467	BUT,
-2.170622	BY
-3.926497	C
-3.625467	C+E
-3.926497	C->E
-3.148345	C-E
-3.926497	C-ENTITY
-3.449376	C@
-3.926497	C@"
-3.081399	C_@
-3.324437	C_@@
-3.926497	C_@@@@
-3.081399	C_@@@@@
-3.926497	C_@@@@@)
-3.926497	CALIFORNIA
-3.625467	CALL
-3.324437	CALLED
-3.625467	CAME
-3.926497	CAMPAIGN
-2.750406	CAN
-3.926497	CAN'T
-3.926497	CANDIDATE
-3.926497	CANDIDATES,
-3.926497	CANONICAL
-3.324437	CAPITAL
-3.926497	CAPITALIZE
-3.625467	CAPTURED
-3.926497	CARDINALS
-3.926497	CARE
-3.926497	CAREFUL,
-3.926497	CASE
-3.926497	CASE)
-3.926497	CASES,
-3.926497	CASES?).
-3.926497	CATHOLIC,
-3.926497	CAUSED
-3.625467	CD(@)
-3.926497	CD(@),CD(BILLION)
-3.625467	CD(BILLION)
-3.926497	CD(BILLION))
-3.926497	CELEBES
-3.926497	CELEBES,
-3.625467	CENSUS,
-2.972254	CENTRAL
-3.324437	CENTURY
-3.625467	CENTURY,
-3.324437	CERTAIN
-3.926497	CHALKING
-3.926497	CHAMBER
-3.926497	CHARACTER-BASED
-3.926497	CHARACTERIZED
-3.926497	CHARISMATIC),
-3.449376	CHART
-3.926497	CHART,
-3.926497	CHARTERED
-3.926497	CHECK
-3.926497	CHECKING
-3.926497	CHIEF
-3.926497	CHILD
-3.926497	CHILDREN,
-3.926497	CHINA
-3.926497	CHINA,
-2.449376	CHINESE
-3.926497	CHINESE-ENTITY/ENGLISH-SENTENCE
-3.926497	CHINESE-OWNED
-3.926497	CHINESE-RB-TRANSLATIONS
-3.926497	CHINESE-SYNTACTIC
-3.081399	CHOOSE
-3.926497	CHOOSES,
-3.926497	CHOOSING
-3.926497	CHOSE
-3.625467	CHRISTIAN
-3.926497	CHRISTIANITY
-3.926497	CHURCHES
-3.926497	CIA
-3.625467	CITIES
-3.926497	CITIES,
-3.625467	CITIZENS
-3.926497	CITIZENS,
-3.625467	CITY
-3.926497	CITY,
-3.926497	CIVILIANS
-3.926497	CLAIMS
-3.227527	CLASS
-3.926497	CLASS-BASED
-3.926497	CLASSIFICATION
-3.926497	CLASSIFIER
-3.926497	CLASSIFIER/RECOGNIZER
-3.926497	CLASSIFY
-3.926497	CLEARLY
-3.926497	CLIMATE
-3.625467	CLOSE
-3.926497	CLOSE,
-3.926497	CLOSELY
-3.926497	CLOTH.
-3.926497	CLUSTERING
-3.926497	CO-OPERATED
-3.449376	CODE
-3.926497	COFFEE,
-3.926497	COLLABORATE
-3.926497	COLLABORATED
-3.926497	COLLAPSE
-3.926497	COLLEAGUES
-3.926497	COLLECTING
-3.926497	COLLINS
-3.926497	COLLINS-)STANDARD
-3.926497	COLLUSION,
-3.625467	COLONIAL
-3.625467	COLONIES
-3.926497	COLONIZED
-3.926497	COLONY
-3.926497	COLONY,
-3.926497	COLONY.
-3.926497	COMBINATION
-3.926497	COMBINE
-3.926497	COME
-3.926497	COMING
-3.926497	COMMANDER
-3.926497	COMMANDER-IN-CHIEF
-3.926497	COMMISSION
-3.926497	COMMITTEE
-3.227527	COMMON
-3.926497	COMMONLY
-3.926497	COMMUNAL
-3.625467	COMMUNIST
-3.926497	COMMUNITIES
-3.227527	COMMUNITY
-3.926497	COMMUNITY,
-3.926497	COMPANY
-3.625467	COMPETE
-3.625467	COMPLETE
-3.926497	COMPLETELY
-3.625467	COMPLEX
-3.625467	COMPLEXITY
-3.926497	COMPLICATED
-3.926497	COMPONENT
-3.625467	COMPRISING
-3.926497	CONCEIVED
-3.926497	CONCENTRATED
-3.926497	CONDEMNATION
-3.926497	CONDITION
-3.926497	CONDITIONED
-3.926497	CONFERENCE
-3.926497	CONFIDENCE"
-3.926497	CONFIRM
-3.449376	CONFLICT
-3.926497	CONFLICTING
-3.625467	CONFLICTS
-3.926497	CONFLICTS,
-3.926497	CONFRONTATION
-3.926497	CONFUSINGLY
-3.926497	CONGRESS
-3.324437	CONSECUTIVE
-3.926497	CONSIDER
-3.625467	CONSIDERED
-3.926497	CONSIDERS
-3.625467	CONSISTING
-3.926497	CONSISTS
-3.148345	CONSTITUENT
-3.926497	CONSTITUENT).
-3.449376	CONSTITUENT,
-3.926497	CONSTITUENT-FORCING
-3.926497	CONSTITUENT?
-3.148345	CONSTITUENTS
-3.926497	CONSTITUENTS):
-3.625467	CONSTITUENTS,
-3.926497	CONSTITUTE
-3.926497	CONSTITUTING
-3.926497	CONSTITUTIONAL
-3.926497	CONSTRAIN
-3.926497	CONSTRAINS
-3.625467	CONSULTATIVE
-3.926497	CONTAIN
-3.449376	CONTEXT
-3.926497	CONTEXT)
-3.926497	CONTEXT,
-3.926497	CONTEXT.
-3.926497	CONTEXT/DOMAIN
-3.926497	CONTEXTS
-3.926497	CONTROL
-3.926497	CONVENTION
-3.926497	COOPERATION
-3.926497	COPPER
-3.625467	CORPORA
-3.227527	CORPUS
-3.926497	CORPUS)
-3.926497	CORPUS),
-3.227527	CORPUS,
-3.926497	CORPUS.
-3.926497	CORRECT
-3.926497	CORRESPOND
-3.926497	CORRESPONDING
-3.449376	CORRUPTION
-3.926497	CORRUPTION,
-3.081399	COST
-3.926497	COST).
-3.926497	COST,
-3.926497	COST?
-3.926497	COSTING
-3.625467	COSTS
-2.584074	COULD
-3.926497	COULD,
-3.324437	COUNCIL
-3.926497	COUNCIL,
-3.926497	COUNTER
-3.023407	COUNTRY
-3.625467	COUNTRY'S
-3.926497	COUNTRY,
-3.926497	COUNTRY.
-3.227527	COUNTS
-3.926497	COUP
-3.926497	COURSE
-3.449376	COURSE,
-3.926497	COURT
-3.926497	COVER
-3.926497	CRACKING
-3.625467	CREATE
-3.926497	CREATED
-3.926497	CREATING
-3.926497	CREATION
-3.926497	CREDITORS
-3.926497	CRISIS
-3.926497	CRISIS,
-3.926497	CRITICIZED
-3.926497	CROWN.
-3.449376	CRUDE
-3.926497	CSPAN
-3.625467	CSPAN=(@,@)
-3.926497	CSPANS.
-3.926497	CSTRING
-3.449376	CULTIVATION
-3.926497	CULTURAL
-3.926497	CULTURE
-3.926497	CULTURES
-3.625467	CURRENT
-3.926497	CURRENT).
-3.625467	CURRENTLY
-3.926497	CUT
-3.926497	CUTTING
-3.625467	DAERAH
-3.926497	DAERAH)
-3.926497	DANCES,
-3.926497	DATA
-3.926497	DATA;
-3.926497	DATE
-3.926497	DATES
-3.926497	DAUGHTER
-3.926497	DAUGHTERS
-3.625467	DAYAK
-3.625467	DE
-3.926497	DEAD
-3.926497	DEALING
-3.926497	DEATHS
-3.926497	DEC
-3.324437	DECEMBER
-3.926497	DECIDE
-3.926497	DECIDED
-3.926497	DECISION),
-3.926497	DECISIONS
-3.625467	DECLARE
-3.324437	DECLARED
-3.926497	DECLINED
-2.972254	DECODER
-3.926497	DECODER,
-3.926497	DECODER/SBLM-TRANSFORM
-3.926497	DECODER/TRANSLATION
-3.926497	DECODER/WHOEVER
-3.324437	DECODING
-3.926497	DECODING).
-3.324437	DECODING,
-3.926497	DECREASED
-3.926497	DECREASING
-3.926497	DEEP
-3.926497	DEFAULT
-3.926497	DEFAULT,
-3.926497	DEFEAT
-3.926497	DEFER
-3.926497	DEFICIT
-3.926497	DEFINE
-3.926497	DEFINITELY
-3.926497	DEGREE
-3.926497	DEMOCRACY
-3.926497	DEMOCRATIC
-3.625467	DEMOGRAPHICS
-3.926497	DEMONSTRATIONS
-3.449376	DENSELY
-3.926497	DEPENDENCIES
-3.449376	DEPENDING
-3.926497	DEPUTY
-3.926497	DERIVATION
-3.926497	DESCRIBED
-3.926497	DESCRIBED,
-3.926497	DESIGNER
-3.926497	DESIRABILITY
-3.449376	DESPITE
-3.926497	DESTROYED
-3.926497	DETERMINE
-3.926497	DETERMINISTIC
-3.625467	DETERMINISTIC,
-3.926497	DEVASTATED
-3.926497	DEVELOP
-3.926497	DEVELOPMENT.
-3.926497	DEVELOPMENTS
-3.324437	DEWAN
-3.926497	DICTATOR
-3.926497	DIED
-3.926497	DIFFER
-3.926497	DIFFERENCES
-2.847316	DIFFERENT
-3.449376	DIFFICULT
-3.926497	DIFFICULTIES
-3.926497	DIPONEGORO
-3.926497	DIRECT
-3.926497	DIRECTLY-ELECTED
-3.926497	DIRGANTARA
-3.926497	DISADVANTAGE:
-3.926497	DISARMED
-3.926497	DISCONTENT
-3.625467	DISCOVERED
-3.926497	DISCOVERER
-3.926497	DISCUSSED
-3.926497	DISPLAYING
-3.926497	DISSOLVED
-3.926497	DISTANCE
-3.926497	DISTINCT
-3.926497	DISTINCTION
-3.926497	DISTINCTIONS
-3.625467	DIVERSE
-3.926497	DIVIDE
-3.625467	DIVIDED
-3.926497	DIVIDES
-3.926497	DIVISIONS
-3.081399	DO
-3.926497	DO)
-3.926497	DOES
-3.926497	DOES,
-3.625467	DOESN'T
-3.324437	DOMESTIC
-3.625467	DOMINANT
-3.926497	DOMINATE
-3.926497	DOMINATING
-3.081399	DON'T
-3.926497	DONE
-3.324437	DOWN
-3.926497	DOWNFALL
-3.926497	DPD
-3.625467	DR
-3.926497	DRAWING
-3.449376	DUE
-3.926497	DUMA
-3.926497	DUR)
-3.148345	DURING
-2.750406	DUTCH
-3.926497	DWELLINGS
-3.926497	DWIPA
-3.926497	E
-3.926497	E)
-3.926497	E-ENTITY
-3.926497	E-SUBTREES
-3.023407	E.G
-3.926497	E.G.:
-3.148345	EACH
-3.926497	EARLIER)
-3.625467	EARLIEST
-3.625467	EARLY
-3.926497	EARTH'S
-3.926497	EARTH,
-3.449376	EARTHQUAKE
-3.926497	EARTHQUAKES
-3.926497	EASIEST
-2.464099	EAST
-3.926497	EASTERN
-3.926497	EASY
-3.926497	ECOLOGICAL
-3.324437	ECONOMIC
-3.227527	ECONOMY
-3.926497	EDGES
-3.926497	EDIT
-3.926497	EDUCATION
-3.926497	EFFECT
-3.926497	EFFECT.
-3.926497	EFFECTIVELY,
-3.926497	EFFORT
-3.625467	ELECTED
-3.227527	ELECTION
-3.926497	ELECTION,
-3.625467	ELECTIONS
-3.926497	ELITES
-3.926497	EMERGING
-3.926497	EMPTY
-3.926497	ENCOURAGED
-2.750406	ENGLISH
-3.926497	ENGLISH)
-3.926497	ENGLISH,
-3.926497	ENGLISH-CHARACTER-EDIT-DISTANCE
-3.926497	ENGLISH-STANDARD
-3.926497	ENGLISH-WORD,
-3.926497	ENGLISH?
-3.926497	ENRICHED
-3.926497	ENRICO
-3.926497	ENSURE
-3.926497	ENTERED
-3.926497	ENTERPRISE
-3.926497	ENTIRELY
-2.972254	ENTITIES
-3.926497	ENTITIES).
-3.625467	ENTITIES,
-2.722377	ENTITY
-3.926497	ENTITY,
-3.926497	ENTITY-ETREES
-3.926497	ENTITY-RECOGNITION
-3.926497	ENTITY-REGION
-3.926497	ENTITY-SEQUENCE?
-3.926497	ENTITY-TRANSLATIONS
-3.926497	ENTITY-TYPE
-3.926497	ENTRIES
-3.926497	EQUATOR,
-3.926497	EQUIPMENT
-3.926497	EQUIVALENT
-3.926497	ER,
-3.926497	ERA
-3.625467	ERECTUS
-3.926497	ERRONEOUS
-3.926497	ERRORS
-3.449376	ESPAN
-3.926497	ESPAN,
-3.926497	ESPECIALLY
-3.926497	ESSENTIALLY,
-3.926497	ESTABLISH
-3.926497	ESTABLISHED
-3.926497	ESTEEMED
-3.449376	ESTIMATE
-3.625467	ESTIMATED
-3.926497	ESTIMATES
-3.926497	ESTRING
-3.926497	ESTRINGS
-3.926497	ETHICAL
-2.885104	ETHNIC
-3.926497	ETHNICITY
-3.081399	ETREE
-3.926497	ETREE,
-3.625467	ETREE/CSTRING
-3.449376	ETREES
-3.926497	ETREES,
-3.926497	ETREES/ALIGNMENTS
-3.926497	EURASIAN
-3.926497	EURASIAN,
-3.926497	EURASIANS
-3.926497	EUROPE
-3.926497	EUROPEANS
-3.926497	EUROPEANS,
-3.926497	EVALUATES
-3.449376	EVEN
-3.625467	EVENLY
-3.449376	EVENTS
-3.926497	EVENTS)
-3.926497	EVENTUAL
-3.625467	EVENTUALLY
-3.227527	EVERY
-3.926497	EVERYTHING
-3.926497	EXACERBATED
-3.625467	EXACT
-3.625467	EXACTLY
-3.625467	EXAMPLE
-3.324437	EXAMPLE,
-3.926497	EXAMPLE.
-3.926497	EXAMPLE:
-3.926497	EXAMPLES
-3.625467	EXCEPT
-3.926497	EXCHANGED
-3.926497	EXIST
-3.449376	EXISTING
-3.625467	EXPANDED
-3.926497	EXPECT
-3.926497	EXPECTING
-3.926497	EXPERIENCED
-3.625467	EXPLICIT
-3.926497	EXPLICITLY
-3.625467	EXPORTER
-3.926497	EXPOSE
-3.926497	EXPRESSED
-3.926497	EXPRESSIONS
-3.926497	EXTENSIVE
-3.926497	EXTERNAL
-3.625467	EXTRACTING
-3.926497	EXTREME,
-3.926497	FACILITATED
-3.926497	FACTBOOK
-3.625467	FACTO
-3.625467	FAIR
-3.926497	FAITHS
-3.926497	FALLS
-3.926497	FALSE)
-3.926497	FALTERING
-3.926497	FAMILIAR
-3.926497	FAMILIES
-3.926497	FAMILY
-3.324437	FAMOUS
-3.625467	FAR
-3.926497	FATALITIES
-3.926497	FAUNA
-3.926497	FEARS
-3.926497	FEATURE-BASED
-3.926497	FEATURES,
-3.625467	FEDERATION
-3.449376	FEW
-3.926497	FIELDS
-3.926497	FIFTH
-3.926497	FIGHTING
-3.926497	FIGURE
-3.926497	FILES
-3.926497	FINALLY
-3.625467	FINANCIAL
-3.324437	FIND
-3.926497	FINE
-3.926497	FINER
-3.023407	FIRST
-3.926497	FIVE-PRONG
-3.625467	FIVE-YEAR
-3.926497	FLEET
-3.926497	FLEXIBLE
-3.926497	FLORA
-3.625467	FLORES
-3.625467	FLORESIENSIS
-3.926497	FOLLOW
-3.081399	FOLLOWING
-1.88907	FOR
-3.926497	FOR)
-3.449376	FORCE
-3.449376	FORCED
-3.625467	FORCES
-3.449376	FORCING
-2.972254	FOREIGN
-3.926497	FORESTS
-3.625467	FORM
-3.926497	FORMATIONS
-3.926497	FORMED
-3.449376	FORMER
-3.926497	FORMERLY
-3.926497	FORMS
-3.625467	FOUND
-3.926497	FOUNDING
-3.926497	FOUR
-3.926497	FOURTH
-3.926497	FRACTIONALLY
-3.926497	FRAGMENT
-3.926497	FRAGMENTED,
-3.926497	FRAMEWORK
-3.926497	FRANCA
-3.625467	FREE
-3.926497	FREE,
-3.926497	FREED
-3.625467	FREEDOM
-3.926497	FREELY
-3.926497	FREQUENCY
-3.926497	FREQUENT
-3.926497	FREQUENTLY
-3.926497	FRIENDS
-2.370194	FROM
-3.926497	FRUIT
-3.926497	FRUSTRATION
-3.926497	FU
-3.324437	FUEL
-3.926497	FULL
-3.926497	FUNCTIONS,
-3.926497	FUND)
-3.926497	FUNDAMENTALISM
-3.926497	FUNDS,
-3.625467	FURTHER
-3.926497	FUTURE,
-3.625467	FUZZY
-3.625467	GAM
-3.926497	GARDEN
-3.625467	GAS,
-3.926497	GEESE.
-3.449376	GENERAL
-3.926497	GENERALIZE
-3.449376	GENERATE
-3.926497	GENERATED
-3.926497	GENERIC
-3.926497	GEOGRAPHY
-3.926497	GERAKAN
-3.926497	GERMAN
-3.926497	GERMANE
-2.812553	GET
-3.926497	GETS
-3.926497	GETTING
-3.324437	GHKM
-3.625467	GIVE
-3.023407	GIVEN
-3.625467	GIVING
-3.625467	GIZA
-3.926497	GLIB:
-3.926497	GLOBAL
-3.625467	GOING
-3.926497	GOLD
-3.926497	GOLD-STANDARD
-3.449376	GOOD
-3.926497	GORONTALO,
-3.926497	GOVERNANCE
-3.926497	GOVERNED
-2.647743	GOVERNMENT
-3.449376	GOVERNOR
-3.625467	GRADUALLY
-3.926497	GRAMMAR
-3.926497	GRAMMAR'S
-3.926497	GRAPH").
-3.926497	GREATLY
-3.926497	GREEDILY
-3.926497	GREEK:
-3.625467	GREEN
-3.926497	GREENRULETEMPLATES
-3.926497	GRIP
-3.926497	GROSS
-3.926497	GROUP
-3.148345	GROUPS
-3.625467	GROUPS.
-3.926497	GROWING
-3.926497	GROWTH
-3.926497	GUERRILLAS
-3.227527	GUINEA
-3.926497	GUINEA)
-3.926497	GUINEA,
-3.926497	GUS
-3.926497	GUTIERREZ,
-3.926497	GUYS
-3.081399	HABIBIE
-3.926497	HABIBIE'S
-2.885104	HAD
-3.926497	HALF
-3.926497	HAMENGKUBUWONO
-3.926497	HAND
-3.926497	HANDLING
-3.926497	HAPPEN
-3.926497	HARD
-3.926497	HARD-TO-REACH
-3.926497	HARDSHIPS,
-3.926497	HARMONY
-2.584074	HAS
-3.625467	HATTA
-2.382429	HAVE
-3.926497	HAVING
-3.227527	HE
-2.926497	HEAD
-3.926497	HEAD-PROPAGATION
-3.926497	HEAD/TAG,
-3.926497	HEADING
-3.926497	HEALTH
-3.926497	HEARD
-3.926497	HEAVILY
-3.926497	HEAVY
-3.625467	HELD
-3.926497	HELPED
-3.926497	HELPFUL
-3.926497	HERE?
-3.625467	HEURISTIC
-3.926497	HIDE
-3.926497	HIGH
-3.926497	HIGH-PRECISION/CONFIDENCE
-3.625467	HIGHEST
-3.926497	HIGHLIGHT
-3.926497	HIGHLY
-3.926497	HIMSELF
-3.926497	HINDERING
-3.023407	HINDU
-3.926497	HINDU,
-3.926497	HINDU-INFLUENCED
-3.449376	HINDUISM
-3.023407	HIS
-3.926497	HISTORICAL
-3.926497	HISTORY
-3.926497	HIT
-3.926497	HOLD
-3.449376	HOME
-3.926497	HOMELESS)
-3.625467	HOMINID,
-3.227527	HOMO
-3.625467	HOOK
-3.926497	HOPEFULLY
-3.926497	HORRIFIC
-3.926497	HOUSES,
-3.227527	HOW
-3.148345	HOWEVER,
-3.324437	HUMAN
-3.926497	HUNDRED
-3.227527	HUNDREDS
-3.926497	HYPHEN;
-3.926497	HYPHENS)
-3.324437	I
-3.625467	I'D
-3.324437	I'VE
-3.926497	I.E
-3.926497	ID
-3.926497	IDEA
-3.926497	IDENTICAL
-3.926497	IDENTIFICATION
-3.926497	IDENTIFICATION/SEGMENTATION
-3.324437	IDENTIFIED
-3.324437	IDENTIFY
-2.780369	IF
-3.926497	IGNORES
-3.625467	II,
-3.926497	IKAT
-3.926497	ILLITERACY,
-3.926497	IMAM
-3.926497	IMPACT
-3.926497	IMPERIAL
-3.625467	IMPLEMENTING
-3.449376	IMPORTANT
-3.926497	IMPORTANT,
-3.625467	IMPORTER
-3.926497	IMPOSING
-3.926497	IMPRISONED
-1.783482	IN
-3.449376	INCLUDE
-3.926497	INCLUDED
-3.449376	INCLUDING
-3.926497	INCOME
-3.926497	INCORRECT
-3.926497	INCORRECTLY
-3.926497	INCREASE
-3.625467	INCREASED
-3.926497	INCREASING
-3.926497	INDEED
-2.847316	INDEPENDENCE
-3.926497	INDEPENDENCE,
-3.227527	INDEPENDENT
-3.926497	INDEPENDENT:
-3.625467	INDIA
-3.926497	INDIAN
-3.926497	INDIC
-3.926497	INDICATE
-3.926497	INDICATING
-3.227527	INDIES
-3.926497	INDIRECT
-3.926497	INDISPUTABLE
-3.926497	INDO)
-2.254399	INDONESIA
-2.812553	INDONESIA'S
-3.926497	INDONESIA),
-3.926497	INDONESIA).
-3.324437	INDONESIA,
-3.625467	INDONESIA.
-2.395018	INDONESIAN
-3.625467	INDONESIAN)
-3.081399	INDONESIANS
-3.926497	INDONESIANS,
-3.926497	INDUS
-3.926497	INDUSTRY
-3.926497	INFINITE)
-3.227527	INFLUENCE
-3.625467	INFLUENCED
-3.449376	INFLUENCES
-3.625467	INFLUENTIAL
-3.625467	INFO
-3.449376	INFORMATION
-3.926497	INFREQUENT
-3.625467	INHABITED
-3.926497	INHABITED,
-3.926497	INITIAL
-3.926497	INITIALLY
-3.926497	INITILAIZED
-3.926497	INPUT
-3.926497	INSERT
-3.449376	INSIDE
-3.926497	INSIDE-COSTS
-3.926497	INSPIRATION
-3.625467	INSTABILITY
-3.926497	INSTANCE
-3.625467	INSTEAD
-3.625467	INSTEAD,
-3.926497	INSTITUTED
-3.926497	INSTRUMENT
-3.625467	INTEGRATE
-3.926497	INTEGRATED
-3.926497	INTEGRATING
-3.926497	INTEGRATION
-3.926497	INTERACT
-3.926497	INTERESTING
-3.926497	INTERIOR
-3.926497	INTERMARRIAGE
-3.324437	INTERNAL
-3.449376	INTERNATIONAL
-3.926497	INTERNATIONALLY,
-2.926497	INTO
-3.926497	INTRODUCE
-3.625467	INTRODUCED
-3.926497	INVASION,
-3.625467	INVESTMENT
-3.926497	INVESTMENT,
-3.926497	INVITED
-3.926497	INVOLVE
-3.926497	INVOLVING
-3.926497	IR
-3.449376	IRIAN
-3.926497	IRRIGATION
-2.012683	IS
-3.625467	IS,
-3.148345	ISLAM
-3.926497	ISLAM,
-3.449376	ISLAMIC
-3.023407	ISLAND
-3.625467	ISLAND,
-2.750406	ISLANDS
-3.926497	ISLANDS)
-3.625467	ISLANDS,
-3.449376	ISN'T
-3.926497	ISOLATED
-3.926497	ISSUE
-3.926497	ISSUES
-2.346713	IT
-3.148345	IT'S
-3.926497	IT:
-3.324437	ITEMS
-3.926497	ITEMS,
-2.750406	ITS
-3.148345	JAKARTA
-3.926497	JAKARTA*,
-3.926497	JAKARTA,
-3.926497	JAMBI,
-3.227527	JAPAN
-3.926497	JAPAN,
-3.324437	JAPANESE
-2.696048	JAVA
-3.926497	JAVA"
-3.227527	JAVA,
-3.926497	JAVA.
-3.324437	JAVANESE
-3.926497	JAVANESE,
-3.926497	JAWA
-3.625467	JAYA
-3.926497	JAYA)
-3.926497	JAYA).
-3.926497	JOINTLY,
-3.926497	JONATHANGRAEHL
-3.926497	JONES
-3.926497	JONMAY
-3.926497	JULY
-2.625467	JUST
-3.926497	JUSTIFIED,
-3.926497	JUSUF
-3.227527	KALIMANTAN
-3.926497	KALIMANTAN),
-3.625467	KALIMANTAN,
-3.324437	KEEP
-3.625467	KEEPING
-3.625467	KH
-3.449376	KILLED
-3.926497	KIND
-3.449376	KINGDOM
-3.449376	KINGDOMS
-3.625467	KNOW
-3.227527	KNOWN
-3.926497	KNOWN,
-3.926497	KRAKATAU
-3.625467	KULIT
-3.926497	LABEL
-3.926497	LABELS
-3.926497	LABORERS
-3.926497	LACK
-3.926497	LAKSONO)
-3.926497	LAMPUNG,
-3.023407	LANGUAGE
-3.926497	LANGUAGE,
-3.926497	LANGUAGES
-3.926497	LANGUAGES/ETHNIC
-3.449376	LARGE
-3.625467	LARGE,
-3.926497	LARGELY
-3.926497	LARGER
-3.449376	LARGEST
-3.926497	LAST
-3.926497	LASTED
-3.926497	LATE
-3.227527	LATER
-3.926497	LATTER'S
-3.148345	LATTICE
-3.926497	LATTICE:
-3.926497	LAW)
-3.449376	LCA
-3.926497	LCA,
-3.625467	LEAD
-3.148345	LEADER
-3.926497	LEADING
-3.148345	LEARN
-3.926497	LEARNED
-3.023407	LEAST
-3.926497	LEAVE
-3.926497	LEAVES
-3.926497	LEAVING
-3.449376	LED
-3.625467	LEFT
-3.926497	LEFTWARD
-3.926497	LEGACY,
-3.926497	LEGAL
-3.625467	LEGISLATIVE
-3.926497	LEGISLATURE.
-3.449376	LESS
-3.227527	LET
-3.926497	LET'S
-3.926497	LETHALITY
-3.926497	LEVEL,
-3.227527	LEXICAL
-3.625467	LHS
-3.926497	LI
-3.926497	LIBERAL
-3.926497	LIBRARY
-3.926497	LIEUTENANT
-3.926497	LIFE
-3.926497	LIFESTYLES
-3.148345	LIKE
-3.625467	LIKELY
-3.926497	LIKELY)
-3.926497	LIMITED
-3.625467	LINE
-3.926497	LINGUA
-3.625467	LINGUISTIC
-3.926497	LINGUISTICALLY
-3.926497	LINKED
-3.324437	LIST
-3.625467	LISTS
-3.625467	LITERAL
-3.926497	LIVES
-3.926497	LIVES),
-3.625467	LIVING
-3.148345	LM
-3.926497	LM-COMPETITIVE
-3.926497	LOBBYING,
-3.449376	LOCAL
-3.625467	LOCATED
-3.625467	LOCATION
-3.926497	LOMBOK,
-3.926497	LONG-RUNNING
-3.449376	LONGER
-3.926497	LOOK
-3.625467	LOOKING
-3.926497	LOSS
-3.926497	LOST
-3.926497	LOW,
-3.926497	M
-3.625467	MADE
-3.625467	MADURESE
-3.926497	MADURESE,
-3.227527	MAIN
-3.449376	MAINLY
-3.926497	MAINTAIN
-3.926497	MAJELIS
-3.023407	MAJOR
-3.926497	MAKASSAR,
-3.148345	MAKE
-3.926497	MAKES
-3.625467	MAKING
-3.926497	MALACCA.
-3.926497	MALAY
-3.926497	MALAY),
-3.926497	MALAY,
-3.227527	MALAYSIA
-3.926497	MALAYSIA,
-3.926497	MALUKU
-3.625467	MALUKU,
-3.926497	MAN
-3.926497	MANDATED
-3.926497	MANDATORY.
-3.926497	MANUALLY
-2.926497	MANY
-3.926497	MANY->ONE
-3.625467	MAP
-3.926497	MAPPING
-3.625467	MARCH
-3.926497	MARK
-3.625467	MARKED
-3.926497	MARKEDLY
-3.926497	MARLBOROUGH".
-3.926497	MARSHALL
-3.926497	MARTIAL
-3.926497	MASSACRED
-3.625467	MASSIVE
-3.926497	MATARAM,
-3.926497	MATCHES
-3.926497	MATCHES,
-3.926497	MATCHING
-3.926497	MATCHING.
-3.926497	MATTER
-3.625467	MATTERS
-3.926497	MAXIMUM
-2.885104	MAY
-3.625467	MAYBE
-3.926497	MAYOR),
-3.926497	MEANING),
-3.926497	MEANINGFUL
-3.324437	MEANS
-3.926497	MEANS,
-3.926497	MEANT
-3.926497	MEDAN,
-3.926497	MEDIA,
-3.324437	MEGAWATI
-3.926497	MELANESIA
-3.324437	MEMBER
-3.081399	MEMBERS
-3.625467	MEMORIZE
-3.926497	MENTION
-3.926497	MENTIONED,
-3.926497	MERDEKA
-3.449376	METHOD
-3.926497	METHODS
-3.926497	METHODS),
-3.926497	MIDDLE
-3.926497	MIDDLEMEN
-2.972254	MIGHT
-3.926497	MIGRANTS
-3.926497	MIGRATION
-3.023407	MILITARY
-3.625467	MILITIA
-3.926497	MILITIA.
-3.148345	MILLION
-3.926497	MIND
-3.449376	MINISTER
-3.926497	MINISTERS,
-3.926497	MINORITY
-3.926497	ML
-3.449376	MODEL
-3.625467	MODEL)
-3.926497	MODEL,
-3.926497	MODELS
-3.926497	MODERN
-3.926497	MODIFICATION
-3.926497	MODIFIED
-3.625467	MODIFY
-3.625467	MODIFYING
-3.926497	MODTM
-3.926497	MODTM+MODSBLM
-3.926497	MODTM+MODSBLM:
-3.926497	MODTM:
-3.926497	MOHAMMAD
-3.926497	MOLUCCAS,
-3.926497	MONDAY,
-3.926497	MONEY
-3.449376	MONOLINGUAL
-2.625467	MORE
-3.926497	MORNING
-2.546286	MOST
-3.449376	MOSTLY
-3.926497	MOVEMENT
-3.926497	MOVEMENT)
-3.625467	MPR
-3.449376	MRS
-3.227527	MUCH
-3.926497	MULTIPARTY,
-3.324437	MULTIPLE
-3.926497	MULTITUDE
-3.625467	MUSLIM
-3.926497	MUSLIM,
-3.625467	MUSLIM-MAJORITY
-3.625467	MUSLIMS
-3.449376	MUST
-3.926497	MY
-3.926497	MYSTIC
-3.926497	MYTHOLOGICAL
-3.926497	MYTHOLOGY
-3.926497	N
-3.926497	NADATHUL
-3.926497	NAME,
-3.625467	NAMED
-3.926497	NAMED-ENTITY
-3.227527	NAMES
-3.625467	NAMES,
-3.926497	NAPOLEONIC
-3.324437	NATION
-2.972254	NATIONAL
-3.926497	NATIONALISTS
-3.625467	NATIONS
-3.625467	NATIONS,
-3.926497	NATIONWIDE
-3.324437	NATIVE
-3.926497	NATIVES
-3.449376	NATURAL
-3.227527	NE
-3.926497	NE-TAGGER
-3.926497	NE-TAGGER.
-3.926497	NE-TRANSLATION
-3.926497	NEAR-MATCHES
-3.926497	NEARLY
-3.926497	NECESSARILY
-3.926497	NECESSARY
-2.972254	NEED
-3.926497	NEEDED
-3.926497	NEIGHBOURING
-3.926497	NEPOTISM
-3.926497	NES
-3.926497	NESOS
-3.625467	NET
-3.227527	NETHERLANDS
-3.625467	NETHERLANDS'
-3.926497	NETHERLANDS,
-3.926497	NEUTRALLY
-2.564769	NEW
-3.449376	NEWLY
-3.926497	NIAS
-3.926497	NICE
-3.926497	NNP
-2.885104	NO
-3.926497	NON-ALIGNED
-3.926497	NON-CONSECUTIVE-CONSTITUENT
-3.926497	NON-CONSTITUENT
-3.926497	NON-HEAD
-3.926497	NON-ORTHODOX,
-3.625467	NON-OVERLAPPING
-3.926497	NON-SIBLING
-3.926497	NONCONSTITUENT
-3.926497	NONCONSTITUENTLEAFRULES
-3.926497	NONTERM
-3.926497	NONTERM)
-3.449376	NONTERMINAL
-3.926497	NONTERMINAL);
-3.926497	NONTERMINAL-SPLITTING
-3.926497	NONTERMINAL/HEAD/ETC
-3.926497	NONTERMINAL/RULE"
-3.926497	NONTERMINALS
-3.926497	NONTERMINALS,
-3.625467	NORMAL
-3.449376	NORMALLY
-3.449376	NORTH
-3.926497	NORTHERN
-2.479339	NOT
-3.625467	NOT,
-3.625467	NOTE
-3.926497	NOTE:
-3.926497	NOTICE
-3.227527	NOW
-3.449376	NOW,
-3.926497	NOW-VANISHED
-3.926497	NP(*CD*(@),*NN*(BILLION),NN(DOGS),
-3.926497	NP_GEESE(CD(@),CD(BILLION),NNS(GEESE))
-3.926497	NP_GEESE(RB_NUM_BILLION(CD(@),CD(BILLION),NNS(GEESE)),
-3.926497	NPB
-3.926497	NPB(NNP(HILLARY),NNP(CLINTON))
-3.926497	NPS
-3.926497	NTH
-3.926497	NUM_@@
-3.324437	NUMBER
-3.926497	NUMBER-WRITING
-3.926497	NUMBERS
-3.449376	NUMBERS/NAMES
-3.926497	NUMBERS/NAMES,
-3.926497	NUMERALS
-3.926497	NURTANIO
-3.625467	NUSA
-3.926497	NXM?
-3.324437	O
-3.926497	OBSERVERS
-3.625467	OCCUPATION
-3.625467	OCCUPATION,
-3.926497	OCCUPATION:
-3.449376	OCCUPIED
-3.926497	OCCUPIERS
-3.926497	OCCUR)
-3.926497	OCCURRED
-3.926497	OCCURS
-3.926497	OCTOBER)
-1.528557	OF
-3.449376	OFF
-3.926497	OFFERED
-3.926497	OFFICE
-3.926497	OFFICERS
-3.449376	OFFICIAL
-3.449376	OFFICIALLY
-3.926497	OFFICIALS
-3.449376	OFTEN
-3.449376	OIL
-3.449376	OIL,
-3.324437	OLD
-3.926497	OLD_TREE.
-3.926497	OLDER
-2.194103	ON
-3.926497	ONCE
-2.926497	ONE
-3.926497	ONE).
-3.926497	ONE-DAY
-3.926497	ONE-TIME
-3.926497	ONE-WORD
-3.449376	ONES
-2.750406	ONLY
-3.926497	OPEC,
-3.926497	OPEN-CLASS
-3.926497	OPERA
-3.926497	OPPORTUNITY
-3.926497	OPTIMIZED
-3.926497	OPTION.
-2.449376	OR
-3.926497	OR,
-3.926497	ORDE
-3.227527	ORDER
-3.926497	ORDER)
-3.926497	ORDERED
-3.926497	ORDINALS
-3.926497	ORDINARY
-3.926497	ORGANIZATION
-3.926497	ORGANIZATION,
-3.926497	ORGANIZATIONAL
-3.625467	ORIGINAL
-3.926497	ORIGINALLY
-3.926497	ORIGINATING
-3.926497	ORIGINS;
-3.081399	OTHER
-3.625467	OTHERS
-3.926497	OTHERWISE
-3.926497	OTHERWISE,
-3.148345	OUR
-3.926497	OUSTING
-2.926497	OUT
-3.926497	OUTPUT
-3.926497	OUTPUT,
-3.926497	OUTRIGHT
-3.449376	OUTSIDE
-3.148345	OVER
-3.926497	OVERALL.
-3.926497	OVERLAPPING
-3.926497	OVERTONES,
-3.926497	OVERWHELMING
-3.926497	OVERWHELMINGLY
-3.625467	OWING
-3.449376	OWN
-3.926497	P(E|C)
-3.926497	PACHUNG,
-3.926497	PACIFIC
-3.926497	PACIFIC,
-3.926497	PADRI
-3.926497	PAIRS
-3.926497	PAIRS,
-3.926497	PALEMBANG,
-3.926497	PALM
-3.023407	PAPUA
-3.926497	PAPUA*,
-3.926497	PAPUAN,
-3.227527	PARALLEL
-3.449376	PARENT
-3.926497	PARENTS/SIBLINGS,
-3.926497	PARIS
-3.081399	PARLIAMENT
-3.926497	PARLIAMENT,
-3.449376	PARSE
-3.926497	PARSE/TRANSLATION
-3.926497	PARSED
-3.926497	PARSED-TO-ENGLISH
-3.926497	PARSER
-3.449376	PARSES
-3.227527	PARSING
-3.926497	PARSING,
-3.625467	PART
-3.926497	PART,
-3.926497	PARTIAL
-3.449376	PARTICULAR
-3.926497	PARTICULAR,
-3.449376	PARTICULARLY
-3.926497	PARTIES
-3.449376	PARTLY
-3.926497	PARTNERS
-3.081399	PARTS
-3.926497	PARTY
-3.926497	PASSED
-3.926497	PASSING
-3.926497	PATCHING
-3.926497	PATH
-3.926497	PDI-P,
-3.324437	PEACE
-3.926497	PEASANTS
-3.926497	PENCAK
-3.926497	PENG.
-3.926497	PENNTREEBANK?-(OR
-2.812553	PEOPLE
-3.625467	PEOPLE'S
-3.926497	PEOPLE,
-3.926497	PEOPLES,
-3.324437	PER-SENTENCE
-3.926497	PERCENTS
-3.926497	PERCEPTION
-3.324437	PERHAPS
-3.926497	PERHAPS:
-3.625467	PERIOD
-3.926497	PERMITTED
-3.625467	PERMUSYAWARATAN
-3.926497	PERPLEXITY
-3.926497	PERSPECTIVE
-3.324437	PERWAKILAN
-3.926497	PHILOSOPHY
-3.926497	PHRASE
-3.926497	PINYIN-IZER)
-3.625467	PLACE
-3.926497	PLACED
-3.926497	PLACES
-3.625467	PLAGUED
-3.449376	PLAN
-3.926497	PLAN"
-3.926497	PLANTATIONS
-3.926497	PLATES,
-3.926497	PLEASING
-3.926497	POLICIES
-3.926497	POLICY,
-3.926497	POLICY-MAKING
-3.081399	POLITICAL
-3.449376	POLITICS
-3.926497	POLITICS,
-3.926497	POORER
-3.324437	POPULAR
-3.449376	POPULATED
-3.926497	POPULATED.
-2.926497	POPULATION
-3.926497	POPULATION,
-3.227527	POPULOUS
-3.449376	PORTUGUESE
-3.926497	PORTUGUESE,
-3.926497	POSITION
-3.926497	POSITION-DEPENDENT
-3.926497	POSITIONS
-3.926497	POSO
-3.926497	POSSIBILITIES
-3.926497	POSSIBILITY
-3.449376	POSSIBLE
-3.926497	POSSIBLE)
-3.926497	POSSIBLE,
-3.926497	POTENTIAL
-3.926497	POTENTIALLY
-3.926497	POVERTY,
-3.625467	POWER
-3.324437	POWERFUL
-3.926497	POWERS
-3.625467	PRACTICE
-3.926497	PRACTICED
-3.926497	PRAMBANAN,
-3.926497	PRE-EXISTING
-3.926497	PRE-SBLM
-3.926497	PRECONDITION.
-3.926497	PRECONDITIONS
-3.926497	PREDICATE
-3.926497	PREDOMINANTLY
-3.625467	PREFER
-3.926497	PREFIX
-3.926497	PRES_BUSH
-3.926497	PRES_BUSH,
-3.926497	PRESENT-DAY
-3.926497	PRESERVE
-3.625467	PRESIDENCY
-2.584074	PRESIDENT
-3.926497	PRESIDENT).
-3.926497	PRESIDENT,
-3.926497	PRESIDENT.
-3.926497	PRESIDENTE
-3.625467	PRESIDENTIAL
-3.926497	PRESIDENTS:
-3.926497	PRESS
-3.926497	PRESSURE,
-3.926497	PRETEXT
-3.625467	PRETTY
-3.926497	PREVIOUS
-3.926497	PREVIOUSLY
-3.625467	PRIBUMI
-3.926497	PRIBUMIS
-3.926497	PRIBUMIS,
-3.449376	PRICES
-3.625467	PRIME
-3.926497	PRINCE
-3.625467	PRINCIPAL
-3.926497	PRINCIPLED,
-3.926497	PRISON
-3.926497	PRIVATE
-3.926497	PRIVILEGES:
-3.625467	PRO-INDONESIA
-3.324437	PROB
-3.625467	PROB=.@
-3.625467	PROBABILITY
-3.148345	PROBABLY
-3.926497	PROBLEM
-3.324437	PROBLEMS
-3.926497	PROBLEMS:
-3.625467	PROBS
-3.926497	PROCEED,
-3.625467	PROCESS
-3.324437	PRODUCE
-3.926497	PRODUCED
-3.625467	PRODUCES
-3.926497	PRODUCING
-3.926497	PRODUCT
-3.926497	PRODUCTION
-3.926497	PRODUCTS
-3.926497	PROFIT
-3.926497	PROGRAM
-3.926497	PROGRAMS
-3.926497	PROGRESSIVE
-3.926497	PROMISED
-3.926497	PROPAGATE
-3.625467	PROPOSALS
-3.148345	PROPOSE
-3.926497	PROPOSE,
-3.023407	PROPOSED
-3.926497	PROPOSED).
-3.926497	PROPOSED,
-3.926497	PROPOSES
-3.625467	PROPOSING
-3.926497	PROTESTANT
-3.449376	PROVIDE
-3.926497	PROVIDED
-3.926497	PROVIDING
-3.625467	PROVINCE
-3.227527	PROVINCES
-3.625467	PROVINCES,
-3.926497	PT
-3.926497	PUBLIC
-3.926497	PUNAN,
-3.926497	PUNISHED
-3.926497	PURPOSE:
-3.926497	PURPOSES,
-3.926497	PUSHED
-3.926497	QUALIFIED
-3.926497	QUALITY,
-3.926497	QUITE
-3.926497	QUOTE
-3.926497	RADU
-3.926497	RAFFLES
-3.449376	RAKYAT
-3.926497	RAKYAT/PEOPLE'S
-3.926497	RAN
-3.324437	RARE
-3.926497	RARE,
-3.926497	RARE_CHINESE_NAME,
-3.926497	RARER
-3.926497	RARES,
-3.926497	RB
-3.926497	RB-ENTITIES
-3.926497	RB-ENTITY-TREEBANKING-STANDARD
-3.625467	RB-ETREE
-3.926497	RB-ETREES).
-3.926497	RB-NONTERM,
-3.227527	RB-NONTERMINAL
-3.625467	RB-NONTERMINAL,
-3.926497	RB-NONTERMINAL/HEADS
-3.324437	RB-NONTERMINALS
-3.926497	RB-NUM(*CD*(@),*NN*(BILLION)),
-3.926497	RB-NUM(*NP*(CD(@),NN(BILLION)))
-3.926497	RB-NUM(CD(@))
-3.625467	RB-NUM(CD(@),CD(BILLION))
-3.926497	RB-NUM(DET(A)
-3.324437	RB-PROGRAM
-3.926497	RB-PROGRAM)
-3.926497	RB-PROGRAM).
-2.972254	RB-PROGRAMS
-3.926497	RB-PROGRAMS)
-3.926497	RB-PROGRAMS).
-3.926497	RB-PROGS
-3.625467	RB-RESTRUCTURED
-3.926497	RB-ROOTED-EDGE
-3.324437	RB-SUBTREE
-3.926497	RB-SUBTREE->SBLM-LIST
-3.926497	RB-SUBTREES
-3.926497	RB-SYNTAX-RULES
-3.926497	RB-SYNTAX-TRANSLATION
-3.926497	RB-SYSTEM
-3.926497	RB-SYSTEMS
-3.926497	RB-TRANSLATION
-3.449376	RB-TRANSLATIONS
-3.926497	RB-TRANSLATOR
-3.926497	RB-XXX'S
-3.926497	RB-XXX(OLD_TREE)
-3.625467	RB-XXX,
-3.625467	RB_PROB
-3.148345	RB_PROB=.@
-3.926497	RB_PROB=.@@
-3.324437	RBT
-3.926497	RBT-ETREE
-3.926497	RBT-METHODS
-3.926497	RBT-PRODUCED
-3.926497	RBT-RULES
-3.926497	RBT;
-3.926497	READ
-3.324437	REAL
-3.926497	REALITY
-3.926497	REALLY
-3.926497	REALLY-OPEN
-3.926497	REASONABLE)
-3.926497	REBELLED
-3.926497	REBELLIONS
-3.625467	REBELS
-3.926497	REBUILDING
-3.926497	RECEIVED
-3.926497	RECENTLY
-3.625467	RECOGNIZE
-3.449376	RECOGNIZED
-3.926497	RECOGNIZER
-3.926497	RECOGNIZING
-3.926497	RECORDED:
-3.926497	RECOURSE
-3.926497	RECOVERY
-3.926497	RECURRING
-3.625467	REDUCE
-3.926497	REDUCTION
-3.449376	REFERENCE
-3.449376	REFERENDUM
-3.926497	REFORM
-3.926497	REFUSED
-3.926497	REGENCIES
-3.625467	REGIME
-3.148345	REGION
-3.625467	REGION,
-3.227527	REGIONAL
-3.926497	REGIONALLY
-3.449376	REGIONS
-3.926497	REGRETS
-3.926497	REJECTED
-3.625467	RELATED
-3.449376	RELATIONS
-3.926497	RELATIVE
-3.926497	RELATIVELY
-3.926497	RELEASE
-3.926497	RELIED
-3.449376	RELIGION
-3.625467	RELIGION,
-3.926497	RELIGIONS.
-3.081399	RELIGIOUS
-3.926497	RELINQUISHED
-3.926497	RELY
-3.625467	REMAIN
-3.926497	REMAINDER
-3.926497	REMAINING
-3.926497	REMAINS
-3.926497	REMEDY
-3.926497	REMEMBER
-3.625467	REMOVE
-3.926497	RENDERED
-3.926497	RENDERING
-3.926497	RENDERINGS
-3.926497	REOCCUPY
-3.926497	REPEATEDLY
-3.926497	REPLACED
-3.926497	REPLACING
-3.926497	REPRESENTATION.
-3.449376	REPRESENTATIVE
-3.926497	REPRESENTATIVES
-3.926497	REPRESENTING
-3.227527	REPUBLIC
-3.926497	REPUBLIK
-3.449376	REQUIRE
-3.926497	REQUIRED
-3.926497	REQUIREMENT
-3.926497	RESCORER
-3.625467	RESEARCH
-3.625467	RESENTMENT
-3.926497	RESIGN
-3.926497	RESIGN.
-3.926497	RESIGNATION
-3.926497	RESOURCES
-3.926497	RESPONSE
-3.449376	RESPONSIBLE
-3.926497	REST
-3.926497	RESTARTED
-3.926497	RESTORED
-3.625467	RESTRICT
-3.449376	RESTRUCTURE
-3.926497	RESTRUCTUREDENGLISH
-3.324437	RESTRUCTURING
-3.449376	RESULT
-3.625467	RESULT,
-3.926497	RESULTED
-3.926497	RESULTING
-3.926497	RETRAIN
-3.926497	REVISED
-3.449376	REVOLUTION
-3.926497	RHS
-3.926497	RIAU
-3.926497	RIAU),
-3.926497	RIAU,
-3.926497	RICE,
-3.926497	RICH
-3.324437	RIGHT
-3.324437	RIGHTS
-3.449376	RIOT
-3.926497	RIOTERS
-3.926497	RIOTS
-3.926497	RIOTS,
-3.926497	RISE,
-3.926497	ROBUST
-3.926497	ROLE
-3.926497	ROLE(NORMAL
-3.926497	ROLES
-3.926497	ROOT
-3.926497	ROOT-RB-NONTERMS
-3.625467	ROOTS
-3.625467	ROUGHLY
-3.926497	ROUTE
-3.926497	RUBBER
-2.780369	RULE
-3.625467	RULE,
-3.324437	RULE-BASED
-3.926497	RULE-COST
-3.926497	RULE.
-3.926497	RULE:
-3.926497	RULED
-2.780369	RULES
-3.926497	RULES")
-3.625467	RULES,
-3.926497	RULES:
-3.324437	RUN
-3.926497	S(NP(X@,X@,CD(@)),VP(CD(BILLION),X@))
-3.926497	S(X@,CD(@),CD(BILLION),X@)
-3.926497	S(X@,RB-NUM(CD(@),CD(BILLION)),X@).
-3.926497	S(X@,X@,RB-NUM("@
-3.023407	SAME
-3.926497	SANGEANG
-3.926497	SAPIENS
-3.926497	SATELLITE
-3.926497	SATURDAY,
-3.926497	SAUSAGE:
-3.625467	SAW
-3.926497	SAY
-3.926497	SAY,
-2.449376	SBLM
-3.926497	SBLM)
-3.625467	SBLM,
-3.449376	SBLM-ETREE
-3.926497	SBLM-NON-CONSTITUENT
-3.926497	SBLM-RESTRUCTURING
-3.926497	SBLM-SUBTREES
-3.926497	SBMT
-3.926497	SCALE
-3.625467	SCANDAL
-3.926497	SCATTERED
-3.926497	SCHOLARS,
-3.926497	SCHOOLS
-3.926497	SCHOOLS,
-3.926497	SCIENTIFIC
-3.324437	SCORE
-3.449376	SCORED
-3.449376	SCORES
-3.926497	SCORING
-3.926497	SECESSION
-3.625467	SECOND
-3.926497	SECOND-CLASS
-3.926497	SECOND-LARGEST
-3.926497	SECURING
-3.324437	SEE
-3.449376	SEEN
-3.926497	SEGMENTATION
-3.926497	SEISMIC
-3.449376	SELATAN),
-3.926497	SEMANTIC
-3.625467	SEMANTICS
-3.926497	SEMANTICS,
-3.926497	SEMARANG.
-3.926497	SENT
-3.625467	SENTENCE
-3.625467	SENTENCE(S)-SPECIFIC
-3.926497	SENTENCE)
-3.449376	SENTENCE,
-3.625467	SENTENCE-SPECIFIC
-3.926497	SENTENCE-SPECIFIC,
-3.926497	SENTENCES
-3.449376	SEPARATE
-3.926497	SEPARATELY)
-3.926497	SEPARATISM
-3.926497	SEQUENCE,
-3.926497	SEQUENCES
-3.926497	SERIES.
-3.926497	SERIOUS
-3.926497	SET
-2.972254	SEVERAL
-3.926497	SEVERAL)
-3.926497	SEVERE
-3.926497	SHADOW
-3.926497	SHARIA
-3.926497	SHARPENED,
-3.926497	SHOPKEEPERS
-3.625467	SHOPS,
-2.696048	SHOULD
-3.926497	SHOW
-3.926497	SHOWS,
-3.926497	SIBLING
-3.926497	SIDE
-3.926497	SIGNIFICANT
-3.926497	SIGNIFICANTLY
-3.926497	SILAT
-3.449376	SIMILAR
-3.625467	SIMPLE
-3.926497	SIMPLIFY
-2.972254	SINCE
-3.926497	SINGAPORE,
-3.227527	SINGLE
-3.926497	SITES
-3.926497	SIVA
-3.926497	SIZE
-3.926497	SKINTONES
-3.926497	SLAPS
-3.926497	SLOW
-3.926497	SMALL
-3.926497	SMALL-TIME
-3.926497	SMALLER
-2.972254	SO
-3.926497	SO,
-3.926497	SOAP
-3.926497	SOCIALIST
-3.926497	SOLITARY
-3.926497	SOLVE
-2.584074	SOME
-3.926497	SOMETHING
-3.449376	SOMETIMES
-3.449376	SOMEWHAT
-3.926497	SONGKET
-3.625467	SOON
-3.926497	SORT
-3.081399	SOUTH
-3.926497	SOUTHEAST
-3.449376	SPAN
-3.926497	SPAN).
-3.625467	SPAN,
-3.926497	SPAN/PROB
-3.926497	SPANISH
-3.324437	SPANS
-3.926497	SPARKED
-3.625467	SPARSENESS
-3.926497	SPARSENESS;
-3.926497	SPEAK
-3.926497	SPEAKER:
-3.926497	SPEC
-3.148345	SPECIAL
-3.625467	SPECIES
-3.449376	SPECIFIC
-3.324437	SPECIFICALLY
-3.926497	SPECIFIED
-3.625467	SPECIFY
-3.926497	SPECTER
-3.926497	SPEECH
-3.926497	SPHERE
-3.926497	SPICE
-3.449376	SPICES
-3.926497	SPLICE
-3.625467	SPLICED
-3.324437	SPLICING
-3.926497	SPLICING,
-3.625467	SPLIT
-3.625467	SPOKEN
-3.926497	SRI
-3.926497	STABILIZED
-3.625467	STAFF
-3.926497	STAGES
-3.926497	STAMFORD
-3.625467	STANDARD
-3.926497	STARS.
-3.625467	STARTED
-3.324437	STATE
-3.926497	STATE)
-3.625467	STATE,
-3.926497	STATED
-3.324437	STATES
-3.625467	STATES,
-3.926497	STATIC-RULES
-3.227527	STATISTICS
-3.625467	STATUS
-3.926497	STATUS.
-3.926497	STEP
-3.926497	STILL
-3.926497	STOREFRONT
-3.926497	STRAINED
-3.926497	STRING
-3.926497	STRING).
-3.625467	STRINGS
-3.926497	STRINGS,
-3.926497	STROKE
-3.926497	STRONG
-3.625467	STRUCK
-3.625467	STRUCTURE
-3.926497	STRUGGLE
-3.926497	STRUGGLE,
-3.926497	STUFF
-3.926497	SUB-DISTRICTS.
-3.926497	SUB-REGIONS
-3.625467	SUBDIVIDED
-3.926497	SUBDIVISIONS
-3.926497	SUBDIVISIONS,
-3.926497	SUBSETS)
-3.926497	SUBSIDIES
-3.926497	SUBSIDIES,
-3.926497	SUBSIDIZED
-3.926497	SUBSIDY
-3.926497	SUBSTANTIAL
-3.926497	SUBSTANTIAL,
-3.449376	SUBSTITUTE
-3.625467	SUBSTITUTION
-3.926497	SUBSTRING
-3.926497	SUBSTRUCTURE
-3.625467	SUBTREE
-3.926497	SUBTREES
-3.926497	SUBTREES,
-3.148345	SUCH
-3.926497	SUFFERED
-3.926497	SUFFERS
-3.625467	SUFFICIENT
-3.926497	SUGGEST
-3.148345	SUHARTO
-3.449376	SUHARTO'S
-3.926497	SUHARTO,
-3.148345	SUKARNO
-3.926497	SUKARNO'S
-3.324437	SUKARNO,
-3.324437	SUKARNOPUTRI
-3.926497	SUKARNO’S
-3.023407	SULAWESI
-3.926497	SULAWESI,
-3.625467	SULTAN
-3.926497	SULTANATE
-3.926497	SUMATERA)
-3.023407	SUMATRA
-3.926497	SUMATRA)
-3.449376	SUMATRA,
-3.926497	SUMMIT
-3.926497	SUNDANESE,
-3.926497	SUPERIOR
-3.926497	SUPERSET).
-3.926497	SUPERVISION
-3.625467	SUPPLIED
-3.926497	SUPPLIES
-3.926497	SUPPLY
-3.926497	SUPPORT
-3.926497	SUPPORTERS
-3.926497	SUPPORTING
-3.926497	SUPPRESSING
-3.926497	SURABAYA,
-3.449376	SURE
-3.926497	SURROGATE
-3.926497	SURROUNDING
-3.926497	SURVEY
-3.926497	SURVIVORS
-3.449376	SUSILO
-3.625467	SUSPECT
-3.926497	SYMBOL
-3.926497	SYNCRETISM
-3.449376	SYNTACTIC
-3.926497	SYNTACTICALLY
-3.625467	SYNTAX
-3.926497	SYNTAXBASEDLANGUAGEMODEL?
-3.926497	SYNTAXTRANSLATIONFRAMEWORK
-3.926497	SYNTAXTRANSLATIONFRAMEWORK)
-3.227527	SYSTEM
-3.625467	SYSTEM,
-3.926497	SYSTEMS.
-3.926497	TAGGER),
-3.926497	TAGGING/TREEING
-3.926497	TAGS
-3.926497	TAGS?
-3.324437	TAKE
-3.926497	TAKES
-3.625467	TALKING
-3.926497	TALKS
-3.926497	TARGET
-3.926497	TARGETING
-3.926497	TASKS.
-3.926497	TAUGHT
-3.926497	TAXONOMY
-3.926497	TEA,
-3.926497	TECHNOLOGY
-3.926497	TECTONIC
-3.926497	TELL
-3.926497	TEMPLATE-BASED
-3.926497	TEMPLE
-3.449376	TENGAH),
-3.926497	TENGAH,
-3.324437	TENGGARA
-3.926497	TENGGARA),
-3.926497	TENSION
-3.625467	TENSIONS
-3.926497	TENSIONS,
-3.926497	TERM,
-3.926497	TERM.
-3.926497	TERMS,
-3.926497	TERRITORIES
-3.926497	TERRITORY'S
-3.926497	TERRORIST
-3.926497	TEST:
-3.926497	TEXT
-2.750406	THAN
-2.202221	THAT
-3.926497	THAT'S
-3.926497	THAT,
-3.926497	THAT:
-1.182204	THE
-3.926497	THEATRE
-3.023407	THEIR
-2.926497	THEM
-3.926497	THEM)
-3.625467	THEMSELVES
-2.926497	THEN
-3.625467	THEN,
-3.926497	THEN.
-2.847316	THERE
-3.926497	THERE'S
-3.926497	THEREBY
-3.023407	THESE
-3.324437	THEY
-3.449376	THINK
-3.926497	THINKS
-3.926497	THIRD-CLASS
-2.584074	THIS
-3.926497	THOMAS
-3.926497	THOROUGHLY
-3.148345	THOSE
-3.227527	THOUGH
-3.625467	THOUGHT
-3.926497	THOUSANDS
-3.926497	THREATENED
-3.926497	THREE
-3.926497	THRESHOLD,
-3.926497	THRIVING
-3.625467	THROUGH
-3.625467	THUS
-3.926497	TIES
-3.926497	TILINGS
-3.926497	TILT
-3.926497	TIME
-3.926497	TIMES
-2.926497	TIMOR
-3.926497	TIMOR).
-3.625467	TIMOR,
-3.625467	TIMORESE
-3.449376	TIMUR),
-3.926497	TIN,
-2.926497	TM
-3.926497	TM/SBLM
-1.598117	TO
-3.926497	TO;
-3.926497	TOGETHER
-3.926497	TOGETHER)
-3.926497	TOGETHER;
-3.926497	TOKEN
-3.926497	TOKENS
-3.926497	TONGUE,
-3.227527	TOO
-3.926497	TOO,
-3.625467	TOTAL
-3.926497	TOWARDS
-3.625467	TRADE
-3.926497	TRADE.
-3.449376	TRADING
-3.926497	TRADITIONAL
-3.926497	TRADITIONS,
-3.449376	TRAIN
-2.780369	TRAINING
-3.449376	TRAINING,
-3.926497	TRAINING-TREE-MODIFYING
-3.926497	TRAINING/SMOOTHING,
-3.926497	TRANSFORMATION,
-3.926497	TRANSITIONAL
-3.625467	TRANSLATE
-3.926497	TRANSLATE.
-3.926497	TRANSLATED
-3.926497	TRANSLATING
-2.511523	TRANSLATION
-3.926497	TRANSLATION",
-3.926497	TRANSLATION),
-2.647743	TRANSLATIONS
-3.625467	TRANSLATIONS,
-3.926497	TRANSLATIONS.
-3.926497	TRANSLATIONS;
-3.926497	TRANSLATOR
-3.926497	TRANSLATORS
-3.926497	TRANSLATORS)
-3.926497	TRANSLITERATED
-3.926497	TRANSMIGRATION
-3.449376	TREATED
-3.625467	TREATY
-3.324437	TREE
-3.926497	TREE-CRAWLING
-3.926497	TREE.
-3.449376	TREEBANK
-3.926497	TREEBANK-LIKE
-3.324437	TREES
-3.926497	TRIGGER
-3.926497	TRIVIAL:
-3.926497	TROOPS
-3.926497	TROPICAL
-3.449376	TRY
-3.926497	TRYING
-3.449376	TSUNAMI
-3.926497	TSUNAMIS
-3.926497	TUANKU
-3.625467	TURN
-3.324437	TWO
-3.148345	TYPE
-3.926497	TYPE)
-3.926497	TYPICAL
-3.926497	U.S
-3.926497	UGLY
-3.926497	ULAMA
-3.625467	UN
-3.926497	UN,
-3.926497	UNABLE
-3.926497	UNALIGNED).
-3.926497	UNAMBIGUOUSLY
-3.926497	UNCOMMON
-2.780369	UNDER
-3.926497	UNDERCOUNT
-3.926497	UNDERGOING
-3.926497	UNDO
-3.926497	UNEVEN,
-3.926497	UNFLATTENING
-3.449376	UNFORTUNATELY,
-3.926497	UNILATERALLY
-3.625467	UNIQUE
-3.625467	UNITARY
-3.227527	UNITED
-3.926497	UNITS
-3.926497	UNIVERSALLY
-3.449376	UNKNOWN
-3.926497	UNKNOWN.
-3.625467	UNLESS
-3.081399	UNTIL
-2.885104	UP
-3.926497	UPGRADE
-3.324437	US
-3.926497	US$
-3.926497	USA
-2.926497	USE
-2.885104	USED
-3.926497	USED).
-3.926497	USED.
-3.926497	USEFUL
-3.926497	USEFUL)
-2.972254	USING
-3.926497	USUAL.
-3.449376	UTARA),
-3.926497	VARIATIONS
-3.926497	VARIATIONS,
-3.449376	VARIOUS
-3.926497	VASSALS,
-3.926497	VERB
-3.926497	VERSATILE
-3.625467	VERY
-3.449376	VICE
-3.926497	VILLAGERS
-3.926497	VIOLATION
-3.449376	VIOLENCE
-3.926497	VITAL
-3.926497	VITERBI
-3.625467	VOC
-3.625467	VOLCANIC
-3.926497	VOLCANOES
-3.926497	VOTE
-3.449376	VOTED
-3.926497	VS
-3.926497	VULNERABLE
-3.324437	WAHID
-3.926497	WALLACE
-2.885104	WANT
-3.926497	WANTING
-3.926497	WANTS
-3.023407	WAR
-3.926497	WAR,
-3.926497	WARS
-2.263739	WAS
-3.324437	WAY
-3.625467	WAYANG
-3.926497	WAYS
-2.293028	WE
-3.625467	WE'D
-3.324437	WE'LL
-3.148345	WE'RE
-3.926497	WE'VE
-3.926497	WEAKENING
-3.926497	WEALTHIER
-3.926497	WEALTHY
-3.926497	WEIGHTED
-3.081399	WELL
-3.926497	WELL,
-3.926497	WELL-KNOWN
-2.647743	WERE
-2.885104	WEST
-3.449376	WESTERN
-2.847316	WHAT
-3.926497	WHATEVER
-3.148345	WHEN
-3.926497	WHEN,
-3.081399	WHERE
-3.926497	WHEREVER
-3.625467	WHETHER
-2.647743	WHICH
-3.023407	WHILE
-3.227527	WHO
-3.324437	WHOLE
-3.449376	WHOSE
-3.625467	WHY
-3.926497	WIDELY
-3.625467	WIDESPREAD
-2.847316	WILL
-3.926497	WILLING
-3.926497	WINNER
-2.218927	WITH
-3.926497	WITH,
-3.926497	WITHDRAWN
-3.926497	WITHIN
-3.449376	WITHOUT
-3.926497	WON
-3.449376	WON'T
-3.324437	WORD
-3.449376	WORD-CLASS
-3.926497	WORD-CLASSES
-3.926497	WORD-FOR-WORD
-3.148345	WORDS
-3.926497	WORDS).
-3.324437	WORDS,
-3.926497	WORDS/PHRASES
-3.324437	WORK
-3.926497	WORKED
-3.926497	WORKING
-3.926497	WORKS
-3.081399	WORLD
-3.625467	WORLD'S
-3.926497	WORLD.
-3.926497	WORLD:
-2.584074	WOULD
-3.625467	WOULDN'T
-3.926497	WRATH
-3.926497	WRITE
-3.926497	WRITING;
-3.926497	WRITTEN
-3.926497	WROTE
-3.926497	WRT
-3.926497	X)
-3.926497	X@
-3.926497	X@"
-3.926497	XR
-3.926497	XRS
-3.926497	YEAR
-3.926497	YEAR,
-3.926497	YEAR.
-3.227527	YEARS
-3.926497	YEARS,
-3.926497	YET,
-3.926497	YET-TO-BE-ALIGNED
-3.926497	YIELD
-3.625467	YOGYAKARTA
-3.926497	YOGYAKARTA*.
-3.926497	YORK
-2.847316	YOU
-3.449376	YOU'D
-3.926497	YOU'LL
-3.926497	YOUR
-3.625467	YUDHOYONO
-3.926497	YUDHOYONO,

\end\
