
\data\
ngram 1=2634
ngram 2=6620
ngram 3=285
ngram 4=105
ngram 5=59

\1-grams:
-3.926497	"@@"	-0.07414193
-3.926497	"@@@	-0.08582394
-3.926497	"ETREE	-0.08536059
-3.926497	"FORT	-0.08592685
-3.926497	"FRAC_BETWEEN_@@_AND_@@"	-0.08033499
-3.926497	"GREEN	-0.08592685
-3.625467	"GREEN-CHINESE-WORD-N"	-0.06673157
-3.926497	"HISTORY	-0.07292445
-3.926497	"LIFT"	-0.08401921
-3.926497	"MUST-USE"	-0.08592685
-3.926497	"NO	-0.08592685
-3.926497	"NON-PRIBUMI"	-0.08530907
-3.926497	"RB"	-0.08033499
-3.926497	"RB-"	-0.08592685
-3.926497	"RULE-BASED	-0.08592685
-3.926497	"SAUSAGE	-0.08592685
-3.926497	"SAVE"	-0.05644839
-3.926497	"SIMPLE	-0.08592685
-3.926497	"STATE"	-0.08324346
-3.926497	"TYPICAL"	-0.08582394
-3.926497	"VIRTUAL	-0.08592685
-3.926497	"VIRTUAL"	-0.08582394
-3.926497	##	-0.08587539
-2.972254	###	-0.4892226
-3.926497	#@	-0.07414193
-3.926497	#@,	-0.05644839
-3.926497	#CHINESE	-0.08577248
-3.926497	#ENGLISH	-0.08587539
-3.926497	'PEOPLE'S	-0.08587539
-3.926497	($US	-0.08592685
-3.926497	('KKN'	-0.08173972
-3.926497	(*)	-0.05644839
-3.926497	(@:@@PM)	-0.06785927
-3.926497	(@@	-0.08561806
-3.324437	(@@@@	-0.4832206
-3.926497	(@@@@),	-0.05644839
-3.926497	(@@@@-@@).	-0.08592685
-3.625467	(@@@@-@@@@)	-0.1670896
-3.625467	(@@@@-@@@@).	-0.03702559
-3.625467	(A	-0.08582393
-3.926497	(ACTUALLY,	-0.08401921
-3.926497	(AKA	-0.08592685
-3.926497	(ALSO	-0.08592685
-3.324437	(AND	-0.08007436
-3.926497	(AT	-0.08556658
-3.926497	(BAHASA	-0.08592685
-3.926497	(BANK	-0.08592685
-3.926497	(BEFORE	-0.08572102
-3.926497	(BJ)	-0.08561806
-3.926497	(BPS)	-0.07414193
-3.926497	(BULOG	-0.08592685
-3.324437	(BUT	-0.08194745
-3.926497	(BY	-0.08577248
-3.926497	(C_@@	-0.08592685
-3.926497	(C_@@@@@)	-0.08587539
-3.625467	(CALLED	-0.1741961
-3.926497	(CELEBES),	-0.08592685
-3.926497	(CULTUURSTELSEL),	-0.08582394
-3.926497	(CURRENTLY	-0.05644839
-3.926497	(DERIVATIONFORESTEM)	-0.06785927
-3.926497	(DISTINCTIONS	-0.08376078
-3.926497	(DPD)/PROVINCES	-0.08582394
-3.926497	(DPR)/PEOPLE	-0.08582394
-3.926497	(DPR,	-0.08592685
-3.926497	(ESPECIALLY	-0.08525755
-3.926497	(EVEN	-0.08592685
-3.926497	(EXCEPT	-0.08033499
-3.449376	(FOR	-0.08412255
-3.625467	(FORMERLY	-0.08551508
-3.926497	(FRANZ	-0.08484516
-3.449376	(FROM	-0.08561807
-3.926497	(GAM,	-0.05644839
-3.926497	(GDP)	-0.08484516
-3.926497	(I	-0.08582394
-3.926497	(I'VE	-0.08592685
-3.926497	(IF	-0.0854636
-3.926497	(IMO):	-0.06785927
-3.926497	(IMPORTANT!)	-0.07855958
-3.625467	(INDONESIAN:	-0.08587538
-3.926497	(INSTEAD	-0.07292445
-3.926497	(IPTN)	-0.08592685
-3.926497	(IRIAN	-0.08587539
-3.926497	(ISLAMIC	-0.08592685
-3.449376	(JAWA	-0.08536059
-3.926497	(JULY	-0.08592685
-3.324437	(KALIMANTAN	-0.08520603
-3.926497	(KEPULAUAN	-0.08592685
-3.926497	(KRAKATOA),	-0.08499985
-3.926497	(LIKE	-0.07876883
-3.926497	(LOCALLY	-0.08572102
-3.926497	(MAJELIS	-0.08587539
-3.926497	(MALUKU	-0.08582394
-3.926497	(MINE,MINC),(MINE,MAXC),(MAXE,MAXC),(MAXE,MINC)	-0.08587539
-3.926497	(MPR)	-0.08592685
-3.926497	(MUST	-0.08236258
-3.926497	(NAPOLEON'S	-0.08520602
-3.926497	(NEW	-0.08592685
-3.926497	(NONCONSTITUENTLEAFRULES);	-0.08324346
-3.449376	(NOT	-0.08484517
-3.926497	(NOTE:	-0.08561806
-3.926497	(NOW	-0.08561806
-3.926497	(NU).	-0.08582394
-3.625467	(NUSA	-0.1740932
-3.625467	(OF	-0.08494829
-3.926497	(OLD)	-0.08582394
-3.625467	(ON	-0.05633826
-3.926497	(ONE	-0.07292445
-3.926497	(OR	-0.08453561
-3.926497	(PRE-GHKM)	-0.08494829
-3.926497	(PROBABLY	-0.08561806
-3.926497	(RANKED	-0.08572102
-3.926497	(REF	-0.08499985
-3.625467	(SHARED	-0.1716677
-3.926497	(SHOULDN'T	-0.08236258
-3.926497	(SINCE	-0.08376078
-3.625467	(SOUTH	-0.1612452
-3.227527	(SULAWESI	-0.0851545
-3.926497	(SULAWESI),	-0.07414193
-3.449376	(SUMATERA	-0.08536059
-3.926497	(TAGGED)	-0.08566955
-3.926497	(THAT	-0.08587539
-3.926497	(THAT'S	-0.08566955
-3.449376	(THE	-0.08463883
-3.926497	(THEY	-0.08484516
-3.625467	(THIS	-0.1700604
-3.926497	(THOUGH	-0.08577248
-3.926497	(TO	-0.08592685
-3.926497	(TRANSMIGRASI)	-0.07488133
-3.926497	(UNTAET).	-0.05644839
-3.926497	(US	-0.08592685
-3.926497	(USABLE	-0.08520602
-3.926497	(VOC),	-0.07855958
-3.324437	(WE	-0.08443239
-3.926497	(WE'VE	-0.084742
-3.926497	(WHAT	-0.08587539
-3.926497	(WHEN	-0.08494829
-3.227527	(WHICH	-0.06999919
-3.926497	(WITHIN	-0.05644839
-3.926497	(WRT	-0.06785927
-3.926497	(YOU	-0.08561806
-2.435135	*	-0.08662318
-3.926497	*[B-@).	-0.08484516
-3.926497	*NP*(CD(@),NN(BILLION))	-0.08443239
-3.625467	+	-0.08582393
-3.926497	,	-0.08582394
-2.584074	-	-0.02859583
-3.926497	--	-0.08592685
-2.847316	->	-0.2567563
-3.081399	...	-0.08339872
-3.926497	.@	-0.08582394
-3.926497	/	-0.08587539
-3.227527	:)	-0.2602313
-1.388678	</s>
-3.926497	<=	-0.08592685
-99	<s>	-0.2882202
-3.926477	<unk>
-3.324437	=	-0.05622812
-3.926497	=@	-0.08577248
-3.625467	>@	-0.08572101
-3.148345	@	-0.08251816
-3.227527	@%	-0.1054932
-3.926497	@+@	-0.08484516
-3.926497	@+@+@	-0.08484516
-3.625467	@+@+@+@+@+@	-0.1731659
-3.926497	@,	-0.08592685
-3.625467	@,@@@	-0.08293276
-3.926497	@,CD(@),@,CD(BILLION),@	-0.08536059
-3.926497	@-LENGTH	-0.08592685
-2.495133	@.	-0.06155983
-3.926497	@.)	-0.08484516
-3.625467	@.@%	-0.07287143
-3.926497	@.@@	-0.08592685
-3.926497	@/@	-0.08360565
-3.081399	@@	-0.1337156
-3.926497	@@%	-0.07292445
-3.625467	@@,	-0.1735267
-3.324437	@@,@@@	-0.07297746
-3.926497	@@.@	-0.08566955
-3.926497	@@.@%	-0.08592685
-3.926497	@@.@@	-0.08484516
-3.023407	@@@	-0.2197465
-3.926497	@@@,	-0.07414193
-3.449376	@@@,@@@	-0.570767
-2.421347	@@@@	-0.05860452
-3.926497	@@@@)	-0.07414193
-3.625467	@@@@),	-0.08572101
-2.750406	@@@@,	-0.2413395
-3.926497	@@@@-YEAR-OLD	-0.08556658
-2.847316	@@@@.	-0.102474
-3.926497	@@@@;	-0.08587539
-3.449376	@@@@S	-0.1308783
-3.625467	@@@@S,	-0.08339871
-3.227527	@@TH	-0.1536967
-3.926497	@@TH-CENTURY	-0.08582394
-3.926497	@TH	-0.07488133
-3.926497	[@]).	-0.05644839
-3.926497	[@],	-0.05644839
-3.324437	[@].	-0.0281847
-3.926497	[N-@,N].	-0.06785927
-1.771161	A	-0.08968484
-3.926497	A(B,RB-X(X,Y),C)	-0.08592685
-3.926497	A(B,X,Y,C)	-0.08033499
-3.926497	A[@-@),B[@-@)	-0.0854636
-3.926497	AB	-0.08592685
-3.926497	ABANGAN,	-0.08556658
-3.926497	ABBREVIATION)	-0.08499985
-3.625467	ABDULRAHMAN	-0.1740932
-3.926497	ABDURRAHMAN	-0.08577248
-3.625467	ABLE	-0.07482855
-3.926497	ABOLISHED,	-0.07414193
-2.926497	ABOUT	-0.06383397
-3.926497	ABOVE.	-0.06785927
-3.926497	ABRAHAMIC	-0.08592685
-3.926497	ABUSES	-0.08303636
-3.926497	ACADEMIA	-0.06785927
-3.926497	ACCEPTED	-0.08303636
-3.926497	ACCEPTS	-0.08592685
-3.926497	ACCORDING	-0.07488133
-3.926497	ACCOUNTABILITY	-0.08592685
-3.148345	ACEH	-0.05241047
-3.926497	ACEH*,	-0.08582394
-3.926497	ACEH,	-0.08577248
-3.926497	ACEH.	-0.06785927
-3.926497	ACEHNESE	-0.08499985
-3.926497	ACKNOWLEDGED	-0.05644839
-3.449376	ACQUISITION	-0.0682881
-3.449376	ACROSS	-0.1127396
-3.926497	ACTIVITY	-0.08173972
-3.227527	ACTUAL	-0.0842775
-3.449376	ACTUALLY	-0.08556659
-3.926497	AD	-0.07488133
-3.625467	AD-HOC	-0.08561806
-3.926497	AD.	-0.06785927
-3.926497	ADD	-0.05644839
-3.926497	ADDED	-0.08303636
-3.926497	ADDING	-0.08479359
-3.625467	ADDITION	-0.163202
-3.926497	ADDITIONAL	-0.08561806
-3.926497	ADJACENT	-0.08443239
-3.926497	ADMINISTERED	-0.08572102
-3.625467	ADMINISTRATION	-0.07876883
-3.625467	ADMINISTRATIVE	-0.08587538
-3.926497	ADOPTED	-0.05644839
-3.926497	ADVANTAGE	-0.08033499
-3.926497	ADVANTAGE:	-0.08541209
-3.926497	AFFAIRS	-0.06785927
-3.926497	AFFECTING	-0.08592685
-2.780369	AFTER	-0.1409624
-3.926497	AFTERMATH	-0.07292445
-2.847316	AGAINST	-0.1593255
-3.926497	AGES	-0.05644839
-3.926497	AGING	-0.08582394
-3.625467	AGO	-0.06780563
-3.625467	AGO,	-0.1738873
-3.625467	AGREED	-0.163202
-3.926497	AGREEMENT	-0.06785927
-3.926497	AGREEMENT,	-0.08587539
-3.926497	AGRICULTURAL	-0.08592685
-3.926497	AGUNG	-0.08592685
-3.926497	AIMING	-0.07488133
-3.625467	AIRCRAFT	-0.08587538
-3.926497	ALARMED	-0.08572102
-3.625467	ALGORITHM	-0.08329521
-3.926497	ALGORITHM,	-0.08376078
-3.926497	ALIGN	-0.08577248
-3.449376	ALIGNED	-0.07361302
-3.148345	ALIGNMENT	-0.07149087
-3.324437	ALIGNMENTS	-0.09621486
-2.926497	ALL	-0.0847257
-3.926497	ALL)	-0.08484516
-3.926497	ALL),	-0.08577248
-3.449376	ALLEGED	-0.139982
-3.926497	ALLEGEDLY	-0.08592685
-3.926497	ALLEVIATE	-0.08577248
-2.885104	ALLOW	-0.0474924
-3.625467	ALLOWED	-0.07735445
-3.625467	ALLOWING	-0.08577248
-3.625467	ALLOWS	-0.08561806
-3.926497	ALMOST	-0.08592685
-3.926497	ALONE	-0.08484516
-3.926497	ALONE,	-0.08587539
-3.926497	ALONG	-0.08334697
-3.081399	ALREADY	-0.08546361
-3.926497	ALREADY):	-0.06785927
-2.546286	ALSO	-0.1102293
-3.926497	ALSO,	-0.08551509
-3.926497	ALSO:	-0.08587539
-3.926497	ALTEMP	-0.08572102
-3.449376	ALTERNATIVE	-0.0849483
-3.926497	ALTERNATIVES	-0.06785927
-3.081399	ALTHOUGH	-0.07575552
-3.081399	ALWAYS	-0.07735446
-3.926497	AMBIGUITY	-0.07292445
-3.926497	AMBIGUOUSLY	-0.08592685
-3.926497	AMBON,	-0.08556658
-3.926497	AMID	-0.08587539
-3.926497	AMONG	-0.05644839
-3.926497	AMPLIFIED	-0.08303636
-2.435135	AN	-0.09139641
-1.570471	AND	-0.07437403
-3.926497	AND,	-0.08334697
-3.926497	AND/OR	-0.08587539
-3.926497	ANGLO-DUTCH	-0.08587539
-3.926497	ANGRY	-0.08587539
-3.926497	ANIMIST	-0.06785927
-3.926497	ANNEXATION	-0.07292445
-3.926497	ANNOTATED/ALIGNED	-0.08566955
-3.926497	ANNOUNCED	-0.08556658
-3.926497	ANNOUNCEMENT	-0.07292445
-3.625467	ANOTHER	-0.1739903
-3.926497	ANTI-COMMUNIST	-0.08592685
-2.926497	ANY	-0.08585741
-3.926497	ANYNONTERMINAL[@-B)	-0.08577248
-3.625467	ANYTHING	-0.08324345
-3.926497	ANYTHING;	-0.08033499
-3.926497	ANYWAY	-0.07876883
-3.926497	ANYWAY).	-0.06785927
-3.926497	API	-0.08556658
-3.926497	APPLIED	-0.08577248
-3.227527	APPLY	-0.09977554
-3.926497	APPLYING	-0.07855958
-3.926497	APPOINTED	-0.08246631
-3.926497	APPOINTS	-0.07855958
-3.625467	APPROACH	-0.07845492
-3.449376	APPROPRIATE	-0.0854121
-3.449376	APPROXIMATELY	-0.1424602
-3.625467	APPROXIMATION	-0.07260628
-3.926497	APPROXIMATION;	-0.08484516
-3.926497	ARABIC	-0.08173972
-3.926497	ARABS	-0.08582394
-3.625467	ARBITRARY	-0.08453561
-3.926497	ARCHEOLOGICAL	-0.08592685
-3.926497	ARCHIPELAGIC	-0.08577248
-3.324437	ARCHIPELAGO	-0.08358341
-3.625467	ARCHIPELAGO,	-0.05611791
-3.926497	ARCHIPELAGO.	-0.06785927
-2.263739	ARE	-0.05856379
-3.926497	ARE,	-0.08566955
-3.926497	ARE:	-0.08592685
-3.148345	AREA	-0.1084739
-3.148345	AREAS	-0.04928724
-3.926497	ARMED	-0.08587539
-3.926497	ARMY	-0.08582394
-3.625467	ARMY,	-0.08401921
-3.926497	ARMY.	-0.06785927
-3.449376	AROUND	-0.05589747
-3.449376	ARRIVAL	-0.5579704
-3.926497	ARRIVED	-0.07876883
-3.625467	ART	-0.08587538
-3.449376	ARTICLE:	-0.08556659
-3.926497	ARTICLES:	-0.08572102
-2.093988	AS	-0.1771409
-3.926497	AS-IS	-0.06785927
-3.926497	ASEAN+@	-0.07414193
-3.324437	ASIA	-0.05440648
-3.926497	ASIA.	-0.06785927
-3.227527	ASIAN	-0.1069241
-3.926497	ASK	-0.08422585
-3.926497	ASPECTS	-0.07292445
-3.926497	ASSEMBLY',	-0.08587539
-3.926497	ASSEMBLY)	-0.07414193
-3.926497	ASSESSING	-0.0854636
-3.926497	ASSIGNING	-0.07855958
-3.926497	ASSOCIATE	-0.0854636
-3.926497	ASSOCIATION	-0.07292445
-3.926497	ASSUMED	-0.08033499
-3.926497	ASSUMED,	-0.08572102
-2.647743	AT	-0.1851497
-3.625467	ATTEMPT	-0.08438075
-3.926497	ATTEMPTED	-0.07488133
-3.926497	ATTEMPTING	-0.07488133
-3.926497	ATTRIBUTE	-0.08324346
-3.625467	ATTRIBUTES	-0.1715642
-3.926497	AUDIENCE	-0.06785927
-3.625467	AUGUST	-0.08422584
-3.926497	AUSTRALASIA,	-0.08246631
-3.926497	AUSTRALIA,	-0.08484516
-3.926497	AUSTRALIA.	-0.06785927
-3.926497	AUSTRALIAN,	-0.08577248
-3.926497	AUTOMATICALLY	-0.08592685
-3.926497	AUTONOMOUS	-0.08577248
-3.926497	AUTONOMY	-0.08412254
-3.625467	AVAILABLE	-0.07127808
-3.926497	AVERAGE	-0.08592685
-3.926497	AWARDED	-0.07488133
-3.926497	AWARE	-0.07292445
-3.926497	AWAY	-0.08587539
-3.625467	AWFUL	-0.077774
-3.926497	AWKWARDLY	-0.08592685
-3.625467	B	-0.06511549
-3.926497	BACHARUDDIN	-0.08592685
-3.148345	BACK	-0.2857248
-3.926497	BACKED	-0.08303636
-3.926497	BACKLASH	-0.08536059
-3.926497	BAD	-0.08443239
-3.926497	BAD:	-0.08592685
-3.625467	BAHASA	-0.1718746
-3.926497	BALI	-0.08592685
-3.449376	BALI,	-0.07398333
-3.926497	BALI.	-0.06785927
-3.625467	BALINESE	-0.08582393
-3.449376	BAMBANG	-0.142666
-3.926497	BANDUNG,	-0.08592685
-3.926497	BANGKA-BELITUNG,	-0.08592685
-3.625467	BANK	-0.0704259
-3.926497	BANTEN,	-0.08592685
-3.148345	BARAT),	-0.2616646
-3.926497	BARU	-0.08592685
-2.926497	BASED	-0.1859443
-3.926497	BASELINE	-0.07488133
-3.926497	BASELINE,	-0.08376078
-3.926497	BASICALLY	-0.08438076
-3.926497	BASIS	-0.08551509
-3.926497	BATAK	-0.06785927
-3.926497	BATAVIAN	-0.08572102
-3.926497	BATIK,	-0.08592685
-3.926497	BBN	-0.08592685
-3.926497	BC	-0.08303636
-2.081399	BE	-0.09745657
-3.926497	BE.	-0.06785927
-3.926497	BE:	-0.06785927
-3.081399	BECAME	-0.2265528
-3.324437	BECAUSE	-0.06743003
-3.081399	BECOME	-0.07173477
-3.926497	BECOMES	-0.08592685
-3.227527	BEEN	-0.0855151
-3.625467	BEFORE	-0.05479351
-3.926497	BEFORE)	-0.06785927
-3.926497	BEGAN	-0.07855958
-3.081399	BEING	-0.2022738
-3.449376	BELIEFS	-0.05782267
-3.926497	BELONGING	-0.07488133
-3.926497	BELOW	-0.08484516
-3.625467	BENCOOLEN	-0.1741961
-3.926497	BENGKULU,	-0.08592685
-3.926497	BEST	-0.07488133
-3.926497	BEST,	-0.08592685
-3.625467	BETTER	-0.07798363
-2.780369	BETWEEN	-0.05510989
-3.926497	BICAMERAL	-0.08592685
-3.926497	BICONTINENTAL	-0.08592685
-3.625467	BILLION	-0.07871652
-3.926497	BILLION")),X@)	-0.08033499
-3.926497	BILLION)	-0.06785927
-3.926497	BILLION,	-0.08551509
-3.625467	BINARIZER	-0.07482855
-3.926497	BITTER	-0.08592685
-3.324437	BJ	-0.4939573
-3.926497	BLOC	-0.06785927
-3.625467	BLOODY	-0.08577248
-3.926497	BLUE	-0.08536059
-3.926497	BOB	-0.08592685
-3.625467	BODY	-0.08153189
-3.926497	BOGOR	-0.08592685
-3.926497	BONJOL	-0.06785927
-3.926497	BOOK	-0.06785927
-3.926497	BOOST	-0.08536059
-3.926497	BOOSTING	-0.05644839
-3.926497	BORDERED	-0.08303636
-3.926497	BORDERS	-0.08572102
-3.926497	BORN	-0.07876883
-3.926497	BORNE	-0.08592685
-3.625467	BORNEO	-0.08577248
-3.625467	BORNEO,	-0.05363133
-3.926497	BOTANICAL	-0.08592685
-3.227527	BOTH	-0.0894334
-3.926497	BOTH)	-0.06785927
-3.926497	BOUNDARIES	-0.08525755
-3.625467	BOUNDARY	-0.08412254
-3.926497	BREAK	-0.08334697
-3.926497	BREAKDOWN	-0.08173972
-3.926497	BRIEF	-0.08587539
-3.449376	BRITISH	-0.08561807
-3.625467	BRITISH,	-0.05639333
-3.926497	BROADER	-0.08582394
-3.926497	BROUGHT	-0.08592685
-3.926497	BRUNEI),	-0.08479359
-3.926497	BUDDHISM	-0.06785927
-3.625467	BUDDHISM,	-0.07366592
-3.625467	BUDDHIST	-0.06769834
-3.926497	BUDGET	-0.08592685
-3.926497	BUILD	-0.08541209
-3.926497	BUILDING	-0.07855958
-3.625467	BUILDINGS	-0.06495355
-3.449376	BUILT	-0.08530908
-3.926497	BUREAU	-0.08592685
-3.926497	BURNED	-0.08577248
-3.926497	BUSH,	-0.05644839
-3.926497	BUSINESS	-0.08592685
-3.926497	BUSINESS,	-0.08592685
-2.584074	BUT	-0.05278268
-3.625467	BUT,	-0.08355392
-2.170622	BY	-0.2724215
-3.926497	C	-0.07414193
-3.625467	C+E	-0.08541209
-3.926497	C->E	-0.08572102
-3.148345	C-E	-0.1110974
-3.926497	C-ENTITY	-0.07488133
-3.449376	C@	-0.08572102
-3.926497	C@"	-0.08587539
-3.081399	C_@	-0.524725
-3.324437	C_@@	-0.1273826
-3.926497	C_@@@@	-0.08561806
-3.081399	C_@@@@@	-0.4402441
-3.926497	C_@@@@@)	-0.08592685
-3.926497	CALIFORNIA	-0.07414193
-3.625467	CALL	-0.1447691
-3.324437	CALLED	-0.09798186
-3.625467	CAME	-0.07803602
-3.926497	CAMPAIGN	-0.07876883
-2.750406	CAN	-0.4788478
-3.926497	CAN'T	-0.08582394
-3.926497	CANDIDATE	-0.08515449
-3.926497	CANDIDATES,	-0.08303636
-3.926497	CANONICAL	-0.08582394
-3.324437	CAPITAL	-0.1093491
-3.926497	CAPITALIZE	-0.0854636
-3.625467	CAPTURED	-0.08438075
-3.926497	CARDINALS	-0.08592685
-3.926497	CARE	-0.0854636
-3.926497	CAREFUL,	-0.08525755
-3.926497	CASE	-0.07292445
-3.926497	CASE)	-0.08587539
-3.926497	CASES,	-0.08572102
-3.926497	CASES?).	-0.08401921
-3.926497	CATHOLIC,	-0.07414193
-3.926497	CAUSED	-0.08303636
-3.625467	CD(@)	-0.1736813
-3.926497	CD(@),CD(BILLION)	-0.08551509
-3.625467	CD(BILLION)	-0.1736813
-3.926497	CD(BILLION))	-0.08536059
-3.926497	CELEBES	-0.06785927
-3.926497	CELEBES,	-0.05644839
-3.625467	CENSUS,	-0.08427748
-2.972254	CENTRAL	-0.1198857
-3.324437	CENTURY	-0.06710781
-3.625467	CENTURY,	-0.0562281
-3.324437	CERTAIN	-0.08499986
-3.926497	CHALKING	-0.08566955
-3.926497	CHAMBER	-0.07876883
-3.926497	CHARACTER-BASED	-0.08592685
-3.926497	CHARACTERIZED	-0.08582394
-3.926497	CHARISMATIC),	-0.08572102
-3.449376	CHART	-0.07530329
-3.926497	CHART,	-0.07855958
-3.926497	CHARTERED	-0.08592685
-3.926497	CHECK	-0.08525755
-3.926497	CHECKING	-0.08033499
-3.926497	CHIEF	-0.07292445
-3.926497	CHILD	-0.08499985
-3.926497	CHILDREN,	-0.08592685
-3.926497	CHINA	-0.08587539
-3.926497	CHINA,	-0.08592685
-2.449376	CHINESE	-0.08301695
-3.926497	CHINESE-ENTITY/ENGLISH-SENTENCE	-0.08592685
-3.926497	CHINESE-OWNED	-0.08587539
-3.926497	CHINESE-RB-TRANSLATIONS	-0.08592685
-3.926497	CHINESE-SYNTACTIC	-0.08582394
-3.081399	CHOOSE	-0.07100482
-3.926497	CHOOSES,	-0.08561806
-3.926497	CHOOSING	-0.0854636
-3.926497	CHOSE	-0.08582394
-3.625467	CHRISTIAN	-0.08432912
-3.926497	CHRISTIANITY	-0.07414193
-3.926497	CHURCHES	-0.07414193
-3.926497	CIA	-0.08592685
-3.625467	CITIES	-0.07047921
-3.926497	CITIES,	-0.08499985
-3.625467	CITIZENS	-0.15618
-3.926497	CITIZENS,	-0.08556658
-3.625467	CITY	-0.1612452
-3.926497	CITY,	-0.08401921
-3.926497	CIVILIANS	-0.06785927
-3.926497	CLAIMS	-0.07876883
-3.227527	CLASS	-0.04569012
-3.926497	CLASS-BASED	-0.08592685
-3.926497	CLASSIFICATION	-0.08592685
-3.926497	CLASSIFIER	-0.08412254
-3.926497	CLASSIFIER/RECOGNIZER	-0.07414193
-3.926497	CLASSIFY	-0.08246631
-3.926497	CLEARLY	-0.08592685
-3.926497	CLIMATE	-0.06785927
-3.625467	CLOSE	-0.07451178
-3.926497	CLOSE,	-0.08566955
-3.926497	CLOSELY	-0.08587539
-3.926497	CLOTH.	-0.06785927
-3.926497	CLUSTERING	-0.07292445
-3.926497	CO-OPERATED	-0.08334697
-3.449376	CODE	-0.05606283
-3.926497	COFFEE,	-0.08582394
-3.926497	COLLABORATE	-0.08334697
-3.926497	COLLABORATED	-0.08334697
-3.926497	COLLAPSE	-0.07292445
-3.926497	COLLEAGUES	-0.08592685
-3.926497	COLLECTING	-0.05644839
-3.926497	COLLINS	-0.08556658
-3.926497	COLLINS-)STANDARD	-0.08520602
-3.926497	COLLUSION,	-0.07414193
-3.625467	COLONIAL	-0.08520602
-3.625467	COLONIES	-0.05424048
-3.926497	COLONIZED	-0.08303636
-3.926497	COLONY	-0.07292445
-3.926497	COLONY,	-0.07414193
-3.926497	COLONY.	-0.06785927
-3.926497	COMBINATION	-0.07292445
-3.926497	COMBINE	-0.08592685
-3.926497	COME	-0.0854636
-3.926497	COMING	-0.06785927
-3.926497	COMMANDER	-0.08592685
-3.926497	COMMANDER-IN-CHIEF	-0.07292445
-3.926497	COMMISSION	-0.08582394
-3.926497	COMMITTEE	-0.07488133
-3.227527	COMMON	-0.08530908
-3.926497	COMMONLY	-0.08577248
-3.926497	COMMUNAL	-0.08582394
-3.625467	COMMUNIST	-0.08587538
-3.926497	COMMUNITIES	-0.06785927
-3.227527	COMMUNITY	-0.09653613
-3.926497	COMMUNITY,	-0.08592685
-3.926497	COMPANY	-0.08592685
-3.625467	COMPETE	-0.08587538
-3.625467	COMPLETE	-0.08303635
-3.926497	COMPLETELY	-0.08592685
-3.625467	COMPLEX	-0.06748369
-3.625467	COMPLEXITY	-0.07408906
-3.926497	COMPLICATED	-0.08484516
-3.926497	COMPONENT	-0.08592685
-3.625467	COMPRISING	-0.1447691
-3.926497	CONCEIVED	-0.0854636
-3.926497	CONCENTRATED	-0.08334697
-3.926497	CONDEMNATION	-0.08033499
-3.926497	CONDITION	-0.08319169
-3.926497	CONDITIONED	-0.08319169
-3.926497	CONFERENCE	-0.06785927
-3.926497	CONFIDENCE"	-0.08525755
-3.926497	CONFIRM	-0.08401921
-3.449376	CONFLICT	-0.08303636
-3.926497	CONFLICTING	-0.08592685
-3.625467	CONFLICTS	-0.08427748
-3.926497	CONFLICTS,	-0.08572102
-3.926497	CONFRONTATION	-0.08536059
-3.926497	CONFUSINGLY	-0.08572102
-3.926497	CONGRESS	-0.08592685
-3.324437	CONSECUTIVE	-0.08561807
-3.926497	CONSIDER	-0.05644839
-3.625467	CONSIDERED	-0.08587538
-3.926497	CONSIDERS	-0.07855958
-3.625467	CONSISTING	-0.1612452
-3.926497	CONSISTS	-0.07292445
-3.148345	CONSTITUENT	-0.07154404
-3.926497	CONSTITUENT).	-0.08484516
-3.449376	CONSTITUENT,	-0.1408613
-3.926497	CONSTITUENT-FORCING	-0.08587539
-3.926497	CONSTITUENT?	-0.08582394
-3.148345	CONSTITUENTS	-0.05661353
-3.926497	CONSTITUENTS):	-0.06785927
-3.625467	CONSTITUENTS,	-0.08360564
-3.926497	CONSTITUTE	-0.08572102
-3.926497	CONSTITUTING	-0.07855958
-3.926497	CONSTITUTIONAL	-0.08592685
-3.926497	CONSTRAIN	-0.05644839
-3.926497	CONSTRAINS	-0.05644839
-3.625467	CONSULTATIVE	-0.08587538
-3.926497	CONTAIN	-0.08592685
-3.449376	CONTEXT	-0.07472301
-3.926497	CONTEXT)	-0.06785927
-3.926497	CONTEXT,	-0.08556658
-3.926497	CONTEXT.	-0.06785927
-3.926497	CONTEXT/DOMAIN	-0.06785927
-3.926497	CONTEXTS	-0.08246631
-3.926497	CONTROL	-0.06785927
-3.926497	CONVENTION	-0.07292445
-3.926497	COOPERATION	-0.07414193
-3.926497	COPPER	-0.07414193
-3.625467	CORPORA	-0.08225883
-3.227527	CORPUS	-0.08655947
-3.926497	CORPUS)	-0.07488133
-3.926497	CORPUS),	-0.07414193
-3.227527	CORPUS,	-0.1014398
-3.926497	CORPUS.	-0.06785927
-3.926497	CORRECT	-0.08582394
-3.926497	CORRESPOND	-0.07488133
-3.926497	CORRESPONDING	-0.07488133
-3.449376	CORRUPTION	-0.1308783
-3.926497	CORRUPTION,	-0.08592685
-3.081399	COST	-0.03082088
-3.926497	COST).	-0.06785927
-3.926497	COST,	-0.07414193
-3.926497	COST?	-0.06785927
-3.926497	COSTING	-0.08592685
-3.625467	COSTS	-0.08028287
-2.584074	COULD	-0.14455
-3.926497	COULD,	-0.08566955
-3.324437	COUNCIL	-0.08839858
-3.926497	COUNCIL,	-0.08587539
-3.926497	COUNTER	-0.05644839
-3.023407	COUNTRY	-0.06175642
-3.625467	COUNTRY'S	-0.08546359
-3.926497	COUNTRY,	-0.08246631
-3.926497	COUNTRY.	-0.06785927
-3.227527	COUNTS	-0.09669867
-3.926497	COUP	-0.08587539
-3.926497	COURSE	-0.05644839
-3.449376	COURSE,	-0.0851545
-3.926497	COURT	-0.08592685
-3.926497	COVER	-0.08499985
-3.926497	CRACKING	-0.08577248
-3.625467	CREATE	-0.08427748
-3.926497	CREATED	-0.08592685
-3.926497	CREATING	-0.05644839
-3.926497	CREATION	-0.07292445
-3.926497	CREDITORS	-0.08572102
-3.926497	CRISIS	-0.08324346
-3.926497	CRISIS,	-0.08582394
-3.926497	CRITICIZED	-0.08525755
-3.926497	CROWN.	-0.06785927
-3.449376	CRUDE	-0.1425117
-3.926497	CSPAN	-0.08592685
-3.625467	CSPAN=(@,@)	-0.1741961
-3.926497	CSPANS.	-0.06785927
-3.926497	CSTRING	-0.07488133
-3.449376	CULTIVATION	-0.1415841
-3.926497	CULTURAL	-0.08582394
-3.926497	CULTURE	-0.07414193
-3.926497	CULTURES	-0.06785927
-3.625467	CURRENT	-0.08469041
-3.926497	CURRENT).	-0.08319169
-3.625467	CURRENTLY	-0.08474199
-3.926497	CUT	-0.08582394
-3.926497	CUTTING	-0.08582394
-3.625467	DAERAH	-0.08438075
-3.926497	DAERAH)	-0.08246631
-3.926497	DANCES,	-0.08033499
-3.926497	DATA	-0.07488133
-3.926497	DATA;	-0.08577248
-3.926497	DATE	-0.07292445
-3.926497	DATES	-0.08592685
-3.926497	DAUGHTER	-0.07292445
-3.926497	DAUGHTERS	-0.08324346
-3.625467	DAYAK	-0.07387754
-3.625467	DE	-0.1741961
-3.926497	DEAD	-0.08587539
-3.926497	DEALING	-0.08334697
-3.926497	DEATHS	-0.08592685
-3.926497	DEC	-0.08432913
-3.324437	DECEMBER	-0.4926684
-3.926497	DECIDE	-0.08319169
-3.926497	DECIDED	-0.07488133
-3.926497	DECISION),	-0.08577248
-3.926497	DECISIONS	-0.08572102
-3.625467	DECLARE	-0.08525755
-3.324437	DECLARED	-0.09759595
-3.926497	DECLINED	-0.08592685
-2.972254	DECODER	-0.1971547
-3.926497	DECODER,	-0.08592685
-3.926497	DECODER/SBLM-TRANSFORM	-0.08587539
-3.926497	DECODER/TRANSLATION	-0.08525755
-3.926497	DECODER/WHOEVER	-0.08484516
-3.324437	DECODING	-0.07871427
-3.926497	DECODING).	-0.08592685
-3.324437	DECODING,	-0.1148435
-3.926497	DECREASED	-0.08582394
-3.926497	DECREASING	-0.08587539
-3.926497	DEEP	-0.08587539
-3.926497	DEFAULT	-0.08582394
-3.926497	DEFAULT,	-0.08443239
-3.926497	DEFEAT	-0.07292445
-3.926497	DEFER	-0.08561806
-3.926497	DEFICIT	-0.07488133
-3.926497	DEFINE	-0.08566955
-3.926497	DEFINITELY	-0.08582394
-3.926497	DEGREE	-0.08541209
-3.926497	DEMOCRACY	-0.08360565
-3.926497	DEMOCRATIC	-0.08572102
-3.625467	DEMOGRAPHICS	-0.05424048
-3.926497	DEMONSTRATIONS	-0.07414193
-3.449376	DENSELY	-0.1426146
-3.926497	DEPENDENCIES	-0.08360565
-3.449376	DEPENDING	-0.5682377
-3.926497	DEPUTY	-0.08592685
-3.926497	DERIVATION	-0.08577248
-3.926497	DESCRIBED	-0.08592685
-3.926497	DESCRIBED,	-0.08551509
-3.926497	DESIGNER	-0.07414193
-3.926497	DESIRABILITY	-0.08592685
-3.449376	DESPITE	-0.1421512
-3.926497	DESTROYED	-0.084742
-3.926497	DETERMINE	-0.08587539
-3.926497	DETERMINISTIC	-0.08592685
-3.625467	DETERMINISTIC,	-0.08546359
-3.926497	DEVASTATED	-0.08561806
-3.926497	DEVELOP	-0.08587539
-3.926497	DEVELOPMENT.	-0.06785927
-3.926497	DEVELOPMENTS	-0.06785927
-3.324437	DEWAN	-0.4941117
-3.926497	DICTATOR	-0.08566955
-3.926497	DIED	-0.08577248
-3.926497	DIFFER	-0.08592685
-3.926497	DIFFERENCES	-0.08525755
-2.847316	DIFFERENT	-0.08391587
-3.449376	DIFFICULT	-0.07440615
-3.926497	DIFFICULTIES	-0.06785927
-3.926497	DIPONEGORO	-0.08412254
-3.926497	DIRECT	-0.08587539
-3.926497	DIRECTLY-ELECTED	-0.08033499
-3.926497	DIRGANTARA	-0.08592685
-3.926497	DISADVANTAGE:	-0.08561806
-3.926497	DISARMED	-0.08303636
-3.926497	DISCONTENT	-0.08592685
-3.625467	DISCOVERED	-0.1741961
-3.926497	DISCOVERER	-0.06785927
-3.926497	DISCUSSED	-0.08246631
-3.926497	DISPLAYING	-0.08551509
-3.926497	DISSOLVED	-0.07876883
-3.926497	DISTANCE	-0.08592685
-3.926497	DISTINCT	-0.08577248
-3.926497	DISTINCTION	-0.08324346
-3.926497	DISTINCTIONS	-0.08324346
-3.625467	DIVERSE	-0.08546359
-3.926497	DIVIDE	-0.05644839
-3.625467	DIVIDED	-0.1737843
-3.926497	DIVIDES	-0.08592685
-3.926497	DIVISIONS	-0.06785927
-3.081399	DO	-0.08282916
-3.926497	DO)	-0.06785927
-3.926497	DOES	-0.08319169
-3.926497	DOES,	-0.08484516
-3.625467	DOESN'T	-0.08587538
-3.324437	DOMESTIC	-0.08556659
-3.625467	DOMINANT	-0.08572101
-3.926497	DOMINATE	-0.05644839
-3.926497	DOMINATING	-0.05644839
-3.081399	DON'T	-0.08199936
-3.926497	DONE	-0.08582394
-3.324437	DOWN	-0.08121999
-3.926497	DOWNFALL	-0.07292445
-3.926497	DPD	-0.08246631
-3.625467	DR	-0.1740932
-3.926497	DRAWING	-0.07488133
-3.449376	DUE	-0.5599273
-3.926497	DUMA	-0.08582394
-3.926497	DUR)	-0.08246631
-3.148345	DURING	-0.2745843
-2.750406	DUTCH	-0.1230924
-3.926497	DWELLINGS	-0.08499985
-3.926497	DWIPA	-0.08556658
-3.926497	E	-0.08592685
-3.926497	E)	-0.07414193
-3.926497	E-ENTITY	-0.06785927
-3.926497	E-SUBTREES	-0.08324346
-3.023407	E.G	-0.9361235
-3.926497	E.G.:	-0.06785927
-3.148345	EACH	-0.08339871
-3.926497	EARLIER)	-0.08484516
-3.625467	EARLIEST	-0.08577248
-3.625467	EARLY	-0.1740417
-3.926497	EARTH'S	-0.08587539
-3.926497	EARTH,	-0.08561806
-3.449376	EARTHQUAKE	-0.05545624
-3.926497	EARTHQUAKES	-0.07414193
-3.926497	EASIEST	-0.08577248
-2.464099	EAST	-0.3424475
-3.926497	EASTERN	-0.08520602
-3.926497	EASY	-0.07488133
-3.926497	ECOLOGICAL	-0.08587539
-3.324437	ECONOMIC	-0.08577249
-3.227527	ECONOMY	-0.09864449
-3.926497	EDGES	-0.07292445
-3.926497	EDIT	-0.08592685
-3.926497	EDUCATION	-0.07414193
-3.926497	EFFECT	-0.08319169
-3.926497	EFFECT.	-0.06785927
-3.926497	EFFECTIVELY,	-0.08324346
-3.926497	EFFORT	-0.07488133
-3.625467	ELECTED	-0.07997005
-3.227527	ELECTION	-0.08500405
-3.926497	ELECTION,	-0.08530907
-3.625467	ELECTIONS	-0.0786119
-3.926497	ELITES	-0.08246631
-3.926497	EMERGING	-0.08592685
-3.926497	EMPTY	-0.08587539
-3.926497	ENCOURAGED	-0.08587539
-2.750406	ENGLISH	-0.09138424
-3.926497	ENGLISH)	-0.06785927
-3.926497	ENGLISH,	-0.08376078
-3.926497	ENGLISH-CHARACTER-EDIT-DISTANCE	-0.08592685
-3.926497	ENGLISH-STANDARD	-0.08592685
-3.926497	ENGLISH-WORD,	-0.07414193
-3.926497	ENGLISH?	-0.06785927
-3.926497	ENRICHED	-0.08592685
-3.926497	ENRICO	-0.08592685
-3.926497	ENSURE	-0.08324346
-3.926497	ENTERED	-0.08246631
-3.926497	ENTERPRISE	-0.08592685
-3.926497	ENTIRELY	-0.08422585
-2.972254	ENTITIES	-0.1069682
-3.926497	ENTITIES).	-0.06785927
-3.625467	ENTITIES,	-0.08510295
-2.722377	ENTITY	-0.2403345
-3.926497	ENTITY,	-0.08566955
-3.926497	ENTITY-ETREES	-0.08376078
-3.926497	ENTITY-RECOGNITION	-0.08587539
-3.926497	ENTITY-REGION	-0.08577248
-3.926497	ENTITY-SEQUENCE?	-0.06785927
-3.926497	ENTITY-TRANSLATIONS	-0.08592685
-3.926497	ENTITY-TYPE	-0.08592685
-3.926497	ENTRIES	-0.08360565
-3.926497	EQUATOR,	-0.08587539
-3.926497	EQUIPMENT	-0.06785927
-3.926497	EQUIVALENT	-0.08582394
-3.926497	ER,	-0.05644839
-3.926497	ERA	-0.06785927
-3.625467	ERECTUS	-0.08469041
-3.926497	ERRONEOUS	-0.08592685
-3.926497	ERRORS	-0.07414193
-3.449376	ESPAN	-0.06726895
-3.926497	ESPAN,	-0.08592685
-3.926497	ESPECIALLY	-0.08412254
-3.926497	ESSENTIALLY,	-0.05644839
-3.926497	ESTABLISH	-0.07855958
-3.926497	ESTABLISHED	-0.08319169
-3.926497	ESTEEMED	-0.08592685
-3.449376	ESTIMATE	-0.05363135
-3.625467	ESTIMATED	-0.07297745
-3.926497	ESTIMATES	-0.08360565
-3.926497	ESTRING	-0.08499985
-3.926497	ESTRINGS	-0.08592685
-3.926497	ETHICAL	-0.08592685
-2.885104	ETHNIC	-0.09807461
-3.926497	ETHNICITY	-0.07414193
-3.081399	ETREE	-0.07745939
-3.926497	ETREE,	-0.08592685
-3.625467	ETREE/CSTRING	-0.1740417
-3.449376	ETREES	-0.07234098
-3.926497	ETREES,	-0.08577248
-3.926497	ETREES/ALIGNMENTS	-0.08592685
-3.926497	EURASIAN	-0.08572102
-3.926497	EURASIAN,	-0.07414193
-3.926497	EURASIANS	-0.08587539
-3.926497	EUROPE	-0.08443239
-3.926497	EUROPEANS	-0.08592685
-3.926497	EUROPEANS,	-0.08592685
-3.926497	EVALUATES	-0.05644839
-3.449376	EVEN	-0.07955263
-3.625467	EVENLY	-0.0671078
-3.449376	EVENTS	-0.06753738
-3.926497	EVENTS)	-0.06785927
-3.926497	EVENTUAL	-0.08592685
-3.625467	EVENTUALLY	-0.05639333
-3.227527	EVERY	-0.08365738
-3.926497	EVERYTHING	-0.08510295
-3.926497	EXACERBATED	-0.08541209
-3.625467	EXACT	-0.08582393
-3.625467	EXACTLY	-0.05578719
-3.625467	EXAMPLE	-0.07271236
-3.324437	EXAMPLE,	-0.08469042
-3.926497	EXAMPLE.	-0.06785927
-3.926497	EXAMPLE:	-0.06785927
-3.926497	EXAMPLES	-0.07292445
-3.625467	EXCEPT	-0.069091
-3.926497	EXCHANGED	-0.08033499
-3.926497	EXIST	-0.08319169
-3.449376	EXISTING	-0.08546361
-3.625467	EXPANDED	-0.08484516
-3.926497	EXPECT	-0.08484516
-3.926497	EXPECTING	-0.07855958
-3.926497	EXPERIENCED	-0.08303636
-3.625467	EXPLICIT	-0.08541209
-3.926497	EXPLICITLY	-0.08587539
-3.625467	EXPORTER	-0.1612452
-3.926497	EXPOSE	-0.08577248
-3.926497	EXPRESSED	-0.08592685
-3.926497	EXPRESSIONS	-0.0854636
-3.926497	EXTENSIVE	-0.08582394
-3.926497	EXTERNAL	-0.08582394
-3.625467	EXTRACTING	-0.0560077
-3.926497	EXTREME,	-0.08536059
-3.926497	FACILITATED	-0.08303636
-3.926497	FACTBOOK	-0.08592685
-3.625467	FACTO	-0.08541209
-3.625467	FAIR	-0.163202
-3.926497	FAITHS	-0.07292445
-3.926497	FALLS	-0.08592685
-3.926497	FALSE)	-0.08592685
-3.926497	FALTERING	-0.08572102
-3.926497	FAMILIAR	-0.08334697
-3.926497	FAMILIES	-0.08587539
-3.926497	FAMILY	-0.08587539
-3.324437	FAMOUS	-0.07965703
-3.625467	FAR	-0.08241445
-3.926497	FATALITIES	-0.08582394
-3.926497	FAUNA	-0.08592685
-3.926497	FEARS	-0.08587539
-3.926497	FEATURE-BASED	-0.08592685
-3.926497	FEATURES,	-0.07414193
-3.625467	FEDERATION	-0.07281841
-3.449376	FEW	-0.0847936
-3.926497	FIELDS	-0.07414193
-3.926497	FIFTH	-0.08577248
-3.926497	FIGHTING	-0.08536059
-3.926497	FIGURE	-0.0854636
-3.926497	FILES	-0.08572102
-3.926497	FINALLY	-0.08592685
-3.625467	FINANCIAL	-0.08582393
-3.324437	FIND	-0.0851545
-3.926497	FINE	-0.07488133
-3.926497	FINER	-0.08520602
-3.023407	FIRST	-0.1016219
-3.926497	FIVE-PRONG	-0.08592685
-3.625467	FIVE-YEAR	-0.08587538
-3.926497	FLEET	-0.07414193
-3.926497	FLEXIBLE	-0.08587539
-3.926497	FLORA	-0.07414193
-3.625467	FLORES	-0.1719264
-3.625467	FLORESIENSIS	-0.06748369
-3.926497	FOLLOW	-0.07855958
-3.081399	FOLLOWING	-0.4216345
-1.88907	FOR	-0.1495744
-3.926497	FOR)	-0.08484516
-3.449376	FORCE	-0.07435332
-3.449376	FORCED	-0.1315651
-3.625467	FORCES	-0.07350714
-3.449376	FORCING	-0.07709203
-2.972254	FOREIGN	-0.1029783
-3.926497	FORESTS	-0.08246631
-3.625467	FORM	-0.1612452
-3.926497	FORMATIONS	-0.07876883
-3.926497	FORMED	-0.08319169
-3.449376	FORMER	-0.08241446
-3.926497	FORMERLY	-0.08587539
-3.926497	FORMS	-0.07876883
-3.625467	FOUND	-0.07756427
-3.926497	FOUNDING	-0.08577248
-3.926497	FOUR	-0.08592685
-3.926497	FOURTH	-0.084742
-3.926497	FRACTIONALLY	-0.08592685
-3.926497	FRAGMENT	-0.05644839
-3.926497	FRAGMENTED,	-0.08561806
-3.926497	FRAMEWORK	-0.07292445
-3.926497	FRANCA	-0.08033499
-3.625467	FREE	-0.07456459
-3.926497	FREE,	-0.08592685
-3.926497	FREED	-0.0854636
-3.625467	FREEDOM	-0.07287143
-3.926497	FREELY	-0.08334697
-3.926497	FREQUENCY	-0.07414193
-3.926497	FREQUENT	-0.08592685
-3.926497	FREQUENTLY	-0.08592685
-3.926497	FRIENDS	-0.07414193
-2.370194	FROM	-0.3055287
-3.926497	FRUIT	-0.07876883
-3.926497	FRUSTRATION	-0.08566955
-3.926497	FU	-0.08592685
-3.324437	FUEL	-0.1276401
-3.926497	FULL	-0.08592685
-3.926497	FUNCTIONS,	-0.08561806
-3.926497	FUND)	-0.07414193
-3.926497	FUNDAMENTALISM	-0.07414193
-3.926497	FUNDS,	-0.05644839
-3.625467	FURTHER	-0.08438075
-3.926497	FUTURE,	-0.08173972
-3.625467	FUZZY	-0.08587538
-3.625467	GAM	-0.08137596
-3.926497	GARDEN	-0.08360565
-3.625467	GAS,	-0.08566954
-3.926497	GEESE.	-0.06785927
-3.449376	GENERAL	-0.06726895
-3.926497	GENERALIZE	-0.08443239
-3.449376	GENERATE	-0.08556659
-3.926497	GENERATED	-0.08556658
-3.926497	GENERIC	-0.08592685
-3.926497	GEOGRAPHY	-0.07292445
-3.926497	GERAKAN	-0.08566955
-3.926497	GERMAN	-0.08587539
-3.926497	GERMANE	-0.07488133
-2.812553	GET	-0.1411702
-3.926497	GETS	-0.08582394
-3.926497	GETTING	-0.08556658
-3.324437	GHKM	-0.06191956
-3.625467	GIVE	-0.07803602
-3.023407	GIVEN	-0.05943273
-3.625467	GIVING	-0.05589746
-3.625467	GIZA	-0.1740932
-3.926497	GLIB:	-0.08536059
-3.926497	GLOBAL	-0.08592685
-3.625467	GOING	-0.07456459
-3.926497	GOLD	-0.06785927
-3.926497	GOLD-STANDARD	-0.08515449
-3.449376	GOOD	-0.06818093
-3.926497	GORONTALO,	-0.08541209
-3.926497	GOVERNANCE	-0.07414193
-3.926497	GOVERNED	-0.08303636
-2.647743	GOVERNMENT	-0.1586518
-3.449376	GOVERNOR	-0.06705408
-3.625467	GRADUALLY	-0.08582393
-3.926497	GRAMMAR	-0.08592685
-3.926497	GRAMMAR'S	-0.08592685
-3.926497	GRAPH").	-0.08592685
-3.926497	GREATLY	-0.07876883
-3.926497	GREEDILY	-0.08592685
-3.926497	GREEK:	-0.08592685
-3.625467	GREEN	-0.1735783
-3.926497	GREENRULETEMPLATES	-0.08033499
-3.926497	GRIP	-0.08319169
-3.926497	GROSS	-0.08577248
-3.926497	GROUP	-0.08324346
-3.148345	GROUPS	-0.08162154
-3.625467	GROUPS.	-0.15618
-3.926497	GROWING	-0.08515449
-3.926497	GROWTH	-0.06785927
-3.926497	GUERRILLAS	-0.07414193
-3.227527	GUINEA	-0.06860945
-3.926497	GUINEA)	-0.07414193
-3.926497	GUINEA,	-0.084484
-3.926497	GUS	-0.08592685
-3.926497	GUTIERREZ,	-0.07855958
-3.926497	GUYS	-0.08566955
-3.081399	HABIBIE	-0.09547859
-3.926497	HABIBIE'S	-0.08592685
-2.885104	HAD	-0.1617953
-3.926497	HALF	-0.07292445
-3.926497	HAMENGKUBUWONO	-0.08592685
-3.926497	HAND	-0.07414193
-3.926497	HANDLING	-0.07488133
-3.926497	HAPPEN	-0.08033499
-3.926497	HARD	-0.08033499
-3.926497	HARD-TO-REACH	-0.08582394
-3.926497	HARDSHIPS,	-0.05644839
-3.926497	HARMONY	-0.08173972
-2.584074	HAS	-0.05064005
-3.625467	HATTA	-0.08225883
-2.382429	HAVE	-0.3506551
-3.926497	HAVING	-0.05644839
-3.227527	HE	-0.1151527
-2.926497	HEAD	-0.1956562
-3.926497	HEAD-PROPAGATION	-0.08587539
-3.926497	HEAD/TAG,	-0.07414193
-3.926497	HEADING	-0.08566955
-3.926497	HEALTH	-0.08577248
-3.926497	HEARD	-0.08033499
-3.926497	HEAVILY	-0.08592685
-3.926497	HEAVY	-0.08582394
-3.625467	HELD	-0.07577748
-3.926497	HELPED	-0.08592685
-3.926497	HELPFUL	-0.07876883
-3.926497	HERE?	-0.08453561
-3.625467	HEURISTIC	-0.08577248
-3.926497	HIDE	-0.08324346
-3.926497	HIGH	-0.0854636
-3.926497	HIGH-PRECISION/CONFIDENCE	-0.08463882
-3.625467	HIGHEST	-0.06775199
-3.926497	HIGHLIGHT	-0.08484516
-3.926497	HIGHLY	-0.08592685
-3.926497	HIMSELF	-0.07414193
-3.926497	HINDERING	-0.08551509
-3.023407	HINDU	-0.0939611
-3.926497	HINDU,	-0.08422585
-3.926497	HINDU-INFLUENCED	-0.08587539
-3.449376	HINDUISM	-0.1273746
-3.023407	HIS	-0.08520602
-3.926497	HISTORICAL	-0.08592685
-3.926497	HISTORY	-0.06785927
-3.926497	HIT	-0.08303636
-3.926497	HOLD	-0.07855958
-3.449376	HOME	-0.5599273
-3.926497	HOMELESS)	-0.06785927
-3.625467	HOMINID,	-0.1740417
-3.227527	HOMO	-0.1548821
-3.625467	HOOK	-0.1737328
-3.926497	HOPEFULLY	-0.08572102
-3.926497	HORRIFIC	-0.08587539
-3.926497	HOUSES,	-0.08587539
-3.227527	HOW	-0.1076114
-3.148345	HOWEVER,	-0.08179165
-3.324437	HUMAN	-0.4941117
-3.926497	HUNDRED	-0.08587539
-3.227527	HUNDREDS	-0.3149323
-3.926497	HYPHEN;	-0.08592685
-3.926497	HYPHENS)	-0.08324346
-3.324437	I	-0.1271766
-3.625467	I'D	-0.08577248
-3.324437	I'VE	-0.08412255
-3.926497	I.E	-0.06785927
-3.926497	ID	-0.08582394
-3.926497	IDEA	-0.06785927
-3.926497	IDENTICAL	-0.08592685
-3.926497	IDENTIFICATION	-0.07414193
-3.926497	IDENTIFICATION/SEGMENTATION	-0.07292445
-3.324437	IDENTIFIED	-0.123347
-3.324437	IDENTIFY	-0.1174858
-2.780369	IF	-0.1258079
-3.926497	IGNORES	-0.05644839
-3.625467	II,	-0.08329521
-3.926497	IKAT	-0.07414193
-3.926497	ILLITERACY,	-0.08561806
-3.926497	IMAM	-0.08592685
-3.926497	IMPACT	-0.07292445
-3.926497	IMPERIAL	-0.08572102
-3.625467	IMPLEMENTING	-0.08386417
-3.449376	IMPORTANT	-0.1370729
-3.926497	IMPORTANT,	-0.05644839
-3.625467	IMPORTER	-0.1612452
-3.926497	IMPOSING	-0.08556658
-3.926497	IMPRISONED	-0.08303636
-1.783482	IN	-0.22823
-3.449376	INCLUDE	-0.08582395
-3.926497	INCLUDED	-0.08592685
-3.449376	INCLUDING	-0.08572102
-3.926497	INCOME	-0.08525755
-3.926497	INCORRECT	-0.08587539
-3.926497	INCORRECTLY	-0.08551509
-3.926497	INCREASE	-0.08572102
-3.625467	INCREASED	-0.05633826
-3.926497	INCREASING	-0.08592685
-3.926497	INDEED	-0.08587539
-2.847316	INDEPENDENCE	-0.1441143
-3.926497	INDEPENDENCE,	-0.08592685
-3.227527	INDEPENDENT	-0.07010591
-3.926497	INDEPENDENT:	-0.06785927
-3.625467	INDIA	-0.08587538
-3.926497	INDIAN	-0.08592685
-3.926497	INDIC	-0.08561806
-3.926497	INDICATE	-0.08536059
-3.926497	INDICATING	-0.08592685
-3.227527	INDIES	-0.1358927
-3.926497	INDIRECT	-0.08587539
-3.926497	INDISPUTABLE	-0.08324346
-3.926497	INDO)	-0.08484516
-2.254399	INDONESIA	-0.2180651
-2.812553	INDONESIA'S	-0.108454
-3.926497	INDONESIA),	-0.08173972
-3.926497	INDONESIA).	-0.08484516
-3.324437	INDONESIA,	-0.1275371
-3.625467	INDONESIA.	-0.15618
-2.395018	INDONESIAN	-0.1682443
-3.625467	INDONESIAN)	-0.06978565
-3.081399	INDONESIANS	-0.07464238
-3.926497	INDONESIANS,	-0.08541209
-3.926497	INDUS	-0.08577248
-3.926497	INDUSTRY	-0.08592685
-3.926497	INFINITE)	-0.08587539
-3.227527	INFLUENCE	-0.08617114
-3.625467	INFLUENCED	-0.1713571
-3.449376	INFLUENCES	-0.1295545
-3.625467	INFLUENTIAL	-0.07871652
-3.625467	INFO	-0.08551508
-3.449376	INFORMATION	-0.08173972
-3.926497	INFREQUENT	-0.08520602
-3.625467	INHABITED	-0.1713571
-3.926497	INHABITED,	-0.08360565
-3.926497	INITIAL	-0.0854636
-3.926497	INITIALLY	-0.08484516
-3.926497	INITILAIZED	-0.08334697
-3.926497	INPUT	-0.08572102
-3.926497	INSERT	-0.08592685
-3.449376	INSIDE	-0.1423572
-3.926497	INSIDE-COSTS	-0.07292445
-3.926497	INSPIRATION	-0.06785927
-3.625467	INSTABILITY	-0.07223479
-3.926497	INSTANCE	-0.08246631
-3.625467	INSTEAD	-0.06527737
-3.625467	INSTEAD,	-0.05617301
-3.926497	INSTITUTED	-0.07855958
-3.926497	INSTRUMENT	-0.05644839
-3.625467	INTEGRATE	-0.08551508
-3.926497	INTEGRATED	-0.08577248
-3.926497	INTEGRATING	-0.08577248
-3.926497	INTEGRATION	-0.07292445
-3.926497	INTERACT	-0.07876883
-3.926497	INTERESTING	-0.08463882
-3.926497	INTERIOR	-0.08566955
-3.926497	INTERMARRIAGE	-0.08484516
-3.324437	INTERNAL	-0.08566955
-3.449376	INTERNATIONAL	-0.08582395
-3.926497	INTERNATIONALLY,	-0.08438076
-2.926497	INTO	-0.1768114
-3.926497	INTRODUCE	-0.08541209
-3.625467	INTRODUCED	-0.05268824
-3.926497	INVASION,	-0.08561806
-3.625467	INVESTMENT	-0.1670896
-3.926497	INVESTMENT,	-0.08499985
-3.926497	INVITED	-0.08556658
-3.926497	INVOLVE	-0.0854636
-3.926497	INVOLVING	-0.08587539
-3.926497	IR	-0.06785927
-3.449376	IRIAN	-0.08577249
-3.926497	IRRIGATION	-0.07876883
-2.012683	IS	-0.1790068
-3.625467	IS,	-0.08556657
-3.148345	ISLAM	-0.0526327
-3.926497	ISLAM,	-0.08499985
-3.449376	ISLAMIC	-0.08582395
-3.023407	ISLAND	-0.4986744
-3.625467	ISLAND,	-0.07356007
-2.750406	ISLANDS	-0.05173781
-3.926497	ISLANDS)	-0.08173972
-3.625467	ISLANDS,	-0.07260628
-3.449376	ISN'T	-0.07567216
-3.926497	ISOLATED	-0.08566955
-3.926497	ISSUE	-0.08033499
-3.926497	ISSUES	-0.08592685
-2.346713	IT	-0.150959
-3.148345	IT'S	-0.0750396
-3.926497	IT:	-0.06785927
-3.324437	ITEMS	-0.1243335
-3.926497	ITEMS,	-0.07414193
-2.750406	ITS	-0.08360564
-3.148345	JAKARTA	-0.1114698
-3.926497	JAKARTA*,	-0.08592685
-3.926497	JAKARTA,	-0.08587539
-3.926497	JAMBI,	-0.08541209
-3.227527	JAPAN	-0.07819317
-3.926497	JAPAN,	-0.05644839
-3.324437	JAPANESE	-0.08484517
-2.696048	JAVA	-0.2282288
-3.926497	JAVA"	-0.08592685
-3.227527	JAVA,	-0.116397
-3.926497	JAVA.	-0.06785927
-3.324437	JAVANESE	-0.4824812
-3.926497	JAVANESE,	-0.08592685
-3.926497	JAWA	-0.08592685
-3.625467	JAYA	-0.08561806
-3.926497	JAYA)	-0.08484516
-3.926497	JAYA).	-0.06785927
-3.926497	JOINTLY,	-0.08484516
-3.926497	JONATHANGRAEHL	-0.08484516
-3.926497	JONES	-0.08494829
-3.926497	JONMAY	-0.06785927
-3.926497	JULY	-0.08520602
-2.625467	JUST	-0.101141
-3.926497	JUSTIFIED,	-0.0854636
-3.926497	JUSUF	-0.08592685
-3.227527	KALIMANTAN	-0.3580114
-3.926497	KALIMANTAN),	-0.08556658
-3.625467	KALIMANTAN,	-0.08546359
-3.324437	KEEP	-0.04799796
-3.625467	KEEPING	-0.05628318
-3.625467	KH	-0.1741961
-3.449376	KILLED	-0.1230895
-3.926497	KIND	-0.07292445
-3.449376	KINGDOM	-0.1223352
-3.449376	KINGDOMS	-0.06769836
-3.625467	KNOW	-0.08458722
-3.227527	KNOWN	-0.3244742
-3.926497	KNOWN,	-0.07414193
-3.926497	KRAKATAU	-0.08592685
-3.625467	KULIT	-0.08241445
-3.926497	LABEL	-0.08510295
-3.926497	LABELS	-0.08592685
-3.926497	LABORERS	-0.08499985
-3.926497	LACK	-0.07292445
-3.926497	LAKSONO)	-0.08443239
-3.926497	LAMPUNG,	-0.08587539
-3.023407	LANGUAGE	-0.04833466
-3.926497	LANGUAGE,	-0.08422585
-3.926497	LANGUAGES	-0.08592685
-3.926497	LANGUAGES/ETHNIC	-0.08566955
-3.449376	LARGE	-0.08582395
-3.625467	LARGE,	-0.08556657
-3.926497	LARGELY	-0.08587539
-3.926497	LARGER	-0.08582394
-3.449376	LARGEST	-0.07866423
-3.926497	LAST	-0.08592685
-3.926497	LASTED	-0.08412254
-3.926497	LATE	-0.08587539
-3.227527	LATER	-0.06462951
-3.926497	LATTER'S	-0.08592685
-3.148345	LATTICE	-0.2378529
-3.926497	LATTICE:	-0.08592685
-3.926497	LAW)	-0.07876883
-3.449376	LCA	-0.06028544
-3.926497	LCA,	-0.08556658
-3.625467	LEAD	-0.163202
-3.148345	LEADER	-0.2639936
-3.926497	LEADING	-0.07488133
-3.148345	LEARN	-0.08153189
-3.926497	LEARNED	-0.08303636
-3.023407	LEAST	-0.08184359
-3.926497	LEAVE	-0.05644839
-3.926497	LEAVES	-0.07414193
-3.926497	LEAVING	-0.0854636
-3.449376	LED	-0.1287051
-3.625467	LEFT	-0.05479351
-3.926497	LEFTWARD	-0.08541209
-3.926497	LEGACY,	-0.08592685
-3.926497	LEGAL	-0.08587539
-3.625467	LEGISLATIVE	-0.08582393
-3.926497	LEGISLATURE.	-0.06785927
-3.449376	LESS	-0.08556659
-3.227527	LET	-0.08794354
-3.926497	LET'S	-0.08453561
-3.926497	LETHALITY	-0.07876883
-3.926497	LEVEL,	-0.08484516
-3.227527	LEXICAL	-0.3101438
-3.625467	LHS	-0.08293276
-3.926497	LI	-0.08592685
-3.926497	LIBERAL	-0.08587539
-3.926497	LIBRARY	-0.07292445
-3.926497	LIEUTENANT	-0.08582394
-3.926497	LIFE	-0.06785927
-3.926497	LIFESTYLES	-0.07414193
-3.148345	LIKE	-0.07176861
-3.625467	LIKELY	-0.08587538
-3.926497	LIKELY)	-0.06785927
-3.926497	LIMITED	-0.08561806
-3.625467	LINE	-0.0810119
-3.926497	LINGUA	-0.08592685
-3.625467	LINGUISTIC	-0.07393043
-3.926497	LINGUISTICALLY	-0.08592685
-3.926497	LINKED	-0.07488133
-3.324437	LIST	-0.4812637
-3.625467	LISTS	-0.1612452
-3.625467	LITERAL	-0.08365736
-3.926497	LIVES	-0.06785927
-3.926497	LIVES),	-0.08582394
-3.625467	LIVING	-0.06673157
-3.148345	LM	-0.1118725
-3.926497	LM-COMPETITIVE	-0.08334697
-3.926497	LOBBYING,	-0.08572102
-3.449376	LOCAL	-0.08530908
-3.625467	LOCATED	-0.07803602
-3.625467	LOCATION	-0.08308813
-3.926497	LOMBOK,	-0.07414193
-3.926497	LONG-RUNNING	-0.08582394
-3.449376	LONGER	-0.1391528
-3.926497	LOOK	-0.08499985
-3.625467	LOOKING	-0.07934374
-3.926497	LOSS	-0.07292445
-3.926497	LOST	-0.05644839
-3.926497	LOW,	-0.08592685
-3.926497	M	-0.08443239
-3.625467	MADE	-0.08298455
-3.625467	MADURESE	-0.08510295
-3.926497	MADURESE,	-0.07414193
-3.227527	MAIN	-0.3101438
-3.449376	MAINLY	-0.08582395
-3.926497	MAINTAIN	-0.07855958
-3.926497	MAJELIS	-0.08587539
-3.023407	MAJOR	-0.08427749
-3.926497	MAKASSAR,	-0.08556658
-3.148345	MAKE	-0.07397129
-3.926497	MAKES	-0.08587539
-3.625467	MAKING	-0.1718746
-3.926497	MALACCA.	-0.06785927
-3.926497	MALAY	-0.08587539
-3.926497	MALAY),	-0.08592685
-3.926497	MALAY,	-0.08556658
-3.227527	MALAYSIA	-0.08550461
-3.926497	MALAYSIA,	-0.07414193
-3.926497	MALUKU	-0.08592685
-3.625467	MALUKU,	-0.08577248
-3.926497	MAN	-0.08484516
-3.926497	MANDATED	-0.07855958
-3.926497	MANDATORY.	-0.06785927
-3.926497	MANUALLY	-0.08592685
-2.926497	MANY	-0.09531562
-3.926497	MANY->ONE	-0.08592685
-3.625467	MAP	-0.1612452
-3.926497	MAPPING	-0.08412254
-3.625467	MARCH	-0.1735267
-3.926497	MARK	-0.08541209
-3.625467	MARKED	-0.08189552
-3.926497	MARKEDLY	-0.08525755
-3.926497	MARLBOROUGH".	-0.06785927
-3.926497	MARSHALL	-0.08582394
-3.926497	MARTIAL	-0.08587539
-3.926497	MASSACRED	-0.08572102
-3.625467	MASSIVE	-0.08561806
-3.926497	MATARAM,	-0.08551509
-3.926497	MATCHES	-0.08443239
-3.926497	MATCHES,	-0.08376078
-3.926497	MATCHING	-0.08556658
-3.926497	MATCHING.	-0.06785927
-3.926497	MATTER	-0.08033499
-3.625467	MATTERS	-0.0634392
-3.926497	MAXIMUM	-0.08592685
-2.885104	MAY	-0.2254272
-3.625467	MAYBE	-0.08365736
-3.926497	MAYOR),	-0.07414193
-3.926497	MEANING),	-0.0854636
-3.926497	MEANINGFUL	-0.08577248
-3.324437	MEANS	-0.08007436
-3.926497	MEANS,	-0.08592685
-3.926497	MEANT	-0.08324346
-3.926497	MEDAN,	-0.08592685
-3.926497	MEDIA,	-0.07414193
-3.324437	MEGAWATI	-0.4941117
-3.926497	MELANESIA	-0.06785927
-3.324437	MEMBER	-0.4812637
-3.081399	MEMBERS	-0.632152
-3.625467	MEMORIZE	-0.05512499
-3.926497	MENTION	-0.07292445
-3.926497	MENTIONED,	-0.07855958
-3.926497	MERDEKA	-0.08592685
-3.449376	METHOD	-0.08474201
-3.926497	METHODS	-0.07414193
-3.926497	METHODS),	-0.07414193
-3.926497	MIDDLE	-0.08592685
-3.926497	MIDDLEMEN	-0.07414193
-2.972254	MIGHT	-0.2141735
-3.926497	MIGRANTS	-0.07414193
-3.926497	MIGRATION	-0.08592685
-3.023407	MILITARY	-0.09311328
-3.625467	MILITIA	-0.06780563
-3.926497	MILITIA.	-0.06785927
-3.148345	MILLION	-0.08843157
-3.926497	MIND	-0.08401921
-3.449376	MINISTER	-0.07281843
-3.926497	MINISTERS,	-0.08572102
-3.926497	MINORITY	-0.08592685
-3.926497	ML	-0.08592685
-3.449376	MODEL	-0.07939598
-3.625467	MODEL)	-0.08474199
-3.926497	MODEL,	-0.08592685
-3.926497	MODELS	-0.07414193
-3.926497	MODERN	-0.08592685
-3.926497	MODIFICATION	-0.08566955
-3.926497	MODIFIED	-0.08592685
-3.625467	MODIFY	-0.1447691
-3.625467	MODIFYING	-0.1447691
-3.926497	MODTM	-0.08566955
-3.926497	MODTM+MODSBLM	-0.08484516
-3.926497	MODTM+MODSBLM:	-0.08587539
-3.926497	MODTM:	-0.08587539
-3.926497	MOHAMMAD	-0.08587539
-3.926497	MOLUCCAS,	-0.07414193
-3.926497	MONDAY,	-0.08432913
-3.926497	MONEY	-0.08592685
-3.449376	MONOLINGUAL	-0.08329523
-2.625467	MORE	-0.2319425
-3.926497	MORNING	-0.07292445
-2.546286	MOST	-0.1810499
-3.449376	MOSTLY	-0.08572102
-3.926497	MOVEMENT	-0.07414193
-3.926497	MOVEMENT)	-0.08499985
-3.625467	MPR	-0.08556657
-3.449376	MRS	-0.5529052
-3.227527	MUCH	-0.08355473
-3.926497	MULTIPARTY,	-0.08592685
-3.324437	MULTIPLE	-0.08474201
-3.926497	MULTITUDE	-0.07292445
-3.625467	MUSLIM	-0.08572101
-3.926497	MUSLIM,	-0.08536059
-3.625467	MUSLIM-MAJORITY	-0.1740932
-3.625467	MUSLIMS	-0.08582393
-3.449376	MUST	-0.07929152
-3.926497	MY	-0.08592685
-3.926497	MYSTIC	-0.08592685
-3.926497	MYTHOLOGICAL	-0.08582394
-3.926497	MYTHOLOGY	-0.06785927
-3.926497	N	-0.08520602
-3.926497	NADATHUL	-0.08592685
-3.926497	NAME,	-0.08587539
-3.625467	NAMED	-0.1734752
-3.926497	NAMED-ENTITY	-0.08592685
-3.227527	NAMES	-0.1112937
-3.625467	NAMES,	-0.07382464
-3.926497	NAPOLEONIC	-0.08592685
-3.324437	NATION	-0.08839858
-2.972254	NATIONAL	-0.08376079
-3.926497	NATIONALISTS	-0.08577248
-3.625467	NATIONS	-0.1612452
-3.625467	NATIONS,	-0.1624626
-3.926497	NATIONWIDE	-0.08592685
-3.324437	NATIVE	-0.3906438
-3.926497	NATIVES	-0.07292445
-3.449376	NATURAL	-0.142666
-3.227527	NE	-0.3090099
-3.926497	NE-TAGGER	-0.08556658
-3.926497	NE-TAGGER.	-0.06785927
-3.926497	NE-TRANSLATION	-0.07876883
-3.926497	NEAR-MATCHES	-0.07488133
-3.926497	NEARLY	-0.08572102
-3.926497	NECESSARILY	-0.08541209
-3.926497	NECESSARY	-0.08551509
-2.972254	NEED	-0.1780098
-3.926497	NEEDED	-0.07488133
-3.926497	NEIGHBOURING	-0.08592685
-3.926497	NEPOTISM	-0.08592685
-3.926497	NES	-0.07876883
-3.926497	NESOS	-0.08577248
-3.625467	NET	-0.1741961
-3.227527	NETHERLANDS	-0.06050368
-3.625467	NETHERLANDS'	-0.08582393
-3.926497	NETHERLANDS,	-0.08592685
-3.926497	NEUTRALLY	-0.08334697
-2.564769	NEW	-0.1770988
-3.449376	NEWLY	-0.142666
-3.926497	NIAS	-0.08587539
-3.926497	NICE	-0.07488133
-3.926497	NNP	-0.08443239
-2.885104	NO	-0.2078835
-3.926497	NON-ALIGNED	-0.08592685
-3.926497	NON-CONSECUTIVE-CONSTITUENT	-0.08582394
-3.926497	NON-CONSTITUENT	-0.08592685
-3.926497	NON-HEAD	-0.08592685
-3.926497	NON-ORTHODOX,	-0.08592685
-3.625467	NON-OVERLAPPING	-0.08551508
-3.926497	NON-SIBLING	-0.08566955
-3.926497	NONCONSTITUENT	-0.08499985
-3.926497	NONCONSTITUENTLEAFRULES	-0.07414193
-3.926497	NONTERM	-0.08443239
-3.926497	NONTERM)	-0.08033499
-3.449376	NONTERMINAL	-0.07477579
-3.926497	NONTERMINAL);	-0.07488133
-3.926497	NONTERMINAL-SPLITTING	-0.07488133
-3.926497	NONTERMINAL/HEAD/ETC	-0.07488133
-3.926497	NONTERMINAL/RULE"	-0.08412254
-3.926497	NONTERMINALS	-0.08592685
-3.926497	NONTERMINALS,	-0.08561806
-3.625467	NORMAL	-0.084484
-3.449376	NORMALLY	-0.08075169
-3.449376	NORTH	-0.08510296
-3.926497	NORTHERN	-0.08582394
-2.479339	NOT	-0.08164829
-3.625467	NOT,	-0.08303635
-3.625467	NOTE	-0.08272551
-3.926497	NOTE:	-0.08525755
-3.926497	NOTICE	-0.05644839
-3.227527	NOW	-0.1093513
-3.449376	NOW,	-0.08324346
-3.926497	NOW-VANISHED	-0.08592685
-3.926497	NP(*CD*(@),*NN*(BILLION),NN(DOGS),	-0.07414193
-3.926497	NP_GEESE(CD(@),CD(BILLION),NNS(GEESE))	-0.08484516
-3.926497	NP_GEESE(RB_NUM_BILLION(CD(@),CD(BILLION),NNS(GEESE)),	-0.08551509
-3.926497	NPB	-0.08566955
-3.926497	NPB(NNP(HILLARY),NNP(CLINTON))	-0.08551509
-3.926497	NPS	-0.08334697
-3.926497	NTH	-0.08443239
-3.926497	NUM_@@	-0.08033499
-3.324437	NUMBER	-0.4812637
-3.926497	NUMBER-WRITING	-0.08173972
-3.926497	NUMBERS	-0.07414193
-3.449376	NUMBERS/NAMES	-0.06533132
-3.926497	NUMBERS/NAMES,	-0.07414193
-3.926497	NUMERALS	-0.08443239
-3.926497	NURTANIO	-0.08587539
-3.625467	NUSA	-0.1740932
-3.926497	NXM?	-0.08566955
-3.324437	O	-0.05324326
-3.926497	OBSERVERS	-0.07414193
-3.625467	OCCUPATION	-0.08293276
-3.625467	OCCUPATION,	-0.08566954
-3.926497	OCCUPATION:	-0.08458722
-3.449376	OCCUPIED	-0.08251817
-3.926497	OCCUPIERS	-0.06785927
-3.926497	OCCUR)	-0.06785927
-3.926497	OCCURRED	-0.07876883
-3.926497	OCCURS	-0.08334697
-3.926497	OCTOBER)	-0.06785927
-1.528557	OF	-0.1836714
-3.449376	OFF	-0.08313993
-3.926497	OFFERED	-0.08592685
-3.926497	OFFICE	-0.07876883
-3.926497	OFFICERS	-0.08499985
-3.449376	OFFICIAL	-0.08505141
-3.449376	OFFICIALLY	-0.05633827
-3.926497	OFFICIALS	-0.06785927
-3.449376	OFTEN	-0.08546361
-3.449376	OIL	-0.05545624
-3.449376	OIL,	-0.08334698
-3.324437	OLD	-0.08453562
-3.926497	OLD_TREE.	-0.06785927
-3.926497	OLDER	-0.08592685
-2.194103	ON	-0.2670644
-3.926497	ONCE	-0.08582394
-2.926497	ONE	-0.1885704
-3.926497	ONE).	-0.08246631
-3.926497	ONE-DAY	-0.08572102
-3.926497	ONE-TIME	-0.08592685
-3.926497	ONE-WORD	-0.08587539
-3.449376	ONES	-0.1320399
-2.750406	ONLY	-0.09482986
-3.926497	OPEC,	-0.08530907
-3.926497	OPEN-CLASS	-0.08572102
-3.926497	OPERA	-0.08592685
-3.926497	OPPORTUNITY	-0.07488133
-3.926497	OPTIMIZED	-0.08592685
-3.926497	OPTION.	-0.06785927
-2.449376	OR	-0.04264468
-3.926497	OR,	-0.08582394
-3.926497	ORDE	-0.08592685
-3.227527	ORDER	-0.2859042
-3.926497	ORDER)	-0.08587539
-3.926497	ORDERED	-0.08592685
-3.926497	ORDINALS	-0.08592685
-3.926497	ORDINARY	-0.08577248
-3.926497	ORGANIZATION	-0.07292445
-3.926497	ORGANIZATION,	-0.08592685
-3.926497	ORGANIZATIONAL	-0.08572102
-3.625467	ORIGINAL	-0.08587538
-3.926497	ORIGINALLY	-0.07855958
-3.926497	ORIGINATING	-0.08412254
-3.926497	ORIGINS;	-0.08592685
-3.081399	OTHER	-0.06527738
-3.625467	OTHERS	-0.0797092
-3.926497	OTHERWISE	-0.08592685
-3.926497	OTHERWISE,	-0.08033499
-3.148345	OUR	-0.08319169
-3.926497	OUSTING	-0.05644839
-2.926497	OUT	-0.1951296
-3.926497	OUTPUT	-0.06785927
-3.926497	OUTPUT,	-0.08376078
-3.926497	OUTRIGHT	-0.08587539
-3.449376	OUTSIDE	-0.0855151
-3.148345	OVER	-0.2822271
-3.926497	OVERALL.	-0.06785927
-3.926497	OVERLAPPING	-0.08592685
-3.926497	OVERTONES,	-0.08592685
-3.926497	OVERWHELMING	-0.08592685
-3.926497	OVERWHELMINGLY	-0.08592685
-3.625467	OWING	-0.163202
-3.449376	OWN	-0.08577249
-3.926497	P(E|C)	-0.08572102
-3.926497	PACHUNG,	-0.08592685
-3.926497	PACIFIC	-0.07414193
-3.926497	PACIFIC,	-0.08592685
-3.926497	PADRI	-0.08556658
-3.926497	PAIRS	-0.08319169
-3.926497	PAIRS,	-0.08577248
-3.926497	PALEMBANG,	-0.07414193
-3.926497	PALM	-0.08582394
-3.023407	PAPUA	-0.2079015
-3.926497	PAPUA*,	-0.08592685
-3.926497	PAPUAN,	-0.08334697
-3.227527	PARALLEL	-0.0855151
-3.449376	PARENT	-0.1202813
-3.926497	PARENTS/SIBLINGS,	-0.08525755
-3.926497	PARIS	-0.08592685
-3.081399	PARLIAMENT	-0.1074237
-3.926497	PARLIAMENT,	-0.08334697
-3.449376	PARSE	-0.0847936
-3.926497	PARSE/TRANSLATION	-0.06785927
-3.926497	PARSED	-0.08582394
-3.926497	PARSED-TO-ENGLISH	-0.08443239
-3.926497	PARSER	-0.08484516
-3.449376	PARSES	-0.07281843
-3.227527	PARSING	-0.06907785
-3.926497	PARSING,	-0.08561806
-3.625467	PART	-0.1612452
-3.926497	PART,	-0.08438076
-3.926497	PARTIAL	-0.08582394
-3.449376	PARTICULAR	-0.08412255
-3.926497	PARTICULAR,	-0.07855958
-3.449376	PARTICULARLY	-0.08489674
-3.926497	PARTIES	-0.08324346
-3.449376	PARTLY	-0.08225884
-3.926497	PARTNERS	-0.08360565
-3.081399	PARTS	-0.6343852
-3.926497	PARTY	-0.06785927
-3.926497	PASSED	-0.08541209
-3.926497	PASSING	-0.05644839
-3.926497	PATCHING	-0.0854636
-3.926497	PATH	-0.08412254
-3.926497	PDI-P,	-0.05644839
-3.324437	PEACE	-0.08546361
-3.926497	PEASANTS	-0.07414193
-3.926497	PENCAK	-0.08592685
-3.926497	PENG.	-0.06785927
-3.926497	PENNTREEBANK?-(OR	-0.08592685
-2.812553	PEOPLE	-0.2576877
-3.625467	PEOPLE'S	-0.08556657
-3.926497	PEOPLE,	-0.07414193
-3.926497	PEOPLES,	-0.08572102
-3.324437	PER-SENTENCE	-0.08510296
-3.926497	PERCENTS	-0.08577248
-3.926497	PERCEPTION	-0.08324346
-3.324437	PERHAPS	-0.08199936
-3.926497	PERHAPS:	-0.06785927
-3.625467	PERIOD	-0.1612452
-3.926497	PERMITTED	-0.07488133
-3.625467	PERMUSYAWARATAN	-0.08577248
-3.926497	PERPLEXITY	-0.08319169
-3.926497	PERSPECTIVE	-0.08484516
-3.324437	PERWAKILAN	-0.1740417
-3.926497	PHILOSOPHY	-0.08587539
-3.926497	PHRASE	-0.08572102
-3.926497	PINYIN-IZER)	-0.08438076
-3.625467	PLACE	-0.08541209
-3.926497	PLACED	-0.08525755
-3.926497	PLACES	-0.08561806
-3.625467	PLAGUED	-0.1713571
-3.449376	PLAN	-0.137125
-3.926497	PLAN"	-0.08592685
-3.926497	PLANTATIONS	-0.07414193
-3.926497	PLATES,	-0.08577248
-3.926497	PLEASING	-0.08556658
-3.926497	POLICIES	-0.07414193
-3.926497	POLICY,	-0.08499985
-3.926497	POLICY-MAKING	-0.07414193
-3.081399	POLITICAL	-0.09722796
-3.449376	POLITICS	-0.1123535
-3.926497	POLITICS,	-0.08551509
-3.926497	POORER	-0.08592685
-3.324437	POPULAR	-0.1276401
-3.449376	POPULATED	-0.08474201
-3.926497	POPULATED.	-0.06785927
-2.926497	POPULATION	-0.07558736
-3.926497	POPULATION,	-0.08173972
-3.227527	POPULOUS	-0.1067654
-3.449376	PORTUGUESE	-0.08530908
-3.926497	PORTUGUESE,	-0.07414193
-3.926497	POSITION	-0.08561806
-3.926497	POSITION-DEPENDENT	-0.08592685
-3.926497	POSITIONS	-0.07292445
-3.926497	POSO	-0.08592685
-3.926497	POSSIBILITIES	-0.08484516
-3.926497	POSSIBILITY	-0.08324346
-3.449376	POSSIBLE	-0.1131253
-3.926497	POSSIBLE)	-0.06785927
-3.926497	POSSIBLE,	-0.08246631
-3.926497	POTENTIAL	-0.08592685
-3.926497	POTENTIALLY	-0.08551509
-3.926497	POVERTY,	-0.08592685
-3.625467	POWER	-0.07408906
-3.324437	POWERFUL	-0.0702126
-3.926497	POWERS	-0.06785927
-3.625467	PRACTICE	-0.05628319
-3.926497	PRACTICED	-0.07876883
-3.926497	PRAMBANAN,	-0.08173972
-3.926497	PRE-EXISTING	-0.08582394
-3.926497	PRE-SBLM	-0.08577248
-3.926497	PRECONDITION.	-0.06785927
-3.926497	PRECONDITIONS	-0.06785927
-3.926497	PREDICATE	-0.08592685
-3.926497	PREDOMINANTLY	-0.08587539
-3.625467	PREFER	-0.04455987
-3.926497	PREFIX	-0.08033499
-3.926497	PRES_BUSH	-0.08561806
-3.926497	PRES_BUSH,	-0.07414193
-3.926497	PRESENT-DAY	-0.08572102
-3.926497	PRESERVE	-0.08592685
-3.625467	PRESIDENCY	-0.08345045
-2.584074	PRESIDENT	-0.1888986
-3.926497	PRESIDENT).	-0.05644839
-3.926497	PRESIDENT,	-0.08592685
-3.926497	PRESIDENT.	-0.06785927
-3.926497	PRESIDENTE	-0.08592685
-3.625467	PRESIDENTIAL	-0.08561806
-3.926497	PRESIDENTS:	-0.08592685
-3.926497	PRESS	-0.06785927
-3.926497	PRESSURE,	-0.08592685
-3.926497	PRETEXT	-0.07292445
-3.625467	PRETTY	-0.08572101
-3.926497	PREVIOUS	-0.08572102
-3.926497	PREVIOUSLY	-0.08592685
-3.625467	PRIBUMI	-0.08587538
-3.926497	PRIBUMIS	-0.06785927
-3.926497	PRIBUMIS,	-0.07414193
-3.449376	PRICES	-0.06743003
-3.625467	PRIME	-0.1741447
-3.926497	PRINCE	-0.08592685
-3.625467	PRINCIPAL	-0.08582393
-3.926497	PRINCIPLED,	-0.08592685
-3.926497	PRISON	-0.08587539
-3.926497	PRIVATE	-0.08592685
-3.926497	PRIVILEGES:	-0.05644839
-3.625467	PRO-INDONESIA	-0.08582393
-3.324437	PROB	-0.0842775
-3.625467	PROB=.@	-0.15618
-3.625467	PROBABILITY	-0.069091
-3.148345	PROBABLY	-0.0734542
-3.926497	PROBLEM	-0.07488133
-3.324437	PROBLEMS	-0.06371002
-3.926497	PROBLEMS:	-0.06785927
-3.625467	PROBS	-0.08443238
-3.926497	PROCEED,	-0.05644839
-3.625467	PROCESS	-0.0717567
-3.324437	PRODUCE	-0.07882947
-3.926497	PRODUCED	-0.08592685
-3.625467	PRODUCES	-0.08577248
-3.926497	PRODUCING	-0.08520602
-3.926497	PRODUCT	-0.08592685
-3.926497	PRODUCTION	-0.08484516
-3.926497	PRODUCTS	-0.08582394
-3.926497	PROFIT	-0.08033499
-3.926497	PROGRAM	-0.08484516
-3.926497	PROGRAMS	-0.08587539
-3.926497	PROGRESSIVE	-0.07414193
-3.926497	PROMISED	-0.07855958
-3.926497	PROPAGATE	-0.08566955
-3.625467	PROPOSALS	-0.08572101
-3.148345	PROPOSE	-0.07292444
-3.926497	PROPOSE,	-0.08173972
-3.023407	PROPOSED	-0.05107469
-3.926497	PROPOSED).	-0.08577248
-3.926497	PROPOSED,	-0.08551509
-3.926497	PROPOSES	-0.07855958
-3.625467	PROPOSING	-0.08489673
-3.926497	PROTESTANT	-0.08334697
-3.449376	PROVIDE	-0.05842597
-3.926497	PROVIDED	-0.08303636
-3.926497	PROVIDING	-0.05644839
-3.625467	PROVINCE	-0.05424048
-3.227527	PROVINCES	-0.102617
-3.625467	PROVINCES,	-0.06072179
-3.926497	PT	-0.08592685
-3.926497	PUBLIC	-0.08587539
-3.926497	PUNAN,	-0.08572102
-3.926497	PUNISHED	-0.08033499
-3.926497	PURPOSE:	-0.07488133
-3.926497	PURPOSES,	-0.07414193
-3.926497	PUSHED	-0.08582394
-3.926497	QUALIFIED	-0.08587539
-3.926497	QUALITY,	-0.08592685
-3.926497	QUITE	-0.08536059
-3.926497	QUOTE	-0.08556658
-3.926497	RADU	-0.08592685
-3.926497	RAFFLES	-0.08360565
-3.449376	RAKYAT	-0.08432914
-3.926497	RAKYAT/PEOPLE'S	-0.08587539
-3.926497	RAN	-0.08033499
-3.324437	RARE	-0.0854121
-3.926497	RARE,	-0.07414193
-3.926497	RARE_CHINESE_NAME,	-0.08443239
-3.926497	RARER	-0.08587539
-3.926497	RARES,	-0.08582394
-3.926497	RB	-0.08577248
-3.926497	RB-ENTITIES	-0.08572102
-3.926497	RB-ENTITY-TREEBANKING-STANDARD	-0.08592685
-3.625467	RB-ETREE	-0.08438075
-3.926497	RB-ETREES).	-0.06785927
-3.926497	RB-NONTERM,	-0.08499985
-3.227527	RB-NONTERMINAL	-0.06705408
-3.625467	RB-NONTERMINAL,	-0.07814078
-3.926497	RB-NONTERMINAL/HEADS	-0.08556658
-3.324437	RB-NONTERMINALS	-0.06678535
-3.926497	RB-NUM(*CD*(@),*NN*(BILLION)),	-0.08499985
-3.926497	RB-NUM(*NP*(CD(@),NN(BILLION)))	-0.08443239
-3.926497	RB-NUM(CD(@))	-0.08536059
-3.625467	RB-NUM(CD(@),CD(BILLION))	-0.1736813
-3.926497	RB-NUM(DET(A)	-0.08592685
-3.324437	RB-PROGRAM	-0.08499986
-3.926497	RB-PROGRAM)	-0.08510295
-3.926497	RB-PROGRAM).	-0.06785927
-2.972254	RB-PROGRAMS	-0.07633983
-3.926497	RB-PROGRAMS)	-0.06785927
-3.926497	RB-PROGRAMS).	-0.06785927
-3.926497	RB-PROGS	-0.08561806
-3.625467	RB-RESTRUCTURED	-0.08582393
-3.926497	RB-ROOTED-EDGE	-0.08334697
-3.324437	RB-SUBTREE	-0.05506978
-3.926497	RB-SUBTREE->SBLM-LIST	-0.08592685
-3.926497	RB-SUBTREES	-0.07414193
-3.926497	RB-SYNTAX-RULES	-0.08319169
-3.926497	RB-SYNTAX-TRANSLATION	-0.06785927
-3.926497	RB-SYSTEM	-0.07488133
-3.926497	RB-SYSTEMS	-0.08551509
-3.926497	RB-TRANSLATION	-0.07292445
-3.449376	RB-TRANSLATIONS	-0.06170203
-3.926497	RB-TRANSLATOR	-0.07488133
-3.926497	RB-XXX'S	-0.08582394
-3.926497	RB-XXX(OLD_TREE)	-0.08033499
-3.625467	RB-XXX,	-0.08546359
-3.625467	RB_PROB	-0.08572101
-3.148345	RB_PROB=.@	-0.8819639
-3.926497	RB_PROB=.@@	-0.06785927
-3.324437	RBT	-0.08484517
-3.926497	RBT-ETREE	-0.08463882
-3.926497	RBT-METHODS	-0.0854636
-3.926497	RBT-PRODUCED	-0.08592685
-3.926497	RBT-RULES	-0.08443239
-3.926497	RBT;	-0.08582394
-3.926497	READ	-0.07488133
-3.324437	REAL	-0.1267642
-3.926497	REALITY	-0.07292445
-3.926497	REALLY	-0.05644839
-3.926497	REALLY-OPEN	-0.08572102
-3.926497	REASONABLE)	-0.08561806
-3.926497	REBELLED	-0.07876883
-3.926497	REBELLIONS	-0.08536059
-3.625467	REBELS	-0.1733206
-3.926497	REBUILDING	-0.08525755
-3.926497	RECEIVED	-0.08582394
-3.926497	RECENTLY	-0.08561806
-3.625467	RECOGNIZE	-0.07408906
-3.449376	RECOGNIZED	-0.07350715
-3.926497	RECOGNIZER	-0.08484516
-3.926497	RECOGNIZING	-0.08592685
-3.926497	RECORDED:	-0.084742
-3.926497	RECOURSE	-0.07488133
-3.926497	RECOVERY	-0.08412254
-3.926497	RECURRING	-0.08592685
-3.625467	REDUCE	-0.05639333
-3.926497	REDUCTION	-0.07292445
-3.449376	REFERENCE	-0.07382466
-3.449376	REFERENDUM	-0.05782267
-3.926497	REFORM	-0.07414193
-3.926497	REFUSED	-0.07488133
-3.926497	REGENCIES	-0.07414193
-3.625467	REGIME	-0.0717567
-3.148345	REGION	-0.1171821
-3.625467	REGION,	-0.0786119
-3.227527	REGIONAL	-0.08536059
-3.926497	REGIONALLY	-0.08592685
-3.449376	REGIONS	-0.06967887
-3.926497	REGRETS	-0.08566955
-3.926497	REJECTED	-0.08484516
-3.625467	RELATED	-0.163202
-3.449376	RELATIONS	-0.137802
-3.926497	RELATIVE	-0.07488133
-3.926497	RELATIVELY	-0.08582394
-3.926497	RELEASE	-0.08412254
-3.926497	RELIED	-0.08319169
-3.449376	RELIGION	-0.1171821
-3.625467	RELIGION,	-0.08329521
-3.926497	RELIGIONS.	-0.06785927
-3.081399	RELIGIOUS	-0.07356009
-3.926497	RELINQUISHED	-0.08520602
-3.926497	RELY	-0.08319169
-3.625467	REMAIN	-0.07835023
-3.926497	REMAINDER	-0.08582394
-3.926497	REMAINING	-0.0854636
-3.926497	REMAINS	-0.07855958
-3.926497	REMEDY	-0.08577248
-3.926497	REMEMBER	-0.08587539
-3.625467	REMOVE	-0.05578719
-3.926497	RENDERED	-0.07876883
-3.926497	RENDERING	-0.08510295
-3.926497	RENDERINGS	-0.07488133
-3.926497	REOCCUPY	-0.08556658
-3.926497	REPEATEDLY	-0.08592685
-3.926497	REPLACED	-0.08303636
-3.926497	REPLACING	-0.08572102
-3.926497	REPRESENTATION.	-0.06785927
-3.449376	REPRESENTATIVE	-0.1425631
-3.926497	REPRESENTATIVES	-0.08577248
-3.926497	REPRESENTING	-0.08587539
-3.227527	REPUBLIC	-0.1393204
-3.926497	REPUBLIK	-0.08592685
-3.449376	REQUIRE	-0.1127947
-3.926497	REQUIRED	-0.07488133
-3.926497	REQUIREMENT	-0.08324346
-3.926497	RESCORER	-0.06785927
-3.625467	RESEARCH	-0.0555114
-3.625467	RESENTMENT	-0.08267368
-3.926497	RESIGN	-0.07414193
-3.926497	RESIGN.	-0.06785927
-3.926497	RESIGNATION	-0.07414193
-3.926497	RESOURCES	-0.08582394
-3.926497	RESPONSE	-0.07488133
-3.449376	RESPONSIBLE	-0.5653809
-3.926497	REST	-0.07292445
-3.926497	RESTARTED	-0.07414193
-3.926497	RESTORED	-0.08561806
-3.625467	RESTRICT	-0.0560077
-3.449376	RESTRUCTURE	-0.08370908
-3.926497	RESTRUCTUREDENGLISH	-0.08484516
-3.324437	RESTRUCTURING	-0.07393044
-3.449376	RESULT	-0.5579704
-3.625467	RESULT,	-0.08520602
-3.926497	RESULTED	-0.07876883
-3.926497	RESULTING	-0.08592685
-3.926497	RETRAIN	-0.08401921
-3.926497	REVISED	-0.05644839
-3.449376	REVOLUTION	-0.1110826
-3.926497	RHS	-0.07292445
-3.926497	RIAU	-0.08520602
-3.926497	RIAU),	-0.08592685
-3.926497	RIAU,	-0.08541209
-3.926497	RICE,	-0.08592685
-3.926497	RICH	-0.08592685
-3.324437	RIGHT	-0.06115774
-3.324437	RIGHTS	-0.07861192
-3.449376	RIOT	-0.05782267
-3.926497	RIOTERS	-0.06785927
-3.926497	RIOTS	-0.07876883
-3.926497	RIOTS,	-0.08484516
-3.926497	RISE,	-0.08572102
-3.926497	ROBUST	-0.08577248
-3.926497	ROLE	-0.05644839
-3.926497	ROLE(NORMAL	-0.08582394
-3.926497	ROLES	-0.08525755
-3.926497	ROOT	-0.08592685
-3.926497	ROOT-RB-NONTERMS	-0.08592685
-3.625467	ROOTS	-0.1670896
-3.625467	ROUGHLY	-0.08582393
-3.926497	ROUTE	-0.07488133
-3.926497	RUBBER	-0.06785927
-2.780369	RULE	-0.2417612
-3.625467	RULE,	-0.07366592
-3.324437	RULE-BASED	-0.3895099
-3.926497	RULE-COST	-0.08525755
-3.926497	RULE.	-0.06785927
-3.926497	RULE:	-0.06785927
-3.926497	RULED	-0.08246631
-2.780369	RULES	-0.1213887
-3.926497	RULES")	-0.06785927
-3.625467	RULES,	-0.08479358
-3.926497	RULES:	-0.06785927
-3.324437	RUN	-0.3851008
-3.926497	S(NP(X@,X@,CD(@)),VP(CD(BILLION),X@))	-0.08510295
-3.926497	S(X@,CD(@),CD(BILLION),X@)	-0.08510295
-3.926497	S(X@,RB-NUM(CD(@),CD(BILLION)),X@).	-0.06785927
-3.926497	S(X@,X@,RB-NUM("@	-0.08592685
-3.023407	SAME	-0.07887343
-3.926497	SANGEANG	-0.08592685
-3.926497	SAPIENS	-0.0854636
-3.926497	SATELLITE	-0.08592685
-3.926497	SATURDAY,	-0.08541209
-3.926497	SAUSAGE:	-0.08592685
-3.625467	SAW	-0.08350219
-3.926497	SAY	-0.08587539
-3.926497	SAY,	-0.08592685
-2.449376	SBLM	-0.09594831
-3.926497	SBLM)	-0.07488133
-3.625467	SBLM,	-0.08288095
-3.449376	SBLM-ETREE	-0.08556659
-3.926497	SBLM-NON-CONSTITUENT	-0.08515449
-3.926497	SBLM-RESTRUCTURING	-0.08582394
-3.926497	SBLM-SUBTREES	-0.08033499
-3.926497	SBMT	-0.06785927
-3.926497	SCALE	-0.08541209
-3.625467	SCANDAL	-0.08587538
-3.926497	SCATTERED	-0.08582394
-3.926497	SCHOLARS,	-0.07414193
-3.926497	SCHOOLS	-0.07414193
-3.926497	SCHOOLS,	-0.08592685
-3.926497	SCIENTIFIC	-0.08592685
-3.324437	SCORE	-0.02812594
-3.449376	SCORED	-0.08262186
-3.449376	SCORES	-0.08469042
-3.926497	SCORING	-0.06785927
-3.926497	SECESSION	-0.07414193
-3.625467	SECOND	-0.08587538
-3.926497	SECOND-CLASS	-0.08592685
-3.926497	SECOND-LARGEST	-0.08587539
-3.926497	SECURING	-0.05644839
-3.324437	SEE	-0.08282916
-3.449376	SEEN	-0.07572483
-3.926497	SEGMENTATION	-0.07292445
-3.926497	SEISMIC	-0.07414193
-3.449376	SELATAN),	-0.08386418
-3.926497	SEMANTIC	-0.08592685
-3.625467	SEMANTICS	-0.06624738
-3.926497	SEMANTICS,	-0.08484516
-3.926497	SEMARANG.	-0.06785927
-3.926497	SENT	-0.07855958
-3.625467	SENTENCE	-0.07871652
-3.625467	SENTENCE(S)-SPECIFIC	-0.08572101
-3.926497	SENTENCE)	-0.08360565
-3.449376	SENTENCE,	-0.1287051
-3.625467	SENTENCE-SPECIFIC	-0.08505139
-3.926497	SENTENCE-SPECIFIC,	-0.08536059
-3.926497	SENTENCES	-0.08334697
-3.449376	SEPARATE	-0.08582395
-3.926497	SEPARATELY)	-0.08484516
-3.926497	SEPARATISM	-0.08587539
-3.926497	SEQUENCE,	-0.08520602
-3.926497	SEQUENCES	-0.07292445
-3.926497	SERIES.	-0.06785927
-3.926497	SERIOUS	-0.08592685
-3.926497	SET	-0.07292445
-2.972254	SEVERAL	-0.08277734
-3.926497	SEVERAL)	-0.08592685
-3.926497	SEVERE	-0.08582394
-3.926497	SHADOW	-0.08592685
-3.926497	SHARIA	-0.08592685
-3.926497	SHARPENED,	-0.08592685
-3.926497	SHOPKEEPERS	-0.07414193
-3.625467	SHOPS,	-0.07408906
-2.696048	SHOULD	-0.4286687
-3.926497	SHOW	-0.05644839
-3.926497	SHOWS,	-0.08592685
-3.926497	SIBLING	-0.08587539
-3.926497	SIDE	-0.07292445
-3.926497	SIGNIFICANT	-0.08592685
-3.926497	SIGNIFICANTLY	-0.08566955
-3.926497	SILAT	-0.08173972
-3.449376	SIMILAR	-0.1315123
-3.625467	SIMPLE	-0.08556657
-3.926497	SIMPLIFY	-0.05644839
-2.972254	SINCE	-0.06965356
-3.926497	SINGAPORE,	-0.08572102
-3.227527	SINGLE	-0.08530908
-3.926497	SITES	-0.08592685
-3.926497	SIVA	-0.08592685
-3.926497	SIZE	-0.07292445
-3.926497	SKINTONES	-0.06785927
-3.926497	SLAPS	-0.08566955
-3.926497	SLOW	-0.07876883
-3.926497	SMALL	-0.08587539
-3.926497	SMALL-TIME	-0.08592685
-3.926497	SMALLER	-0.08572102
-2.972254	SO	-0.06881747
-3.926497	SO,	-0.08577248
-3.926497	SOAP	-0.08592685
-3.926497	SOCIALIST	-0.08592685
-3.926497	SOLITARY	-0.08587539
-3.926497	SOLVE	-0.08484516
-2.584074	SOME	-0.1207385
-3.926497	SOMETHING	-0.08324346
-3.449376	SOMETIMES	-0.08339873
-3.449376	SOMEWHAT	-0.07361302
-3.926497	SONGKET	-0.08592685
-3.625467	SOON	-0.08489673
-3.926497	SORT	-0.08520602
-3.081399	SOUTH	-0.2693279
-3.926497	SOUTHEAST	-0.08592685
-3.449376	SPAN	-0.07398333
-3.926497	SPAN).	-0.08401921
-3.625467	SPAN,	-0.07393043
-3.926497	SPAN/PROB	-0.08592685
-3.926497	SPANISH	-0.07414193
-3.324437	SPANS	-0.05229933
-3.926497	SPARKED	-0.08303636
-3.625467	SPARSENESS	-0.07393043
-3.926497	SPARSENESS;	-0.08484516
-3.926497	SPEAK	-0.08499985
-3.926497	SPEAKER:	-0.08592685
-3.926497	SPEC	-0.08033499
-3.148345	SPECIAL	-0.1424087
-3.625467	SPECIES	-0.1612452
-3.449376	SPECIFIC	-0.08458723
-3.324437	SPECIFICALLY	-0.09792675
-3.926497	SPECIFIED	-0.0854636
-3.625467	SPECIFY	-0.04850291
-3.926497	SPECTER	-0.07292445
-3.926497	SPEECH	-0.08577248
-3.926497	SPHERE	-0.08360565
-3.926497	SPICE	-0.08592685
-3.449376	SPICES	-0.05523545
-3.926497	SPLICE	-0.08566955
-3.625467	SPLICED	-0.07845492
-3.324437	SPLICING	-0.06989244
-3.926497	SPLICING,	-0.05644839
-3.625467	SPLIT	-0.1447691
-3.625467	SPOKEN	-0.07577748
-3.926497	SRI	-0.08587539
-3.926497	STABILIZED	-0.08582394
-3.625467	STAFF	-0.06072179
-3.926497	STAGES	-0.08577248
-3.926497	STAMFORD	-0.08592685
-3.625467	STANDARD	-0.08028287
-3.926497	STARS.	-0.06785927
-3.625467	STARTED	-0.08147992
-3.324437	STATE	-0.1161138
-3.926497	STATE)	-0.07414193
-3.625467	STATE,	-0.07408906
-3.926497	STATED	-0.07488133
-3.324437	STATES	-0.09737527
-3.625467	STATES,	-0.08494829
-3.926497	STATIC-RULES	-0.08592685
-3.227527	STATISTICS	-0.06213698
-3.625467	STATUS	-0.07366592
-3.926497	STATUS.	-0.06785927
-3.926497	STEP	-0.08577248
-3.926497	STILL	-0.08587539
-3.926497	STOREFRONT	-0.08592685
-3.926497	STRAINED	-0.08582394
-3.926497	STRING	-0.08592685
-3.926497	STRING).	-0.08577248
-3.625467	STRINGS	-0.08313991
-3.926497	STRINGS,	-0.08592685
-3.926497	STROKE	-0.08592685
-3.926497	STRONG	-0.08582394
-3.625467	STRUCK	-0.08179165
-3.625467	STRUCTURE	-0.163202
-3.926497	STRUGGLE	-0.08033499
-3.926497	STRUGGLE,	-0.07414193
-3.926497	STUFF	-0.08525755
-3.926497	SUB-DISTRICTS.	-0.06785927
-3.926497	SUB-REGIONS	-0.08334697
-3.625467	SUBDIVIDED	-0.1737843
-3.926497	SUBDIVISIONS	-0.07292445
-3.926497	SUBDIVISIONS,	-0.08551509
-3.926497	SUBSETS)	-0.08536059
-3.926497	SUBSIDIES	-0.07488133
-3.926497	SUBSIDIES,	-0.08592685
-3.926497	SUBSIDIZED	-0.08577248
-3.926497	SUBSIDY	-0.07292445
-3.926497	SUBSTANTIAL	-0.08577248
-3.926497	SUBSTANTIAL,	-0.08525755
-3.449376	SUBSTITUTE	-0.137125
-3.625467	SUBSTITUTION	-0.08308813
-3.926497	SUBSTRING	-0.07876883
-3.926497	SUBSTRUCTURE	-0.08592685
-3.625467	SUBTREE	-0.08236258
-3.926497	SUBTREES	-0.08499985
-3.926497	SUBTREES,	-0.08536059
-3.148345	SUCH	-0.1015808
-3.926497	SUFFERED	-0.08592685
-3.926497	SUFFERS	-0.08541209
-3.625467	SUFFICIENT	-0.06748369
-3.926497	SUGGEST	-0.08494829
-3.148345	SUHARTO	-0.07740691
-3.449376	SUHARTO'S	-0.08572102
-3.926497	SUHARTO,	-0.08355393
-3.148345	SUKARNO	-0.08394015
-3.926497	SUKARNO'S	-0.08499985
-3.324437	SUKARNO,	-0.04325646
-3.324437	SUKARNOPUTRI	-0.1199027
-3.926497	SUKARNOS	-0.08592685
-3.023407	SULAWESI	-0.2086731
-3.926497	SULAWESI,	-0.084742
-3.625467	SULTAN	-0.08587538
-3.926497	SULTANATE	-0.08582394
-3.926497	SUMATERA)	-0.08360565
-3.023407	SUMATRA	-0.2384555
-3.926497	SUMATRA)	-0.08412254
-3.449376	SUMATRA,	-0.05617303
-3.926497	SUMMIT	-0.06785927
-3.926497	SUNDANESE,	-0.08443239
-3.926497	SUPERIOR	-0.05644839
-3.926497	SUPERSET).	-0.08525755
-3.926497	SUPERVISION	-0.08303636
-3.625467	SUPPLIED	-0.08298455
-3.926497	SUPPLIES	-0.07292445
-3.926497	SUPPLY	-0.08572102
-3.926497	SUPPORT	-0.06785927
-3.926497	SUPPORTERS	-0.06785927
-3.926497	SUPPORTING	-0.08582394
-3.926497	SUPPRESSING	-0.08577248
-3.926497	SURABAYA,	-0.08592685
-3.449376	SURE	-0.1103626
-3.926497	SURROGATE	-0.08582394
-3.926497	SURROUNDING	-0.08587539
-3.926497	SURVEY	-0.08360565
-3.926497	SURVIVORS	-0.08592685
-3.449376	SUSILO	-0.5708699
-3.625467	SUSPECT	-0.06780563
-3.926497	SYMBOL	-0.08592685
-3.926497	SYNCRETISM	-0.07414193
-3.449376	SYNTACTIC	-0.08572102
-3.926497	SYNTACTICALLY	-0.06785927
-3.625467	SYNTAX	-0.08587538
-3.926497	SYNTAXBASEDLANGUAGEMODEL?	-0.08572102
-3.926497	SYNTAXTRANSLATIONFRAMEWORK	-0.06785927
-3.926497	SYNTAXTRANSLATIONFRAMEWORK)	-0.07292445
-3.227527	SYSTEM	-0.05990326
-3.625467	SYSTEM,	-0.1624626
-3.926497	SYSTEMS.	-0.06785927
-3.926497	TAGGER),	-0.05644839
-3.926497	TAGGING/TREEING	-0.07292445
-3.926497	TAGS	-0.07488133
-3.926497	TAGS?	-0.08360565
-3.324437	TAKE	-0.04693
-3.926497	TAKES	-0.08319169
-3.625467	TALKING	-0.1737843
-3.926497	TALKS	-0.08525755
-3.926497	TARGET	-0.07292445
-3.926497	TARGETING	-0.05644839
-3.926497	TASKS.	-0.06785927
-3.926497	TAUGHT	-0.07876883
-3.926497	TAXONOMY	-0.08412254
-3.926497	TEA,	-0.08592685
-3.926497	TECHNOLOGY	-0.06785927
-3.926497	TECTONIC	-0.08592685
-3.926497	TELL	-0.08577248
-3.926497	TEMPLATE-BASED	-0.08587539
-3.926497	TEMPLE	-0.08587539
-3.449376	TENGAH),	-0.08407089
-3.926497	TENGAH,	-0.07414193
-3.324437	TENGGARA	-0.1273311
-3.926497	TENGGARA),	-0.08582394
-3.926497	TENSION	-0.06785927
-3.625467	TENSIONS	-0.07609333
-3.926497	TENSIONS,	-0.08582394
-3.926497	TERM,	-0.07414193
-3.926497	TERM.	-0.06785927
-3.926497	TERMS,	-0.07414193
-3.926497	TERRITORIES	-0.0841742
-3.926497	TERRITORY'S	-0.08587539
-3.926497	TERRORIST	-0.08587539
-3.926497	TEST:	-0.08561806
-3.926497	TEXT	-0.08484516
-2.750406	THAN	-0.1261501
-2.202221	THAT	-0.09617226
-3.926497	THAT'S	-0.08494829
-3.926497	THAT,	-0.08561806
-3.926497	THAT:	-0.06785927
-1.182204	THE	-0.1759605
-3.926497	THEATRE	-0.08592685
-3.023407	THEIR	-0.08438076
-2.926497	THEM	-0.07863965
-3.926497	THEM)	-0.06785927
-3.625467	THEMSELVES	-0.07519782
-2.926497	THEN	-0.06562858
-3.625467	THEN,	-0.05457238
-3.926497	THEN.	-0.06785927
-2.847316	THERE	-0.3792748
-3.926497	THERE'S	-0.08587539
-3.926497	THEREBY	-0.07855958
-3.023407	THESE	-0.07955262
-3.324437	THEY	-0.08474201
-3.449376	THINK	-0.0694652
-3.926497	THINKS	-0.08360565
-3.926497	THIRD-CLASS	-0.08587539
-2.584074	THIS	-0.1857453
-3.926497	THOMAS	-0.08592685
-3.926497	THOROUGHLY	-0.08587539
-3.148345	THOSE	-0.1095949
-3.227527	THOUGH	-0.08059548
-3.625467	THOUGHT	-0.07191613
-3.926497	THOUSANDS	-0.07292445
-3.926497	THREATENED	-0.07488133
-3.926497	THREE	-0.0841742
-3.926497	THRESHOLD,	-0.08484516
-3.926497	THRIVING	-0.07876883
-3.625467	THROUGH	-0.08572101
-3.625467	THUS	-0.08168776
-3.926497	TIES	-0.08525755
-3.926497	TILINGS	-0.07414193
-3.926497	TILT	-0.08592685
-3.926497	TIME	-0.06785927
-3.926497	TIMES	-0.08592685
-2.926497	TIMOR	-0.08461431
-3.926497	TIMOR).	-0.08582394
-3.625467	TIMOR,	-0.1624626
-3.625467	TIMORESE	-0.08556657
-3.449376	TIMUR),	-0.08489674
-3.926497	TIN,	-0.08592685
-2.926497	TM	-0.08321957
-3.926497	TM/SBLM	-0.08525755
-1.598117	TO	-0.1867773
-3.926497	TO;	-0.08401921
-3.926497	TOGETHER	-0.08494829
-3.926497	TOGETHER)	-0.08484516
-3.926497	TOGETHER;	-0.08525755
-3.926497	TOKEN	-0.08324346
-3.926497	TOKENS	-0.08587539
-3.926497	TONGUE,	-0.08484516
-3.227527	TOO	-0.0854121
-3.926497	TOO,	-0.08246631
-3.625467	TOTAL	-0.08572101
-3.926497	TOWARDS	-0.08510295
-3.625467	TRADE	-0.07287143
-3.926497	TRADE.	-0.06785927
-3.449376	TRADING	-0.07572483
-3.926497	TRADITIONAL	-0.08577248
-3.926497	TRADITIONS,	-0.08582394
-3.449376	TRAIN	-0.05174311
-2.780369	TRAINING	-0.1520098
-3.449376	TRAINING,	-0.05622812
-3.926497	TRAINING-TREE-MODIFYING	-0.08587539
-3.926497	TRAINING/SMOOTHING,	-0.08484516
-3.926497	TRANSFORMATION,	-0.08376078
-3.926497	TRANSITIONAL	-0.08587539
-3.625467	TRANSLATE	-0.08556657
-3.926497	TRANSLATE.	-0.06785927
-3.926497	TRANSLATED	-0.08303636
-3.926497	TRANSLATING	-0.07855958
-2.511523	TRANSLATION	-0.06783238
-3.926497	TRANSLATION",	-0.08443239
-3.926497	TRANSLATION),	-0.08334697
-2.647743	TRANSLATIONS	-0.04215966
-3.625467	TRANSLATIONS,	-0.08401921
-3.926497	TRANSLATIONS.	-0.06785927
-3.926497	TRANSLATIONS;	-0.08566955
-3.926497	TRANSLATOR	-0.08536059
-3.926497	TRANSLATORS	-0.08572102
-3.926497	TRANSLATORS)	-0.06785927
-3.926497	TRANSLITERATED	-0.08551509
-3.926497	TRANSMIGRATION	-0.08592685
-3.449376	TREATED	-0.1392566
-3.625467	TREATY	-0.1612452
-3.324437	TREE	-0.06737634
-3.926497	TREE-CRAWLING	-0.08582394
-3.926497	TREE.	-0.06785927
-3.449376	TREEBANK	-0.08561807
-3.926497	TREEBANK-LIKE	-0.08582394
-3.324437	TREES	-0.07829789
-3.926497	TRIGGER	-0.05644839
-3.926497	TRIVIAL:	-0.08494829
-3.926497	TROOPS	-0.08360565
-3.926497	TROPICAL	-0.08592685
-3.449376	TRY	-0.1281202
-3.926497	TRYING	-0.07488133
-3.449376	TSUNAMI	-0.05738338
-3.926497	TSUNAMIS	-0.06785927
-3.926497	TUANKU	-0.08592685
-3.625467	TURN	-0.1737843
-3.324437	TWO	-0.08536059
-3.148345	TYPE	-0.8870291
-3.926497	TYPE)	-0.06785927
-3.926497	TYPICAL	-0.08561806
-3.926497	U.S	-0.06785927
-3.926497	UGLY	-0.08592685
-3.926497	ULAMA	-0.08592685
-3.625467	UN	-0.08572101
-3.926497	UN,	-0.08401921
-3.926497	UNABLE	-0.07488133
-3.926497	UNALIGNED).	-0.06785927
-3.926497	UNAMBIGUOUSLY	-0.08520602
-3.926497	UNCOMMON	-0.07488133
-2.780369	UNDER	-0.2412573
-3.926497	UNDERCOUNT	-0.08541209
-3.926497	UNDERGOING	-0.08592685
-3.926497	UNDO	-0.05644839
-3.926497	UNEVEN,	-0.08577248
-3.926497	UNFLATTENING	-0.05644839
-3.449376	UNFORTUNATELY,	-0.05551142
-3.926497	UNILATERALLY	-0.08319169
-3.625467	UNIQUE	-0.08582393
-3.625467	UNITARY	-0.08566954
-3.227527	UNITED	-0.1068712
-3.926497	UNITS	-0.08443239
-3.926497	UNIVERSALLY	-0.08592685
-3.449376	UNKNOWN	-0.08556659
-3.926497	UNKNOWN.	-0.06785927
-3.625467	UNLESS	-0.08313991
-3.081399	UNTIL	-0.1013288
-2.885104	UP	-0.1513992
-3.926497	UPGRADE	-0.07488133
-3.324437	US	-0.1160081
-3.926497	US$	-0.08566955
-3.926497	USA	-0.07414193
-2.926497	USE	-0.1414329
-2.885104	USED	-0.1923587
-3.926497	USED).	-0.06785927
-3.926497	USED.	-0.06785927
-3.926497	USEFUL	-0.07488133
-3.926497	USEFUL)	-0.06785927
-2.972254	USING	-0.1635665
-3.926497	USUAL.	-0.06785927
-3.449376	UTARA),	-0.1422027
-3.926497	VARIATIONS	-0.07876883
-3.926497	VARIATIONS,	-0.08499985
-3.449376	VARIOUS	-0.08577249
-3.926497	VASSALS,	-0.08556658
-3.926497	VERB	-0.08592685
-3.926497	VERSATILE	-0.08520602
-3.625467	VERY	-0.08587538
-3.449376	VICE	-0.5698911
-3.926497	VILLAGERS	-0.08572102
-3.926497	VIOLATION	-0.08566955
-3.449376	VIOLENCE	-0.07808842
-3.926497	VITAL	-0.08577248
-3.926497	VITERBI	-0.08587539
-3.625467	VOC	-0.08303635
-3.625467	VOLCANIC	-0.08515448
-3.926497	VOLCANOES	-0.08592685
-3.926497	VOTE	-0.08033499
-3.449376	VOTED	-0.07965703
-3.926497	VS	-0.0854636
-3.926497	VULNERABLE	-0.07488133
-3.324437	WAHID	-0.07218171
-3.926497	WALLACE	-0.08587539
-2.885104	WANT	-0.6364
-3.926497	WANTING	-0.07488133
-3.926497	WANTS	-0.07488133
-3.023407	WAR	-0.1035123
-3.926497	WAR,	-0.05644839
-3.926497	WARS	-0.08582394
-2.263739	WAS	-0.09598754
-3.324437	WAY	-0.1031857
-3.625467	WAYANG	-0.1741961
-3.926497	WAYS	-0.07292445
-2.293028	WE	-0.2123029
-3.625467	WE'D	-0.08225883
-3.324437	WE'LL	-0.1220977
-3.148345	WE'RE	-0.1129553
-3.926497	WE'VE	-0.08494829
-3.926497	WEAKENING	-0.08577248
-3.926497	WEALTHIER	-0.08520602
-3.926497	WEALTHY	-0.08541209
-3.926497	WEIGHTED	-0.08587539
-3.081399	WELL	-0.2220915
-3.926497	WELL,	-0.08577248
-3.926497	WELL-KNOWN	-0.08360565
-2.647743	WERE	-0.1124124
-2.885104	WEST	-0.1001854
-3.449376	WESTERN	-0.08396754
-2.847316	WHAT	-0.07419658
-3.926497	WHATEVER	-0.06785927
-3.148345	WHEN	-0.06921309
-3.926497	WHEN,	-0.08525755
-3.081399	WHERE	-0.05174311
-3.926497	WHEREVER	-0.08376078
-3.625467	WHETHER	-0.163202
-2.647743	WHICH	-0.0705858
-3.023407	WHILE	-0.2139107
-3.227527	WHO	-0.1145813
-3.324437	WHOLE	-0.08422586
-3.449376	WHOSE	-0.08561807
-3.625467	WHY	-0.08257
-3.926497	WIDELY	-0.08577248
-3.625467	WIDESPREAD	-0.1741447
-2.847316	WILL	-0.1611822
-3.926497	WILLING	-0.07488133
-3.926497	WINNER	-0.07292445
-2.218927	WITH	-0.2643857
-3.926497	WITH,	-0.08510295
-3.926497	WITHDRAWN	-0.08412254
-3.926497	WITHIN	-0.0854636
-3.449376	WITHOUT	-0.08499986
-3.926497	WON	-0.08303636
-3.449376	WON'T	-0.08199936
-3.324437	WORD	-0.1133567
-3.449376	WORD-CLASS	-0.06769836
-3.926497	WORD-CLASSES	-0.0841742
-3.926497	WORD-FOR-WORD	-0.08463882
-3.148345	WORDS	-0.05864513
-3.926497	WORDS).	-0.08587539
-3.324437	WORDS,	-0.0765667
-3.926497	WORDS/PHRASES	-0.08324346
-3.324437	WORK	-0.06882355
-3.926497	WORKED	-0.07488133
-3.926497	WORKING	-0.07876883
-3.926497	WORKS	-0.08033499
-3.081399	WORLD	-0.1031008
-3.625467	WORLD'S	-0.08577248
-3.926497	WORLD.	-0.06785927
-3.926497	WORLD:	-0.08033499
-2.584074	WOULD	-0.2365627
-3.625467	WOULDN'T	-0.08179165
-3.926497	WRATH	-0.07292445
-3.926497	WRITE	-0.08525755
-3.926497	WRITING;	-0.08587539
-3.926497	WRITTEN	-0.07876883
-3.926497	WROTE	-0.08592685
-3.926497	WRT	-0.08592685
-3.926497	X)	-0.08173972
-3.926497	X@	-0.08556658
-3.926497	X@"	-0.08536059
-3.926497	XR	-0.08525755
-3.926497	XRS	-0.08525755
-3.926497	YEAR	-0.07292445
-3.926497	YEAR,	-0.08577248
-3.926497	YEAR.	-0.06785927
-3.227527	YEARS	-0.1418735
-3.926497	YEARS,	-0.08587539
-3.926497	YET,	-0.07876883
-3.926497	YET-TO-BE-ALIGNED	-0.08592685
-3.926497	YIELD	-0.06785927
-3.625467	YOGYAKARTA	-0.08355392
-3.926497	YOGYAKARTA*.	-0.06785927
-3.926497	YORK	-0.08592685
-2.847316	YOU	-0.123035
-3.449376	YOU'D	-0.5692201
-3.926497	YOU'LL	-0.08551509
-3.926497	YOUR	-0.08592685
-3.625467	YUDHOYONO	-0.06764469
-3.926497	YUDHOYONO,	-0.05644839

\2-grams:
-0.7456757	"@@" AND
-0.7456757	"@@@ C@
-0.7456757	"ETREE ->
-0.7456757	"FORT MARLBOROUGH".
-0.7456757	"FRAC_BETWEEN_@@_AND_@@" FOR
-0.7456757	"GREEN RULES")
-1.046706	"GREEN-CHINESE-WORD-N" AND
-1.046706	"GREEN-CHINESE-WORD-N" IN
-0.7456757	"HISTORY OF
-0.7456757	"LIFT" IT
-0.7456757	"MUST-USE" RULE.
-0.7456757	"NO CONFIDENCE"
-0.7456757	"NON-PRIBUMI" PEOPLE
-0.7456757	"RB" FOR
-0.7456757	"RB-" PREFIX
-0.7456757	"RULE-BASED TRANSLATION",
-0.7456757	"SAUSAGE GRAPH").
-0.7456757	"SAVE" THE
-0.7456757	"SIMPLE PLAN"
-0.7456757	"STATE" THAT
-0.7456757	"TYPICAL" TREEBANK
-0.7456757	"VIRTUAL NONTERMINAL/RULE"
-0.7456757	"VIRTUAL" NONTERMINAL
-0.7456757	## RB_PROB
-1.133941	### CSPAN=(@,@)	0.06447127
-0.2345145	### RB_PROB=.@	0.05498493
-1.699918	### RB_PROB=.@@
-0.7456757	#@ AND
-0.7456757	#@, THE
-0.7456757	#CHINESE WORDS,
-0.7456757	#ENGLISH LHS
-0.7456757	'PEOPLE'S CONSULTATIVE
-0.7456757	($US @.@@
-0.7456757	('KKN' IS
-0.7456757	(*) THE
-0.7456757	(@:@@PM) </s>
-0.7456757	(@@ MEMBERS
-0.1677419	(@@@@ TO	-0.05010116
-0.7456757	(@@@@), THE
-0.7456757	(@@@@-@@). BOGOR
-0.4807281	(@@@@-@@@@) IN
-1.046706	(@@@@-@@@@). </s>
-1.046706	(@@@@-@@@@). THE
-1.046706	(A POTENTIAL
-1.046706	(A SENTENCE
-0.7456757	(ACTUALLY, IT
-0.7456757	(AKA GUS
-0.7456757	(ALSO CONFUSINGLY
-1.347736	(AND B
-1.347736	(AND IS
-1.347736	(AND MODIFYING
-1.347736	(AND NOT
-0.7456757	(AT LEAST
-0.7456757	(BAHASA DAERAH)
-0.7456757	(BANK BALI
-0.7456757	(BEFORE HE
-0.7456757	(BJ) HABIBIE
-0.7456757	(BPS) AND
-0.7456757	(BULOG FUND)
-1.347736	(BUT NOT
-1.347736	(BUT ORGANIZATIONAL
-1.347736	(BUT PROBABLY
-1.347736	(BUT WE
-0.7456757	(BY SPLICING
-0.7456757	(C_@@ C_@@@@@)
-0.7456757	(C_@@@@@) WE'D
-0.4807281	(CALLED BAHASA	0.06447127
-0.7456757	(CELEBES), LOMBOK,
-0.7456757	(CULTUURSTELSEL), LARGE
-0.7456757	(CURRENTLY THE
-0.7456757	(DERIVATIONFORESTEM) </s>
-0.7456757	(DISTINCTIONS WE
-0.7456757	(DPD)/PROVINCES REPRESENTATIVE
-0.7456757	(DPR)/PEOPLE REPRESENTATIVE
-0.7456757	(DPR, DEPUTY
-0.7456757	(ESPECIALLY IF
-0.7456757	(EVEN INFINITE)
-0.7456757	(EXCEPT FOR
-1.222797	(FOR CHINESE
-1.222797	(FOR CONSTITUENTS):
-1.222797	(FOR NOW
-1.046706	(FORMERLY CALLED
-1.046706	(FORMERLY KNOWN
-0.7456757	(FRANZ WOULD
-1.222797	(FROM GREEK:
-1.222797	(FROM PARALLEL
-1.222797	(FROM RB-PROGRAM)
-0.7456757	(GAM, THE
-0.7456757	(GDP) THIS
-0.7456757	(I THINK
-0.7456757	(I'VE ADOPTED
-0.7456757	(IF ALL
-0.7456757	(IMO): </s>
-0.7456757	(IMPORTANT!) A
-1.046706	(INDONESIAN: KALIMANTAN),
-1.046706	(INDONESIAN: REPUBLIK
-0.7456757	(INSTEAD OF
-0.7456757	(IPTN) (NOW
-0.7456757	(IRIAN JAYA
-0.7456757	(ISLAMIC LAW)
-1.222797	(JAWA BARAT),
-1.222797	(JAWA TENGAH),
-1.222797	(JAWA TIMUR),
-0.7456757	(JULY @,
-1.347736	(KALIMANTAN BARAT),
-1.347736	(KALIMANTAN SELATAN),
-1.347736	(KALIMANTAN TENGAH),
-1.347736	(KALIMANTAN TIMUR),
-0.7456757	(KEPULAUAN RIAU),
-0.7456757	(KRAKATOA), WHICH
-0.7456757	(LIKE IN
-0.7456757	(LOCALLY KNOWN
-0.7456757	(MAJELIS PERMUSYAWARATAN
-0.7456757	(MALUKU UTARA),
-0.7456757	(MINE,MINC),(MINE,MAXC),(MAXE,MAXC),(MAXE,MINC) KEEPING
-0.7456757	(MPR) REJECTED
-0.7456757	(MUST BE
-0.7456757	(NAPOLEON'S DUTCH
-0.7456757	(NEW ORDER)
-0.7456757	(NONCONSTITUENTLEAFRULES); THAT
-1.222797	(NOT ASSESSING
-1.222797	(NOT JUST
-1.222797	(NOT LIKELY)
-0.7456757	(NOTE: DON'T
-0.7456757	(NOW BECOME
-0.7456757	(NU). UNFORTUNATELY,
-0.4807281	(NUSA TENGGARA
-1.046706	(OF COURSE
-1.046706	(OF WHICH
-0.7456757	(OLD) PARENT
-1.046706	(ON C+E
-1.046706	(ON THE
-0.7456757	(ONE OF
-0.7456757	(OR NOT
-0.7456757	(PRE-GHKM) MORE
-0.7456757	(PROBABLY ALWAYS
-0.7456757	(RANKED @@TH
-0.7456757	(REF TRANSLATIONS
-0.4807281	(SHARED WITH
-0.7456757	(SHOULDN'T BE
-0.7456757	(SINCE WE
-0.4807281	(SOUTH OF
-1.444646	(SULAWESI BARAT),
-1.444646	(SULAWESI SELATAN),
-1.444646	(SULAWESI TENGAH),
-1.444646	(SULAWESI TENGGARA),
-1.444646	(SULAWESI UTARA),
-0.7456757	(SULAWESI), AND
-1.222797	(SUMATERA BARAT),
-1.222797	(SUMATERA SELATAN),
-1.222797	(SUMATERA UTARA),
-0.7456757	(TAGGED) WORDS
-0.7456757	(THAT ALLOWS
-0.7456757	(THAT'S PROBABLY
-1.222797	(THE MOST
-1.222797	(THE NPB
-1.222797	(THE SPAN/PROB
-0.7456757	(THEY WOULD
-0.4807281	(THIS IS
-0.7456757	(THOUGH I
-0.7456757	(TO TEST:
-0.7456757	(TRANSMIGRASI) TO
-0.7456757	(UNTAET). THE
-0.7456757	(US LIBRARY
-0.7456757	(USABLE ONLY
-0.7456757	(VOC), A
-1.347736	(WE DON'T
-1.347736	(WE MAY
-1.347736	(WE MIGHT
-1.347736	(WE MUST
-0.7456757	(WE'VE ALSO
-0.7456757	(WHAT MATTERS
-0.7456757	(WHEN MORE
-1.444646	(WHICH ALREADY
-1.444646	(WHICH COULD
-1.444646	(WHICH I'VE
-1.444646	(WHICH OF
-1.444646	(WHICH WOULD
-0.7456757	(WITHIN THE
-0.7456757	(WRT </s>
-0.7456757	(YOU DON'T
-2.237037	* (BUT
-1.67106	* ...
-2.237037	* @,CD(@),@,CD(BILLION),@
-2.237037	* ALSO
-2.237037	* AND
-2.237037	* CARDINALS
-1.67106	* CD(@)	0.06447127
-2.237037	* CD(@),CD(BILLION)
-1.67106	* CD(BILLION)	0.06447127
-2.237037	* DATES
-2.237037	* HOPEFULLY
-2.237037	* IDENTIFICATION/SEGMENTATION
-2.237037	* MONEY
-2.237037	* NATIVE
-2.237037	* NOTE
-2.237037	* NPB(NNP(HILLARY),NNP(CLINTON))
-2.237037	* ORDINALS
-2.237037	* PERCENTS
-2.237037	* RB-NUM(CD(@))
-1.67106	* RB-NUM(CD(@),CD(BILLION))	0.06447127
-2.237037	* RB-NUM(DET(A)
-2.237037	* ROBUST
-2.237037	* TIMES
-2.237037	* TRANSLITERATED
-2.237037	* WE
-2.237037	* WE'RE
-2.237037	* WITH
-0.7456757	*[B-@). THIS
-0.7456757	*NP*(CD(@),NN(BILLION)) OR
-1.046706	+ PROBS
-1.046706	+ RB-NONTERMINAL/HEADS
-0.7456757	, OFFICIALLY
-2.088098	- (MINE,MINC),(MINE,MAXC),(MAXE,MAXC),(MAXE,MINC)
-2.088098	- @@
-2.088098	- AN
-2.088098	- AND
-2.088098	- APPROXIMATELY
-2.088098	- FOR
-2.088098	- HEAD
-2.088098	- HOW
-2.088098	- HOWEVER,
-2.088098	- MAYBE
-2.088098	- MORE
-2.088098	- PERHAPS:
-2.088098	- SEQUENCES
-2.088098	- SO
-2.088098	- SPECTER
-2.088098	- SUFFERS
-2.088098	- THE
-2.088098	- THIS
-2.088098	- USING
-2.088098	- WELL,
-2.088098	- WHAT
-2.088098	- YOU
-0.7456757	-- JONATHANGRAEHL
-0.6448631	-> C_@	0.4157211
-0.7378572	-> C_@@	0.008411758
-1.824857	-> C_@@@@
-1.824857	-> C_@@@@@
-1.824857	-> SBLM-ETREE
-1.824857	-> THE
-1.824857	-> X@
-1.590774	... (I'VE
-1.590774	... @@.@
-1.590774	... ADDITIONAL
-1.590774	... BUT
-1.590774	... NOTICE
-1.590774	... WHAT
-1.590774	... YOU
-0.7456757	.@ (THE
-0.7456757	/ NAMED
-0.357646	:) </s>
-1.444646	:) THE
-1.444646	:) THIS
-0.7456757	<= #CHINESE
-3.283495	<s> "NON-PRIBUMI"
-3.283495	<s> (*)
-3.283495	<s> (ALSO
-3.283495	<s> (THE
-1.060698	<s> *	0.0120455
-3.283495	<s> *NP*(CD(@),NN(BILLION))
-3.283495	<s> ,
-3.283495	<s> --
-3.283495	<s> ...
-1.139879	<s> @.	0.009198938
-2.103501	<s> A
-3.283495	<s> A(B,RB-X(X,Y),C)
-3.283495	<s> ADMINISTRATIVE
-2.196495	<s> AFTER
-3.283495	<s> ALSO
-2.196495	<s> ALTHOUGH
-3.283495	<s> AND
-3.283495	<s> ANOTHER
-3.283495	<s> ARMY
-3.283495	<s> ART
-2.717517	<s> AS
-3.283495	<s> AWKWARDLY
-2.717517	<s> BASED	0.02391179
-3.283495	<s> BEFORE
-2.717517	<s> BUT
-2.717517	<s> BUT,
-3.283495	<s> CAREFUL,
-3.283495	<s> CHINESE
-3.283495	<s> CHINESE-OWNED
-3.283495	<s> DEAD
-3.283495	<s> DEMOCRACY
-3.283495	<s> DEMOGRAPHICS
-2.717517	<s> DESPITE
-3.283495	<s> DR
-2.717517	<s> DURING
-3.283495	<s> DUTCH
-3.283495	<s> EAST
-3.283495	<s> ESSENTIALLY,
-2.717517	<s> ETHNIC
-3.283495	<s> EVENTUALLY
-3.283495	<s> FLORA
-2.103501	<s> FOLLOWING	0.1119028
-2.114499	<s> FOR	-0.0296933
-3.283495	<s> FORCING
-3.283495	<s> GAM
-3.283495	<s> GOVERNMENT
-2.717517	<s> HE
-3.283495	<s> HIS
-2.196495	<s> HOWEVER,
-2.717517	<s> HUNDREDS	0.2181584
-2.717517	<s> I
-3.283495	<s> I'D
-3.283495	<s> I'VE
-2.717517	<s> IF
-3.283495	<s> IMPACT
-1.333699	<s> IN	-0.003880382
-1.537819	<s> INDONESIA	-0.0655601
-2.018272	<s> INDONESIA'S	-0.005981795
-3.283495	<s> INDONESIANS
-3.283495	<s> INSTEAD
-3.283495	<s> INTERNATIONALLY,
-3.283495	<s> IRRIGATION
-3.283495	<s> ISLAM
-1.458638	<s> IT	-0.08375798
-2.717517	<s> IT'S
-3.283495	<s> ITS
-3.283495	<s> JUST
-3.283495	<s> LEAVING
-3.283495	<s> LET
-3.283495	<s> LET'S
-3.283495	<s> LIKE
-2.103501	<s> MAIN	0.1225536
-3.283495	<s> MAJOR
-3.283495	<s> MANY
-3.283495	<s> MAP
-2.196495	<s> MEGAWATI	0.3130283
-2.196495	<s> MORE
-3.283495	<s> MOST
-3.283495	<s> NORMALLY
-3.283495	<s> NOTE:
-3.283495	<s> NOW,
-2.103501	<s> O
-2.717517	<s> OF	-0.1059988
-2.196495	<s> ON
-3.283495	<s> OR,
-3.283495	<s> OTHER
-3.283495	<s> PAPUA
-3.283495	<s> PARSING
-3.283495	<s> PARTLY
-3.283495	<s> PENCAK
-3.283495	<s> PERHAPS
-2.717517	<s> PRESIDENT
-3.283495	<s> PRESIDENTE
-3.283495	<s> PURPOSE:
-3.283495	<s> RB-NUM(*NP*(CD(@),NN(BILLION)))
-3.283495	<s> RB-PROGRAMS
-3.283495	<s> REGIONAL
-2.196495	<s> RULE	0.02109787
-3.283495	<s> S(NP(X@,X@,CD(@)),VP(CD(BILLION),X@))
-3.283495	<s> S(X@,CD(@),CD(BILLION),X@)
-3.283495	<s> SANGEANG
-2.196495	<s> SEE
-3.283495	<s> SEVERAL
-2.717517	<s> SINCE
-3.283495	<s> SO
-3.283495	<s> SO,
-3.283495	<s> SOME
-3.283495	<s> SOMETHING
-2.717517	<s> SUCH
-2.717517	<s> SUHARTO
-3.283495	<s> SUHARTO'S
-3.283495	<s> SUKARNO
-2.717517	<s> SUKARNO,
-3.283495	<s> SUSILO
-3.283495	<s> THAT
-3.283495	<s> THAT'S
-0.8657212	<s> THE	-0.01879802
-3.283495	<s> THEN
-1.818091	<s> THERE	0.1276812
-3.283495	<s> THEY
-1.583577	<s> THIS	0.003305722
-2.717517	<s> THOUGH
-2.196495	<s> TO
-2.103501	<s> UNDER	0.07546431
-2.717517	<s> UNFORTUNATELY,
-3.283495	<s> WAYANG
-2.196495	<s> WE
-2.717517	<s> WHEN	-0.05912396
-3.283495	<s> WHY
-2.717517	<s> WITH
-3.283495	<s> YET,
-1.347736	= .@
-1.347736	= INDIA
-1.347736	= ISLANDS)
-1.347736	= THE
-0.7456757	=@ PROB
-1.046706	>@ (EVEN
-1.046706	>@ PROB
-1.523827	@ ALIGNMENTS
-1.523827	@ BILLION
-1.523827	@ COULD
-1.523827	@ MAJOR
-1.523827	@ OR
-1.523827	@ WAYS
-1.444646	@% BUDDHIST
-1.444646	@% CHRISTIAN
-1.444646	@% HINDU
-0.8786681	@% OF
-0.7456757	@+@ -
-0.7456757	@+@+@ -
-0.4807281	@+@+@+@+@+@ -
-0.7456757	@, MONDAY,
-1.046706	@,@@@ ARE
-1.046706	@,@@@ PEOPLE
-0.7456757	@,CD(@),@,CD(BILLION),@ ->
-0.7456757	@-LENGTH CSPANS.
-2.177039	@. </s>
-2.177039	@. ACEH
-2.177039	@. ACTUALLY
-2.177039	@. CHOOSE
-2.177039	@. DECIDE
-2.177039	@. FIGURE
-2.177039	@. FIND
-2.177039	@. FOR
-1.611062	@. IDENTIFY
-2.177039	@. IF
-2.177039	@. JAVA
-2.177039	@. LATTICE
-2.177039	@. LATTICE:
-1.611062	@. MAKE
-2.177039	@. MAYBE
-2.177039	@. MODTM+MODSBLM:
-2.177039	@. MODTM:
-2.177039	@. OF
-2.177039	@. OTHERWISE,
-2.177039	@. PADRI
-2.177039	@. PRESERVE
-2.177039	@. REQUIRE
-1.611062	@. RESTRUCTURE
-2.177039	@. SAUSAGE:
-0.7456757	@.) -
-1.046706	@.@% LAST
-1.046706	@.@% OF
-0.7456757	@.@@ BILLION)
-0.7456757	@/@ ARE
-1.024796	@@ AUGUST
-1.590774	@@ DEC
-1.024796	@@ DECEMBER	0.3844898
-1.590774	@@ PROVINCES,
-1.590774	@@ VOLCANOES
-0.7456757	@@% OF
-0.4807281	@@, @@@@,
-1.347736	@@,@@@ AND
-1.347736	@@,@@@ ISLANDS
-1.347736	@@,@@@ ISLANDS,
-1.347736	@@,@@@ YEARS
-0.7456757	@@.@ MILLION
-0.7456757	@@.@% BEFORE)
-0.7456757	@@.@@ -
-1.648766	@@@ BC
-1.648766	@@@ C@
-1.648766	@@@ DIFFERENT
-0.4797696	@@@ MILLION	0.01004193
-0.7456757	@@@, AND
-0.1357972	@@@,@@@ YEARS	-0.00845604
-2.250826	@@@@ </s>
-2.250826	@@@@ [@].
-2.250826	@@@@ AFTER
-1.070832	@@@@ AND	-0.05018455
-2.250826	@@@@ AS
-2.250826	@@@@ BENCOOLEN
-2.250826	@@@@ BY
-2.250826	@@@@ CENSUS,
-2.250826	@@@@ DEVASTATED
-2.250826	@@@@ ELECTION
-2.250826	@@@@ ELECTION,
-2.250826	@@@@ FOLLOWING
-2.250826	@@@@ FOR
-2.250826	@@@@ HIGHLIGHT
-2.250826	@@@@ NATIONAL
-2.250826	@@@@ OCTOBER)
-2.250826	@@@@ ON
-2.250826	@@@@ THAT
-1.684848	@@@@ THE
-1.08183	@@@@ TO	-0.09500366
-2.250826	@@@@ TOWARDS
-2.250826	@@@@ TSUNAMI
-2.250826	@@@@ UNTIL
-2.250826	@@@@ WHEN,
-0.7456757	@@@@) AND
-1.046706	@@@@), ABDURRAHMAN
-1.046706	@@@@), MEGAWATI
-1.921767	@@@@, A
-1.355789	@@@@, AND
-1.921767	@@@@, IT
-1.355789	@@@@, PRESIDENT
-1.921767	@@@@, SUKARNO
-0.4563632	@@@@, THE
-1.921767	@@@@, WHILE
-1.921767	@@@@, WITH
-0.7456757	@@@@-YEAR-OLD HINDU
-0.7378572	@@@@. </s>
-1.824857	@@@@. ALTHOUGH
-1.824857	@@@@. FROM
-1.824857	@@@@. HE
-1.824857	@@@@. IN
-1.824857	@@@@. INDONESIA
-1.824857	@@@@. KH
-1.824857	@@@@. MRS
-1.824857	@@@@. SINCE
-1.824857	@@@@. THE
-0.7456757	@@@@; YOGYAKARTA
-1.222797	@@@@S AND
-0.6568194	@@@@S SAW
-1.046706	@@@@S, INDONESIA
-1.046706	@@@@S, PARTLY
-1.444646	@@TH -
-0.8786681	@@TH CENTURY
-0.8786681	@@TH CENTURY,
-0.7456757	@@TH-CENTURY CULTIVATION
-0.7456757	@TH TO
-0.7456757	[@]). THE
-0.7456757	[@], THE
-1.347736	[@]. </s>
-1.347736	[@]. IN
-1.347736	[@]. INDONESIA'S
-1.347736	[@]. THE
-0.7456757	[N-@,N]. </s>
-2.901012	A "MUST-USE"
-2.901012	A "SAUSAGE
-2.901012	A "TYPICAL"
-2.335034	A >@
-2.901012	A AND
-2.901012	A BACKLASH
-2.901012	A BASELINE
-2.901012	A BASELINE,
-2.901012	A BICAMERAL
-2.901012	A BICONTINENTAL
-2.901012	A BLOODY
-2.901012	A BREAK
-2.901012	A BRIEF
-2.901012	A C-ENTITY
-2.901012	A CAN
-2.901012	A CERTAIN
-2.901012	A CHARACTER-BASED
-2.901012	A CHARTERED
-2.901012	A CHILD
-2.901012	A CHINESE
-2.901012	A CLASS
-2.901012	A CLOSE,
-2.901012	A COMMITTEE
-2.901012	A CONFLICTING
-2.335034	A CONSTITUENT
-2.335034	A CONSTITUENT,	-0.001708321
-2.901012	A CORRUPTION
-2.901012	A COUNCIL
-2.901012	A COUNTRY
-2.901012	A DECISION),
-2.901012	A DERIVATION
-1.721018	A DIFFERENT
-2.901012	A DISTINCTION
-2.901012	A DIVERSE
-2.901012	A FALTERING
-2.901012	A FAMOUS
-2.901012	A FEDERATION
-2.901012	A FEW
-2.901012	A FIVE-PRONG
-2.901012	A FIVE-YEAR
-2.901012	A FORM
-2.901012	A FORMER
-2.901012	A FOUNDING
-2.901012	A FULL
-2.901012	A GENERAL
-2.901012	A GENERIC
-2.901012	A GIVEN
-2.901012	A GOOD
-2.901012	A GOVERNOR
-1.814012	A HEAD	0.06368782
-2.901012	A HEAD/TAG,
-2.901012	A HIGH-PRECISION/CONFIDENCE
-2.335034	A LARGE
-2.901012	A LARGER
-2.901012	A LINGUA
-2.901012	A LIST
-2.901012	A LOSS
-2.901012	A MAJOR
-2.901012	A MASSIVE
-2.901012	A MAYOR),
-2.335034	A MEMBER	0.3844898
-2.335034	A MILITARY
-2.335034	A MORE
-2.901012	A MULTIPARTY,
-2.901012	A MULTITUDE
-2.901012	A NATION
-2.901012	A NE-TRANSLATION
-2.335034	A NET	0.06447127
-2.901012	A NEW
-2.335034	A NEWLY	-0.001708321
-2.901012	A NON-ORTHODOX,
-2.901012	A NORMAL
-2.901012	A NOTE
-2.901012	A OCCUPIED
-2.901012	A PARTICULARLY
-2.901012	A PATH
-2.335034	A PEACE
-2.901012	A PER-SENTENCE
-2.901012	A PERCEPTION
-2.901012	A PERIOD
-2.901012	A POLITICAL
-2.901012	A POWERFUL
-2.901012	A PRE-SBLM
-2.901012	A PRESIDENTIAL
-2.901012	A PRINCIPLED,
-2.901012	A PUBLIC
-2.901012	A RB-ROOTED-EDGE
-2.901012	A RECOGNIZER
-2.901012	A REFERENDUM
-2.335034	A REPUBLIC	-0.04823207
-2.901012	A RESULT
-2.901012	A RESULT,
-2.335034	A RULE	-0.08881798
-2.901012	A SECOND
-2.901012	A SEGMENTATION
-2.901012	A SENTENCE-SPECIFIC
-2.901012	A SEPARATE
-2.901012	A SET
-2.901012	A SEVERE
-2.901012	A SIGNIFICANT
-2.901012	A SIMPLE
-1.732016	A SINGLE
-2.901012	A SOLITARY
-2.901012	A SPECIAL
-2.901012	A STATE
-2.901012	A STROKE
-2.901012	A SUBSTANTIAL
-2.901012	A SULTANATE
-2.901012	A SUPERSET).
-2.901012	A SURVEY
-2.901012	A SYNTAXBASEDLANGUAGEMODEL?
-2.901012	A TEMPLATE-BASED
-2.335034	A TRANSLATION
-2.901012	A TROPICAL
-2.901012	A UNIQUE
-2.335034	A UNITARY
-2.901012	A UNITED
-2.901012	A VITERBI
-2.901012	A WEAKENING
-2.901012	A WHOLE
-0.7456757	A(B,RB-X(X,Y),C) BECOMES
-0.7456757	A(B,X,Y,C) FOR
-0.7456757	A[@-@),B[@-@) INTO
-0.7456757	AB TOGETHER
-0.7456757	ABANGAN, WHILE
-0.7456757	ABBREVIATION) WHICH
-0.4807281	ABDULRAHMAN WAHID
-0.7456757	ABDURRAHMAN WAHID
-1.046706	ABLE TO
-1.046706	ABLE TO;
-0.7456757	ABOLISHED, AND
-1.745676	ABOUT @%
-1.745676	ABOUT @,@@@
-1.745676	ABOUT ANOTHER
-1.745676	ABOUT ENTITIES
-1.745676	ABOUT FOR
-1.745676	ABOUT HALF
-1.745676	ABOUT NOT
-1.745676	ABOUT RB-NONTERMINALS
-1.179698	ABOUT THE
-0.7456757	ABOVE. </s>
-0.7456757	ABRAHAMIC FAITHS
-0.7456757	ABUSES BY
-0.7456757	ACADEMIA </s>
-0.7456757	ACCEPTED BY
-0.7456757	ACCEPTS FORESTS
-0.7456757	ACCORDING TO
-0.7456757	ACCOUNTABILITY SPEECH
-1.523827	ACEH </s>
-1.523827	ACEH AND
-1.523827	ACEH MERDEKA
-1.523827	ACEH MOVEMENT)
-1.523827	ACEH WAR
-1.523827	ACEH WAS
-0.7456757	ACEH*, BALI,
-0.7456757	ACEH, PEACE
-0.7456757	ACEH. </s>
-0.7456757	ACEHNESE GOVERNMENT
-0.7456757	ACKNOWLEDGED THE
-1.222797	ACQUISITION ALGORITHM,
-1.222797	ACQUISITION AND
-1.222797	ACQUISITION FOR
-1.222797	ACROSS MANY
-0.6568194	ACROSS THE
-0.7456757	ACTIVITY IS
-1.444646	ACTUAL NTH
-1.444646	ACTUAL RBT-ETREE
-1.444646	ACTUAL SENTENCE
-1.444646	ACTUAL SPECIFIC
-1.444646	ACTUAL TRANSLATION
-1.222797	ACTUALLY EXTRACTING
-1.222797	ACTUALLY LET
-1.222797	ACTUALLY OCCUR)
-0.7456757	AD TO
-1.046706	AD-HOC RBT
-1.046706	AD-HOC UNKNOWN
-0.7456757	AD. </s>
-0.7456757	ADD THE
-0.7456757	ADDED BY
-0.7456757	ADDING NEW
-0.4807281	ADDITION TO
-0.7456757	ADDITIONAL COST
-0.7456757	ADJACENT CHINESE
-0.7456757	ADMINISTERED MUCH
-1.046706	ADMINISTRATION BY
-1.046706	ADMINISTRATION IS
-1.046706	ADMINISTRATIVE DIVISIONS
-1.046706	ADMINISTRATIVE SYSTEMS.
-0.7456757	ADOPTED THE
-0.7456757	ADVANTAGE FOR
-0.7456757	ADVANTAGE: NO
-0.7456757	AFFAIRS </s>
-0.7456757	AFFECTING INTEGRATION
-1.891804	AFTER @@@@
-1.891804	AFTER @@@@,
-1.325826	AFTER A
-1.891804	AFTER HYPHENS)
-1.891804	AFTER INDEPENDENCE
-1.891804	AFTER INDEPENDENCE,
-1.891804	AFTER ITS
-0.7118099	AFTER THE
-1.891804	AFTER VOC
-1.891804	AFTER YEARS
-0.7456757	AFTERMATH OF
-1.824857	AGAINST ...
-1.824857	AGAINST A
-1.824857	AGAINST ALLEGED
-1.824857	AGAINST AN
-1.258879	AGAINST DUTCH
-1.824857	AGAINST EAST
-1.824857	AGAINST NEIGHBOURING
-0.6448631	AGAINST THE	-0.04885512
-0.7456757	AGES THE
-0.7456757	AGING OIL
-1.046706	AGO (US
-1.046706	AGO </s>
-0.4807281	AGO, WHILE	0.0704992
-0.4807281	AGREED TO
-0.7456757	AGREEMENT </s>
-0.7456757	AGREEMENT, GAM
-0.7456757	AGRICULTURAL PRODUCTS
-0.7456757	AGUNG LAKSONO)
-0.7456757	AIMING TO
-1.046706	AIRCRAFT DESIGNER
-1.046706	AIRCRAFT INDUSTRY
-0.7456757	ALARMED BOTH
-1.046706	ALGORITHM DURING
-1.046706	ALGORITHM WAS
-0.7456757	ALGORITHM, WE
-0.7456757	ALIGN IDENTIFIED
-1.222797	ALIGNED ENTITY
-1.222797	ALIGNED FIRST
-1.222797	ALIGNED TO
-1.523827	ALIGNMENT (ON
-1.523827	ALIGNMENT BETWEEN
-1.523827	ALIGNMENT ERRORS
-1.523827	ALIGNMENT OF
-1.523827	ALIGNMENT USING
-1.523827	ALIGNMENT WITH,
-1.347736	ALIGNMENTS -
-0.7817581	ALIGNMENTS </s>
-1.347736	ALIGNMENTS AND
-1.745676	ALL (AT
-1.179698	ALL BUT
-1.745676	ALL CHINESE
-1.745676	ALL ENTITIES
-1.745676	ALL PARTIES
-1.745676	ALL RULE
-1.179698	ALL THE
-1.745676	ALL YOU
-0.7456757	ALL) COULD
-0.7456757	ALL), THEY
-0.6568194	ALLEGED COMMUNIST
-1.222797	ALLEGED THAT
-0.7456757	ALLEGEDLY SUPPRESSING
-0.7456757	ALLEVIATE ECONOMIC
-1.787068	ALLOW @-LENGTH
-1.787068	ALLOW DIFFERENT
-1.787068	ALLOW FOR
-1.787068	ALLOW LHS
-1.787068	ALLOW MULTIPLE
-1.787068	ALLOW NEW
-1.787068	ALLOW NON-CONSECUTIVE-CONSTITUENT
-1.787068	ALLOW NONCONSTITUENTLEAFRULES
-1.787068	ALLOW NORMAL
-1.787068	ALLOW SUKARNO
-1.787068	ALLOW THE
-1.046706	ALLOWED BY
-1.046706	ALLOWED FOR
-1.046706	ALLOWING MONOLINGUAL
-1.046706	ALLOWING OVERLAPPING
-1.046706	ALLOWS RB-TRANSLATIONS
-1.046706	ALLOWS US
-0.7456757	ALMOST @@%
-0.7456757	ALONE HAS
-0.7456757	ALONE, ALLOWING
-0.7456757	ALONG WITH
-1.590774	ALREADY CONSTITUENT?
-1.590774	ALREADY DISCUSSED
-1.590774	ALREADY DO)
-1.590774	ALREADY LEARNED
-1.590774	ALREADY MENTIONED,
-1.590774	ALREADY PRODUCES
-1.590774	ALREADY PROVIDE
-0.7456757	ALREADY): </s>
-2.125887	ALSO (IMPORTANT!)
-2.125887	ALSO ALLOWS
-0.9458931	ALSO BE
-2.125887	ALSO CHOOSE
-2.125887	ALSO CHOSE
-2.125887	ALSO CLEARLY
-2.125887	ALSO GIVE
-2.125887	ALSO GREENRULETEMPLATES
-2.125887	ALSO HAD
-2.125887	ALSO INFLUENTIAL
-2.125887	ALSO KNOWN
-2.125887	ALSO MEANS,
-2.125887	ALSO NEED
-2.125887	ALSO ON
-2.125887	ALSO PROPOSE
-2.125887	ALSO QUITE
-2.125887	ALSO SBLM
-2.125887	ALSO TO
-2.125887	ALSO VOTED
-2.125887	ALSO WELL-KNOWN
-2.125887	ALSO WROTE
-0.7456757	ALSO, SINCE
-0.7456757	ALSO: MAP
-0.7456757	ALTEMP SYSTEM
-1.222797	ALTERNATIVE ENGLISH
-1.222797	ALTERNATIVE ETREES/ALIGNMENTS
-1.222797	ALTERNATIVE MULTIPLE
-0.7456757	ALTERNATIVES </s>
